<?xml version="1.0"?>
<MethodSetup Method="BDT::BDTG">
  <GeneralInfo>
    <Info name="TMVA Release" value="4.2.1 [262657]"/>
    <Info name="ROOT Release" value="6.22/07 [398855]"/>
    <Info name="Creator" value="ecatanzaniherd"/>
    <Info name="Date" value="Mon Apr 25 15:14:57 2022"/>
    <Info name="Host" value="Linux ui-tier1.cr.cnaf.infn.it 3.10.0-1127.19.1.el7.x86_64 #1 SMP Tue Aug 25 17:23:54 UTC 2020 x86_64 x86_64 x86_64 GNU/Linux"/>
    <Info name="Dir" value="/storage/gpfs_data/herd/ecatanzaniherd/eFlux/Classifier/Train"/>
    <Info name="Training events" value="249674"/>
    <Info name="TrainingTime" value="4.27942247e+02"/>
    <Info name="AnalysisType" value="Classification"/>
  </GeneralInfo>
  <Options>
    <Option name="V" modified="Yes">False</Option>
    <Option name="VerbosityLevel" modified="No">Default</Option>
    <Option name="VarTransform" modified="No">None</Option>
    <Option name="H" modified="Yes">False</Option>
    <Option name="CreateMVAPdfs" modified="No">False</Option>
    <Option name="IgnoreNegWeightsInTraining" modified="No">False</Option>
    <Option name="NTrees" modified="Yes">1000</Option>
    <Option name="MaxDepth" modified="Yes">2</Option>
    <Option name="MinNodeSize" modified="Yes">2.5%</Option>
    <Option name="nCuts" modified="Yes">20</Option>
    <Option name="BoostType" modified="Yes">Grad</Option>
    <Option name="AdaBoostR2Loss" modified="No">quadratic</Option>
    <Option name="UseBaggedBoost" modified="Yes">True</Option>
    <Option name="Shrinkage" modified="Yes">1.000000e-01</Option>
    <Option name="AdaBoostBeta" modified="No">5.000000e-01</Option>
    <Option name="UseRandomisedTrees" modified="No">False</Option>
    <Option name="UseNvars" modified="No">6</Option>
    <Option name="UsePoissonNvars" modified="No">True</Option>
    <Option name="BaggedSampleFraction" modified="Yes">5.000000e-01</Option>
    <Option name="UseYesNoLeaf" modified="No">True</Option>
    <Option name="NegWeightTreatment" modified="No">pray</Option>
    <Option name="Css" modified="No">1.000000e+00</Option>
    <Option name="Cts_sb" modified="No">1.000000e+00</Option>
    <Option name="Ctb_ss" modified="No">1.000000e+00</Option>
    <Option name="Cbb" modified="No">1.000000e+00</Option>
    <Option name="NodePurityLimit" modified="No">5.000000e-01</Option>
    <Option name="SeparationType" modified="No">giniindex</Option>
    <Option name="RegressionLossFunctionBDTG" modified="No">huber</Option>
    <Option name="HuberQuantile" modified="No">7.000000e-01</Option>
    <Option name="DoBoostMonitor" modified="No">False</Option>
    <Option name="UseFisherCuts" modified="No">False</Option>
    <Option name="MinLinCorrForFisher" modified="No">8.000000e-01</Option>
    <Option name="UseExclusiveVars" modified="No">False</Option>
    <Option name="DoPreselection" modified="No">False</Option>
    <Option name="SigToBkgFraction" modified="No">1.000000e+00</Option>
    <Option name="PruneMethod" modified="No">nopruning</Option>
    <Option name="PruneStrength" modified="No">0.000000e+00</Option>
    <Option name="PruningValFraction" modified="No">5.000000e-01</Option>
    <Option name="SkipNormalization" modified="No">False</Option>
    <Option name="nEventsMin" modified="No">0</Option>
    <Option name="UseBaggedGrad" modified="No">False</Option>
    <Option name="GradBaggingFraction" modified="No">5.000000e-01</Option>
    <Option name="UseNTrainEvents" modified="No">0</Option>
    <Option name="NNodesMax" modified="No">0</Option>
  </Options>
  <Variables NVar="31">
    <Variable VarIndex="0" Expression="rmslayer_1" Label="rmslayer_1" Title="rmslayer_1" Unit="units" Internal="rmslayer_1" Type="D" Min="7.10211134e+00" Max="3.54830597e+02"/>
    <Variable VarIndex="1" Expression="rmslayer_2" Label="rmslayer_2" Title="rmslayer_2" Unit="units" Internal="rmslayer_2" Type="D" Min="6.78514338e+00" Max="1.74703690e+02"/>
    <Variable VarIndex="2" Expression="rmslayer_3" Label="rmslayer_3" Title="rmslayer_3" Unit="units" Internal="rmslayer_3" Type="D" Min="7.44944859e+00" Max="1.24339828e+02"/>
    <Variable VarIndex="3" Expression="rmslayer_4" Label="rmslayer_4" Title="rmslayer_4" Unit="units" Internal="rmslayer_4" Type="D" Min="8.41310883e+00" Max="1.46744675e+02"/>
    <Variable VarIndex="4" Expression="rmslayer_5" Label="rmslayer_5" Title="rmslayer_5" Unit="units" Internal="rmslayer_5" Type="D" Min="9.37244320e+00" Max="1.33851593e+02"/>
    <Variable VarIndex="5" Expression="rmslayer_6" Label="rmslayer_6" Title="rmslayer_6" Unit="units" Internal="rmslayer_6" Type="D" Min="9.95381451e+00" Max="1.59463776e+02"/>
    <Variable VarIndex="6" Expression="rmslayer_7" Label="rmslayer_7" Title="rmslayer_7" Unit="units" Internal="rmslayer_7" Type="D" Min="1.10113859e+01" Max="1.30605103e+02"/>
    <Variable VarIndex="7" Expression="rmslayer_8" Label="rmslayer_8" Title="rmslayer_8" Unit="units" Internal="rmslayer_8" Type="D" Min="1.07144909e+01" Max="2.71959076e+02"/>
    <Variable VarIndex="8" Expression="rmslayer_9" Label="rmslayer_9" Title="rmslayer_9" Unit="units" Internal="rmslayer_9" Type="D" Min="1.14286709e+01" Max="2.86022430e+02"/>
    <Variable VarIndex="9" Expression="rmslayer_10" Label="rmslayer_10" Title="rmslayer_10" Unit="units" Internal="rmslayer_10" Type="D" Min="1.14569559e+01" Max="2.91084564e+02"/>
    <Variable VarIndex="10" Expression="rmslayer_11" Label="rmslayer_11" Title="rmslayer_11" Unit="units" Internal="rmslayer_11" Type="D" Min="1.26541853e+01" Max="3.88549286e+02"/>
    <Variable VarIndex="11" Expression="rmslayer_12" Label="rmslayer_12" Title="rmslayer_12" Unit="units" Internal="rmslayer_12" Type="D" Min="1.07969284e+01" Max="3.51015442e+02"/>
    <Variable VarIndex="12" Expression="rmslayer_13" Label="rmslayer_13" Title="rmslayer_13" Unit="units" Internal="rmslayer_13" Type="D" Min="3.60156417e+00" Max="3.92283295e+02"/>
    <Variable VarIndex="13" Expression="rmslayer_14" Label="rmslayer_14" Title="rmslayer_14" Unit="units" Internal="rmslayer_14" Type="D" Min="6.40743160e+00" Max="4.08835083e+02"/>
    <Variable VarIndex="14" Expression="fraclayer_1" Label="fraclayer_1" Title="fraclayer_1" Unit="units" Internal="fraclayer_1" Type="D" Min="1.51790527e-03" Max="2.66565651e-01"/>
    <Variable VarIndex="15" Expression="fraclayer_2" Label="fraclayer_2" Title="fraclayer_2" Unit="units" Internal="fraclayer_2" Type="D" Min="2.39511649e-03" Max="3.49595338e-01"/>
    <Variable VarIndex="16" Expression="fraclayer_3" Label="fraclayer_3" Title="fraclayer_3" Unit="units" Internal="fraclayer_3" Type="D" Min="2.28572893e-03" Max="3.49991262e-01"/>
    <Variable VarIndex="17" Expression="fraclayer_4" Label="fraclayer_4" Title="fraclayer_4" Unit="units" Internal="fraclayer_4" Type="D" Min="1.09057152e-03" Max="3.31903875e-01"/>
    <Variable VarIndex="18" Expression="fraclayer_5" Label="fraclayer_5" Title="fraclayer_5" Unit="units" Internal="fraclayer_5" Type="D" Min="5.74649137e-04" Max="3.15538079e-01"/>
    <Variable VarIndex="19" Expression="fraclayer_6" Label="fraclayer_6" Title="fraclayer_6" Unit="units" Internal="fraclayer_6" Type="D" Min="7.39875308e-04" Max="2.66449898e-01"/>
    <Variable VarIndex="20" Expression="fraclayer_7" Label="fraclayer_7" Title="fraclayer_7" Unit="units" Internal="fraclayer_7" Type="D" Min="7.10309600e-04" Max="2.93001622e-01"/>
    <Variable VarIndex="21" Expression="fraclayer_8" Label="fraclayer_8" Title="fraclayer_8" Unit="units" Internal="fraclayer_8" Type="D" Min="9.27283836e-04" Max="2.45088935e-01"/>
    <Variable VarIndex="22" Expression="fraclayer_9" Label="fraclayer_9" Title="fraclayer_9" Unit="units" Internal="fraclayer_9" Type="D" Min="8.70022166e-04" Max="2.51522213e-01"/>
    <Variable VarIndex="23" Expression="fraclayer_10" Label="fraclayer_10" Title="fraclayer_10" Unit="units" Internal="fraclayer_10" Type="D" Min="3.70781898e-04" Max="2.42912441e-01"/>
    <Variable VarIndex="24" Expression="fraclayer_11" Label="fraclayer_11" Title="fraclayer_11" Unit="units" Internal="fraclayer_11" Type="D" Min="1.40238815e-04" Max="2.76189744e-01"/>
    <Variable VarIndex="25" Expression="fraclayer_12" Label="fraclayer_12" Title="fraclayer_12" Unit="units" Internal="fraclayer_12" Type="D" Min="2.25571202e-05" Max="2.97545940e-01"/>
    <Variable VarIndex="26" Expression="fraclayer_13" Label="fraclayer_13" Title="fraclayer_13" Unit="units" Internal="fraclayer_13" Type="D" Min="1.64128560e-05" Max="3.35723549e-01"/>
    <Variable VarIndex="27" Expression="fraclayer_14" Label="fraclayer_14" Title="fraclayer_14" Unit="units" Internal="fraclayer_14" Type="D" Min="8.59646934e-06" Max="3.48253191e-01"/>
    <Variable VarIndex="28" Expression="sumRms" Label="sumRms" Title="sumRms" Unit="units" Internal="sumRms" Type="D" Min="2.25734772e+02" Max="1.55059338e+03"/>
    <Variable VarIndex="29" Expression="fracLast" Label="fracLast" Title="fracLast" Unit="units" Internal="fracLast" Type="D" Min="8.59646934e-06" Max="3.48253191e-01"/>
    <Variable VarIndex="30" Expression="xtrl" Label="xtrl" Title="xtrl" Unit="units" Internal="xtrl" Type="D" Min="2.18759179e-01" Max="2.42989922e+04"/>
  </Variables>
  <Spectators NSpec="0"/>
  <Classes NClass="2">
    <Class Name="Signal" Index="0"/>
    <Class Name="Background" Index="1"/>
  </Classes>
  <Transformations NTransformations="0"/>
  <MVAPdfs/>
  <Weights NTrees="1000" AnalysisType="1">
    <BinaryTree type="DecisionTree" boostWeight="1.0000000000000000e+00" itree="0">
      <Node pos="s" depth="0" NCoef="0" IVar="25" Cut="1.3984949328005314e-02" cType="1" res="1.1613981332629919e-03" rms="4.9999865889549255e-01" purity="5.0116139650344849e-01" nType="0">
        <Node pos="l" depth="1" NCoef="0" IVar="26" Cut="6.1020846478641033e-03" cType="1" res="3.8705477118492126e-01" rms="3.1652581691741943e-01" purity="8.8705480098724365e-01" nType="0">
          <Node pos="l" depth="2" NCoef="0" IVar="-1" Cut="0.0000000000000000e+00" cType="1" res="9.2711217701435089e-02" rms="1.8739199638366699e-01" purity="9.6355611085891724e-01" nType="-99"/>
          <Node pos="r" depth="2" NCoef="0" IVar="-1" Cut="0.0000000000000000e+00" cType="1" res="-7.5559817254543304e-02" rms="3.2751768827438354e-01" purity="1.2220089882612228e-01" nType="-99"/>
        </Node>
        <Node pos="r" depth="1" NCoef="0" IVar="28" Cut="4.3815939331054688e+02" cType="1" res="-4.7554796934127808e-01" rms="1.5444782376289368e-01" purity="2.4452030658721924e-02" nType="0">
          <Node pos="l" depth="2" NCoef="0" IVar="-1" Cut="0.0000000000000000e+00" cType="1" res="-3.8496688008308411e-02" rms="4.6146520972251892e-01" purity="3.0751657485961914e-01" nType="-99"/>
          <Node pos="r" depth="2" NCoef="0" IVar="-1" Cut="0.0000000000000000e+00" cType="1" res="-9.9941499531269073e-02" rms="1.7099970951676369e-02" purity="2.9249460203573108e-04" nType="-99"/>
        </Node>
      </Node>
    </BinaryTree>
    <BinaryTree type="DecisionTree" boostWeight="1.0000000000000000e+00" itree="1">
      <Node pos="s" depth="0" NCoef="0" IVar="25" Cut="1.2864415533840656e-02" cType="1" res="2.3512847255915403e-03" rms="4.5645293593406677e-01" purity="5.0260978937149048e-01" nType="0">
        <Node pos="l" depth="1" NCoef="0" IVar="26" Cut="5.8866357430815697e-03" cType="1" res="3.6375522613525391e-01" rms="2.7894818782806396e-01" purity="9.0402215719223022e-01" nType="0">
          <Node pos="l" depth="2" NCoef="0" IVar="-1" Cut="0.0000000000000000e+00" cType="1" res="8.4939800202846527e-02" rms="1.7786961793899536e-01" purity="9.6729260683059692e-01" nType="-99"/>
          <Node pos="r" depth="2" NCoef="0" IVar="-1" Cut="0.0000000000000000e+00" cType="1" res="-6.6553182899951935e-02" rms="3.3934199810028076e-01" purity="1.3727764785289764e-01" nType="-99"/>
        </Node>
        <Node pos="r" depth="1" NCoef="0" IVar="8" Cut="2.7519378662109375e+01" cType="1" res="-4.2590147256851196e-01" rms="1.5766820311546326e-01" purity="2.6948198676109314e-02" nType="0">
          <Node pos="l" depth="2" NCoef="0" IVar="-1" Cut="0.0000000000000000e+00" cType="1" res="-1.5121034346520901e-02" rms="4.8016715049743652e-01" purity="3.9396628737449646e-01" nType="-99"/>
          <Node pos="r" depth="2" NCoef="0" IVar="-1" Cut="0.0000000000000000e+00" cType="1" res="-9.0437516570091248e-02" rms="6.1236765235662460e-02" purity="3.9163278415799141e-03" nType="-99"/>
        </Node>
      </Node>
    </BinaryTree>
    <BinaryTree type="DecisionTree" boostWeight="1.0000000000000000e+00" itree="2">
      <Node pos="s" depth="0" NCoef="0" IVar="25" Cut="1.4205947518348694e-02" cType="1" res="-9.5300568500533700e-04" rms="4.1791349649429321e-01" purity="4.9891528487205505e-01" nType="0">
        <Node pos="l" depth="1" NCoef="0" IVar="26" Cut="5.8868187479674816e-03" cType="1" res="3.1081619858741760e-01" rms="2.8568860888481140e-01" purity="8.8307976722717285e-01" nType="0">
          <Node pos="l" depth="2" NCoef="0" IVar="-1" Cut="0.0000000000000000e+00" cType="1" res="7.8022979199886322e-02" rms="1.8125846982002258e-01" purity="9.6588379144668579e-01" nType="-99"/>
          <Node pos="r" depth="2" NCoef="0" IVar="-1" Cut="0.0000000000000000e+00" cType="1" res="-6.0601145029067993e-02" rms="3.3481267094612122e-01" purity="1.3486890494823456e-01" nType="-99"/>
        </Node>
        <Node pos="r" depth="1" NCoef="0" IVar="8" Cut="2.8714027404785156e+01" cType="1" res="-3.8594371080398560e-01" rms="1.4590756595134735e-01" purity="2.4526754394173622e-02" nType="0">
          <Node pos="l" depth="2" NCoef="0" IVar="-1" Cut="0.0000000000000000e+00" cType="1" res="-2.9238997027277946e-02" rms="4.4934636354446411e-01" purity="3.0771085619926453e-01" nType="-99"/>
          <Node pos="r" depth="2" NCoef="0" IVar="-1" Cut="0.0000000000000000e+00" cType="1" res="-8.3953119814395905e-02" rms="4.2819287627935410e-02" purity="1.9056051969528198e-03" nType="-99"/>
        </Node>
      </Node>
    </BinaryTree>
    <BinaryTree type="DecisionTree" boostWeight="1.0000000000000000e+00" itree="3">
      <Node pos="s" depth="0" NCoef="0" IVar="25" Cut="1.4190337620675564e-02" cType="1" res="1.4078081585466862e-03" rms="3.8403758406639099e-01" purity="5.0185304880142212e-01" nType="0">
        <Node pos="l" depth="1" NCoef="0" IVar="26" Cut="6.0430271551012993e-03" cType="1" res="2.8182864189147949e-01" rms="2.7023062109947205e-01" purity="8.8451403379440308e-01" nType="0">
          <Node pos="l" depth="2" NCoef="0" IVar="-1" Cut="0.0000000000000000e+00" cType="1" res="7.2645157575607300e-02" rms="1.8205760419368744e-01" purity="9.6503639221191406e-01" nType="-99"/>
          <Node pos="r" depth="2" NCoef="0" IVar="-1" Cut="0.0000000000000000e+00" cType="1" res="-5.5810756981372833e-02" rms="3.3432337641716003e-01" purity="1.3170440495014191e-01" nType="-99"/>
        </Node>
        <Node pos="r" depth="1" NCoef="0" IVar="28" Cut="4.3546697998046875e+02" cType="1" res="-3.4976533055305481e-01" rms="1.3759794831275940e-01" purity="2.2643687203526497e-02" nType="0">
          <Node pos="l" depth="2" NCoef="0" IVar="-1" Cut="0.0000000000000000e+00" cType="1" res="-2.4086965247988701e-02" rms="4.4572415947914124e-01" purity="3.0935788154602051e-01" nType="-99"/>
          <Node pos="r" depth="2" NCoef="0" IVar="-1" Cut="0.0000000000000000e+00" cType="1" res="-7.9116843640804291e-02" rms="1.8720215186476707e-02" purity="2.5267250020988286e-04" nType="-99"/>
        </Node>
      </Node>
    </BinaryTree>
    <BinaryTree type="DecisionTree" boostWeight="1.0000000000000000e+00" itree="4">
      <Node pos="s" depth="0" NCoef="0" IVar="25" Cut="1.3971403241157532e-02" cType="1" res="-1.0354427649872378e-04" rms="3.5443127155303955e-01" purity="4.9997997283935547e-01" nType="0">
        <Node pos="l" depth="1" NCoef="0" IVar="0" Cut="3.8650196075439453e+01" cType="1" res="2.5542446970939636e-01" rms="2.5780218839645386e-01" purity="8.8681107759475708e-01" nType="0">
          <Node pos="l" depth="2" NCoef="0" IVar="-1" Cut="0.0000000000000000e+00" cType="1" res="6.7814446985721588e-02" rms="1.7975158989429474e-01" purity="9.5046830177307129e-01" nType="-99"/>
          <Node pos="r" depth="2" NCoef="0" IVar="-1" Cut="0.0000000000000000e+00" cType="1" res="-6.2368389219045639e-02" rms="3.3652433753013611e-01" purity="1.9938282668590546e-01" nType="-99"/>
        </Node>
        <Node pos="r" depth="1" NCoef="0" IVar="8" Cut="2.7519378662109375e+01" cType="1" res="-3.1451347470283508e-01" rms="1.3863337039947510e-01" purity="2.4010440334677696e-02" nType="0">
          <Node pos="l" depth="2" NCoef="0" IVar="-1" Cut="0.0000000000000000e+00" cType="1" res="-1.2878702022135258e-02" rms="4.6450024843215942e-01" purity="3.6127865314483643e-01" nType="-99"/>
          <Node pos="r" depth="2" NCoef="0" IVar="-1" Cut="0.0000000000000000e+00" cType="1" res="-7.4405111372470856e-02" rms="5.0847761332988739e-02" purity="2.7557110879570246e-03" nType="-99"/>
        </Node>
      </Node>
    </BinaryTree>
    <BinaryTree type="DecisionTree" boostWeight="1.0000000000000000e+00" itree="5">
      <Node pos="s" depth="0" NCoef="0" IVar="25" Cut="1.3543155975639820e-02" cType="1" res="-1.4218502910807729e-03" rms="3.2822677493095398e-01" purity="4.9782916903495789e-01" nType="0">
        <Node pos="l" depth="1" NCoef="0" IVar="1" Cut="2.7182060241699219e+01" cType="1" res="2.3370586335659027e-01" rms="2.4435015022754669e-01" purity="8.9252203702926636e-01" nType="0">
          <Node pos="l" depth="2" NCoef="0" IVar="-1" Cut="0.0000000000000000e+00" cType="1" res="6.2861308455467224e-02" rms="1.8763270974159241e-01" purity="9.4342780113220215e-01" nType="-99"/>
          <Node pos="r" depth="2" NCoef="0" IVar="-1" Cut="0.0000000000000000e+00" cType="1" res="-7.8177310526371002e-02" rms="2.6322615146636963e-01" purity="1.0150558501482010e-01" nType="-99"/>
        </Node>
        <Node pos="r" depth="1" NCoef="0" IVar="28" Cut="4.5015835571289062e+02" cType="1" res="-2.8256377577781677e-01" rms="1.4146444201469421e-01" purity="2.5895364582538605e-02" nType="0">
          <Node pos="l" depth="2" NCoef="0" IVar="-1" Cut="0.0000000000000000e+00" cType="1" res="-2.4834958836436272e-02" rms="4.1048058867454529e-01" purity="2.6187905669212341e-01" nType="-99"/>
          <Node pos="r" depth="2" NCoef="0" IVar="-1" Cut="0.0000000000000000e+00" cType="1" res="-7.1517996490001678e-02" rms="2.4667855352163315e-02" purity="3.8907479029148817e-04" nType="-99"/>
        </Node>
      </Node>
    </BinaryTree>
    <BinaryTree type="DecisionTree" boostWeight="1.0000000000000000e+00" itree="6">
      <Node pos="s" depth="0" NCoef="0" IVar="25" Cut="1.3447316363453865e-02" cType="1" res="-1.4474425697699189e-03" rms="3.0501425266265869e-01" purity="4.9734696745872498e-01" nType="0">
        <Node pos="l" depth="1" NCoef="0" IVar="26" Cut="3.5069920122623444e-03" cType="1" res="2.1140089631080627e-01" rms="2.3528786003589630e-01" purity="8.9359027147293091e-01" nType="0">
          <Node pos="l" depth="2" NCoef="0" IVar="-1" Cut="0.0000000000000000e+00" cType="1" res="6.7476116120815277e-02" rms="1.0054124891757965e-01" purity="9.8880559206008911e-01" nType="-99"/>
          <Node pos="r" depth="2" NCoef="0" IVar="-1" Cut="0.0000000000000000e+00" cType="1" res="-2.1000228822231293e-02" rms="3.9445704221725464e-01" purity="4.4660604000091553e-01" nType="-99"/>
        </Node>
        <Node pos="r" depth="1" NCoef="0" IVar="28" Cut="4.3583020019531250e+02" cType="1" res="-2.5411960482597351e-01" rms="1.4188589155673981e-01" purity="2.6966765522956848e-02" nType="0">
          <Node pos="l" depth="2" NCoef="0" IVar="-1" Cut="0.0000000000000000e+00" cType="1" res="-5.4510398767888546e-03" rms="4.5613944530487061e-01" purity="3.5962221026420593e-01" nType="-99"/>
          <Node pos="r" depth="2" NCoef="0" IVar="-1" Cut="0.0000000000000000e+00" cType="1" res="-6.8777345120906830e-02" rms="2.2454246878623962e-02" purity="2.4656704044900835e-04" nType="-99"/>
        </Node>
      </Node>
    </BinaryTree>
    <BinaryTree type="DecisionTree" boostWeight="1.0000000000000000e+00" itree="7">
      <Node pos="s" depth="0" NCoef="0" IVar="25" Cut="1.3331493362784386e-02" cType="1" res="-5.4810481378808618e-04" rms="2.8394535183906555e-01" purity="4.9917897582054138e-01" nType="0">
        <Node pos="l" depth="1" NCoef="0" IVar="0" Cut="4.0136650085449219e+01" cType="1" res="1.9206218421459198e-01" rms="2.2590830922126770e-01" purity="8.9547669887542725e-01" nType="0">
          <Node pos="l" depth="2" NCoef="0" IVar="-1" Cut="0.0000000000000000e+00" cType="1" res="5.8470170944929123e-02" rms="1.7024116218090057e-01" purity="9.5130425691604614e-01" nType="-99"/>
          <Node pos="r" depth="2" NCoef="0" IVar="-1" Cut="0.0000000000000000e+00" cType="1" res="-6.2608398497104645e-02" rms="3.0904218554496765e-01" purity="1.7932017147541046e-01" nType="-99"/>
        </Node>
        <Node pos="r" depth="1" NCoef="0" IVar="28" Cut="4.2175073242187500e+02" cType="1" res="-2.3048704862594604e-01" rms="1.3707505166530609e-01" purity="2.6077177375555038e-02" nType="0">
          <Node pos="l" depth="2" NCoef="0" IVar="-1" Cut="0.0000000000000000e+00" cType="1" res="1.1648529209196568e-02" rms="4.7385236620903015e-01" purity="4.4343617558479309e-01" nType="-99"/>
          <Node pos="r" depth="2" NCoef="0" IVar="-1" Cut="0.0000000000000000e+00" cType="1" res="-6.6603720188140869e-02" rms="2.7715628966689110e-02" purity="3.3580837771296501e-04" nType="-99"/>
        </Node>
      </Node>
    </BinaryTree>
    <BinaryTree type="DecisionTree" boostWeight="1.0000000000000000e+00" itree="8">
      <Node pos="s" depth="0" NCoef="0" IVar="25" Cut="1.3971403241157532e-02" cType="1" res="4.1508660069666803e-04" rms="2.6578760147094727e-01" purity="5.0054645538330078e-01" nType="0">
        <Node pos="l" depth="1" NCoef="0" IVar="1" Cut="2.3871530532836914e+01" cType="1" res="1.6958431899547577e-01" rms="2.2333009541034698e-01" purity="8.8560581207275391e-01" nType="0">
          <Node pos="l" depth="2" NCoef="0" IVar="-1" Cut="0.0000000000000000e+00" cType="1" res="5.7810757309198380e-02" rms="1.5557071566581726e-01" purity="9.5737397670745850e-01" nType="-99"/>
          <Node pos="r" depth="2" NCoef="0" IVar="-1" Cut="0.0000000000000000e+00" cType="1" res="-4.7938540577888489e-02" rms="3.2843437790870667e-01" purity="2.9182407259941101e-01" nType="-99"/>
        </Node>
        <Node pos="r" depth="1" NCoef="0" IVar="0" Cut="2.8895885467529297e+01" cType="1" res="-2.0833894610404968e-01" rms="1.3181827962398529e-01" purity="2.5385085493326187e-02" nType="0">
          <Node pos="l" depth="2" NCoef="0" IVar="-1" Cut="0.0000000000000000e+00" cType="1" res="-1.5644542872905731e-02" rms="3.5436183214187622e-01" purity="2.2889056801795959e-01" nType="-99"/>
          <Node pos="r" depth="2" NCoef="0" IVar="-1" Cut="0.0000000000000000e+00" cType="1" res="-6.3959874212741852e-02" rms="5.9707388281822205e-02" purity="4.0658470243215561e-03" nType="-99"/>
        </Node>
      </Node>
    </BinaryTree>
    <BinaryTree type="DecisionTree" boostWeight="1.0000000000000000e+00" itree="9">
      <Node pos="s" depth="0" NCoef="0" IVar="25" Cut="1.3979018665850163e-02" cType="1" res="4.1025137761607766e-04" rms="2.4948136508464813e-01" purity="5.0133645534515381e-01" nType="0">
        <Node pos="l" depth="1" NCoef="0" IVar="26" Cut="6.9805392995476723e-03" cType="1" res="1.5365843474864960e-01" rms="2.1661904454231262e-01" purity="8.8719022274017334e-01" nType="0">
          <Node pos="l" depth="2" NCoef="0" IVar="-1" Cut="0.0000000000000000e+00" cType="1" res="5.3513262420892715e-02" rms="1.7423284053802490e-01" purity="9.5272439718246460e-01" nType="-99"/>
          <Node pos="r" depth="2" NCoef="0" IVar="-1" Cut="0.0000000000000000e+00" cType="1" res="-6.3396088778972626e-02" rms="2.3339675366878510e-01" purity="6.8012543022632599e-02" nType="-99"/>
        </Node>
        <Node pos="r" depth="1" NCoef="0" IVar="7" Cut="2.7167310714721680e+01" cType="1" res="-1.8907158076763153e-01" rms="1.2743049860000610e-01" purity="2.4252325296401978e-02" nType="0">
          <Node pos="l" depth="2" NCoef="0" IVar="-1" Cut="0.0000000000000000e+00" cType="1" res="-5.9299790300428867e-03" rms="3.8209336996078491e-01" purity="2.7469614148139954e-01" nType="-99"/>
          <Node pos="r" depth="2" NCoef="0" IVar="-1" Cut="0.0000000000000000e+00" cType="1" res="-6.2603786587715149e-02" rms="4.6242475509643555e-02" purity="2.1101580932736397e-03" nType="-99"/>
        </Node>
      </Node>
    </BinaryTree>
    <BinaryTree type="DecisionTree" boostWeight="1.0000000000000000e+00" itree="10">
      <Node pos="s" depth="0" NCoef="0" IVar="24" Cut="1.2094464153051376e-02" cType="1" res="3.5330650280229747e-04" rms="2.3488436639308929e-01" purity="5.0111305713653564e-01" nType="0">
        <Node pos="l" depth="1" NCoef="0" IVar="0" Cut="3.5105484008789062e+01" cType="1" res="1.6569039225578308e-01" rms="1.6148324310779572e-01" purity="9.4499498605728149e-01" nType="0">
          <Node pos="l" depth="2" NCoef="0" IVar="-1" Cut="0.0000000000000000e+00" cType="1" res="5.7860001921653748e-02" rms="1.0703068226575851e-01" purity="9.8084449768066406e-01" nType="-99"/>
          <Node pos="r" depth="2" NCoef="0" IVar="-1" Cut="0.0000000000000000e+00" cType="1" res="-2.2132437676191330e-02" rms="3.6569976806640625e-01" purity="5.1324057579040527e-01" nType="-99"/>
        </Node>
        <Node pos="r" depth="1" NCoef="0" IVar="28" Cut="4.1642605590820312e+02" cType="1" res="-1.4358669519424438e-01" rms="1.8968914449214935e-01" purity="1.1467601358890533e-01" nType="0">
          <Node pos="l" depth="2" NCoef="0" IVar="-1" Cut="0.0000000000000000e+00" cType="1" res="5.0089109688997269e-02" rms="3.1078216433525085e-01" purity="7.9810994863510132e-01" nType="-99"/>
          <Node pos="r" depth="2" NCoef="0" IVar="-1" Cut="0.0000000000000000e+00" cType="1" res="-6.1441257596015930e-02" rms="9.2584401369094849e-02" purity="1.9671067595481873e-02" nType="-99"/>
        </Node>
      </Node>
    </BinaryTree>
    <BinaryTree type="DecisionTree" boostWeight="1.0000000000000000e+00" itree="11">
      <Node pos="s" depth="0" NCoef="0" IVar="0" Cut="2.7875253677368164e+01" cType="1" res="1.4354946324601769e-04" rms="2.2076548635959625e-01" purity="5.0125432014465332e-01" nType="0">
        <Node pos="l" depth="1" NCoef="0" IVar="26" Cut="1.4649106189608574e-02" cType="1" res="1.6332980990409851e-01" rms="1.4816370606422424e-01" purity="9.2619079351425171e-01" nType="0">
          <Node pos="l" depth="2" NCoef="0" IVar="-1" Cut="0.0000000000000000e+00" cType="1" res="5.9254333376884460e-02" rms="1.1400021612644196e-01" purity="9.7882473468780518e-01" nType="-99"/>
          <Node pos="r" depth="2" NCoef="0" IVar="-1" Cut="0.0000000000000000e+00" cType="1" res="-4.4484771788120270e-02" rms="2.3734195530414581e-01" purity="8.9015148580074310e-02" nType="-99"/>
        </Node>
        <Node pos="r" depth="1" NCoef="0" IVar="1" Cut="2.0935842514038086e+01" cType="1" res="-1.2327682226896286e-01" rms="1.8336346745491028e-01" purity="1.7986810207366943e-01" nType="0">
          <Node pos="l" depth="2" NCoef="0" IVar="-1" Cut="0.0000000000000000e+00" cType="1" res="1.4439975842833519e-02" rms="2.4150921404361725e-01" purity="6.4932757616043091e-01" nType="-99"/>
          <Node pos="r" depth="2" NCoef="0" IVar="-1" Cut="0.0000000000000000e+00" cType="1" res="-5.9849724173545837e-02" rms="1.1851570010185242e-01" purity="3.2947678118944168e-02" nType="-99"/>
        </Node>
      </Node>
    </BinaryTree>
    <BinaryTree type="DecisionTree" boostWeight="1.0000000000000000e+00" itree="12">
      <Node pos="s" depth="0" NCoef="0" IVar="24" Cut="1.3324089348316193e-02" cType="1" res="1.3090828724671155e-04" rms="2.0849707722663879e-01" purity="4.9995586276054382e-01" nType="0">
        <Node pos="l" depth="1" NCoef="0" IVar="0" Cut="3.7665603637695312e+01" cType="1" res="1.3307277858257294e-01" rms="1.6155277192592621e-01" purity="9.3403136730194092e-01" nType="0">
          <Node pos="l" depth="2" NCoef="0" IVar="-1" Cut="0.0000000000000000e+00" cType="1" res="5.3009252995252609e-02" rms="1.2104357779026031e-01" purity="9.7288030385971069e-01" nType="-99"/>
          <Node pos="r" depth="2" NCoef="0" IVar="-1" Cut="0.0000000000000000e+00" cType="1" res="-3.4388627856969833e-02" rms="3.4620857238769531e-01" purity="3.5350319743156433e-01" nType="-99"/>
        </Node>
        <Node pos="r" depth="1" NCoef="0" IVar="28" Cut="3.8528100585937500e+02" cType="1" res="-1.2365584075450897e-01" rms="1.6693367063999176e-01" purity="9.5773205161094666e-02" nType="0">
          <Node pos="l" depth="2" NCoef="0" IVar="-1" Cut="0.0000000000000000e+00" cType="1" res="6.6714227199554443e-02" rms="2.9140201210975647e-01" purity="8.7407737970352173e-01" nType="-99"/>
          <Node pos="r" depth="2" NCoef="0" IVar="-1" Cut="0.0000000000000000e+00" cType="1" res="-5.5711779743432999e-02" rms="1.0396064817905426e-01" purity="3.7821002304553986e-02" nType="-99"/>
        </Node>
      </Node>
    </BinaryTree>
    <BinaryTree type="DecisionTree" boostWeight="1.0000000000000000e+00" itree="13">
      <Node pos="s" depth="0" NCoef="0" IVar="0" Cut="2.8915819168090820e+01" cType="1" res="-7.9316884512081742e-04" rms="1.9757442176342010e-01" purity="4.9914458394050598e-01" nType="0">
        <Node pos="l" depth="1" NCoef="0" IVar="27" Cut="1.6202226281166077e-02" cType="1" res="1.2950119376182556e-01" rms="1.4811202883720398e-01" purity="9.1098976135253906e-01" nType="0">
          <Node pos="l" depth="2" NCoef="0" IVar="-1" Cut="0.0000000000000000e+00" cType="1" res="5.4680589586496353e-02" rms="1.2407052516937256e-01" purity="9.6575009822845459e-01" nType="-99"/>
          <Node pos="r" depth="2" NCoef="0" IVar="-1" Cut="0.0000000000000000e+00" cType="1" res="-6.1182379722595215e-02" rms="1.4092683792114258e-01" purity="1.9541984423995018e-02" nType="-99"/>
        </Node>
        <Node pos="r" depth="1" NCoef="0" IVar="24" Cut="1.1348855681717396e-02" cType="1" res="-1.0936668515205383e-01" rms="1.6537529230117798e-01" purity="1.5595641732215881e-01" nType="0">
          <Node pos="l" depth="2" NCoef="0" IVar="-1" Cut="0.0000000000000000e+00" cType="1" res="1.8850110471248627e-02" rms="2.7491638064384460e-01" purity="8.0057650804519653e-01" nType="-99"/>
          <Node pos="r" depth="2" NCoef="0" IVar="-1" Cut="0.0000000000000000e+00" cType="1" res="-5.6061007082462311e-02" rms="1.0270538181066513e-01" purity="2.5255924090743065e-02" nType="-99"/>
        </Node>
      </Node>
    </BinaryTree>
    <BinaryTree type="DecisionTree" boostWeight="1.0000000000000000e+00" itree="14">
      <Node pos="s" depth="0" NCoef="0" IVar="0" Cut="2.9681797027587891e+01" cType="1" res="3.0682489159516990e-04" rms="1.8684671819210052e-01" purity="5.0096404552459717e-01" nType="0">
        <Node pos="l" depth="1" NCoef="0" IVar="27" Cut="1.6202019527554512e-02" cType="1" res="1.1551579833030701e-01" rms="1.4439789950847626e-01" purity="9.0286499261856079e-01" nType="0">
          <Node pos="l" depth="2" NCoef="0" IVar="-1" Cut="0.0000000000000000e+00" cType="1" res="5.2814364433288574e-02" rms="1.2228684127330780e-01" purity="9.6399468183517456e-01" nType="-99"/>
          <Node pos="r" depth="2" NCoef="0" IVar="-1" Cut="0.0000000000000000e+00" cType="1" res="-5.8687411248683929e-02" rms="1.3946069777011871e-01" purity="1.9921362400054932e-02" nType="-99"/>
        </Node>
        <Node pos="r" depth="1" NCoef="0" IVar="1" Cut="1.4912968635559082e+01" cType="1" res="-1.0323012620210648e-01" rms="1.5779674053192139e-01" purity="1.3978035748004913e-01" nType="0">
          <Node pos="l" depth="2" NCoef="0" IVar="-1" Cut="0.0000000000000000e+00" cType="1" res="4.9716025590896606e-02" rms="1.6407243907451630e-01" purity="9.1459822654724121e-01" nType="-99"/>
          <Node pos="r" depth="2" NCoef="0" IVar="-1" Cut="0.0000000000000000e+00" cType="1" res="-4.9702890217304230e-02" rms="1.3910236954689026e-01" purity="7.9202711582183838e-02" nType="-99"/>
        </Node>
      </Node>
    </BinaryTree>
    <BinaryTree type="DecisionTree" boostWeight="1.0000000000000000e+00" itree="15">
      <Node pos="s" depth="0" NCoef="0" IVar="1" Cut="1.8134820938110352e+01" cType="1" res="2.9810128035023808e-04" rms="1.7810896039009094e-01" purity="5.0058180093765259e-01" nType="0">
        <Node pos="l" depth="1" NCoef="0" IVar="28" Cut="3.7251324462890625e+02" cType="1" res="1.2035463750362396e-01" rms="1.2919102609157562e-01" purity="9.3622487783432007e-01" nType="0">
          <Node pos="l" depth="2" NCoef="0" IVar="-1" Cut="0.0000000000000000e+00" cType="1" res="6.9628305733203888e-02" rms="2.0818459987640381e-01" purity="9.5356810092926025e-01" nType="-99"/>
          <Node pos="r" depth="2" NCoef="0" IVar="-1" Cut="0.0000000000000000e+00" cType="1" res="4.6714384108781815e-02" rms="1.1719650030136108e-01" purity="9.3504035472869873e-01" nType="-99"/>
        </Node>
        <Node pos="r" depth="1" NCoef="0" IVar="0" Cut="2.3660610198974609e+01" cType="1" res="-8.0667667090892792e-02" rms="1.5995228290557861e-01" purity="2.0678535103797913e-01" nType="0">
          <Node pos="l" depth="2" NCoef="0" IVar="-1" Cut="0.0000000000000000e+00" cType="1" res="4.4739715754985809e-02" rms="1.5042780339717865e-01" purity="9.0672183036804199e-01" nType="-99"/>
          <Node pos="r" depth="2" NCoef="0" IVar="-1" Cut="0.0000000000000000e+00" cType="1" res="-4.6849846839904785e-02" rms="1.4034321904182434e-01" purity="1.0226237028837204e-01" nType="-99"/>
        </Node>
      </Node>
    </BinaryTree>
    <BinaryTree type="DecisionTree" boostWeight="1.0000000000000000e+00" itree="16">
      <Node pos="s" depth="0" NCoef="0" IVar="26" Cut="1.5849927440285683e-02" cType="1" res="2.8376845875754952e-04" rms="1.7128910124301910e-01" purity="4.9934470653533936e-01" nType="0">
        <Node pos="l" depth="1" NCoef="0" IVar="27" Cut="3.6603938788175583e-03" cType="1" res="7.3877736926078796e-02" rms="1.7867475748062134e-01" purity="8.2265579700469971e-01" nType="0">
          <Node pos="l" depth="2" NCoef="0" IVar="-1" Cut="0.0000000000000000e+00" cType="1" res="5.1023408770561218e-02" rms="1.2053878605365753e-01" purity="9.7638869285583496e-01" nType="-99"/>
          <Node pos="r" depth="2" NCoef="0" IVar="-1" Cut="0.0000000000000000e+00" cType="1" res="-4.6101976186037064e-02" rms="2.4412412941455841e-01" purity="1.0523552447557449e-01" nType="-99"/>
        </Node>
        <Node pos="r" depth="1" NCoef="0" IVar="28" Cut="4.5015576171875000e+02" cType="1" res="-1.1184670031070709e-01" rms="6.7649252712726593e-02" purity="6.7360438406467438e-03" nType="0">
          <Node pos="l" depth="2" NCoef="0" IVar="-1" Cut="0.0000000000000000e+00" cType="1" res="-4.7127593308687210e-02" rms="2.1274055540561676e-01" purity="7.7598482370376587e-02" nType="-99"/>
          <Node pos="r" depth="2" NCoef="0" IVar="-1" Cut="0.0000000000000000e+00" cType="1" res="-5.6222699582576752e-02" rms="2.4030828848481178e-02" purity="1.5428697224706411e-04" nType="-99"/>
        </Node>
      </Node>
    </BinaryTree>
    <BinaryTree type="DecisionTree" boostWeight="1.0000000000000000e+00" itree="17">
      <Node pos="s" depth="0" NCoef="0" IVar="1" Cut="1.9434900283813477e+01" cType="1" res="-5.6478899205103517e-04" rms="1.6312903165817261e-01" purity="4.9987170100212097e-01" nType="0">
        <Node pos="l" depth="1" NCoef="0" IVar="27" Cut="1.4511431567370892e-02" cType="1" res="9.2725679278373718e-02" rms="1.3414913415908813e-01" purity="9.1099184751510620e-01" nType="0">
          <Node pos="l" depth="2" NCoef="0" IVar="-1" Cut="0.0000000000000000e+00" cType="1" res="5.0509463995695114e-02" rms="1.1547382175922394e-01" purity="9.6750730276107788e-01" nType="-99"/>
          <Node pos="r" depth="2" NCoef="0" IVar="-1" Cut="0.0000000000000000e+00" cType="1" res="-5.8262184262275696e-02" rms="1.5093646943569183e-01" purity="2.2802280262112617e-02" nType="-99"/>
        </Node>
        <Node pos="r" depth="1" NCoef="0" IVar="0" Cut="2.7875253677368164e+01" cType="1" res="-7.5896471738815308e-02" rms="1.4444771409034729e-01" purity="1.6789379715919495e-01" nType="0">
          <Node pos="l" depth="2" NCoef="0" IVar="-1" Cut="0.0000000000000000e+00" cType="1" res="2.2802421823143959e-02" rms="1.8962952494621277e-01" purity="7.6191282272338867e-01" nType="-99"/>
          <Node pos="r" depth="2" NCoef="0" IVar="-1" Cut="0.0000000000000000e+00" cType="1" res="-5.1002509891986847e-02" rms="1.1658203601837158e-01" purity="4.5680932700634003e-02" nType="-99"/>
        </Node>
      </Node>
    </BinaryTree>
    <BinaryTree type="DecisionTree" boostWeight="1.0000000000000000e+00" itree="18">
      <Node pos="s" depth="0" NCoef="0" IVar="24" Cut="1.2767324224114418e-02" cType="1" res="-5.7653861586004496e-04" rms="1.5618579089641571e-01" purity="4.9937111139297485e-01" nType="0">
        <Node pos="l" depth="1" NCoef="0" IVar="25" Cut="6.4954976551234722e-03" cType="1" res="7.8555822372436523e-02" rms="1.3988688588142395e-01" purity="9.3818134069442749e-01" nType="0">
          <Node pos="l" depth="2" NCoef="0" IVar="-1" Cut="0.0000000000000000e+00" cType="1" res="4.7542028129100800e-02" rms="1.1213541775941849e-01" purity="9.7671335935592651e-01" nType="-99"/>
          <Node pos="r" depth="2" NCoef="0" IVar="-1" Cut="0.0000000000000000e+00" cType="1" res="-5.4558672010898590e-02" rms="2.6310852169990540e-01" purity="3.1993106007575989e-01" nType="-99"/>
        </Node>
        <Node pos="r" depth="1" NCoef="0" IVar="28" Cut="3.8227325439453125e+02" cType="1" res="-7.2308592498302460e-02" rms="1.3396477699279785e-01" purity="1.0159757733345032e-01" nType="0">
          <Node pos="l" depth="2" NCoef="0" IVar="-1" Cut="0.0000000000000000e+00" cType="1" res="5.6884590536355972e-02" rms="2.5709575414657593e-01" purity="8.7430775165557861e-01" nType="-99"/>
          <Node pos="r" depth="2" NCoef="0" IVar="-1" Cut="0.0000000000000000e+00" cType="1" res="-4.8888336867094040e-02" rms="9.6385262906551361e-02" purity="4.9265339970588684e-02" nType="-99"/>
        </Node>
      </Node>
    </BinaryTree>
    <BinaryTree type="DecisionTree" boostWeight="1.0000000000000000e+00" itree="19">
      <Node pos="s" depth="0" NCoef="0" IVar="1" Cut="2.3906436920166016e+01" cType="1" res="1.5545371570624411e-04" rms="1.4986756443977356e-01" purity="4.9984788894653320e-01" nType="0">
        <Node pos="l" depth="1" NCoef="0" IVar="27" Cut="1.6201315447688103e-02" cType="1" res="5.9294942766427994e-02" rms="1.4600223302841187e-01" purity="8.1353086233139038e-01" nType="0">
          <Node pos="l" depth="2" NCoef="0" IVar="-1" Cut="0.0000000000000000e+00" cType="1" res="4.2012736201286316e-02" rms="1.3517473638057709e-01" purity="9.2466574907302856e-01" nType="-99"/>
          <Node pos="r" depth="2" NCoef="0" IVar="-1" Cut="0.0000000000000000e+00" cType="1" res="-5.5303633213043213e-02" rms="1.0211977362632751e-01" purity="1.0132501833140850e-02" nType="-99"/>
        </Node>
        <Node pos="r" depth="1" NCoef="0" IVar="5" Cut="2.1640094757080078e+01" cType="1" res="-8.5556387901306152e-02" rms="1.0817719250917435e-01" purity="4.5221894979476929e-02" nType="0">
          <Node pos="l" depth="2" NCoef="0" IVar="-1" Cut="0.0000000000000000e+00" cType="1" res="-3.6604604683816433e-03" rms="2.2365795075893402e-01" purity="3.2407116889953613e-01" nType="-99"/>
          <Node pos="r" depth="2" NCoef="0" IVar="-1" Cut="0.0000000000000000e+00" cType="1" res="-5.3985897451639175e-02" rms="9.3359805643558502e-02" purity="2.6532746851444244e-02" nType="-99"/>
        </Node>
      </Node>
    </BinaryTree>
    <BinaryTree type="DecisionTree" boostWeight="1.0000000000000000e+00" itree="20">
      <Node pos="s" depth="0" NCoef="0" IVar="1" Cut="2.3119247436523438e+01" cType="1" res="-2.2982762311585248e-04" rms="1.4511753618717194e-01" purity="5.0077456235885620e-01" nType="0">
        <Node pos="l" depth="1" NCoef="0" IVar="26" Cut="1.4364850707352161e-02" cType="1" res="5.5996295064687729e-02" rms="1.4224372804164886e-01" purity="8.3074039220809937e-01" nType="0">
          <Node pos="l" depth="2" NCoef="0" IVar="-1" Cut="0.0000000000000000e+00" cType="1" res="4.2277749627828598e-02" rms="1.2996503710746765e-01" purity="9.4830405712127686e-01" nType="-99"/>
          <Node pos="r" depth="2" NCoef="0" IVar="-1" Cut="0.0000000000000000e+00" cType="1" res="-4.6034064143896103e-02" rms="1.3094601035118103e-01" purity="3.5452455282211304e-02" nType="-99"/>
        </Node>
        <Node pos="r" depth="1" NCoef="0" IVar="0" Cut="2.6664403915405273e+01" cType="1" res="-7.4628345668315887e-02" rms="1.1150582134723663e-01" purity="6.4163044095039368e-02" nType="0">
          <Node pos="l" depth="2" NCoef="0" IVar="-1" Cut="0.0000000000000000e+00" cType="1" res="9.1521404683589935e-03" rms="2.1314850449562073e-01" purity="6.2011480331420898e-01" nType="-99"/>
          <Node pos="r" depth="2" NCoef="0" IVar="-1" Cut="0.0000000000000000e+00" cType="1" res="-5.1744706928730011e-02" rms="9.6316389739513397e-02" purity="2.3454071953892708e-02" nType="-99"/>
        </Node>
      </Node>
    </BinaryTree>
    <BinaryTree type="DecisionTree" boostWeight="1.0000000000000000e+00" itree="21">
      <Node pos="s" depth="0" NCoef="0" IVar="0" Cut="3.5436882019042969e+01" cType="1" res="-6.6323310602456331e-04" rms="1.4054080843925476e-01" purity="4.9926677346229553e-01" nType="0">
        <Node pos="l" depth="1" NCoef="0" IVar="26" Cut="1.5253384597599506e-02" cType="1" res="4.9365960061550140e-02" rms="1.3987609744071960e-01" purity="8.1212049722671509e-01" nType="0">
          <Node pos="l" depth="2" NCoef="0" IVar="-1" Cut="0.0000000000000000e+00" cType="1" res="4.0767293423414230e-02" rms="1.3010030984878540e-01" purity="9.4261395931243896e-01" nType="-99"/>
          <Node pos="r" depth="2" NCoef="0" IVar="-1" Cut="0.0000000000000000e+00" cType="1" res="-4.5779652893543243e-02" rms="1.2279956042766571e-01" purity="2.8824200853705406e-02" nType="-99"/>
        </Node>
        <Node pos="r" depth="1" NCoef="0" IVar="1" Cut="1.8373575210571289e+01" cType="1" res="-7.2621867060661316e-02" rms="1.0602709650993347e-01" purity="4.9278985708951950e-02" nType="0">
          <Node pos="l" depth="2" NCoef="0" IVar="-1" Cut="0.0000000000000000e+00" cType="1" res="-2.5502778589725494e-03" rms="2.3052452504634857e-01" purity="5.3034764528274536e-01" nType="-99"/>
          <Node pos="r" depth="2" NCoef="0" IVar="-1" Cut="0.0000000000000000e+00" cType="1" res="-5.2782569080591202e-02" rms="8.9070603251457214e-02" purity="1.5109660103917122e-02" nType="-99"/>
        </Node>
      </Node>
    </BinaryTree>
    <BinaryTree type="DecisionTree" boostWeight="1.0000000000000000e+00" itree="22">
      <Node pos="s" depth="0" NCoef="0" IVar="1" Cut="1.9776762008666992e+01" cType="1" res="3.6654557334259152e-04" rms="1.3746610283851624e-01" purity="5.0202924013137817e-01" nType="0">
        <Node pos="l" depth="1" NCoef="0" IVar="27" Cut="1.4513825066387653e-02" cType="1" res="5.9223845601081848e-02" rms="1.2477441132068634e-01" purity="9.0463048219680786e-01" nType="0">
          <Node pos="l" depth="2" NCoef="0" IVar="-1" Cut="0.0000000000000000e+00" cType="1" res="4.3958593159914017e-02" rms="1.1530776321887970e-01" purity="9.6408993005752563e-01" nType="-99"/>
          <Node pos="r" depth="2" NCoef="0" IVar="-1" Cut="0.0000000000000000e+00" cType="1" res="-5.1486782729625702e-02" rms="1.4341327548027039e-01" purity="2.2947194054722786e-02" nType="-99"/>
        </Node>
        <Node pos="r" depth="1" NCoef="0" IVar="2" Cut="1.3811218261718750e+01" cType="1" res="-4.9608081579208374e-02" rms="1.2760905921459198e-01" purity="1.6018804907798767e-01" nType="0">
          <Node pos="l" depth="2" NCoef="0" IVar="-1" Cut="0.0000000000000000e+00" cType="1" res="4.9274753779172897e-02" rms="1.5793448686599731e-01" purity="9.1595381498336792e-01" nType="-99"/>
          <Node pos="r" depth="2" NCoef="0" IVar="-1" Cut="0.0000000000000000e+00" cType="1" res="-4.1608761996030807e-02" rms="1.1709483712911606e-01" purity="1.0387085378170013e-01" nType="-99"/>
        </Node>
      </Node>
    </BinaryTree>
    <BinaryTree type="DecisionTree" boostWeight="1.0000000000000000e+00" itree="23">
      <Node pos="s" depth="0" NCoef="0" IVar="0" Cut="3.5392982482910156e+01" cType="1" res="-8.6590694263577461e-04" rms="1.3315907120704651e-01" purity="4.9834731221199036e-01" nType="0">
        <Node pos="l" depth="1" NCoef="0" IVar="27" Cut="1.6200032085180283e-02" cType="1" res="4.1161105036735535e-02" rms="1.3649867475032806e-01" purity="8.1060552597045898e-01" nType="0">
          <Node pos="l" depth="2" NCoef="0" IVar="-1" Cut="0.0000000000000000e+00" cType="1" res="3.6947950720787048e-02" rms="1.3244029879570007e-01" purity="9.2698574066162109e-01" nType="-99"/>
          <Node pos="r" depth="2" NCoef="0" IVar="-1" Cut="0.0000000000000000e+00" cType="1" res="-5.1330905407667160e-02" rms="9.9160693585872650e-02" purity="1.0572404600679874e-02" nType="-99"/>
        </Node>
        <Node pos="r" depth="1" NCoef="0" IVar="2" Cut="1.7019306182861328e+01" cType="1" res="-6.1376366764307022e-02" rms="1.0114415735006332e-01" purity="4.8758104443550110e-02" nType="0">
          <Node pos="l" depth="2" NCoef="0" IVar="-1" Cut="0.0000000000000000e+00" cType="1" res="-1.2729460140690207e-03" rms="2.2910776734352112e-01" purity="3.9538761973381042e-01" nType="-99"/>
          <Node pos="r" depth="2" NCoef="0" IVar="-1" Cut="0.0000000000000000e+00" cType="1" res="-5.1670059561729431e-02" rms="8.2213625311851501e-02" purity="2.2556865587830544e-02" nType="-99"/>
        </Node>
      </Node>
    </BinaryTree>
    <BinaryTree type="DecisionTree" boostWeight="1.0000000000000000e+00" itree="24">
      <Node pos="s" depth="0" NCoef="0" IVar="0" Cut="2.6057245254516602e+01" cType="1" res="2.5826133423834108e-05" rms="1.2962503731250763e-01" purity="5.0001597404479980e-01" nType="0">
        <Node pos="l" depth="1" NCoef="0" IVar="9" Cut="3.0948703765869141e+01" cType="1" res="5.9466108679771423e-02" rms="1.0188984870910645e-01" purity="9.4534271955490112e-01" nType="0">
          <Node pos="l" depth="2" NCoef="0" IVar="-1" Cut="0.0000000000000000e+00" cType="1" res="5.6522488594055176e-02" rms="1.7289869487285614e-01" purity="9.2421442270278931e-01" nType="-99"/>
          <Node pos="r" depth="2" NCoef="0" IVar="-1" Cut="0.0000000000000000e+00" cType="1" res="3.9792083203792572e-02" rms="8.8144153356552124e-02" purity="9.4747006893157959e-01" nType="-99"/>
        </Node>
        <Node pos="r" depth="1" NCoef="0" IVar="23" Cut="1.1974375694990158e-02" cType="1" res="-3.6153122782707214e-02" rms="1.3134504854679108e-01" purity="2.2896324098110199e-01" nType="0">
          <Node pos="l" depth="2" NCoef="0" IVar="-1" Cut="0.0000000000000000e+00" cType="1" res="3.3669307827949524e-02" rms="1.5658284723758698e-01" purity="9.1492831707000732e-01" nType="-99"/>
          <Node pos="r" depth="2" NCoef="0" IVar="-1" Cut="0.0000000000000000e+00" cType="1" res="-4.0731027722358704e-02" rms="1.1759100109338760e-01" purity="1.0036510229110718e-01" nType="-99"/>
        </Node>
      </Node>
    </BinaryTree>
    <BinaryTree type="DecisionTree" boostWeight="1.0000000000000000e+00" itree="25">
      <Node pos="s" depth="0" NCoef="0" IVar="2" Cut="1.8273458480834961e+01" cType="1" res="-4.5031006266071927e-06" rms="1.2667718529701233e-01" purity="4.9958461523056030e-01" nType="0">
        <Node pos="l" depth="1" NCoef="0" IVar="27" Cut="1.4407379552721977e-02" cType="1" res="4.9104917794466019e-02" rms="1.2742699682712555e-01" purity="8.7566184997558594e-01" nType="0">
          <Node pos="l" depth="2" NCoef="0" IVar="-1" Cut="0.0000000000000000e+00" cType="1" res="4.1498262435197830e-02" rms="1.2180928885936737e-01" purity="9.4911414384841919e-01" nType="-99"/>
          <Node pos="r" depth="2" NCoef="0" IVar="-1" Cut="0.0000000000000000e+00" cType="1" res="-4.9897361546754837e-02" rms="1.1893819272518158e-01" purity="1.7479300498962402e-02" nType="-99"/>
        </Node>
        <Node pos="r" depth="1" NCoef="0" IVar="1" Cut="1.9434900283813477e+01" cType="1" res="-3.8675524294376373e-02" rms="1.1181465536355972e-01" purity="2.0344404876232147e-01" nType="0">
          <Node pos="l" depth="2" NCoef="0" IVar="-1" Cut="0.0000000000000000e+00" cType="1" res="1.8207103013992310e-02" rms="1.4474634826183319e-01" purity="7.9552537202835083e-01" nType="-99"/>
          <Node pos="r" depth="2" NCoef="0" IVar="-1" Cut="0.0000000000000000e+00" cType="1" res="-4.7866985201835632e-02" rms="9.4160854816436768e-02" purity="4.9696926027536392e-02" nType="-99"/>
        </Node>
      </Node>
    </BinaryTree>
    <BinaryTree type="DecisionTree" boostWeight="1.0000000000000000e+00" itree="26">
      <Node pos="s" depth="0" NCoef="0" IVar="0" Cut="2.6977718353271484e+01" cType="1" res="-1.0415749420644715e-04" rms="1.2424904853105545e-01" purity="4.9762842059135437e-01" nType="0">
        <Node pos="l" depth="1" NCoef="0" IVar="28" Cut="3.8530404663085938e+02" cType="1" res="4.8018865287303925e-02" rms="1.0638529062271118e-01" purity="9.3507218360900879e-01" nType="0">
          <Node pos="l" depth="2" NCoef="0" IVar="-1" Cut="0.0000000000000000e+00" cType="1" res="5.5584341287612915e-02" rms="1.5699051320552826e-01" purity="9.5614033937454224e-01" nType="-99"/>
          <Node pos="r" depth="2" NCoef="0" IVar="-1" Cut="0.0000000000000000e+00" cType="1" res="3.4218620508909225e-02" rms="9.5888733863830566e-02" purity="9.3266314268112183e-01" nType="-99"/>
        </Node>
        <Node pos="r" depth="1" NCoef="0" IVar="23" Cut="1.1657719500362873e-02" cType="1" res="-3.2627239823341370e-02" rms="1.2489752471446991e-01" purity="2.0198988914489746e-01" nType="0">
          <Node pos="l" depth="2" NCoef="0" IVar="-1" Cut="0.0000000000000000e+00" cType="1" res="3.1284764409065247e-02" rms="1.5957328677177429e-01" purity="9.1210550069808960e-01" nType="-99"/>
          <Node pos="r" depth="2" NCoef="0" IVar="-1" Cut="0.0000000000000000e+00" cType="1" res="-3.8636840879917145e-02" rms="1.1268637329339981e-01" purity="9.0835183858871460e-02" nType="-99"/>
        </Node>
      </Node>
    </BinaryTree>
    <BinaryTree type="DecisionTree" boostWeight="1.0000000000000000e+00" itree="27">
      <Node pos="s" depth="0" NCoef="0" IVar="0" Cut="2.8114973068237305e+01" cType="1" res="-3.3002477721311152e-04" rms="1.2232343852519989e-01" purity="4.9974724650382996e-01" nType="0">
        <Node pos="l" depth="1" NCoef="0" IVar="26" Cut="1.4656969346106052e-02" cType="1" res="4.1850846260786057e-02" rms="1.1001916229724884e-01" purity="9.2296195030212402e-01" nType="0">
          <Node pos="l" depth="2" NCoef="0" IVar="-1" Cut="0.0000000000000000e+00" cType="1" res="4.2188480496406555e-02" rms="9.8510168492794037e-02" purity="9.7904604673385620e-01" nType="-99"/>
          <Node pos="r" depth="2" NCoef="0" IVar="-1" Cut="0.0000000000000000e+00" cType="1" res="-2.9403479769825935e-02" rms="1.9018431007862091e-01" purity="8.9285716414451599e-02" nType="-99"/>
        </Node>
        <Node pos="r" depth="1" NCoef="0" IVar="3" Cut="1.5078660011291504e+01" cType="1" res="-3.2784771174192429e-02" rms="1.2140989303588867e-01" purity="1.7411798238754272e-01" nType="0">
          <Node pos="l" depth="2" NCoef="0" IVar="-1" Cut="0.0000000000000000e+00" cType="1" res="4.1497573256492615e-02" rms="1.7847293615341187e-01" purity="8.3935886621475220e-01" nType="-99"/>
          <Node pos="r" depth="2" NCoef="0" IVar="-1" Cut="0.0000000000000000e+00" cType="1" res="-3.8145344704389572e-02" rms="1.0927002131938934e-01" purity="1.1649182438850403e-01" nType="-99"/>
        </Node>
      </Node>
    </BinaryTree>
    <BinaryTree type="DecisionTree" boostWeight="1.0000000000000000e+00" itree="28">
      <Node pos="s" depth="0" NCoef="0" IVar="1" Cut="1.9434900283813477e+01" cType="1" res="-4.7590699978172779e-04" rms="1.2134380638599396e-01" purity="4.9908673763275146e-01" nType="0">
        <Node pos="l" depth="1" NCoef="0" IVar="27" Cut="1.4181593433022499e-02" cType="1" res="3.8137402385473251e-02" rms="1.1615148931741714e-01" purity="9.1071683168411255e-01" nType="0">
          <Node pos="l" depth="2" NCoef="0" IVar="-1" Cut="0.0000000000000000e+00" cType="1" res="3.8805343210697174e-02" rms="1.0979339480400085e-01" purity="9.6760541200637817e-01" nType="-99"/>
          <Node pos="r" depth="2" NCoef="0" IVar="-1" Cut="0.0000000000000000e+00" cType="1" res="-4.7391027212142944e-02" rms="1.4550046622753143e-01" purity="2.5398701429367065e-02" nType="-99"/>
        </Node>
        <Node pos="r" depth="1" NCoef="0" IVar="2" Cut="1.3330160140991211e+01" cType="1" res="-3.1725410372018814e-02" rms="1.1635772883892059e-01" purity="1.6595713794231415e-01" nType="0">
          <Node pos="l" depth="2" NCoef="0" IVar="-1" Cut="0.0000000000000000e+00" cType="1" res="4.5648448169231415e-02" rms="1.4879934489727020e-01" purity="9.3044525384902954e-01" nType="-99"/>
          <Node pos="r" depth="2" NCoef="0" IVar="-1" Cut="0.0000000000000000e+00" cType="1" res="-3.5640779882669449e-02" rms="1.1041419208049774e-01" purity="1.1719373613595963e-01" nType="-99"/>
        </Node>
      </Node>
    </BinaryTree>
    <BinaryTree type="DecisionTree" boostWeight="1.0000000000000000e+00" itree="29">
      <Node pos="s" depth="0" NCoef="0" IVar="2" Cut="1.8859617233276367e+01" cType="1" res="6.0215643316041678e-05" rms="1.1959171295166016e-01" purity="4.9986803531646729e-01" nType="0">
        <Node pos="l" depth="1" NCoef="0" IVar="26" Cut="1.2031090445816517e-02" cType="1" res="3.4741614013910294e-02" rms="1.2639753520488739e-01" purity="8.5742521286010742e-01" nType="0">
          <Node pos="l" depth="2" NCoef="0" IVar="-1" Cut="0.0000000000000000e+00" cType="1" res="3.8448382169008255e-02" rms="1.2007372826337814e-01" purity="9.5995002985000610e-01" nType="-99"/>
          <Node pos="r" depth="2" NCoef="0" IVar="-1" Cut="0.0000000000000000e+00" cType="1" res="-3.5353947430849075e-02" rms="1.4028574526309967e-01" purity="5.5187970399856567e-02" nType="-99"/>
        </Node>
        <Node pos="r" depth="1" NCoef="0" IVar="3" Cut="1.5659034729003906e+01" cType="1" res="-3.0616506934165955e-02" rms="1.0400173068046570e-01" purity="1.8359810113906860e-01" nType="0">
          <Node pos="l" depth="2" NCoef="0" IVar="-1" Cut="0.0000000000000000e+00" cType="1" res="3.9256680756807327e-02" rms="1.4589488506317139e-01" purity="8.5802090167999268e-01" nType="-99"/>
          <Node pos="r" depth="2" NCoef="0" IVar="-1" Cut="0.0000000000000000e+00" cType="1" res="-3.9088986814022064e-02" rms="9.6421264111995697e-02" purity="1.3004148006439209e-01" nType="-99"/>
        </Node>
      </Node>
    </BinaryTree>
    <BinaryTree type="DecisionTree" boostWeight="1.0000000000000000e+00" itree="30">
      <Node pos="s" depth="0" NCoef="0" IVar="2" Cut="1.8440261840820312e+01" cType="1" res="-4.3696200009435415e-04" rms="1.1760061234235764e-01" purity="4.9910870194435120e-01" nType="0">
        <Node pos="l" depth="1" NCoef="0" IVar="27" Cut="1.3056797906756401e-02" cType="1" res="3.2706864178180695e-02" rms="1.2469543516635895e-01" purity="8.6956131458282471e-01" nType="0">
          <Node pos="l" depth="2" NCoef="0" IVar="-1" Cut="0.0000000000000000e+00" cType="1" res="3.6743525415658951e-02" rms="1.2025292217731476e-01" purity="9.5175009965896606e-01" nType="-99"/>
          <Node pos="r" depth="2" NCoef="0" IVar="-1" Cut="0.0000000000000000e+00" cType="1" res="-4.6931546181440353e-02" rms="1.2983724474906921e-01" purity="2.0449483767151833e-02" nType="-99"/>
        </Node>
        <Node pos="r" depth="1" NCoef="0" IVar="22" Cut="1.3087805360555649e-02" cType="1" res="-2.7486883103847504e-02" rms="1.0391673445701599e-01" purity="1.9676840305328369e-01" nType="0">
          <Node pos="l" depth="2" NCoef="0" IVar="-1" Cut="0.0000000000000000e+00" cType="1" res="4.0736712515354156e-02" rms="1.0705651342868805e-01" purity="9.3948036432266235e-01" nType="-99"/>
          <Node pos="r" depth="2" NCoef="0" IVar="-1" Cut="0.0000000000000000e+00" cType="1" res="-3.8020763546228409e-02" rms="9.9864631891250610e-02" purity="1.2147250771522522e-01" nType="-99"/>
        </Node>
      </Node>
    </BinaryTree>
    <BinaryTree type="DecisionTree" boostWeight="1.0000000000000000e+00" itree="31">
      <Node pos="s" depth="0" NCoef="0" IVar="24" Cut="1.1353352107107639e-02" cType="1" res="-2.5342172011733055e-04" rms="1.1585456877946854e-01" purity="4.9966779351234436e-01" nType="0">
        <Node pos="l" depth="1" NCoef="0" IVar="25" Cut="3.6758193746209145e-03" cType="1" res="3.2465744763612747e-02" rms="1.1636435985565186e-01" purity="9.5300865173339844e-01" nType="0">
          <Node pos="l" depth="2" NCoef="0" IVar="-1" Cut="0.0000000000000000e+00" cType="1" res="4.8756469041109085e-02" rms="7.1875430643558502e-02" purity="9.9310261011123657e-01" nType="-99"/>
          <Node pos="r" depth="2" NCoef="0" IVar="-1" Cut="0.0000000000000000e+00" cType="1" res="-9.4375694170594215e-03" rms="1.9033908843994141e-01" purity="8.3173215389251709e-01" nType="-99"/>
        </Node>
        <Node pos="r" depth="1" NCoef="0" IVar="28" Cut="3.9576098632812500e+02" cType="1" res="-2.6957526803016663e-02" rms="1.0834581404924393e-01" purity="1.2966866791248322e-01" nType="0">
          <Node pos="l" depth="2" NCoef="0" IVar="-1" Cut="0.0000000000000000e+00" cType="1" res="4.5152507722377777e-02" rms="1.8784020841121674e-01" purity="8.6318606138229370e-01" nType="-99"/>
          <Node pos="r" depth="2" NCoef="0" IVar="-1" Cut="0.0000000000000000e+00" cType="1" res="-4.5139379799365997e-02" rms="8.7690263986587524e-02" purity="5.4946813732385635e-02" nType="-99"/>
        </Node>
      </Node>
    </BinaryTree>
    <BinaryTree type="DecisionTree" boostWeight="1.0000000000000000e+00" itree="32">
      <Node pos="s" depth="0" NCoef="0" IVar="24" Cut="1.3293392956256866e-02" cType="1" res="1.0083192137244623e-05" rms="1.1118227243423462e-01" purity="4.9877589941024780e-01" nType="0">
        <Node pos="l" depth="1" NCoef="0" IVar="25" Cut="6.4220512285828590e-03" cType="1" res="2.7112826704978943e-02" rms="1.1748228967189789e-01" purity="9.3286907672882080e-01" nType="0">
          <Node pos="l" depth="2" NCoef="0" IVar="-1" Cut="0.0000000000000000e+00" cType="1" res="3.7399139255285263e-02" rms="1.0111459344625473e-01" purity="9.7582662105560303e-01" nType="-99"/>
          <Node pos="r" depth="2" NCoef="0" IVar="-1" Cut="0.0000000000000000e+00" cType="1" res="-4.6662043780088425e-02" rms="2.1335446834564209e-01" purity="3.8118353486061096e-01" nType="-99"/>
        </Node>
        <Node pos="r" depth="1" NCoef="0" IVar="7" Cut="2.5465080261230469e+01" cType="1" res="-2.5075601413846016e-02" rms="9.8584666848182678e-02" purity="9.6989087760448456e-02" nType="0">
          <Node pos="l" depth="2" NCoef="0" IVar="-1" Cut="0.0000000000000000e+00" cType="1" res="4.0119692683219910e-02" rms="1.9172495603561401e-01" purity="6.8847858905792236e-01" nType="-99"/>
          <Node pos="r" depth="2" NCoef="0" IVar="-1" Cut="0.0000000000000000e+00" cType="1" res="-4.8093542456626892e-02" rms="7.1817815303802490e-02" purity="2.7862174436450005e-02" nType="-99"/>
        </Node>
      </Node>
    </BinaryTree>
    <BinaryTree type="DecisionTree" boostWeight="1.0000000000000000e+00" itree="33">
      <Node pos="s" depth="0" NCoef="0" IVar="5" Cut="2.4192857742309570e+01" cType="1" res="1.6627791046630591e-04" rms="1.1011105030775070e-01" purity="5.0204551219940186e-01" nType="0">
        <Node pos="l" depth="1" NCoef="0" IVar="30" Cut="1.2393514251708984e+02" cType="1" res="3.2862298190593719e-02" rms="1.1856400966644287e-01" purity="8.1844490766525269e-01" nType="0">
          <Node pos="l" depth="2" NCoef="0" IVar="-1" Cut="0.0000000000000000e+00" cType="1" res="3.7800829857587814e-02" rms="1.1992494761943817e-01" purity="9.1997116804122925e-01" nType="-99"/>
          <Node pos="r" depth="2" NCoef="0" IVar="-1" Cut="0.0000000000000000e+00" cType="1" res="-5.7721458375453949e-02" rms="6.6571071743965149e-02" purity="2.0012007735203952e-04" nType="-99"/>
        </Node>
        <Node pos="r" depth="1" NCoef="0" IVar="23" Cut="1.1974375694990158e-02" cType="1" res="-1.8476804718375206e-02" rms="1.0032521933317184e-01" purity="3.2163640856742859e-01" nType="0">
          <Node pos="l" depth="2" NCoef="0" IVar="-1" Cut="0.0000000000000000e+00" cType="1" res="3.1540356576442719e-02" rms="1.0514770448207855e-01" purity="9.5386475324630737e-01" nType="-99"/>
          <Node pos="r" depth="2" NCoef="0" IVar="-1" Cut="0.0000000000000000e+00" cType="1" res="-5.0866756588220596e-02" rms="9.1238141059875488e-02" purity="6.1078205704689026e-02" nType="-99"/>
        </Node>
      </Node>
    </BinaryTree>
    <BinaryTree type="DecisionTree" boostWeight="1.0000000000000000e+00" itree="34">
      <Node pos="s" depth="0" NCoef="0" IVar="1" Cut="1.7060264587402344e+01" cType="1" res="1.9657485245261341e-04" rms="1.0803732275962830e-01" purity="5.0108367204666138e-01" nType="0">
        <Node pos="l" depth="1" NCoef="0" IVar="21" Cut="6.9661252200603485e-02" cType="1" res="3.0742526054382324e-02" rms="9.5935292541980743e-02" purity="9.5149612426757812e-01" nType="0">
          <Node pos="l" depth="2" NCoef="0" IVar="-1" Cut="0.0000000000000000e+00" cType="1" res="3.3608935773372650e-02" rms="8.7353974580764771e-02" purity="9.5861881971359253e-01" nType="-99"/>
          <Node pos="r" depth="2" NCoef="0" IVar="-1" Cut="0.0000000000000000e+00" cType="1" res="4.3126009404659271e-02" rms="1.3960948586463928e-01" purity="8.9735847711563110e-01" nType="-99"/>
        </Node>
        <Node pos="r" depth="1" NCoef="0" IVar="4" Cut="1.5564661979675293e+01" cType="1" res="-1.7327452078461647e-02" rms="1.1066091060638428e-01" purity="2.4268472194671631e-01" nType="0">
          <Node pos="l" depth="2" NCoef="0" IVar="-1" Cut="0.0000000000000000e+00" cType="1" res="4.8171449452638626e-02" rms="1.6683229804039001e-01" purity="9.0109890699386597e-01" nType="-99"/>
          <Node pos="r" depth="2" NCoef="0" IVar="-1" Cut="0.0000000000000000e+00" cType="1" res="-2.6806380599737167e-02" rms="1.0500788688659668e-01" purity="2.1190124750137329e-01" nType="-99"/>
        </Node>
      </Node>
    </BinaryTree>
    <BinaryTree type="DecisionTree" boostWeight="1.0000000000000000e+00" itree="35">
      <Node pos="s" depth="0" NCoef="0" IVar="6" Cut="2.8096202850341797e+01" cType="1" res="7.8494870103895664e-04" rms="1.0654163360595703e-01" purity="5.0125467777252197e-01" nType="0">
        <Node pos="l" depth="1" NCoef="0" IVar="30" Cut="1.1190363311767578e+02" cType="1" res="3.0942674726247787e-02" rms="1.1801438033580780e-01" purity="7.9490256309509277e-01" nType="0">
          <Node pos="l" depth="2" NCoef="0" IVar="-1" Cut="0.0000000000000000e+00" cType="1" res="3.8858763873577118e-02" rms="1.2169743329286575e-01" purity="9.2443287372589111e-01" nType="-99"/>
          <Node pos="r" depth="2" NCoef="0" IVar="-1" Cut="0.0000000000000000e+00" cType="1" res="-5.5511467158794403e-02" rms="5.3471967577934265e-02" purity="3.2325845677405596e-04" nType="-99"/>
        </Node>
        <Node pos="r" depth="1" NCoef="0" IVar="23" Cut="1.1594516225159168e-02" cType="1" res="-1.5731733292341232e-02" rms="9.5756195485591888e-02" purity="3.4043055772781372e-01" nType="0">
          <Node pos="l" depth="2" NCoef="0" IVar="-1" Cut="0.0000000000000000e+00" cType="1" res="3.1865254044532776e-02" rms="1.0142161697149277e-01" purity="9.6151018142700195e-01" nType="-99"/>
          <Node pos="r" depth="2" NCoef="0" IVar="-1" Cut="0.0000000000000000e+00" cType="1" res="-5.4569132626056671e-02" rms="8.5718020796775818e-02" purity="4.7146718949079514e-02" nType="-99"/>
        </Node>
      </Node>
    </BinaryTree>
    <BinaryTree type="DecisionTree" boostWeight="1.0000000000000000e+00" itree="36">
      <Node pos="s" depth="0" NCoef="0" IVar="4" Cut="2.1483152389526367e+01" cType="1" res="1.1012089089490473e-04" rms="1.0297589749097824e-01" purity="5.0268173217773438e-01" nType="0">
        <Node pos="l" depth="1" NCoef="0" IVar="30" Cut="1.1935137176513672e+02" cType="1" res="2.5032246485352516e-02" rms="1.1126729100942612e-01" purity="8.3557975292205811e-01" nType="0">
          <Node pos="l" depth="2" NCoef="0" IVar="-1" Cut="0.0000000000000000e+00" cType="1" res="3.3673439174890518e-02" rms="1.1227249354124069e-01" purity="9.2889857292175293e-01" nType="-99"/>
          <Node pos="r" depth="2" NCoef="0" IVar="-1" Cut="0.0000000000000000e+00" cType="1" res="-5.9265233576297760e-02" rms="7.2006799280643463e-02" purity="7.9554494004696608e-04" nType="-99"/>
        </Node>
        <Node pos="r" depth="1" NCoef="0" IVar="22" Cut="1.2247349135577679e-02" cType="1" res="-1.6484275460243225e-02" rms="9.3446753919124603e-02" purity="2.8102156519889832e-01" nType="0">
          <Node pos="l" depth="2" NCoef="0" IVar="-1" Cut="0.0000000000000000e+00" cType="1" res="3.9468172937631607e-02" rms="8.3422414958477020e-02" purity="9.6813744306564331e-01" nType="-99"/>
          <Node pos="r" depth="2" NCoef="0" IVar="-1" Cut="0.0000000000000000e+00" cType="1" res="-3.9657510817050934e-02" rms="9.2264913022518158e-02" purity="1.5049435198307037e-01" nType="-99"/>
        </Node>
      </Node>
    </BinaryTree>
    <BinaryTree type="DecisionTree" boostWeight="1.0000000000000000e+00" itree="37">
      <Node pos="s" depth="0" NCoef="0" IVar="2" Cut="1.6079126358032227e+01" cType="1" res="-4.3735816143453121e-04" rms="1.0502241551876068e-01" purity="4.9791806936264038e-01" nType="0">
        <Node pos="l" depth="1" NCoef="0" IVar="8" Cut="2.8100931167602539e+01" cType="1" res="2.6680219918489456e-02" rms="1.0421458631753922e-01" purity="9.3077170848846436e-01" nType="0">
          <Node pos="l" depth="2" NCoef="0" IVar="-1" Cut="0.0000000000000000e+00" cType="1" res="5.0206918269395828e-02" rms="1.3165159523487091e-01" purity="9.4883537292480469e-01" nType="-99"/>
          <Node pos="r" depth="2" NCoef="0" IVar="-1" Cut="0.0000000000000000e+00" cType="1" res="2.7716172859072685e-02" rms="9.8677992820739746e-02" purity="9.2839360237121582e-01" nType="-99"/>
        </Node>
        <Node pos="r" depth="1" NCoef="0" IVar="1" Cut="1.3704470634460449e+01" cType="1" res="-1.4683093875646591e-02" rms="1.0261214524507523e-01" purity="2.7052611112594604e-01" nType="0">
          <Node pos="l" depth="2" NCoef="0" IVar="-1" Cut="0.0000000000000000e+00" cType="1" res="4.2372427880764008e-02" rms="9.0375907719135284e-02" purity="9.7646683454513550e-01" nType="-99"/>
          <Node pos="r" depth="2" NCoef="0" IVar="-1" Cut="0.0000000000000000e+00" cType="1" res="-2.9706129804253578e-02" rms="1.0240341722965240e-01" purity="1.7945794761180878e-01" nType="-99"/>
        </Node>
      </Node>
    </BinaryTree>
    <BinaryTree type="DecisionTree" boostWeight="1.0000000000000000e+00" itree="38">
      <Node pos="s" depth="0" NCoef="0" IVar="0" Cut="2.3660610198974609e+01" cType="1" res="-1.2052942111040466e-05" rms="1.0210518538951874e-01" purity="4.9939432740211487e-01" nType="0">
        <Node pos="l" depth="1" NCoef="0" IVar="21" Cut="7.5598098337650299e-02" cType="1" res="2.7147822082042694e-02" rms="7.9459123313426971e-02" purity="9.6661424636840820e-01" nType="0">
          <Node pos="l" depth="2" NCoef="0" IVar="-1" Cut="0.0000000000000000e+00" cType="1" res="3.7074405699968338e-02" rms="6.8939626216888428e-02" purity="9.7083586454391479e-01" nType="-99"/>
          <Node pos="r" depth="2" NCoef="0" IVar="-1" Cut="0.0000000000000000e+00" cType="1" res="4.6970296651124954e-02" rms="1.3476514816284180e-01" purity="9.2885065078735352e-01" nType="-99"/>
        </Node>
        <Node pos="r" depth="1" NCoef="0" IVar="3" Cut="1.4996653556823730e+01" cType="1" res="-1.1994211934506893e-02" rms="1.0849163681268692e-01" purity="2.9327028989791870e-01" nType="0">
          <Node pos="l" depth="2" NCoef="0" IVar="-1" Cut="0.0000000000000000e+00" cType="1" res="3.0658083036541939e-02" rms="1.4179389178752899e-01" purity="8.9570796489715576e-01" nType="-99"/>
          <Node pos="r" depth="2" NCoef="0" IVar="-1" Cut="0.0000000000000000e+00" cType="1" res="-2.6228370144963264e-02" rms="1.0173559933900833e-01" purity="2.1476641297340393e-01" nType="-99"/>
        </Node>
      </Node>
    </BinaryTree>
    <BinaryTree type="DecisionTree" boostWeight="1.0000000000000000e+00" itree="39">
      <Node pos="s" depth="0" NCoef="0" IVar="3" Cut="2.1283039093017578e+01" cType="1" res="5.4495735093951225e-04" rms="9.8928235471248627e-02" purity="5.0045973062515259e-01" nType="0">
        <Node pos="l" depth="1" NCoef="0" IVar="26" Cut="1.4365043491125107e-02" cType="1" res="1.6784869134426117e-02" rms="1.0829120129346848e-01" purity="7.8733032941818237e-01" nType="0">
          <Node pos="l" depth="2" NCoef="0" IVar="-1" Cut="0.0000000000000000e+00" cType="1" res="2.8986195102334023e-02" rms="1.0862585902214050e-01" purity="9.2921459674835205e-01" nType="-99"/>
          <Node pos="r" depth="2" NCoef="0" IVar="-1" Cut="0.0000000000000000e+00" cType="1" res="-3.5397801548242569e-02" rms="9.5500491559505463e-02" purity="2.4817937985062599e-02" nType="-99"/>
        </Node>
        <Node pos="r" depth="1" NCoef="0" IVar="22" Cut="1.2165898457169533e-02" cType="1" res="-1.7902705818414688e-02" rms="8.3324313163757324e-02" purity="1.7459017038345337e-01" nType="0">
          <Node pos="l" depth="2" NCoef="0" IVar="-1" Cut="0.0000000000000000e+00" cType="1" res="3.1190559267997742e-02" rms="9.9589422345161438e-02" purity="9.4458305835723877e-01" nType="-99"/>
          <Node pos="r" depth="2" NCoef="0" IVar="-1" Cut="0.0000000000000000e+00" cType="1" res="-4.1527707129716873e-02" rms="7.9992987215518951e-02" purity="9.2978015542030334e-02" nType="-99"/>
        </Node>
      </Node>
    </BinaryTree>
    <BinaryTree type="DecisionTree" boostWeight="1.0000000000000000e+00" itree="40">
      <Node pos="s" depth="0" NCoef="0" IVar="6" Cut="2.5700187683105469e+01" cType="1" res="3.7396716652438045e-04" rms="9.8590254783630371e-02" purity="4.9947056174278259e-01" nType="0">
        <Node pos="l" depth="1" NCoef="0" IVar="27" Cut="1.4522072859108448e-02" cType="1" res="3.0028190463781357e-02" rms="1.1331890523433685e-01" purity="8.3766466379165649e-01" nType="0">
          <Node pos="l" depth="2" NCoef="0" IVar="-1" Cut="0.0000000000000000e+00" cType="1" res="4.0422741323709488e-02" rms="1.0756254196166992e-01" purity="9.4114810228347778e-01" nType="-99"/>
          <Node pos="r" depth="2" NCoef="0" IVar="-1" Cut="0.0000000000000000e+00" cType="1" res="-2.8328642249107361e-02" rms="1.3789549469947815e-01" purity="3.3707864582538605e-02" nType="-99"/>
        </Node>
        <Node pos="r" depth="1" NCoef="0" IVar="23" Cut="1.1709680780768394e-02" cType="1" res="-9.1103613376617432e-03" rms="9.1381624341011047e-02" purity="3.9130571484565735e-01" nType="0">
          <Node pos="l" depth="2" NCoef="0" IVar="-1" Cut="0.0000000000000000e+00" cType="1" res="3.1118901446461678e-02" rms="9.4203040003776550e-02" purity="9.6724838018417358e-01" nType="-99"/>
          <Node pos="r" depth="2" NCoef="0" IVar="-1" Cut="0.0000000000000000e+00" cType="1" res="-4.4622961431741714e-02" rms="8.5787899792194366e-02" purity="1.0455819219350815e-01" nType="-99"/>
        </Node>
      </Node>
    </BinaryTree>
    <BinaryTree type="DecisionTree" boostWeight="1.0000000000000000e+00" itree="41">
      <Node pos="s" depth="0" NCoef="0" IVar="5" Cut="2.3071292877197266e+01" cType="1" res="-1.4679288142360747e-05" rms="9.7732208669185638e-02" purity="4.9836879968643188e-01" nType="0">
        <Node pos="l" depth="1" NCoef="0" IVar="27" Cut="1.3543853536248207e-02" cType="1" res="2.3193983361124992e-02" rms="1.0900997370481491e-01" purity="8.4587877988815308e-01" nType="0">
          <Node pos="l" depth="2" NCoef="0" IVar="-1" Cut="0.0000000000000000e+00" cType="1" res="3.5229582339525223e-02" rms="1.0547050833702087e-01" purity="9.4308310747146606e-01" nType="-99"/>
          <Node pos="r" depth="2" NCoef="0" IVar="-1" Cut="0.0000000000000000e+00" cType="1" res="-3.4748166799545288e-02" rms="1.2287478893995285e-01" purity="2.5931520387530327e-02" nType="-99"/>
        </Node>
        <Node pos="r" depth="1" NCoef="0" IVar="23" Cut="1.1565085500478745e-02" cType="1" res="-9.9110389128327370e-03" rms="9.0718008577823639e-02" purity="3.5018774867057800e-01" nType="0">
          <Node pos="l" depth="2" NCoef="0" IVar="-1" Cut="0.0000000000000000e+00" cType="1" res="2.7461960911750793e-02" rms="9.8488852381706238e-02" purity="9.6169739961624146e-01" nType="-99"/>
          <Node pos="r" depth="2" NCoef="0" IVar="-1" Cut="0.0000000000000000e+00" cType="1" res="-4.2841184884309769e-02" rms="8.4261216223239899e-02" purity="9.1408118605613708e-02" nType="-99"/>
        </Node>
      </Node>
    </BinaryTree>
    <BinaryTree type="DecisionTree" boostWeight="1.0000000000000000e+00" itree="42">
      <Node pos="s" depth="0" NCoef="0" IVar="0" Cut="2.8700122833251953e+01" cType="1" res="6.8808876676484942e-04" rms="9.4000726938247681e-02" purity="5.0150418281555176e-01" nType="0">
        <Node pos="l" depth="1" NCoef="0" IVar="27" Cut="1.5951434150338173e-02" cType="1" res="1.6625881195068359e-02" rms="9.2001780867576599e-02" purity="9.1387915611267090e-01" nType="0">
          <Node pos="l" depth="2" NCoef="0" IVar="-1" Cut="0.0000000000000000e+00" cType="1" res="3.1380575150251389e-02" rms="8.7436109781265259e-02" purity="9.6925437450408936e-01" nType="-99"/>
          <Node pos="r" depth="2" NCoef="0" IVar="-1" Cut="0.0000000000000000e+00" cType="1" res="-3.3943165093660355e-02" rms="1.3780535757541656e-01" purity="2.7002427726984024e-02" nType="-99"/>
        </Node>
        <Node pos="r" depth="1" NCoef="0" IVar="3" Cut="1.5055738449096680e+01" cType="1" res="-1.2410992756485939e-02" rms="9.3602158129215240e-02" purity="1.6257803142070770e-01" nType="0">
          <Node pos="l" depth="2" NCoef="0" IVar="-1" Cut="0.0000000000000000e+00" cType="1" res="2.7980444952845573e-02" rms="1.5027508139610291e-01" purity="8.3200794458389282e-01" nType="-99"/>
          <Node pos="r" depth="2" NCoef="0" IVar="-1" Cut="0.0000000000000000e+00" cType="1" res="-2.9638385400176048e-02" rms="8.6339250206947327e-02" purity="1.0930578410625458e-01" nType="-99"/>
        </Node>
      </Node>
    </BinaryTree>
    <BinaryTree type="DecisionTree" boostWeight="1.0000000000000000e+00" itree="43">
      <Node pos="s" depth="0" NCoef="0" IVar="1" Cut="1.6830617904663086e+01" cType="1" res="4.6217354247346520e-04" rms="9.4725787639617920e-02" purity="5.0148797035217285e-01" nType="0">
        <Node pos="l" depth="1" NCoef="0" IVar="8" Cut="2.8916654586791992e+01" cType="1" res="1.9524402916431427e-02" rms="8.4190115332603455e-02" purity="9.5600080490112305e-01" nType="0">
          <Node pos="l" depth="2" NCoef="0" IVar="-1" Cut="0.0000000000000000e+00" cType="1" res="4.7067213803529739e-02" rms="1.1033736169338226e-01" purity="9.6759259700775146e-01" nType="-99"/>
          <Node pos="r" depth="2" NCoef="0" IVar="-1" Cut="0.0000000000000000e+00" cType="1" res="2.8379954397678375e-02" rms="7.8535318374633789e-02" purity="9.5418083667755127e-01" nType="-99"/>
        </Node>
        <Node pos="r" depth="1" NCoef="0" IVar="6" Cut="2.3305789947509766e+01" cType="1" res="-1.0100726038217545e-02" rms="9.8511815071105957e-02" purity="2.4963012337684631e-01" nType="0">
          <Node pos="l" depth="2" NCoef="0" IVar="-1" Cut="0.0000000000000000e+00" cType="1" res="2.8246467933058739e-02" rms="1.6003513336181641e-01" purity="7.0881170034408569e-01" nType="-99"/>
          <Node pos="r" depth="2" NCoef="0" IVar="-1" Cut="0.0000000000000000e+00" cType="1" res="-2.5901993736624718e-02" rms="8.9696519076824188e-02" purity="2.0785632729530334e-01" nType="-99"/>
        </Node>
      </Node>
    </BinaryTree>
    <BinaryTree type="DecisionTree" boostWeight="1.0000000000000000e+00" itree="44">
      <Node pos="s" depth="0" NCoef="0" IVar="6" Cut="2.5579563140869141e+01" cType="1" res="4.9362188292434439e-05" rms="9.5732159912586212e-02" purity="4.9840280413627625e-01" nType="0">
        <Node pos="l" depth="1" NCoef="0" IVar="9" Cut="3.0747903823852539e+01" cType="1" res="2.4013631045818329e-02" rms="1.1461272835731506e-01" purity="8.4158349037170410e-01" nType="0">
          <Node pos="l" depth="2" NCoef="0" IVar="-1" Cut="0.0000000000000000e+00" cType="1" res="4.5812226831912994e-02" rms="1.5894001722335815e-01" purity="8.3905011415481567e-01" nType="-99"/>
          <Node pos="r" depth="2" NCoef="0" IVar="-1" Cut="0.0000000000000000e+00" cType="1" res="2.2743765264749527e-02" rms="1.0143046826124191e-01" purity="8.4209877252578735e-01" nType="-99"/>
        </Node>
        <Node pos="r" depth="1" NCoef="0" IVar="23" Cut="1.1358375661075115e-02" cType="1" res="-7.2223111055791378e-03" rms="8.7934210896492004e-02" purity="3.9426869153976440e-01" nType="0">
          <Node pos="l" depth="2" NCoef="0" IVar="-1" Cut="0.0000000000000000e+00" cType="1" res="2.9867440462112427e-02" rms="9.1042622923851013e-02" purity="9.6851766109466553e-01" nType="-99"/>
          <Node pos="r" depth="2" NCoef="0" IVar="-1" Cut="0.0000000000000000e+00" cType="1" res="-4.2041998356580734e-02" rms="8.3457648754119873e-02" purity="1.1272958666086197e-01" nType="-99"/>
        </Node>
      </Node>
    </BinaryTree>
    <BinaryTree type="DecisionTree" boostWeight="1.0000000000000000e+00" itree="45">
      <Node pos="s" depth="0" NCoef="0" IVar="0" Cut="3.6445549011230469e+01" cType="1" res="8.7346481450367719e-05" rms="9.3691058456897736e-02" purity="5.0005203485488892e-01" nType="0">
        <Node pos="l" depth="1" NCoef="0" IVar="28" Cut="3.6935775756835938e+02" cType="1" res="9.9677909165620804e-03" rms="1.0245379060506821e-01" purity="7.9580092430114746e-01" nType="0">
          <Node pos="l" depth="2" NCoef="0" IVar="-1" Cut="0.0000000000000000e+00" cType="1" res="4.6666957437992096e-02" rms="1.6514305770397186e-01" purity="9.2644715309143066e-01" nType="-99"/>
          <Node pos="r" depth="2" NCoef="0" IVar="-1" Cut="0.0000000000000000e+00" cType="1" res="1.1369509622454643e-02" rms="9.7238242626190186e-02" purity="7.8898203372955322e-01" nType="-99"/>
        </Node>
        <Node pos="r" depth="1" NCoef="0" IVar="25" Cut="1.3583178631961346e-02" cType="1" res="-1.5234001912176609e-02" rms="7.5674600899219513e-02" purity="4.1441991925239563e-02" nType="0">
          <Node pos="l" depth="2" NCoef="0" IVar="-1" Cut="0.0000000000000000e+00" cType="1" res="-2.2565387189388275e-02" rms="1.9196377694606781e-01" purity="2.8857100009918213e-01" nType="-99"/>
          <Node pos="r" depth="2" NCoef="0" IVar="-1" Cut="0.0000000000000000e+00" cType="1" res="-4.8309143632650375e-02" rms="2.4213861674070358e-02" purity="1.2348904274404049e-03" nType="-99"/>
        </Node>
      </Node>
    </BinaryTree>
    <BinaryTree type="DecisionTree" boostWeight="1.0000000000000000e+00" itree="46">
      <Node pos="s" depth="0" NCoef="0" IVar="6" Cut="3.0965293884277344e+01" cType="1" res="-3.5787881643045694e-05" rms="9.4486303627490997e-02" purity="4.9762463569641113e-01" nType="0">
        <Node pos="l" depth="1" NCoef="0" IVar="26" Cut="1.2582789175212383e-02" cType="1" res="1.1984076350927353e-02" rms="1.0296709835529327e-01" purity="7.3714119195938110e-01" nType="0">
          <Node pos="l" depth="2" NCoef="0" IVar="-1" Cut="0.0000000000000000e+00" cType="1" res="2.9336223378777504e-02" rms="1.0330914705991745e-01" purity="9.3938624858856201e-01" nType="-99"/>
          <Node pos="r" depth="2" NCoef="0" IVar="-1" Cut="0.0000000000000000e+00" cType="1" res="-3.0208567157387733e-02" rms="9.5768295228481293e-02" purity="3.4462489187717438e-02" nType="-99"/>
        </Node>
        <Node pos="r" depth="1" NCoef="0" IVar="22" Cut="1.2363940477371216e-02" cType="1" res="-1.1484280228614807e-02" rms="8.4047757089138031e-02" purity="2.6949366927146912e-01" nType="0">
          <Node pos="l" depth="2" NCoef="0" IVar="-1" Cut="0.0000000000000000e+00" cType="1" res="3.7374082952737808e-02" rms="7.8200735151767731e-02" purity="9.7168415784835815e-01" nType="-99"/>
          <Node pos="r" depth="2" NCoef="0" IVar="-1" Cut="0.0000000000000000e+00" cType="1" res="-5.2551940083503723e-02" rms="8.3134457468986511e-02" purity="8.1063389778137207e-02" nType="-99"/>
        </Node>
      </Node>
    </BinaryTree>
    <BinaryTree type="DecisionTree" boostWeight="1.0000000000000000e+00" itree="47">
      <Node pos="s" depth="0" NCoef="0" IVar="24" Cut="1.2086524628102779e-02" cType="1" res="-1.3566683628596365e-04" rms="9.2805273830890656e-02" purity="5.0046306848526001e-01" nType="0">
        <Node pos="l" depth="1" NCoef="0" IVar="25" Cut="3.2187514007091522e-03" cType="1" res="1.1958225630223751e-02" rms="1.0147759318351746e-01" purity="9.4655501842498779e-01" nType="0">
          <Node pos="l" depth="2" NCoef="0" IVar="-1" Cut="0.0000000000000000e+00" cType="1" res="4.4281873852014542e-02" rms="6.4117260277271271e-02" purity="9.9440622329711914e-01" nType="-99"/>
          <Node pos="r" depth="2" NCoef="0" IVar="-1" Cut="0.0000000000000000e+00" cType="1" res="-1.1814403347671032e-02" rms="1.4689667522907257e-01" purity="8.5402345657348633e-01" nType="-99"/>
        </Node>
        <Node pos="r" depth="1" NCoef="0" IVar="28" Cut="4.1090487670898438e+02" cType="1" res="-1.0579206049442291e-02" rms="8.3201475441455841e-02" purity="1.1524556577205658e-01" nType="0">
          <Node pos="l" depth="2" NCoef="0" IVar="-1" Cut="0.0000000000000000e+00" cType="1" res="3.0230972915887833e-02" rms="1.5453976392745972e-01" purity="8.1368869543075562e-01" nType="-99"/>
          <Node pos="r" depth="2" NCoef="0" IVar="-1" Cut="0.0000000000000000e+00" cType="1" res="-4.6364463865756989e-02" rms="6.6107630729675293e-02" purity="2.4493981152772903e-02" nType="-99"/>
        </Node>
      </Node>
    </BinaryTree>
    <BinaryTree type="DecisionTree" boostWeight="1.0000000000000000e+00" itree="48">
      <Node pos="s" depth="0" NCoef="0" IVar="3" Cut="2.0214118957519531e+01" cType="1" res="4.6582044888054952e-05" rms="9.1934785246849060e-02" purity="4.9942687153816223e-01" nType="0">
        <Node pos="l" depth="1" NCoef="0" IVar="26" Cut="1.1268614791333675e-02" cType="1" res="1.1366596445441246e-02" rms="1.0116996616125107e-01" purity="8.1868475675582886e-01" nType="0">
          <Node pos="l" depth="2" NCoef="0" IVar="-1" Cut="0.0000000000000000e+00" cType="1" res="2.7281535789370537e-02" rms="9.8474092781543732e-02" purity="9.5527452230453491e-01" nType="-99"/>
          <Node pos="r" depth="2" NCoef="0" IVar="-1" Cut="0.0000000000000000e+00" cType="1" res="-2.9606491327285767e-02" rms="1.0993213951587677e-01" purity="4.6887267380952835e-02" nType="-99"/>
        </Node>
        <Node pos="r" depth="1" NCoef="0" IVar="2" Cut="1.3419710159301758e+01" cType="1" res="-1.0205966420471668e-02" rms="8.1336602568626404e-02" purity="2.1027466654777527e-01" nType="0">
          <Node pos="l" depth="2" NCoef="0" IVar="-1" Cut="0.0000000000000000e+00" cType="1" res="3.5454191267490387e-02" rms="9.1202475130558014e-02" purity="9.5259755849838257e-01" nType="-99"/>
          <Node pos="r" depth="2" NCoef="0" IVar="-1" Cut="0.0000000000000000e+00" cType="1" res="-3.1638003885746002e-02" rms="8.0129265785217285e-02" purity="1.5968018770217896e-01" nType="-99"/>
        </Node>
      </Node>
    </BinaryTree>
    <BinaryTree type="DecisionTree" boostWeight="1.0000000000000000e+00" itree="49">
      <Node pos="s" depth="0" NCoef="0" IVar="7" Cut="2.9734243392944336e+01" cType="1" res="2.0595145178958774e-04" rms="9.0971887111663818e-02" purity="5.0070828199386597e-01" nType="0">
        <Node pos="l" depth="1" NCoef="0" IVar="27" Cut="1.2664602138102055e-02" cType="1" res="1.8344361335039139e-02" rms="1.1008546501398087e-01" purity="7.6476281881332397e-01" nType="0">
          <Node pos="l" depth="2" NCoef="0" IVar="-1" Cut="0.0000000000000000e+00" cType="1" res="3.5669315606355667e-02" rms="1.0563461482524872e-01" purity="9.4271290302276611e-01" nType="-99"/>
          <Node pos="r" depth="2" NCoef="0" IVar="-1" Cut="0.0000000000000000e+00" cType="1" res="-2.5643371045589447e-02" rms="1.2066360563039780e-01" purity="2.7869939804077148e-02" nType="-99"/>
        </Node>
        <Node pos="r" depth="1" NCoef="0" IVar="23" Cut="1.1767419055104256e-02" cType="1" res="-5.7318648323416710e-03" rms="8.2915000617504120e-02" purity="4.1426700353622437e-01" nType="0">
          <Node pos="l" depth="2" NCoef="0" IVar="-1" Cut="0.0000000000000000e+00" cType="1" res="2.4604644626379013e-02" rms="8.9908555150032043e-02" purity="9.6715438365936279e-01" nType="-99"/>
          <Node pos="r" depth="2" NCoef="0" IVar="-1" Cut="0.0000000000000000e+00" cType="1" res="-4.3151225894689560e-02" rms="7.6869949698448181e-02" purity="1.0774686932563782e-01" nType="-99"/>
        </Node>
      </Node>
    </BinaryTree>
    <BinaryTree type="DecisionTree" boostWeight="1.0000000000000000e+00" itree="50">
      <Node pos="s" depth="0" NCoef="0" IVar="4" Cut="2.4519655227661133e+01" cType="1" res="3.3200081088580191e-04" rms="8.8601246476173401e-02" purity="5.0030803680419922e-01" nType="0">
        <Node pos="l" depth="1" NCoef="0" IVar="27" Cut="1.3131309300661087e-02" cType="1" res="8.8422214612364769e-03" rms="9.9889829754829407e-02" purity="7.5836151838302612e-01" nType="0">
          <Node pos="l" depth="2" NCoef="0" IVar="-1" Cut="0.0000000000000000e+00" cType="1" res="2.2929532453417778e-02" rms="1.0171957314014435e-01" purity="9.1317874193191528e-01" nType="-99"/>
          <Node pos="r" depth="2" NCoef="0" IVar="-1" Cut="0.0000000000000000e+00" cType="1" res="-4.0338445454835892e-02" rms="8.5602313280105591e-02" purity="1.0435799136757851e-02" nType="-99"/>
        </Node>
        <Node pos="r" depth="1" NCoef="0" IVar="22" Cut="1.2093540281057358e-02" cType="1" res="-1.0449763387441635e-02" rms="7.0330880582332611e-02" purity="1.7337517440319061e-01" nType="0">
          <Node pos="l" depth="2" NCoef="0" IVar="-1" Cut="0.0000000000000000e+00" cType="1" res="2.7678541839122772e-02" rms="9.0329527854919434e-02" purity="9.5776176452636719e-01" nType="-99"/>
          <Node pos="r" depth="2" NCoef="0" IVar="-1" Cut="0.0000000000000000e+00" cType="1" res="-5.0135049968957901e-02" rms="6.5743036568164825e-02" purity="5.2464094012975693e-02" nType="-99"/>
        </Node>
      </Node>
    </BinaryTree>
    <BinaryTree type="DecisionTree" boostWeight="1.0000000000000000e+00" itree="51">
      <Node pos="s" depth="0" NCoef="0" IVar="5" Cut="2.4192857742309570e+01" cType="1" res="-1.6511871945112944e-04" rms="9.0052470564842224e-02" purity="5.0020444393157959e-01" nType="0">
        <Node pos="l" depth="1" NCoef="0" IVar="9" Cut="2.9047117233276367e+01" cType="1" res="1.2206107378005981e-02" rms="1.0434507578611374e-01" purity="8.1949019432067871e-01" nType="0">
          <Node pos="l" depth="2" NCoef="0" IVar="-1" Cut="0.0000000000000000e+00" cType="1" res="4.4416908174753189e-02" rms="1.7393450438976288e-01" purity="8.2002902030944824e-01" nType="-99"/>
          <Node pos="r" depth="2" NCoef="0" IVar="-1" Cut="0.0000000000000000e+00" cType="1" res="1.5208953991532326e-02" rms="9.5444545149803162e-02" purity="8.1944543123245239e-01" nType="-99"/>
        </Node>
        <Node pos="r" depth="1" NCoef="0" IVar="22" Cut="1.2905227951705456e-02" cType="1" res="-7.1376110427081585e-03" rms="8.0053888261318207e-02" purity="3.2025325298309326e-01" nType="0">
          <Node pos="l" depth="2" NCoef="0" IVar="-1" Cut="0.0000000000000000e+00" cType="1" res="3.3393200486898422e-02" rms="7.5947955250740051e-02" purity="9.7310256958007812e-01" nType="-99"/>
          <Node pos="r" depth="2" NCoef="0" IVar="-1" Cut="0.0000000000000000e+00" cType="1" res="-3.6771375685930252e-02" rms="7.9976998269557953e-02" purity="1.6368751227855682e-01" nType="-99"/>
        </Node>
      </Node>
    </BinaryTree>
    <BinaryTree type="DecisionTree" boostWeight="1.0000000000000000e+00" itree="52">
      <Node pos="s" depth="0" NCoef="0" IVar="0" Cut="2.4691675186157227e+01" cType="1" res="2.9679387807846069e-04" rms="8.7232224643230438e-02" purity="5.0206369161605835e-01" nType="0">
        <Node pos="l" depth="1" NCoef="0" IVar="8" Cut="2.8024250030517578e+01" cType="1" res="1.2919214554131031e-02" rms="7.3000542819499969e-02" purity="9.5991468429565430e-01" nType="0">
          <Node pos="l" depth="2" NCoef="0" IVar="-1" Cut="0.0000000000000000e+00" cType="1" res="4.5773580670356750e-02" rms="1.0179417580366135e-01" purity="9.6978020668029785e-01" nType="-99"/>
          <Node pos="r" depth="2" NCoef="0" IVar="-1" Cut="0.0000000000000000e+00" cType="1" res="2.6550952345132828e-02" rms="6.7613855004310608e-02" purity="9.5856010913848877e-01" nType="-99"/>
        </Node>
        <Node pos="r" depth="1" NCoef="0" IVar="2" Cut="1.3563656806945801e+01" cType="1" res="-6.1372751370072365e-03" rms="9.3001268804073334e-02" purity="2.6868176460266113e-01" nType="0">
          <Node pos="l" depth="2" NCoef="0" IVar="-1" Cut="0.0000000000000000e+00" cType="1" res="2.5722490623593330e-02" rms="1.2303010374307632e-01" purity="9.2606091499328613e-01" nType="-99"/>
          <Node pos="r" depth="2" NCoef="0" IVar="-1" Cut="0.0000000000000000e+00" cType="1" res="-2.0925654098391533e-02" rms="8.8891543447971344e-02" purity="2.0146153867244720e-01" nType="-99"/>
        </Node>
      </Node>
    </BinaryTree>
    <BinaryTree type="DecisionTree" boostWeight="1.0000000000000000e+00" itree="53">
      <Node pos="s" depth="0" NCoef="0" IVar="28" Cut="4.3751931762695312e+02" cType="1" res="-1.8158348393626511e-04" rms="8.6737483739852905e-02" purity="4.9589073657989502e-01" nType="0">
        <Node pos="l" depth="1" NCoef="0" IVar="26" Cut="1.4756937511265278e-02" cType="1" res="1.9233955070376396e-02" rms="1.0093551129102707e-01" purity="8.4677660465240479e-01" nType="0">
          <Node pos="l" depth="2" NCoef="0" IVar="-1" Cut="0.0000000000000000e+00" cType="1" res="4.4415559619665146e-02" rms="8.2067705690860748e-02" purity="9.8814833164215088e-01" nType="-99"/>
          <Node pos="r" depth="2" NCoef="0" IVar="-1" Cut="0.0000000000000000e+00" cType="1" res="-1.5549526549875736e-02" rms="1.6351768374443054e-01" purity="9.7075298428535461e-02" nType="-99"/>
        </Node>
        <Node pos="r" depth="1" NCoef="0" IVar="23" Cut="1.1737561784684658e-02" cType="1" res="-3.9556315168738365e-03" rms="8.3174049854278564e-02" purity="4.2768454551696777e-01" nType="0">
          <Node pos="l" depth="2" NCoef="0" IVar="-1" Cut="0.0000000000000000e+00" cType="1" res="2.3623963817954063e-02" rms="8.6728878319263458e-02" purity="9.7034627199172974e-01" nType="-99"/>
          <Node pos="r" depth="2" NCoef="0" IVar="-1" Cut="0.0000000000000000e+00" cType="1" res="-3.2435722649097443e-02" rms="8.0264933407306671e-02" purity="1.5323710441589355e-01" nType="-99"/>
        </Node>
      </Node>
    </BinaryTree>
    <BinaryTree type="DecisionTree" boostWeight="1.0000000000000000e+00" itree="54">
      <Node pos="s" depth="0" NCoef="0" IVar="1" Cut="1.5163956642150879e+01" cType="1" res="6.1918173742014915e-05" rms="8.6892083287239075e-02" purity="5.0177925825119019e-01" nType="0">
        <Node pos="l" depth="1" NCoef="0" IVar="9" Cut="3.3779747009277344e+01" cType="1" res="1.3754731975495815e-02" rms="6.9995760917663574e-02" purity="9.7844779491424561e-01" nType="0">
          <Node pos="l" depth="2" NCoef="0" IVar="-1" Cut="0.0000000000000000e+00" cType="1" res="4.4550996273756027e-02" rms="9.0621598064899445e-02" purity="9.7171145677566528e-01" nType="-99"/>
          <Node pos="r" depth="2" NCoef="0" IVar="-1" Cut="0.0000000000000000e+00" cType="1" res="3.1243471428751945e-02" rms="6.4327180385589600e-02" purity="9.7990292310714722e-01" nType="-99"/>
        </Node>
        <Node pos="r" depth="1" NCoef="0" IVar="4" Cut="1.8190999984741211e+01" cType="1" res="-5.4346648976206779e-03" rms="9.2243455350399017e-02" purity="3.1043449044227600e-01" nType="0">
          <Node pos="l" depth="2" NCoef="0" IVar="-1" Cut="0.0000000000000000e+00" cType="1" res="1.8734047189354897e-02" rms="1.2572433054447174e-01" purity="8.2969123125076294e-01" nType="-99"/>
          <Node pos="r" depth="2" NCoef="0" IVar="-1" Cut="0.0000000000000000e+00" cType="1" res="-2.2918501868844032e-02" rms="8.4996156394481659e-02" purity="2.2482147812843323e-01" nType="-99"/>
        </Node>
      </Node>
    </BinaryTree>
    <BinaryTree type="DecisionTree" boostWeight="1.0000000000000000e+00" itree="55">
      <Node pos="s" depth="0" NCoef="0" IVar="24" Cut="1.1660671792924404e-02" cType="1" res="1.2357482046354562e-04" rms="8.6033299565315247e-02" purity="4.9805089831352234e-01" nType="0">
        <Node pos="l" depth="1" NCoef="0" IVar="25" Cut="3.6868466995656490e-03" cType="1" res="9.2009454965591431e-03" rms="9.3563824892044067e-02" purity="9.5007991790771484e-01" nType="0">
          <Node pos="l" depth="2" NCoef="0" IVar="-1" Cut="0.0000000000000000e+00" cType="1" res="4.0488760918378830e-02" rms="6.4341768622398376e-02" purity="9.9303388595581055e-01" nType="-99"/>
          <Node pos="r" depth="2" NCoef="0" IVar="-1" Cut="0.0000000000000000e+00" cType="1" res="-1.7686482518911362e-02" rms="1.4648981392383575e-01" purity="8.2551532983779907e-01" nType="-99"/>
        </Node>
        <Node pos="r" depth="1" NCoef="0" IVar="28" Cut="3.9402520751953125e+02" cType="1" res="-7.4242460541427135e-03" rms="7.8432612121105194e-02" purity="1.2218945473432541e-01" nType="0">
          <Node pos="l" depth="2" NCoef="0" IVar="-1" Cut="0.0000000000000000e+00" cType="1" res="3.0260141938924789e-02" rms="1.4903025329113007e-01" purity="8.6759227514266968e-01" nType="-99"/>
          <Node pos="r" depth="2" NCoef="0" IVar="-1" Cut="0.0000000000000000e+00" cType="1" res="-3.7932578474283218e-02" rms="6.7025125026702881e-02" purity="5.1848657429218292e-02" nType="-99"/>
        </Node>
      </Node>
    </BinaryTree>
    <BinaryTree type="DecisionTree" boostWeight="1.0000000000000000e+00" itree="56">
      <Node pos="s" depth="0" NCoef="0" IVar="0" Cut="2.3660610198974609e+01" cType="1" res="-2.3615330064785667e-05" rms="8.4202595055103302e-02" purity="4.9944621324539185e-01" nType="0">
        <Node pos="l" depth="1" NCoef="0" IVar="9" Cut="3.4498455047607422e+01" cType="1" res="1.0768111795186996e-02" rms="6.8203218281269073e-02" purity="9.6697145700454712e-01" nType="0">
          <Node pos="l" depth="2" NCoef="0" IVar="-1" Cut="0.0000000000000000e+00" cType="1" res="3.6979965865612030e-02" rms="9.1604523360729218e-02" purity="9.5982259511947632e-01" nType="-99"/>
          <Node pos="r" depth="2" NCoef="0" IVar="-1" Cut="0.0000000000000000e+00" cType="1" res="2.6663595810532570e-02" rms="6.0658127069473267e-02" purity="9.6877467632293701e-01" nType="-99"/>
        </Node>
        <Node pos="r" depth="1" NCoef="0" IVar="1" Cut="1.5722298622131348e+01" cType="1" res="-4.7697504051029682e-03" rms="8.9937336742877960e-02" purity="2.9383146762847900e-01" nType="0">
          <Node pos="l" depth="2" NCoef="0" IVar="-1" Cut="0.0000000000000000e+00" cType="1" res="2.3207111284136772e-02" rms="9.1614440083503723e-02" purity="9.4207239151000977e-01" nType="-99"/>
          <Node pos="r" depth="2" NCoef="0" IVar="-1" Cut="0.0000000000000000e+00" cType="1" res="-2.0862136036157608e-02" rms="8.9143618941307068e-02" purity="1.5024560689926147e-01" nType="-99"/>
        </Node>
      </Node>
    </BinaryTree>
    <BinaryTree type="DecisionTree" boostWeight="1.0000000000000000e+00" itree="57">
      <Node pos="s" depth="0" NCoef="0" IVar="7" Cut="2.7323181152343750e+01" cType="1" res="5.6472239521099254e-05" rms="8.5219696164131165e-02" purity="4.9934345483779907e-01" nType="0">
        <Node pos="l" depth="1" NCoef="0" IVar="27" Cut="1.2682653032243252e-02" cType="1" res="1.8589913845062256e-02" rms="1.1000950634479523e-01" purity="7.9757714271545410e-01" nType="0">
          <Node pos="l" depth="2" NCoef="0" IVar="-1" Cut="0.0000000000000000e+00" cType="1" res="3.8048703223466873e-02" rms="1.0146658122539520e-01" purity="9.5483547449111938e-01" nType="-99"/>
          <Node pos="r" depth="2" NCoef="0" IVar="-1" Cut="0.0000000000000000e+00" cType="1" res="-1.7876690253615379e-02" rms="1.3990409672260284e-01" purity="4.2642641812562943e-02" nType="-99"/>
        </Node>
        <Node pos="r" depth="1" NCoef="0" IVar="23" Cut="1.1989418417215347e-02" cType="1" res="-3.3341809175908566e-03" rms="7.9389214515686035e-02" purity="4.4478225708007812e-01" nType="0">
          <Node pos="l" depth="2" NCoef="0" IVar="-1" Cut="0.0000000000000000e+00" cType="1" res="2.0630719140172005e-02" rms="8.4185801446437836e-02" purity="9.6955001354217529e-01" nType="-99"/>
          <Node pos="r" depth="2" NCoef="0" IVar="-1" Cut="0.0000000000000000e+00" cType="1" res="-2.9998904094099998e-02" rms="7.6020732522010803e-02" purity="1.6995944082736969e-01" nType="-99"/>
        </Node>
      </Node>
    </BinaryTree>
    <BinaryTree type="DecisionTree" boostWeight="1.0000000000000000e+00" itree="58">
      <Node pos="s" depth="0" NCoef="0" IVar="7" Cut="3.1130323410034180e+01" cType="1" res="2.8875181669718586e-05" rms="8.5694707930088043e-02" purity="4.9892652034759521e-01" nType="0">
        <Node pos="l" depth="1" NCoef="0" IVar="26" Cut="1.1345629580318928e-02" cType="1" res="1.1103503406047821e-02" rms="1.0033877193927765e-01" purity="7.4808585643768311e-01" nType="0">
          <Node pos="l" depth="2" NCoef="0" IVar="-1" Cut="0.0000000000000000e+00" cType="1" res="3.1877737492322922e-02" rms="9.7158417105674744e-02" purity="9.6374654769897461e-01" nType="-99"/>
          <Node pos="r" depth="2" NCoef="0" IVar="-1" Cut="0.0000000000000000e+00" cType="1" res="-1.6372300684452057e-02" rms="1.0733661800622940e-01" purity="6.2370739877223969e-02" nType="-99"/>
        </Node>
        <Node pos="r" depth="1" NCoef="0" IVar="23" Cut="1.1739111505448818e-02" cType="1" res="-4.8913308419287205e-03" rms="7.7810965478420258e-02" purity="3.8823065161705017e-01" nType="0">
          <Node pos="l" depth="2" NCoef="0" IVar="-1" Cut="0.0000000000000000e+00" cType="1" res="1.7110675573348999e-02" rms="9.0431399643421173e-02" purity="9.6590834856033325e-01" nType="-99"/>
          <Node pos="r" depth="2" NCoef="0" IVar="-1" Cut="0.0000000000000000e+00" cType="1" res="-4.4920146465301514e-02" rms="6.8925864994525909e-02" purity="6.7446462810039520e-02" nType="-99"/>
        </Node>
      </Node>
    </BinaryTree>
    <BinaryTree type="DecisionTree" boostWeight="1.0000000000000000e+00" itree="59">
      <Node pos="s" depth="0" NCoef="0" IVar="6" Cut="2.8096202850341797e+01" cType="1" res="-1.6379813314415514e-04" rms="8.4388531744480133e-02" purity="5.0153213739395142e-01" nType="0">
        <Node pos="l" depth="1" NCoef="0" IVar="26" Cut="1.1878911405801773e-02" cType="1" res="9.8942257463932037e-03" rms="9.8383083939552307e-02" purity="7.9538679122924805e-01" nType="0">
          <Node pos="l" depth="2" NCoef="0" IVar="-1" Cut="0.0000000000000000e+00" cType="1" res="2.8132488951086998e-02" rms="9.3673579394817352e-02" purity="9.5759367942810059e-01" nType="-99"/>
          <Node pos="r" depth="2" NCoef="0" IVar="-1" Cut="0.0000000000000000e+00" cType="1" res="-1.7230089753866196e-02" rms="1.1511418223381042e-01" purity="6.4901158213615417e-02" nType="-99"/>
        </Node>
        <Node pos="r" depth="1" NCoef="0" IVar="22" Cut="1.2341389432549477e-02" cType="1" res="-5.6790583766996861e-03" rms="7.5053147971630096e-02" purity="3.4039863944053650e-01" nType="0">
          <Node pos="l" depth="2" NCoef="0" IVar="-1" Cut="0.0000000000000000e+00" cType="1" res="2.8408002108335495e-02" rms="7.3436424136161804e-02" purity="9.7635203599929810e-01" nType="-99"/>
