<?xml version="1.0"?>
<MethodSetup Method="BDT::BDTG">
  <GeneralInfo>
    <Info name="TMVA Release" value="4.2.1 [262657]"/>
    <Info name="ROOT Release" value="6.24/06 [399366]"/>
    <Info name="Creator" value="dampe_usr"/>
    <Info name="Date" value="Sat Oct 16 06:37:21 2021"/>
    <Info name="Host" value="Linux buildkitsandbox 5.10.47-linuxkit #1 SMP Sat Jul 3 21:51:47 UTC 2021 x86_64 x86_64 x86_64 GNU/Linux"/>
    <Info name="Dir" value="/mnt/eFlux/Classifier/Train"/>
    <Info name="Training events" value="756138"/>
    <Info name="TrainingTime" value="1.06610681e+03"/>
    <Info name="AnalysisType" value="Classification"/>
  </GeneralInfo>
  <Options>
    <Option name="V" modified="Yes">False</Option>
    <Option name="VerbosityLevel" modified="No">Default</Option>
    <Option name="VarTransform" modified="No">None</Option>
    <Option name="H" modified="Yes">False</Option>
    <Option name="CreateMVAPdfs" modified="No">False</Option>
    <Option name="IgnoreNegWeightsInTraining" modified="No">False</Option>
    <Option name="NTrees" modified="Yes">1000</Option>
    <Option name="MaxDepth" modified="Yes">2</Option>
    <Option name="MinNodeSize" modified="Yes">2.5%</Option>
    <Option name="nCuts" modified="Yes">20</Option>
    <Option name="BoostType" modified="Yes">Grad</Option>
    <Option name="AdaBoostR2Loss" modified="No">quadratic</Option>
    <Option name="UseBaggedBoost" modified="Yes">True</Option>
    <Option name="Shrinkage" modified="Yes">1.000000e-01</Option>
    <Option name="AdaBoostBeta" modified="No">5.000000e-01</Option>
    <Option name="UseRandomisedTrees" modified="No">False</Option>
    <Option name="UseNvars" modified="No">6</Option>
    <Option name="UsePoissonNvars" modified="No">True</Option>
    <Option name="BaggedSampleFraction" modified="Yes">5.000000e-01</Option>
    <Option name="UseYesNoLeaf" modified="No">True</Option>
    <Option name="NegWeightTreatment" modified="No">pray</Option>
    <Option name="Css" modified="No">1.000000e+00</Option>
    <Option name="Cts_sb" modified="No">1.000000e+00</Option>
    <Option name="Ctb_ss" modified="No">1.000000e+00</Option>
    <Option name="Cbb" modified="No">1.000000e+00</Option>
    <Option name="NodePurityLimit" modified="No">5.000000e-01</Option>
    <Option name="SeparationType" modified="No">giniindex</Option>
    <Option name="RegressionLossFunctionBDTG" modified="No">huber</Option>
    <Option name="HuberQuantile" modified="No">7.000000e-01</Option>
    <Option name="DoBoostMonitor" modified="No">False</Option>
    <Option name="UseFisherCuts" modified="No">False</Option>
    <Option name="MinLinCorrForFisher" modified="No">8.000000e-01</Option>
    <Option name="UseExclusiveVars" modified="No">False</Option>
    <Option name="DoPreselection" modified="No">False</Option>
    <Option name="SigToBkgFraction" modified="No">1.000000e+00</Option>
    <Option name="PruneMethod" modified="No">nopruning</Option>
    <Option name="PruneStrength" modified="No">0.000000e+00</Option>
    <Option name="PruningValFraction" modified="No">5.000000e-01</Option>
    <Option name="SkipNormalization" modified="No">False</Option>
    <Option name="nEventsMin" modified="No">0</Option>
    <Option name="UseBaggedGrad" modified="No">False</Option>
    <Option name="GradBaggingFraction" modified="No">5.000000e-01</Option>
    <Option name="UseNTrainEvents" modified="No">0</Option>
    <Option name="NNodesMax" modified="No">0</Option>
  </Options>
  <Variables NVar="31">
    <Variable VarIndex="0" Expression="rmslayer_norm_1" Label="rmslayer_norm_1" Title="rmslayer_norm_1" Unit="units" Internal="rmslayer_norm_1" Type="D" Min="-4.70792627e+00" Max="2.28042603e+00"/>
    <Variable VarIndex="1" Expression="rmslayer_norm_2" Label="rmslayer_norm_2" Title="rmslayer_norm_2" Unit="units" Internal="rmslayer_norm_2" Type="D" Min="-4.46197796e+00" Max="2.76035047e+00"/>
    <Variable VarIndex="2" Expression="rmslayer_norm_3" Label="rmslayer_norm_3" Title="rmslayer_norm_3" Unit="units" Internal="rmslayer_norm_3" Type="D" Min="-4.18147373e+00" Max="3.00459814e+00"/>
    <Variable VarIndex="3" Expression="rmslayer_norm_4" Label="rmslayer_norm_4" Title="rmslayer_norm_4" Unit="units" Internal="rmslayer_norm_4" Type="D" Min="-4.43939829e+00" Max="2.96769071e+00"/>
    <Variable VarIndex="4" Expression="rmslayer_norm_5" Label="rmslayer_norm_5" Title="rmslayer_norm_5" Unit="units" Internal="rmslayer_norm_5" Type="D" Min="-4.41478491e+00" Max="3.14944267e+00"/>
    <Variable VarIndex="5" Expression="rmslayer_norm_6" Label="rmslayer_norm_6" Title="rmslayer_norm_6" Unit="units" Internal="rmslayer_norm_6" Type="D" Min="-4.63427496e+00" Max="3.53252673e+00"/>
    <Variable VarIndex="6" Expression="rmslayer_norm_7" Label="rmslayer_norm_7" Title="rmslayer_norm_7" Unit="units" Internal="rmslayer_norm_7" Type="D" Min="-5.13961029e+00" Max="3.56698513e+00"/>
    <Variable VarIndex="7" Expression="rmslayer_norm_8" Label="rmslayer_norm_8" Title="rmslayer_norm_8" Unit="units" Internal="rmslayer_norm_8" Type="D" Min="-4.67865753e+00" Max="3.60101056e+00"/>
    <Variable VarIndex="8" Expression="rmslayer_norm_9" Label="rmslayer_norm_9" Title="rmslayer_norm_9" Unit="units" Internal="rmslayer_norm_9" Type="D" Min="-5.15564728e+00" Max="3.63099360e+00"/>
    <Variable VarIndex="9" Expression="rmslayer_norm_10" Label="rmslayer_norm_10" Title="rmslayer_norm_10" Unit="units" Internal="rmslayer_norm_10" Type="D" Min="-5.12163258e+00" Max="3.44161177e+00"/>
    <Variable VarIndex="10" Expression="rmslayer_norm_11" Label="rmslayer_norm_11" Title="rmslayer_norm_11" Unit="units" Internal="rmslayer_norm_11" Type="D" Min="-5.41954708e+00" Max="3.30973673e+00"/>
    <Variable VarIndex="11" Expression="rmslayer_norm_12" Label="rmslayer_norm_12" Title="rmslayer_norm_12" Unit="units" Internal="rmslayer_norm_12" Type="D" Min="-5.40031862e+00" Max="3.28468704e+00"/>
    <Variable VarIndex="12" Expression="rmslayer_norm_13" Label="rmslayer_norm_13" Title="rmslayer_norm_13" Unit="units" Internal="rmslayer_norm_13" Type="D" Min="-5.34025431e+00" Max="2.91662955e+00"/>
    <Variable VarIndex="13" Expression="rmslayer_norm_14" Label="rmslayer_norm_14" Title="rmslayer_norm_14" Unit="units" Internal="rmslayer_norm_14" Type="D" Min="-5.09605169e+00" Max="2.89863634e+00"/>
    <Variable VarIndex="14" Expression="fraclayer_norm_1" Label="fraclayer_norm_1" Title="fraclayer_norm_1" Unit="units" Internal="fraclayer_norm_1" Type="D" Min="-4.77574766e-03" Max="9.54535306e-02"/>
    <Variable VarIndex="15" Expression="fraclayer_norm_2" Label="fraclayer_norm_2" Title="fraclayer_norm_2" Unit="units" Internal="fraclayer_norm_2" Type="D" Min="-1.54189672e-02" Max="1.94254145e-01"/>
    <Variable VarIndex="16" Expression="fraclayer_norm_3" Label="fraclayer_norm_3" Title="fraclayer_norm_3" Unit="units" Internal="fraclayer_norm_3" Type="D" Min="-3.80691700e-02" Max="3.34562033e-01"/>
    <Variable VarIndex="17" Expression="fraclayer_norm_4" Label="fraclayer_norm_4" Title="fraclayer_norm_4" Unit="units" Internal="fraclayer_norm_4" Type="D" Min="-5.94103858e-02" Max="4.35652047e-01"/>
    <Variable VarIndex="18" Expression="fraclayer_norm_5" Label="fraclayer_norm_5" Title="fraclayer_norm_5" Unit="units" Internal="fraclayer_norm_5" Type="D" Min="-4.76129912e-02" Max="3.37877870e-01"/>
    <Variable VarIndex="19" Expression="fraclayer_norm_6" Label="fraclayer_norm_6" Title="fraclayer_norm_6" Unit="units" Internal="fraclayer_norm_6" Type="D" Min="-2.36881077e-02" Max="1.75962582e-01"/>
    <Variable VarIndex="20" Expression="fraclayer_norm_7" Label="fraclayer_norm_7" Title="fraclayer_norm_7" Unit="units" Internal="fraclayer_norm_7" Type="D" Min="-1.42142214e-02" Max="1.04374230e-01"/>
    <Variable VarIndex="21" Expression="fraclayer_norm_8" Label="fraclayer_norm_8" Title="fraclayer_norm_8" Unit="units" Internal="fraclayer_norm_8" Type="D" Min="-9.79928952e-03" Max="6.98095933e-02"/>
    <Variable VarIndex="22" Expression="fraclayer_norm_9" Label="fraclayer_norm_9" Title="fraclayer_norm_9" Unit="units" Internal="fraclayer_norm_9" Type="D" Min="-9.79782734e-03" Max="5.39616756e-02"/>
    <Variable VarIndex="23" Expression="fraclayer_norm_10" Label="fraclayer_norm_10" Title="fraclayer_norm_10" Unit="units" Internal="fraclayer_norm_10" Type="D" Min="-9.14238580e-03" Max="4.34919707e-02"/>
    <Variable VarIndex="24" Expression="fraclayer_norm_11" Label="fraclayer_norm_11" Title="fraclayer_norm_11" Unit="units" Internal="fraclayer_norm_11" Type="D" Min="-9.13002715e-03" Max="3.67618911e-02"/>
    <Variable VarIndex="25" Expression="fraclayer_norm_12" Label="fraclayer_norm_12" Title="fraclayer_norm_12" Unit="units" Internal="fraclayer_norm_12" Type="D" Min="-9.31685697e-03" Max="3.42793986e-02"/>
    <Variable VarIndex="26" Expression="fraclayer_norm_13" Label="fraclayer_norm_13" Title="fraclayer_norm_13" Unit="units" Internal="fraclayer_norm_13" Type="D" Min="-8.15942604e-03" Max="2.74339747e-02"/>
    <Variable VarIndex="27" Expression="fraclayer_norm_14" Label="fraclayer_norm_14" Title="fraclayer_norm_14" Unit="units" Internal="fraclayer_norm_14" Type="D" Min="-7.75512913e-03" Max="2.48971265e-02"/>
    <Variable VarIndex="28" Expression="sumrms_norm" Label="sumrms_norm" Title="sumrms_norm" Unit="units" Internal="sumrms_norm" Type="D" Min="-7.14617729e+00" Max="6.86634827e+00"/>
    <Variable VarIndex="29" Expression="fraclastlayer_norm" Label="fraclastlayer_norm" Title="fraclastlayer_norm" Unit="units" Internal="fraclastlayer_norm" Type="D" Min="-1.27970023e+21" Max="1.93587542e+00"/>
    <Variable VarIndex="30" Expression="xtrl_norm" Label="xtrl_norm" Title="xtrl_norm" Unit="units" Internal="xtrl_norm" Type="D" Min="-2.21267247e+00" Max="1.88846886e+00"/>
  </Variables>
  <Spectators NSpec="1">
    <Spectator SpecIndex="0" Expression="xtrl" Label="xtrl" Title="xtrl" Unit="units" Internal="xtrl" Type="F" Min="2.39855368e-02" Max="8.63862422e+04"/>
  </Spectators>
  <Classes NClass="2">
    <Class Name="Signal" Index="0"/>
    <Class Name="Background" Index="1"/>
  </Classes>
  <Transformations NTransformations="0"/>
  <MVAPdfs/>
  <Weights NTrees="1000" AnalysisType="1">
    <BinaryTree type="DecisionTree" boostWeight="1.0000000000000000e+00" itree="0">
      <Node pos="s" depth="0" NCoef="0" IVar="30" Cut="-1.4315026998519897e+00" cType="1" res="3.5143904387950897e-03" rms="4.9998766183853149e-01" purity="5.0351434946060181e-01" nType="0">
        <Node pos="l" depth="1" NCoef="0" IVar="2" Cut="-1.3161095380783081e+00" cType="1" res="4.2345672845840454e-01" rms="2.6586538553237915e-01" purity="9.2345672845840454e-01" nType="0">
          <Node pos="l" depth="2" NCoef="0" IVar="-1" Cut="0.0000000000000000e+00" cType="1" res="9.5148861408233643e-02" rms="1.5384200215339661e-01" purity="9.7574424743652344e-01" nType="-99"/>
          <Node pos="r" depth="2" NCoef="0" IVar="-1" Cut="0.0000000000000000e+00" cType="1" res="-3.3948771655559540e-02" rms="4.7030523419380188e-01" purity="3.3025613427162170e-01" nType="-99"/>
        </Node>
        <Node pos="r" depth="1" NCoef="0" IVar="28" Cut="2.4873664379119873e+00" cType="1" res="-4.9851074814796448e-01" rms="3.8561977446079254e-02" purity="1.4892438193783164e-03" nType="0">
          <Node pos="l" depth="2" NCoef="0" IVar="-1" Cut="0.0000000000000000e+00" cType="1" res="-9.9957108497619629e-02" rms="1.4643045142292976e-02" purity="2.1446475875563920e-04" nType="-99"/>
          <Node pos="r" depth="2" NCoef="0" IVar="-1" Cut="0.0000000000000000e+00" cType="1" res="-9.5915921032428741e-02" rms="1.4143343269824982e-01" purity="2.0420407876372337e-02" nType="-99"/>
        </Node>
      </Node>
    </BinaryTree>
    <BinaryTree type="DecisionTree" boostWeight="1.0000000000000000e+00" itree="1">
      <Node pos="s" depth="0" NCoef="0" IVar="30" Cut="-1.4314724206924438e+00" cType="1" res="-3.4606407280080020e-04" rms="4.5493963360786438e-01" purity="4.9968010187149048e-01" nType="0">
        <Node pos="l" depth="1" NCoef="0" IVar="1" Cut="-1.0177499055862427e+00" cType="1" res="3.7885528802871704e-01" rms="2.5855177640914917e-01" purity="9.2092198133468628e-01" nType="0">
          <Node pos="l" depth="2" NCoef="0" IVar="-1" Cut="0.0000000000000000e+00" cType="1" res="8.5733160376548767e-02" rms="1.6686519980430603e-01" purity="9.6953392028808594e-01" nType="-99"/>
          <Node pos="r" depth="2" NCoef="0" IVar="-1" Cut="0.0000000000000000e+00" cType="1" res="-5.4496478289365768e-02" rms="4.0521678328514099e-01" purity="2.3528365790843964e-01" nType="-99"/>
        </Node>
        <Node pos="r" depth="1" NCoef="0" IVar="1" Cut="-1.2667967081069946e+00" cType="1" res="-4.4872426986694336e-01" rms="3.9805125445127487e-02" purity="1.5919950092211366e-03" nType="0">
          <Node pos="l" depth="2" NCoef="0" IVar="-1" Cut="0.0000000000000000e+00" cType="1" res="-8.7936088442802429e-02" rms="1.2101123481988907e-01" purity="1.4918302185833454e-02" nType="-99"/>
          <Node pos="r" depth="2" NCoef="0" IVar="-1" Cut="0.0000000000000000e+00" cType="1" res="-9.0910188853740692e-02" rms="1.6101691871881485e-02" purity="2.5985503452830017e-04" nType="-99"/>
        </Node>
      </Node>
    </BinaryTree>
    <BinaryTree type="DecisionTree" boostWeight="1.0000000000000000e+00" itree="2">
      <Node pos="s" depth="0" NCoef="0" IVar="30" Cut="-1.4313498735427856e+00" cType="1" res="-1.4176565455272794e-03" rms="4.1449961066246033e-01" purity="4.9837252497673035e-01" nType="0">
        <Node pos="l" depth="1" NCoef="0" IVar="1" Cut="-1.1356623172760010e+00" cType="1" res="3.4167447686195374e-01" rms="2.4663853645324707e-01" purity="9.2129373550415039e-01" nType="0">
          <Node pos="l" depth="2" NCoef="0" IVar="-1" Cut="0.0000000000000000e+00" cType="1" res="7.9707212746143341e-02" rms="1.5733917057514191e-01" purity="9.7311168909072876e-01" nType="-99"/>
          <Node pos="r" depth="2" NCoef="0" IVar="-1" Cut="0.0000000000000000e+00" cType="1" res="-3.9343684911727905e-02" rms="4.2793583869934082e-01" purity="2.9738709330558777e-01" nType="-99"/>
        </Node>
        <Node pos="r" depth="1" NCoef="0" IVar="4" Cut="-1.3863812685012817e+00" cType="1" res="-4.0467184782028198e-01" rms="3.5811718553304672e-02" purity="1.2910050572827458e-03" nType="0">
          <Node pos="l" depth="2" NCoef="0" IVar="-1" Cut="0.0000000000000000e+00" cType="1" res="-8.1263013184070587e-02" rms="1.1758442223072052e-01" purity="1.4104168862104416e-02" nType="-99"/>
          <Node pos="r" depth="2" NCoef="0" IVar="-1" Cut="0.0000000000000000e+00" cType="1" res="-8.4094382822513580e-02" rms="1.8895074725151062e-02" purity="3.5851181019097567e-04" nType="-99"/>
        </Node>
      </Node>
    </BinaryTree>
    <BinaryTree type="DecisionTree" boostWeight="1.0000000000000000e+00" itree="3">
      <Node pos="s" depth="0" NCoef="0" IVar="30" Cut="-1.4313498735427856e+00" cType="1" res="5.0007813842967153e-04" rms="3.7873429059982300e-01" purity="5.0052553415298462e-01" nType="0">
        <Node pos="l" depth="1" NCoef="0" IVar="2" Cut="-1.2867146730422974e+00" cType="1" res="3.1003141403198242e-01" rms="2.3440836369991302e-01" purity="9.2337352037429810e-01" nType="0">
          <Node pos="l" depth="2" NCoef="0" IVar="-1" Cut="0.0000000000000000e+00" cType="1" res="7.5154714286327362e-02" rms="1.4727418124675751e-01" purity="9.7545003890991211e-01" nType="-99"/>
          <Node pos="r" depth="2" NCoef="0" IVar="-1" Cut="0.0000000000000000e+00" cType="1" res="-3.9405949413776398e-02" rms="4.2036688327789307e-01" purity="3.0183193087577820e-01" nType="-99"/>
        </Node>
        <Node pos="r" depth="1" NCoef="0" IVar="2" Cut="-1.2160979509353638e+00" cType="1" res="-3.6500057578086853e-01" rms="3.4764632582664490e-02" purity="1.2183473445475101e-03" nType="0">
          <Node pos="l" depth="2" NCoef="0" IVar="-1" Cut="0.0000000000000000e+00" cType="1" res="-7.6435811817646027e-02" rms="1.0716354101896286e-01" purity="1.1693328619003296e-02" nType="-99"/>
          <Node pos="r" depth="2" NCoef="0" IVar="-1" Cut="0.0000000000000000e+00" cType="1" res="-7.8871764242649078e-02" rms="7.8256111592054367e-03" purity="6.1187318351585418e-05" nType="-99"/>
        </Node>
      </Node>
    </BinaryTree>
    <BinaryTree type="DecisionTree" boostWeight="1.0000000000000000e+00" itree="4">
      <Node pos="s" depth="0" NCoef="0" IVar="30" Cut="-1.4315026998519897e+00" cType="1" res="-4.4182632700540125e-04" rms="3.4703963994979858e-01" purity="4.9928906559944153e-01" nType="0">
        <Node pos="l" depth="1" NCoef="0" IVar="1" Cut="-9.9678057432174683e-01" cType="1" res="2.7851405739784241e-01" rms="2.2806230187416077e-01" purity="9.2172497510910034e-01" nType="0">
          <Node pos="l" depth="2" NCoef="0" IVar="-1" Cut="0.0000000000000000e+00" cType="1" res="6.9873496890068054e-02" rms="1.5971074998378754e-01" purity="9.7040659189224243e-01" nType="-99"/>
          <Node pos="r" depth="2" NCoef="0" IVar="-1" Cut="0.0000000000000000e+00" cType="1" res="-4.7764353454113007e-02" rms="3.8557577133178711e-01" purity="2.2750207781791687e-01" nType="-99"/>
        </Node>
        <Node pos="r" depth="1" NCoef="0" IVar="30" Cut="-1.1153059005737305e+00" cType="1" res="-3.2936969399452209e-01" rms="3.4178148955106735e-02" purity="1.1783191002905369e-03" nType="0">
          <Node pos="l" depth="2" NCoef="0" IVar="-1" Cut="0.0000000000000000e+00" cType="1" res="-7.2416558861732483e-02" rms="1.0049065947532654e-01" purity="1.0278549976646900e-02" nType="-99"/>
          <Node pos="r" depth="2" NCoef="0" IVar="-1" Cut="0.0000000000000000e+00" cType="1" res="-7.4650026857852936e-02" rms="1.2019277550280094e-02" purity="1.4484694111160934e-04" nType="-99"/>
        </Node>
      </Node>
    </BinaryTree>
    <BinaryTree type="DecisionTree" boostWeight="1.0000000000000000e+00" itree="5">
      <Node pos="s" depth="0" NCoef="0" IVar="30" Cut="-1.4315026998519897e+00" cType="1" res="-2.6466083363629878e-04" rms="3.1869938969612122e-01" purity="4.9946182966232300e-01" nType="0">
        <Node pos="l" depth="1" NCoef="0" IVar="3" Cut="-1.1395826339721680e+00" cType="1" res="2.5229316949844360e-01" rms="2.1920858323574066e-01" purity="9.2330640554428101e-01" nType="0">
          <Node pos="l" depth="2" NCoef="0" IVar="-1" Cut="0.0000000000000000e+00" cType="1" res="6.6492453217506409e-02" rms="1.5587037801742554e-01" purity="9.6767145395278931e-01" nType="-99"/>
          <Node pos="r" depth="2" NCoef="0" IVar="-1" Cut="0.0000000000000000e+00" cType="1" res="-4.4322989881038666e-02" rms="3.8017690181732178e-01" purity="3.2206320762634277e-01" nType="-99"/>
        </Node>
        <Node pos="r" depth="1" NCoef="0" IVar="1" Cut="-1.5049245357513428e+00" cType="1" res="-2.9700973629951477e-01" rms="3.8033068180084229e-02" purity="1.4618093846365809e-03" nType="0">
          <Node pos="l" depth="2" NCoef="0" IVar="-1" Cut="0.0000000000000000e+00" cType="1" res="-6.6449731588363647e-02" rms="1.4278587698936462e-01" purity="2.0969826728105545e-02" nType="-99"/>
          <Node pos="r" depth="2" NCoef="0" IVar="-1" Cut="0.0000000000000000e+00" cType="1" res="-7.1195155382156372e-02" rms="1.6810931265354156e-02" purity="2.8410283266566694e-04" nType="-99"/>
        </Node>
      </Node>
    </BinaryTree>
    <BinaryTree type="DecisionTree" boostWeight="1.0000000000000000e+00" itree="6">
      <Node pos="s" depth="0" NCoef="0" IVar="26" Cut="-3.0576370190829039e-03" cType="1" res="-1.1795965838246047e-04" rms="2.9338821768760681e-01" purity="5.0013649463653564e-01" nType="0">
        <Node pos="l" depth="1" NCoef="0" IVar="3" Cut="-1.2071001529693604e+00" cType="1" res="2.3736186325550079e-01" rms="1.7902798950672150e-01" purity="9.2195814847946167e-01" nType="0">
          <Node pos="l" depth="2" NCoef="0" IVar="-1" Cut="0.0000000000000000e+00" cType="1" res="6.7141093313694000e-02" rms="1.0346745699644089e-01" purity="9.8336845636367798e-01" nType="-99"/>
          <Node pos="r" depth="2" NCoef="0" IVar="-1" Cut="0.0000000000000000e+00" cType="1" res="-2.7726709842681885e-02" rms="3.2134309411048889e-01" purity="3.1612128019332886e-01" nType="-99"/>
        </Node>
        <Node pos="r" depth="1" NCoef="0" IVar="5" Cut="-1.7752584218978882e+00" cType="1" res="-2.6236689090728760e-01" rms="1.2117672711610794e-01" purity="3.4318916499614716e-02" nType="0">
          <Node pos="l" depth="2" NCoef="0" IVar="-1" Cut="0.0000000000000000e+00" cType="1" res="-1.1633306741714478e-02" rms="3.4030020236968994e-01" purity="4.6909376978874207e-01" nType="-99"/>
          <Node pos="r" depth="2" NCoef="0" IVar="-1" Cut="0.0000000000000000e+00" cType="1" res="-6.9863043725490570e-02" rms="6.3646629452705383e-02" purity="3.5635158419609070e-03" nType="-99"/>
        </Node>
      </Node>
    </BinaryTree>
    <BinaryTree type="DecisionTree" boostWeight="1.0000000000000000e+00" itree="7">
      <Node pos="s" depth="0" NCoef="0" IVar="26" Cut="-3.0746546108275652e-03" cType="1" res="1.1295007425360382e-04" rms="2.7001857757568359e-01" purity="5.0038391351699829e-01" nType="0">
        <Node pos="l" depth="1" NCoef="0" IVar="2" Cut="-1.2592985630035400e+00" cType="1" res="2.1397936344146729e-01" rms="1.7225393652915955e-01" purity="9.2099499702453613e-01" nType="0">
          <Node pos="l" depth="2" NCoef="0" IVar="-1" Cut="0.0000000000000000e+00" cType="1" res="6.4940601587295532e-02" rms="9.6188291907310486e-02" purity="9.8625206947326660e-01" nType="-99"/>
          <Node pos="r" depth="2" NCoef="0" IVar="-1" Cut="0.0000000000000000e+00" cType="1" res="-3.5875860601663589e-02" rms="3.0872401595115662e-01" purity="2.3815660178661346e-01" nType="-99"/>
        </Node>
        <Node pos="r" depth="1" NCoef="0" IVar="4" Cut="-1.9030010700225830e+00" cType="1" res="-2.3615208268165588e-01" rms="1.1969459056854248e-01" purity="3.5721473395824432e-02" nType="0">
          <Node pos="l" depth="2" NCoef="0" IVar="-1" Cut="0.0000000000000000e+00" cType="1" res="2.1645734086632729e-03" rms="3.4041604399681091e-01" purity="5.4979664087295532e-01" nType="-99"/>
          <Node pos="r" depth="2" NCoef="0" IVar="-1" Cut="0.0000000000000000e+00" cType="1" res="-6.7150115966796875e-02" rms="6.7918404936790466e-02" purity="5.4797516204416752e-03" nType="-99"/>
        </Node>
      </Node>
    </BinaryTree>
    <BinaryTree type="DecisionTree" boostWeight="1.0000000000000000e+00" itree="8">
      <Node pos="s" depth="0" NCoef="0" IVar="26" Cut="-3.0746546108275652e-03" cType="1" res="2.0606786711141467e-04" rms="2.4934796988964081e-01" purity="5.0021535158157349e-01" nType="0">
        <Node pos="l" depth="1" NCoef="0" IVar="4" Cut="-9.1656082868576050e-01" cType="1" res="1.9369150698184967e-01" rms="1.6542038321495056e-01" purity="9.2077022790908813e-01" nType="0">
          <Node pos="l" depth="2" NCoef="0" IVar="-1" Cut="0.0000000000000000e+00" cType="1" res="6.1646327376365662e-02" rms="1.1025955528020859e-01" purity="9.7746199369430542e-01" nType="-99"/>
          <Node pos="r" depth="2" NCoef="0" IVar="-1" Cut="0.0000000000000000e+00" cType="1" res="-3.4401345998048782e-02" rms="2.7819091081619263e-01" purity="2.9092773795127869e-01" nType="-99"/>
        </Node>
        <Node pos="r" depth="1" NCoef="0" IVar="6" Cut="-1.8460156917572021e+00" cType="1" res="-2.1352401375770569e-01" rms="1.1658894270658493e-01" purity="3.5657200962305069e-02" nType="0">
          <Node pos="l" depth="2" NCoef="0" IVar="-1" Cut="0.0000000000000000e+00" cType="1" res="-2.2503291256725788e-04" rms="3.2390761375427246e-01" purity="5.0433635711669922e-01" nType="-99"/>
          <Node pos="r" depth="2" NCoef="0" IVar="-1" Cut="0.0000000000000000e+00" cType="1" res="-6.4965233206748962e-02" rms="6.9957934319972992e-02" purity="6.4008282497525215e-03" nType="-99"/>
        </Node>
      </Node>
    </BinaryTree>
    <BinaryTree type="DecisionTree" boostWeight="1.0000000000000000e+00" itree="9">
      <Node pos="s" depth="0" NCoef="0" IVar="27" Cut="-4.6453904360532761e-03" cType="1" res="2.4063205637503415e-04" rms="2.3092417418956757e-01" purity="5.0071132183074951e-01" nType="0">
        <Node pos="l" depth="1" NCoef="0" IVar="1" Cut="-1.3433731794357300e+00" cType="1" res="1.8989135324954987e-01" rms="1.3749322295188904e-01" purity="9.4717651605606079e-01" nType="0">
          <Node pos="l" depth="2" NCoef="0" IVar="-1" Cut="0.0000000000000000e+00" cType="1" res="6.2275636941194534e-02" rms="7.5431026518344879e-02" purity="9.9242544174194336e-01" nType="-99"/>
          <Node pos="r" depth="2" NCoef="0" IVar="-1" Cut="0.0000000000000000e+00" cType="1" res="-1.8757586367428303e-03" rms="3.1734526157379150e-01" purity="5.1955497264862061e-01" nType="-99"/>
        </Node>
        <Node pos="r" depth="1" NCoef="0" IVar="4" Cut="-1.8933757543563843e+00" cType="1" res="-1.8032211065292358e-01" rms="1.3874919712543488e-01" purity="7.5640596449375153e-02" nType="0">
          <Node pos="l" depth="2" NCoef="0" IVar="-1" Cut="0.0000000000000000e+00" cType="1" res="2.0793728530406952e-02" rms="2.8348934650421143e-01" purity="7.1802294254302979e-01" nType="-99"/>
          <Node pos="r" depth="2" NCoef="0" IVar="-1" Cut="0.0000000000000000e+00" cType="1" res="-6.2645733356475830e-02" rms="8.0827489495277405e-02" purity="1.4410093426704407e-02" nType="-99"/>
        </Node>
      </Node>
    </BinaryTree>
    <BinaryTree type="DecisionTree" boostWeight="1.0000000000000000e+00" itree="10">
      <Node pos="s" depth="0" NCoef="0" IVar="26" Cut="-3.0746546108275652e-03" cType="1" res="-5.5553496349602938e-04" rms="2.1454054117202759e-01" purity="4.9894079566001892e-01" nType="0">
        <Node pos="l" depth="1" NCoef="0" IVar="2" Cut="-1.2603704929351807e+00" cType="1" res="1.5937779843807220e-01" rms="1.5346395969390869e-01" purity="9.2176043987274170e-01" nType="0">
          <Node pos="l" depth="2" NCoef="0" IVar="-1" Cut="0.0000000000000000e+00" cType="1" res="5.8907315135002136e-02" rms="9.6295535564422607e-02" purity="9.8511809110641479e-01" nType="-99"/>
          <Node pos="r" depth="2" NCoef="0" IVar="-1" Cut="0.0000000000000000e+00" cType="1" res="-3.1638093292713165e-02" rms="2.9115122556686401e-01" purity="2.5170341134071350e-01" nType="-99"/>
        </Node>
        <Node pos="r" depth="1" NCoef="0" IVar="5" Cut="-1.8108508586883545e+00" cType="1" res="-1.7630799114704132e-01" rms="1.0830353945493698e-01" purity="3.4299675375223160e-02" nType="0">
          <Node pos="l" depth="2" NCoef="0" IVar="-1" Cut="0.0000000000000000e+00" cType="1" res="-1.4390265569090843e-03" rms="3.1878042221069336e-01" purity="4.9777576327323914e-01" nType="-99"/>
          <Node pos="r" depth="2" NCoef="0" IVar="-1" Cut="0.0000000000000000e+00" cType="1" res="-6.2017660588026047e-02" rms="6.1397150158882141e-02" purity="3.7965774536132812e-03" nType="-99"/>
        </Node>
      </Node>
    </BinaryTree>
    <BinaryTree type="DecisionTree" boostWeight="1.0000000000000000e+00" itree="11">
      <Node pos="s" depth="0" NCoef="0" IVar="30" Cut="-1.4313782453536987e+00" cType="1" res="-6.4612548158038408e-05" rms="1.9980588555335999e-01" purity="5.0029397010803223e-01" nType="0">
        <Node pos="l" depth="1" NCoef="0" IVar="2" Cut="-1.2494280338287354e+00" cType="1" res="1.3975006341934204e-01" rms="1.7274181544780731e-01" purity="9.2223972082138062e-01" nType="0">
          <Node pos="l" depth="2" NCoef="0" IVar="-1" Cut="0.0000000000000000e+00" cType="1" res="5.4229043424129486e-02" rms="1.2730230391025543e-01" purity="9.7362035512924194e-01" nType="-99"/>
          <Node pos="r" depth="2" NCoef="0" IVar="-1" Cut="0.0000000000000000e+00" cType="1" res="-3.5068672150373459e-02" rms="3.3083653450012207e-01" purity="2.7172109484672546e-01" nType="-99"/>
        </Node>
        <Node pos="r" depth="1" NCoef="0" IVar="26" Cut="-5.7539576664566994e-04" cType="1" res="-1.6532172262668610e-01" rms="3.7743028253316879e-02" purity="1.5656739706173539e-03" nType="0">
          <Node pos="l" depth="2" NCoef="0" IVar="-1" Cut="0.0000000000000000e+00" cType="1" res="-5.8916654437780380e-02" rms="8.4763400256633759e-02" purity="8.6099701002240181e-03" nType="-99"/>
          <Node pos="r" depth="2" NCoef="0" IVar="-1" Cut="0.0000000000000000e+00" cType="1" res="-5.9793550521135330e-02" rms="1.3384753838181496e-02" purity="6.9224006438162178e-05" nType="-99"/>
        </Node>
      </Node>
    </BinaryTree>
    <BinaryTree type="DecisionTree" boostWeight="1.0000000000000000e+00" itree="12">
      <Node pos="s" depth="0" NCoef="0" IVar="27" Cut="-4.6453974209725857e-03" cType="1" res="1.2316678476054221e-04" rms="1.8754506111145020e-01" purity="5.0012606382369995e-01" nType="0">
        <Node pos="l" depth="1" NCoef="0" IVar="3" Cut="-1.3924176692962646e+00" cType="1" res="1.4311593770980835e-01" rms="1.2748205661773682e-01" purity="9.4737297296524048e-01" nType="0">
          <Node pos="l" depth="2" NCoef="0" IVar="-1" Cut="0.0000000000000000e+00" cType="1" res="5.8422587811946869e-02" rms="7.5519479811191559e-02" purity="9.9246257543563843e-01" nType="-99"/>
          <Node pos="r" depth="2" NCoef="0" IVar="-1" Cut="0.0000000000000000e+00" cType="1" res="-6.2833441188558936e-04" rms="2.7901509404182434e-01" purity="5.8268988132476807e-01" nType="-99"/>
        </Node>
        <Node pos="r" depth="1" NCoef="0" IVar="4" Cut="-2.1524195671081543e+00" cType="1" res="-1.3509064912796021e-01" rms="1.2428960204124451e-01" purity="7.7209837734699249e-02" nType="0">
          <Node pos="l" depth="2" NCoef="0" IVar="-1" Cut="0.0000000000000000e+00" cType="1" res="3.1404536217451096e-02" rms="2.3864094913005829e-01" purity="8.1362766027450562e-01" nType="-99"/>
          <Node pos="r" depth="2" NCoef="0" IVar="-1" Cut="0.0000000000000000e+00" cType="1" res="-5.7200197130441666e-02" rms="9.2549592256546021e-02" purity="2.7521278709173203e-02" nType="-99"/>
        </Node>
      </Node>
    </BinaryTree>
    <BinaryTree type="DecisionTree" boostWeight="1.0000000000000000e+00" itree="13">
      <Node pos="s" depth="0" NCoef="0" IVar="26" Cut="-3.0645597726106644e-03" cType="1" res="-2.8195086633786559e-04" rms="1.7623127996921539e-01" purity="5.0085836648941040e-01" nType="0">
        <Node pos="l" depth="1" NCoef="0" IVar="3" Cut="-1.3599050045013428e+00" cType="1" res="1.1939536035060883e-01" rms="1.4016498625278473e-01" purity="9.2125093936920166e-01" nType="0">
          <Node pos="l" depth="2" NCoef="0" IVar="-1" Cut="0.0000000000000000e+00" cType="1" res="5.5485650897026062e-02" rms="9.0112522244453430e-02" purity="9.8608851432800293e-01" nType="-99"/>
          <Node pos="r" depth="2" NCoef="0" IVar="-1" Cut="0.0000000000000000e+00" cType="1" res="-1.4826651662588120e-02" rms="2.6752141118049622e-01" purity="4.4483220577239990e-01" nType="-99"/>
        </Node>
        <Node pos="r" depth="1" NCoef="0" IVar="6" Cut="-1.8228120803833008e+00" cType="1" res="-1.3312210142612457e-01" rms="1.0089261084794998e-01" purity="3.4228526055812836e-02" nType="0">
          <Node pos="l" depth="2" NCoef="0" IVar="-1" Cut="0.0000000000000000e+00" cType="1" res="-1.8303825054317713e-03" rms="2.8877240419387817e-01" purity="4.7878330945968628e-01" nType="-99"/>
          <Node pos="r" depth="2" NCoef="0" IVar="-1" Cut="0.0000000000000000e+00" cType="1" res="-5.8659620583057404e-02" rms="6.5897166728973389e-02" purity="5.4931528866291046e-03" nType="-99"/>
        </Node>
      </Node>
    </BinaryTree>
    <BinaryTree type="DecisionTree" boostWeight="1.0000000000000000e+00" itree="14">
      <Node pos="s" depth="0" NCoef="0" IVar="27" Cut="-4.6453904360532761e-03" cType="1" res="2.8184780967421830e-04" rms="1.6493523120880127e-01" purity="5.0076872110366821e-01" nType="0">
        <Node pos="l" depth="1" NCoef="0" IVar="1" Cut="-1.3916026353836060e+00" cType="1" res="1.1851307004690170e-01" rms="1.2033625692129135e-01" purity="9.4752246141433716e-01" nType="0">
          <Node pos="l" depth="2" NCoef="0" IVar="-1" Cut="0.0000000000000000e+00" cType="1" res="5.6490719318389893e-02" rms="7.1285091340541840e-02" purity="9.9335253238677979e-01" nType="-99"/>
          <Node pos="r" depth="2" NCoef="0" IVar="-1" Cut="0.0000000000000000e+00" cType="1" res="-5.0683375447988510e-03" rms="2.7248695492744446e-01" purity="5.5599725246429443e-01" nType="-99"/>
        </Node>
        <Node pos="r" depth="1" NCoef="0" IVar="3" Cut="-1.8661791086196899e+00" cType="1" res="-1.1209769546985626e-01" rms="1.1567545682191849e-01" purity="7.6126337051391602e-02" nType="0">
          <Node pos="l" depth="2" NCoef="0" IVar="-1" Cut="0.0000000000000000e+00" cType="1" res="1.8044766038656235e-02" rms="2.4617022275924683e-01" purity="6.9944864511489868e-01" nType="-99"/>
          <Node pos="r" depth="2" NCoef="0" IVar="-1" Cut="0.0000000000000000e+00" cType="1" res="-5.6901674717664719e-02" rms="7.5597874820232391e-02" purity="1.4733125455677509e-02" nType="-99"/>
        </Node>
      </Node>
    </BinaryTree>
    <BinaryTree type="DecisionTree" boostWeight="1.0000000000000000e+00" itree="15">
      <Node pos="s" depth="0" NCoef="0" IVar="2" Cut="-1.4032194614410400e+00" cType="1" res="3.9534462848678231e-04" rms="1.5517857670783997e-01" purity="5.0081598758697510e-01" nType="0">
        <Node pos="l" depth="1" NCoef="0" IVar="27" Cut="-3.0907248146831989e-03" cType="1" res="1.0119943320751190e-01" rms="1.2446644902229309e-01" purity="9.1893702745437622e-01" nType="0">
          <Node pos="l" depth="2" NCoef="0" IVar="-1" Cut="0.0000000000000000e+00" cType="1" res="5.3020328283309937e-02" rms="9.3878395855426788e-02" purity="9.8319840431213379e-01" nType="-99"/>
          <Node pos="r" depth="2" NCoef="0" IVar="-1" Cut="0.0000000000000000e+00" cType="1" res="-5.3195632994174957e-02" rms="1.9674348831176758e-01" purity="9.9152222275733948e-02" nType="-99"/>
        </Node>
        <Node pos="r" depth="1" NCoef="0" IVar="1" Cut="-1.7644346952438354e+00" cType="1" res="-1.0940181463956833e-01" rms="1.0154642164707184e-01" purity="4.5392993837594986e-02" nType="0">
          <Node pos="l" depth="2" NCoef="0" IVar="-1" Cut="0.0000000000000000e+00" cType="1" res="1.2620350345969200e-02" rms="2.3647829890251160e-01" purity="5.4710900783538818e-01" nType="-99"/>
          <Node pos="r" depth="2" NCoef="0" IVar="-1" Cut="0.0000000000000000e+00" cType="1" res="-5.5460851639509201e-02" rms="7.7517986297607422e-02" purity="1.3904319144785404e-02" nType="-99"/>
        </Node>
      </Node>
    </BinaryTree>
    <BinaryTree type="DecisionTree" boostWeight="1.0000000000000000e+00" itree="16">
      <Node pos="s" depth="0" NCoef="0" IVar="2" Cut="-1.4212553501129150e+00" cType="1" res="-5.3447758546099067e-04" rms="1.4684918522834778e-01" purity="4.9785795807838440e-01" nType="0">
        <Node pos="l" depth="1" NCoef="0" IVar="27" Cut="-3.0961432494223118e-03" cType="1" res="9.2789061367511749e-02" rms="1.1891242861747742e-01" purity="9.2354607582092285e-01" nType="0">
          <Node pos="l" depth="2" NCoef="0" IVar="-1" Cut="0.0000000000000000e+00" cType="1" res="5.2250195294618607e-02" rms="9.0376839041709900e-02" purity="9.8516857624053955e-01" nType="-99"/>
          <Node pos="r" depth="2" NCoef="0" IVar="-1" Cut="0.0000000000000000e+00" cType="1" res="-5.0230357795953751e-02" rms="2.0224608480930328e-01" purity="1.0656175762414932e-01" nType="-99"/>
        </Node>
        <Node pos="r" depth="1" NCoef="0" IVar="24" Cut="-2.5494671426713467e-03" cType="1" res="-9.8915852606296539e-02" rms="1.0262255370616913e-01" purity="4.9098864197731018e-02" nType="0">
          <Node pos="l" depth="2" NCoef="0" IVar="-1" Cut="0.0000000000000000e+00" cType="1" res="2.0602701231837273e-02" rms="2.5343504548072815e-01" purity="6.2127500772476196e-01" nType="-99"/>
          <Node pos="r" depth="2" NCoef="0" IVar="-1" Cut="0.0000000000000000e+00" cType="1" res="-5.5522393435239792e-02" rms="7.2610393166542053e-02" purity="1.2702038511633873e-02" nType="-99"/>
        </Node>
      </Node>
    </BinaryTree>
    <BinaryTree type="DecisionTree" boostWeight="1.0000000000000000e+00" itree="17">
      <Node pos="s" depth="0" NCoef="0" IVar="1" Cut="-1.3666943311691284e+00" cType="1" res="2.5037262821570039e-04" rms="1.3931605219841003e-01" purity="5.0134134292602539e-01" nType="0">
        <Node pos="l" depth="1" NCoef="0" IVar="27" Cut="-3.0907248146831989e-03" cType="1" res="8.4665067493915558e-02" rms="1.1374501883983612e-01" purity="9.1444057226181030e-01" nType="0">
          <Node pos="l" depth="2" NCoef="0" IVar="-1" Cut="0.0000000000000000e+00" cType="1" res="5.1623631268739700e-02" rms="8.9244537055492401e-02" purity="9.8392635583877563e-01" nType="-99"/>
          <Node pos="r" depth="2" NCoef="0" IVar="-1" Cut="0.0000000000000000e+00" cType="1" res="-4.5914147049188614e-02" rms="1.7962053418159485e-01" purity="9.2408299446105957e-02" nType="-99"/>
        </Node>
        <Node pos="r" depth="1" NCoef="0" IVar="2" Cut="-1.6532516479492188e+00" cType="1" res="-8.9712165296077728e-02" rms="1.0304302722215652e-01" purity="6.1092682182788849e-02" nType="0">
          <Node pos="l" depth="2" NCoef="0" IVar="-1" Cut="0.0000000000000000e+00" cType="1" res="5.8683836832642555e-03" rms="2.4088563024997711e-01" purity="6.0508948564529419e-01" nType="-99"/>
          <Node pos="r" depth="2" NCoef="0" IVar="-1" Cut="0.0000000000000000e+00" cType="1" res="-5.4387714713811874e-02" rms="7.2656586766242981e-02" purity="1.2288253754377365e-02" nType="-99"/>
        </Node>
      </Node>
    </BinaryTree>
    <BinaryTree type="DecisionTree" boostWeight="1.0000000000000000e+00" itree="18">
      <Node pos="s" depth="0" NCoef="0" IVar="25" Cut="-9.8564825020730495e-04" cType="1" res="-5.4235127754509449e-04" rms="1.3198785483837128e-01" purity="4.9877408146858215e-01" nType="0">
        <Node pos="l" depth="1" NCoef="0" IVar="1" Cut="-1.0142325162887573e+00" cType="1" res="7.2264000773429871e-02" rms="1.2006074935197830e-01" purity="8.9167737960815430e-01" nType="0">
          <Node pos="l" depth="2" NCoef="0" IVar="-1" Cut="0.0000000000000000e+00" cType="1" res="4.9862731248140335e-02" rms="9.1145366430282593e-02" purity="9.7581237554550171e-01" nType="-99"/>
          <Node pos="r" depth="2" NCoef="0" IVar="-1" Cut="0.0000000000000000e+00" cType="1" res="-3.7510745227336884e-02" rms="1.9354538619518280e-01" purity="1.4207898080348969e-01" nType="-99"/>
        </Node>
        <Node pos="r" depth="1" NCoef="0" IVar="29" Cut="-9.5112389326095581e-01" cType="1" res="-8.7091147899627686e-02" rms="8.4867186844348907e-02" purity="3.1709000468254089e-02" nType="0">
          <Node pos="l" depth="2" NCoef="0" IVar="-1" Cut="0.0000000000000000e+00" cType="1" res="-6.7368939518928528e-02" rms="1.3432057201862335e-01" purity="7.5323753990232944e-03" nType="-99"/>
          <Node pos="r" depth="2" NCoef="0" IVar="-1" Cut="0.0000000000000000e+00" cType="1" res="-4.7882262617349625e-02" rms="6.7838840186595917e-02" purity="3.5935606807470322e-02" nType="-99"/>
        </Node>
      </Node>
    </BinaryTree>
    <BinaryTree type="DecisionTree" boostWeight="1.0000000000000000e+00" itree="19">
      <Node pos="s" depth="0" NCoef="0" IVar="26" Cut="-3.0746546108275652e-03" cType="1" res="9.5096474979072809e-05" rms="1.2545327842235565e-01" purity="4.9911984801292419e-01" nType="0">
        <Node pos="l" depth="1" NCoef="0" IVar="4" Cut="-8.8985449075698853e-01" cType="1" res="6.9423392415046692e-02" rms="1.1453624814748764e-01" purity="9.2368716001510620e-01" nType="0">
          <Node pos="l" depth="2" NCoef="0" IVar="-1" Cut="0.0000000000000000e+00" cType="1" res="4.8691127449274063e-02" rms="9.1663815081119537e-02" purity="9.7840040922164917e-01" nType="-99"/>
          <Node pos="r" depth="2" NCoef="0" IVar="-1" Cut="0.0000000000000000e+00" cType="1" res="-3.2884191721677780e-02" rms="2.0541967451572418e-01" purity="2.8935420513153076e-01" nType="-99"/>
        </Node>
        <Node pos="r" depth="1" NCoef="0" IVar="5" Cut="-1.9120076894760132e+00" cType="1" res="-7.5581036508083344e-02" rms="8.7321318686008453e-02" purity="3.5678248852491379e-02" nType="0">
          <Node pos="l" depth="2" NCoef="0" IVar="-1" Cut="0.0000000000000000e+00" cType="1" res="1.1308404617011547e-02" rms="2.4929580092430115e-01" purity="5.3830873966217041e-01" nType="-99"/>
          <Node pos="r" depth="2" NCoef="0" IVar="-1" Cut="0.0000000000000000e+00" cType="1" res="-5.4739441722631454e-02" rms="6.0490529984235764e-02" purity="6.0272389091551304e-03" nType="-99"/>
        </Node>
      </Node>
    </BinaryTree>
    <BinaryTree type="DecisionTree" boostWeight="1.0000000000000000e+00" itree="20">
      <Node pos="s" depth="0" NCoef="0" IVar="2" Cut="-1.4465446472167969e+00" cType="1" res="5.1058776443824172e-04" rms="1.1993302404880524e-01" purity="5.0186067819595337e-01" nType="0">
        <Node pos="l" depth="1" NCoef="0" IVar="27" Cut="-3.0999437440186739e-03" cType="1" res="6.5715320408344269e-02" rms="1.0601842403411865e-01" purity="9.2811101675033569e-01" nType="0">
          <Node pos="l" depth="2" NCoef="0" IVar="-1" Cut="0.0000000000000000e+00" cType="1" res="4.9055408686399460e-02" rms="8.6475685238838196e-02" purity="9.8613637685775757e-01" nType="-99"/>
          <Node pos="r" depth="2" NCoef="0" IVar="-1" Cut="0.0000000000000000e+00" cType="1" res="-4.0425222367048264e-02" rms="1.9622805714607239e-01" purity="1.1085688322782516e-01" nType="-99"/>
        </Node>
        <Node pos="r" depth="1" NCoef="0" IVar="26" Cut="-4.7699427232146263e-03" cType="1" res="-6.7813724279403687e-02" rms="9.2493735253810883e-02" purity="5.5217273533344269e-02" nType="0">
          <Node pos="l" depth="2" NCoef="0" IVar="-1" Cut="0.0000000000000000e+00" cType="1" res="1.9227126613259315e-02" rms="2.3144578933715820e-01" purity="6.9548720121383667e-01" nType="-99"/>
          <Node pos="r" depth="2" NCoef="0" IVar="-1" Cut="0.0000000000000000e+00" cType="1" res="-5.2671320736408234e-02" rms="6.7925035953521729e-02" purity="1.3791517354547977e-02" nType="-99"/>
        </Node>
      </Node>
    </BinaryTree>
    <BinaryTree type="DecisionTree" boostWeight="1.0000000000000000e+00" itree="21">
      <Node pos="s" depth="0" NCoef="0" IVar="25" Cut="-3.0560318846255541e-03" cType="1" res="-5.5764929857105017e-04" rms="1.1598524451255798e-01" purity="4.9723026156425476e-01" nType="0">
        <Node pos="l" depth="1" NCoef="0" IVar="3" Cut="-1.2401508092880249e+00" cType="1" res="6.6284388303756714e-02" rms="9.3320168554782867e-02" purity="9.5174986124038696e-01" nType="0">
          <Node pos="l" depth="2" NCoef="0" IVar="-1" Cut="0.0000000000000000e+00" cType="1" res="5.1159001886844635e-02" rms="6.9693990051746368e-02" purity="9.9078935384750366e-01" nType="-99"/>
          <Node pos="r" depth="2" NCoef="0" IVar="-1" Cut="0.0000000000000000e+00" cType="1" res="-5.2397269755601883e-03" rms="2.1741239726543427e-01" purity="4.9140352010726929e-01" nType="-99"/>
        </Node>
        <Node pos="r" depth="1" NCoef="0" IVar="5" Cut="-1.9120076894760132e+00" cType="1" res="-5.5392697453498840e-02" rms="1.0330618917942047e-01" purity="1.2435714155435562e-01" nType="0">
          <Node pos="l" depth="2" NCoef="0" IVar="-1" Cut="0.0000000000000000e+00" cType="1" res="2.7870666235685349e-02" rms="1.7303505539894104e-01" purity="8.1913250684738159e-01" nType="-99"/>
          <Node pos="r" depth="2" NCoef="0" IVar="-1" Cut="0.0000000000000000e+00" cType="1" res="-5.4094415158033371e-02" rms="7.7087208628654480e-02" purity="2.6659311726689339e-02" nType="-99"/>
        </Node>
      </Node>
    </BinaryTree>
    <BinaryTree type="DecisionTree" boostWeight="1.0000000000000000e+00" itree="22">
      <Node pos="s" depth="0" NCoef="0" IVar="1" Cut="-1.3197352886199951e+00" cType="1" res="-8.0318284744862467e-05" rms="1.1120881885290146e-01" purity="4.9993097782135010e-01" nType="0">
        <Node pos="l" depth="1" NCoef="0" IVar="26" Cut="-1.3877563178539276e-03" cType="1" res="5.2695613354444504e-02" rms="1.0380853712558746e-01" purity="9.0748846530914307e-01" nType="0">
          <Node pos="l" depth="2" NCoef="0" IVar="-1" Cut="0.0000000000000000e+00" cType="1" res="4.6518437564373016e-02" rms="8.7992377579212189e-02" purity="9.7857624292373657e-01" nType="-99"/>
          <Node pos="r" depth="2" NCoef="0" IVar="-1" Cut="0.0000000000000000e+00" cType="1" res="-4.1475247591733932e-02" rms="1.6702124476432800e-01" purity="8.7939687073230743e-02" nType="-99"/>
        </Node>
        <Node pos="r" depth="1" NCoef="0" IVar="3" Cut="-1.6649910211563110e+00" cType="1" res="-5.7865306735038757e-02" rms="8.7868377566337585e-02" purity="5.3691443055868149e-02" nType="0">
          <Node pos="l" depth="2" NCoef="0" IVar="-1" Cut="0.0000000000000000e+00" cType="1" res="7.3207840323448181e-03" rms="2.0831254124641418e-01" purity="5.6404256820678711e-01" nType="-99"/>
          <Node pos="r" depth="2" NCoef="0" IVar="-1" Cut="0.0000000000000000e+00" cType="1" res="-5.1683731377124786e-02" rms="6.7494310438632965e-02" purity="1.4889667741954327e-02" nType="-99"/>
        </Node>
      </Node>
    </BinaryTree>
    <BinaryTree type="DecisionTree" boostWeight="1.0000000000000000e+00" itree="23">
      <Node pos="s" depth="0" NCoef="0" IVar="3" Cut="-1.2818623781204224e+00" cType="1" res="-8.0994817835744470e-05" rms="1.0772322863340378e-01" purity="5.0178295373916626e-01" nType="0">
        <Node pos="l" depth="1" NCoef="0" IVar="27" Cut="-3.0905285384505987e-03" cType="1" res="4.7318655997514725e-02" rms="1.0693121701478958e-01" purity="9.0093195438385010e-01" nType="0">
          <Node pos="l" depth="2" NCoef="0" IVar="-1" Cut="0.0000000000000000e+00" cType="1" res="4.5442376285791397e-02" rms="9.1565005481243134e-02" purity="9.7934740781784058e-01" nType="-99"/>
          <Node pos="r" depth="2" NCoef="0" IVar="-1" Cut="0.0000000000000000e+00" cType="1" res="-4.0411990135908127e-02" rms="1.6485799849033356e-01" purity="7.9991184175014496e-02" nType="-99"/>
        </Node>
        <Node pos="r" depth="1" NCoef="0" IVar="21" Cut="6.2728957273066044e-03" cType="1" res="-5.4369434714317322e-02" rms="7.9237125813961029e-02" purity="4.4623978435993195e-02" nType="0">
          <Node pos="l" depth="2" NCoef="0" IVar="-1" Cut="0.0000000000000000e+00" cType="1" res="1.0055468417704105e-02" rms="1.6088117659091949e-01" purity="4.5985594391822815e-01" nType="-99"/>
          <Node pos="r" depth="2" NCoef="0" IVar="-1" Cut="0.0000000000000000e+00" cType="1" res="-5.4522726684808731e-02" rms="6.3648007810115814e-02" purity="8.2442052662372589e-03" nType="-99"/>
        </Node>
      </Node>
    </BinaryTree>
    <BinaryTree type="DecisionTree" boostWeight="1.0000000000000000e+00" itree="24">
      <Node pos="s" depth="0" NCoef="0" IVar="1" Cut="-1.3074831962585449e+00" cType="1" res="-4.8394472105428576e-04" rms="1.0467826575040817e-01" purity="4.9962294101715088e-01" nType="0">
        <Node pos="l" depth="1" NCoef="0" IVar="27" Cut="-3.0907194595783949e-03" cType="1" res="4.3771289288997650e-02" rms="1.0036396235227585e-01" purity="9.0713995695114136e-01" nType="0">
          <Node pos="l" depth="2" NCoef="0" IVar="-1" Cut="0.0000000000000000e+00" cType="1" res="4.4823039323091507e-02" rms="8.5983954370021820e-02" purity="9.8211169242858887e-01" nType="-99"/>
          <Node pos="r" depth="2" NCoef="0" IVar="-1" Cut="0.0000000000000000e+00" cType="1" res="-3.6364890635013580e-02" rms="1.6604422032833099e-01" purity="8.4583610296249390e-02" nType="-99"/>
        </Node>
        <Node pos="r" depth="1" NCoef="0" IVar="4" Cut="-1.7222765684127808e+00" cType="1" res="-4.9303095787763596e-02" rms="8.5962608456611633e-02" purity="5.0079856067895889e-02" nType="0">
          <Node pos="l" depth="2" NCoef="0" IVar="-1" Cut="0.0000000000000000e+00" cType="1" res="4.3504387140274048e-03" rms="2.1098645031452179e-01" purity="5.3691971302032471e-01" nType="-99"/>
          <Node pos="r" depth="2" NCoef="0" IVar="-1" Cut="0.0000000000000000e+00" cType="1" res="-5.1092971116304398e-02" rms="6.6222645342350006e-02" purity="1.4295738190412521e-02" nType="-99"/>
        </Node>
      </Node>
    </BinaryTree>
    <BinaryTree type="DecisionTree" boostWeight="1.0000000000000000e+00" itree="25">
      <Node pos="s" depth="0" NCoef="0" IVar="2" Cut="-1.4172425270080566e+00" cType="1" res="4.0120434277923778e-05" rms="1.0148570686578751e-01" purity="4.9950158596038818e-01" nType="0">
        <Node pos="l" depth="1" NCoef="0" IVar="27" Cut="-1.5463992021977901e-03" cType="1" res="4.1348811239004135e-02" rms="1.0086738318204880e-01" purity="9.2166465520858765e-01" nType="0">
          <Node pos="l" depth="2" NCoef="0" IVar="-1" Cut="0.0000000000000000e+00" cType="1" res="4.2515229433774948e-02" rms="9.2940747737884521e-02" purity="9.7504043579101562e-01" nType="-99"/>
          <Node pos="r" depth="2" NCoef="0" IVar="-1" Cut="0.0000000000000000e+00" cType="1" res="-4.6921078115701675e-02" rms="1.4844813942909241e-01" purity="3.8193412125110626e-02" nType="-99"/>
        </Node>
        <Node pos="r" depth="1" NCoef="0" IVar="24" Cut="-2.4817623198032379e-03" cType="1" res="-4.3954603374004364e-02" rms="8.1729441881179810e-02" purity="4.9888040870428085e-02" nType="0">
          <Node pos="l" depth="2" NCoef="0" IVar="-1" Cut="0.0000000000000000e+00" cType="1" res="1.5606373548507690e-02" rms="2.0758190751075745e-01" purity="6.2439495325088501e-01" nType="-99"/>
          <Node pos="r" depth="2" NCoef="0" IVar="-1" Cut="0.0000000000000000e+00" cType="1" res="-5.0739616155624390e-02" rms="6.2362767755985260e-02" purity="1.2764393351972103e-02" nType="-99"/>
        </Node>
      </Node>
    </BinaryTree>
    <BinaryTree type="DecisionTree" boostWeight="1.0000000000000000e+00" itree="26">
      <Node pos="s" depth="0" NCoef="0" IVar="27" Cut="-4.6454784460365772e-03" cType="1" res="-6.7574845161288977e-05" rms="9.9055476486682892e-02" purity="5.0076878070831299e-01" nType="0">
        <Node pos="l" depth="1" NCoef="0" IVar="0" Cut="-6.5436589717864990e-01" cType="1" res="4.0353693068027496e-02" rms="9.5151901245117188e-02" purity="9.4609916210174561e-01" nType="0">
          <Node pos="l" depth="2" NCoef="0" IVar="-1" Cut="0.0000000000000000e+00" cType="1" res="4.6187315136194229e-02" rms="7.4715204536914825e-02" purity="9.8193067312240601e-01" nType="-99"/>
          <Node pos="r" depth="2" NCoef="0" IVar="-1" Cut="0.0000000000000000e+00" cType="1" res="-1.1695041321218014e-02" rms="1.7916706204414368e-01" purity="6.6790175437927246e-01" nType="-99"/>
        </Node>
        <Node pos="r" depth="1" NCoef="0" IVar="29" Cut="7.5487238168716431e-01" cType="1" res="-3.8608245551586151e-02" rms="8.6553886532783508e-02" purity="7.6157413423061371e-02" nType="0">
          <Node pos="l" depth="2" NCoef="0" IVar="-1" Cut="0.0000000000000000e+00" cType="1" res="-6.0151912271976471e-02" rms="7.9744383692741394e-02" purity="7.3617061389086302e-06" nType="-99"/>
          <Node pos="r" depth="2" NCoef="0" IVar="-1" Cut="0.0000000000000000e+00" cType="1" res="-3.6199190653860569e-03" rms="8.8394194841384888e-02" purity="2.2285147011280060e-01" nType="-99"/>
        </Node>
      </Node>
    </BinaryTree>
    <BinaryTree type="DecisionTree" boostWeight="1.0000000000000000e+00" itree="27">
      <Node pos="s" depth="0" NCoef="0" IVar="3" Cut="-1.5233389139175415e+00" cType="1" res="-2.5743272271938622e-04" rms="9.4561569392681122e-02" purity="4.9903181195259094e-01" nType="0">
        <Node pos="l" depth="1" NCoef="0" IVar="27" Cut="-3.0908652115613222e-03" cType="1" res="3.7849180400371552e-02" rms="9.2894010245800018e-02" purity="9.3231546878814697e-01" nType="0">
          <Node pos="l" depth="2" NCoef="0" IVar="-1" Cut="0.0000000000000000e+00" cType="1" res="4.4702954590320587e-02" rms="7.9457178711891174e-02" purity="9.8575568199157715e-01" nType="-99"/>
          <Node pos="r" depth="2" NCoef="0" IVar="-1" Cut="0.0000000000000000e+00" cType="1" res="-2.5242198258638382e-02" rms="1.9068484008312225e-01" purity="1.2025333195924759e-01" nType="-99"/>
        </Node>
        <Node pos="r" depth="1" NCoef="0" IVar="23" Cut="-1.6353103565052152e-03" cType="1" res="-3.5643812268972397e-02" rms="8.1434138119220734e-02" purity="9.6678078174591064e-02" nType="0">
          <Node pos="l" depth="2" NCoef="0" IVar="-1" Cut="0.0000000000000000e+00" cType="1" res="3.1835813075304031e-02" rms="1.3534288108348846e-01" purity="8.2852184772491455e-01" nType="-99"/>
          <Node pos="r" depth="2" NCoef="0" IVar="-1" Cut="0.0000000000000000e+00" cType="1" res="-5.2959937602281570e-02" rms="6.7420743405818939e-02" purity="1.8880115821957588e-02" nType="-99"/>
        </Node>
      </Node>
    </BinaryTree>
    <BinaryTree type="DecisionTree" boostWeight="1.0000000000000000e+00" itree="28">
      <Node pos="s" depth="0" NCoef="0" IVar="1" Cut="-1.3108909130096436e+00" cType="1" res="-3.9696280146017671e-04" rms="9.4420127570629120e-02" purity="4.9984771013259888e-01" nType="0">
        <Node pos="l" depth="1" NCoef="0" IVar="25" Cut="1.0016713058575988e-03" cType="1" res="3.1213564798235893e-02" rms="9.5680825412273407e-02" purity="9.0691626071929932e-01" nType="0">
          <Node pos="l" depth="2" NCoef="0" IVar="-1" Cut="0.0000000000000000e+00" cType="1" res="4.0756501257419586e-02" rms="8.5000753402709961e-02" purity="9.7155308723449707e-01" nType="-99"/>
          <Node pos="r" depth="2" NCoef="0" IVar="-1" Cut="0.0000000000000000e+00" cType="1" res="-3.1116353347897530e-02" rms="1.6341422498226166e-01" purity="1.1653474718332291e-01" nType="-99"/>
        </Node>
        <Node pos="r" depth="1" NCoef="0" IVar="29" Cut="-4.2613068222999573e-01" cType="1" res="-3.5337112843990326e-02" rms="7.9529665410518646e-02" purity="4.9901593476533890e-02" nType="0">
          <Node pos="l" depth="2" NCoef="0" IVar="-1" Cut="0.0000000000000000e+00" cType="1" res="-5.3299773484468460e-02" rms="1.0748799890279770e-01" purity="3.9692901074886322e-02" nType="-99"/>
          <Node pos="r" depth="2" NCoef="0" IVar="-1" Cut="0.0000000000000000e+00" cType="1" res="-3.1884126365184784e-02" rms="5.3872246295213699e-02" purity="5.5785268545150757e-02" nType="-99"/>
        </Node>
      </Node>
    </BinaryTree>
    <BinaryTree type="DecisionTree" boostWeight="1.0000000000000000e+00" itree="29">
      <Node pos="s" depth="0" NCoef="0" IVar="4" Cut="-1.4283480644226074e+00" cType="1" res="2.1483513410203159e-04" rms="9.1371200978755951e-02" purity="5.0022441148757935e-01" nType="0">
        <Node pos="l" depth="1" NCoef="0" IVar="27" Cut="-1.5361106488853693e-03" cType="1" res="3.3372271806001663e-02" rms="9.2298753559589386e-02" purity="9.1865295171737671e-01" nType="0">
          <Node pos="l" depth="2" NCoef="0" IVar="-1" Cut="0.0000000000000000e+00" cType="1" res="4.2113568633794785e-02" rms="8.5463456809520721e-02" purity="9.7259658575057983e-01" nType="-99"/>
          <Node pos="r" depth="2" NCoef="0" IVar="-1" Cut="0.0000000000000000e+00" cType="1" res="-3.7606440484523773e-02" rms="1.4411365985870361e-01" purity="4.2763672769069672e-02" nType="-99"/>
        </Node>
        <Node pos="r" depth="1" NCoef="0" IVar="22" Cut="-3.1076505547389388e-04" cType="1" res="-2.9846264049410820e-02" rms="7.9333610832691193e-02" purity="1.2086991220712662e-01" nType="0">
          <Node pos="l" depth="2" NCoef="0" IVar="-1" Cut="0.0000000000000000e+00" cType="1" res="3.6605317145586014e-02" rms="1.1723189800977707e-01" purity="8.9694994688034058e-01" nType="-99"/>
          <Node pos="r" depth="2" NCoef="0" IVar="-1" Cut="0.0000000000000000e+00" cType="1" res="-5.3469490259885788e-02" rms="6.8514376878738403e-02" purity="2.8301119804382324e-02" nType="-99"/>
        </Node>
      </Node>
    </BinaryTree>
    <BinaryTree type="DecisionTree" boostWeight="1.0000000000000000e+00" itree="30">
      <Node pos="s" depth="0" NCoef="0" IVar="25" Cut="-3.0370897147804499e-03" cType="1" res="-2.6810341296368279e-05" rms="8.8629513978958130e-02" purity="5.0098741054534912e-01" nType="0">
        <Node pos="l" depth="1" NCoef="0" IVar="5" Cut="-7.4457395076751709e-01" cType="1" res="3.1552478671073914e-02" rms="8.2503199577331543e-02" purity="9.5261198282241821e-01" nType="0">
          <Node pos="l" depth="2" NCoef="0" IVar="-1" Cut="0.0000000000000000e+00" cType="1" res="4.5100286602973938e-02" rms="6.8027861416339874e-02" purity="9.8589605093002319e-01" nType="-99"/>
          <Node pos="r" depth="2" NCoef="0" IVar="-1" Cut="0.0000000000000000e+00" cType="1" res="-1.0042526759207249e-02" rms="1.7014832794666290e-01" purity="5.7870340347290039e-01" nType="-99"/>
        </Node>
        <Node pos="r" depth="1" NCoef="0" IVar="29" Cut="-1.2693725824356079e+00" cType="1" res="-2.6323735713958740e-02" rms="8.4889724850654602e-02" purity="1.2490746378898621e-01" nType="0">
          <Node pos="l" depth="2" NCoef="0" IVar="-1" Cut="0.0000000000000000e+00" cType="1" res="-7.5088843703269958e-02" rms="1.7570863664150238e-01" purity="7.4761338531970978e-02" nType="-99"/>
          <Node pos="r" depth="2" NCoef="0" IVar="-1" Cut="0.0000000000000000e+00" cType="1" res="-2.6965666562318802e-02" rms="6.4944639801979065e-02" purity="1.2986969947814941e-01" nType="-99"/>
        </Node>
      </Node>
    </BinaryTree>
    <BinaryTree type="DecisionTree" boostWeight="1.0000000000000000e+00" itree="31">
      <Node pos="s" depth="0" NCoef="0" IVar="24" Cut="-3.7916767178103328e-04" cType="1" res="1.1134192754980177e-04" rms="8.7529562413692474e-02" purity="5.0096422433853149e-01" nType="0">
        <Node pos="l" depth="1" NCoef="0" IVar="29" Cut="-1.0706180334091187e+00" cType="1" res="2.7220316231250763e-02" rms="8.4243506193161011e-02" purity="9.1892194747924805e-01" nType="0">
          <Node pos="l" depth="2" NCoef="0" IVar="-1" Cut="0.0000000000000000e+00" cType="1" res="-1.1870676651597023e-02" rms="1.5536779165267944e-01" purity="7.7566272020339966e-01" nType="-99"/>
          <Node pos="r" depth="2" NCoef="0" IVar="-1" Cut="0.0000000000000000e+00" cType="1" res="4.8491246998310089e-02" rms="4.8667713999748230e-02" purity="9.5463055372238159e-01" nType="-99"/>
        </Node>
        <Node pos="r" depth="1" NCoef="0" IVar="6" Cut="-2.1550920009613037e+00" cType="1" res="-2.6516076177358627e-02" rms="8.2371063530445099e-02" purity="9.0430982410907745e-02" nType="0">
          <Node pos="l" depth="2" NCoef="0" IVar="-1" Cut="0.0000000000000000e+00" cType="1" res="3.7107143551111221e-02" rms="1.5953998267650604e-01" purity="8.2886534929275513e-01" nType="-99"/>
          <Node pos="r" depth="2" NCoef="0" IVar="-1" Cut="0.0000000000000000e+00" cType="1" res="-5.1468022167682648e-02" rms="6.8732887506484985e-02" purity="3.2302308827638626e-02" nType="-99"/>
        </Node>
      </Node>
    </BinaryTree>
    <BinaryTree type="DecisionTree" boostWeight="1.0000000000000000e+00" itree="32">
      <Node pos="s" depth="0" NCoef="0" IVar="3" Cut="-1.4844033718109131e+00" cType="1" res="-1.4049035962671041e-04" rms="8.4792941808700562e-02" purity="5.0010675191879272e-01" nType="0">
        <Node pos="l" depth="1" NCoef="0" IVar="29" Cut="-9.5113617181777954e-01" cType="1" res="2.5671336799860001e-02" rms="8.8153593242168427e-02" purity="9.2901736497879028e-01" nType="0">
          <Node pos="l" depth="2" NCoef="0" IVar="-1" Cut="0.0000000000000000e+00" cType="1" res="-8.2984808832406998e-03" rms="1.5810716152191162e-01" purity="8.8436126708984375e-01" nType="-99"/>
          <Node pos="r" depth="2" NCoef="0" IVar="-1" Cut="0.0000000000000000e+00" cType="1" res="4.4976975768804550e-02" rms="5.8452710509300232e-02" purity="9.3948024511337280e-01" nType="-99"/>
        </Node>
        <Node pos="r" depth="1" NCoef="0" IVar="22" Cut="-6.8932690192013979e-04" cType="1" res="-2.4897333234548569e-02" rms="7.3351643979549408e-02" purity="8.8726595044136047e-02" nType="0">
          <Node pos="l" depth="2" NCoef="0" IVar="-1" Cut="0.0000000000000000e+00" cType="1" res="4.0409773588180542e-02" rms="1.1720561236143112e-01" purity="8.8978010416030884e-01" nType="-99"/>
          <Node pos="r" depth="2" NCoef="0" IVar="-1" Cut="0.0000000000000000e+00" cType="1" res="-5.0266884267330170e-02" rms="6.5395116806030273e-02" purity="2.9374828562140465e-02" nType="-99"/>
        </Node>
      </Node>
    </BinaryTree>
    <BinaryTree type="DecisionTree" boostWeight="1.0000000000000000e+00" itree="33">
      <Node pos="s" depth="0" NCoef="0" IVar="4" Cut="-1.1729730367660522e+00" cType="1" res="-4.8972928198054433e-04" rms="8.3373956382274628e-02" purity="4.9856096506118774e-01" nType="0">
        <Node pos="l" depth="1" NCoef="0" IVar="1" Cut="-6.2219238281250000e-01" cType="1" res="2.0998664200305939e-02" rms="9.0833447873592377e-02" purity="8.7933760881423950e-01" nType="0">
          <Node pos="l" depth="2" NCoef="0" IVar="-1" Cut="0.0000000000000000e+00" cType="1" res="3.4492198377847672e-02" rms="8.6468465626239777e-02" purity="9.3852180242538452e-01" nType="-99"/>
          <Node pos="r" depth="2" NCoef="0" IVar="-1" Cut="0.0000000000000000e+00" cType="1" res="-4.4078737497329712e-02" rms="1.1869782209396362e-01" purity="5.5813174694776535e-02" nType="-99"/>
        </Node>
        <Node pos="r" depth="1" NCoef="0" IVar="21" Cut="2.7281020302325487e-03" cType="1" res="-2.5001807138323784e-02" rms="6.5888509154319763e-02" purity="6.4204305410385132e-02" nType="0">
          <Node pos="l" depth="2" NCoef="0" IVar="-1" Cut="0.0000000000000000e+00" cType="1" res="3.3190932124853134e-02" rms="1.1428511142730713e-01" purity="8.0981487035751343e-01" nType="-99"/>
          <Node pos="r" depth="2" NCoef="0" IVar="-1" Cut="0.0000000000000000e+00" cType="1" res="-5.4344590753316879e-02" rms="5.9169605374336243e-02" purity="1.5387469902634621e-02" nType="-99"/>
        </Node>
      </Node>
    </BinaryTree>
    <BinaryTree type="DecisionTree" boostWeight="1.0000000000000000e+00" itree="34">
      <Node pos="s" depth="0" NCoef="0" IVar="2" Cut="-1.7219239473342896e+00" cType="1" res="2.1691877918783575e-04" rms="7.9745329916477203e-02" purity="5.0106900930404663e-01" nType="0">
        <Node pos="l" depth="1" NCoef="0" IVar="29" Cut="1.2333118915557861e+00" cType="1" res="2.3865466937422752e-02" rms="7.6520048081874847e-02" purity="9.5138376951217651e-01" nType="0">
          <Node pos="l" depth="2" NCoef="0" IVar="-1" Cut="0.0000000000000000e+00" cType="1" res="3.0713837593793869e-02" rms="7.4455395340919495e-02" purity="9.5056647062301636e-01" nType="-99"/>
          <Node pos="r" depth="2" NCoef="0" IVar="-1" Cut="0.0000000000000000e+00" cType="1" res="5.5854912847280502e-02" rms="8.2373209297657013e-02" purity="9.5641630887985229e-01" nType="-99"/>
        </Node>
        <Node pos="r" depth="1" NCoef="0" IVar="26" Cut="-4.7703753225505352e-03" cType="1" res="-1.8916187807917595e-02" rms="7.7126771211624146e-02" purity="1.3673712313175201e-01" nType="0">
          <Node pos="l" depth="2" NCoef="0" IVar="-1" Cut="0.0000000000000000e+00" cType="1" res="2.0726999267935753e-02" rms="1.3235566020011902e-01" purity="8.6611926555633545e-01" nType="-99"/>
          <Node pos="r" depth="2" NCoef="0" IVar="-1" Cut="0.0000000000000000e+00" cType="1" res="-4.6085681766271591e-02" rms="6.3975542783737183e-02" purity="3.6899968981742859e-02" nType="-99"/>
        </Node>
      </Node>
    </BinaryTree>
    <BinaryTree type="DecisionTree" boostWeight="1.0000000000000000e+00" itree="35">
      <Node pos="s" depth="0" NCoef="0" IVar="27" Cut="-4.6453955583274364e-03" cType="1" res="-3.4154669265262783e-04" rms="8.1802971661090851e-02" purity="4.9960646033287048e-01" nType="0">
        <Node pos="l" depth="1" NCoef="0" IVar="4" Cut="-1.1387281417846680e+00" cType="1" res="2.0334381610155106e-02" rms="8.2454994320869446e-02" purity="9.4526422023773193e-01" nType="0">
          <Node pos="l" depth="2" NCoef="0" IVar="-1" Cut="0.0000000000000000e+00" cType="1" res="4.3263986706733704e-02" rms="6.3917472958564758e-02" purity="9.8984116315841675e-01" nType="-99"/>
          <Node pos="r" depth="2" NCoef="0" IVar="-1" Cut="0.0000000000000000e+00" cType="1" res="-2.1125547587871552e-02" rms="1.6926771402359009e-01" purity="5.4390251636505127e-01" nType="-99"/>
        </Node>
        <Node pos="r" depth="1" NCoef="0" IVar="29" Cut="-7.9950082302093506e-01" cType="1" res="-1.9984625279903412e-02" rms="7.6144501566886902e-02" purity="7.6211228966712952e-02" nType="0">
          <Node pos="l" depth="2" NCoef="0" IVar="-1" Cut="0.0000000000000000e+00" cType="1" res="-7.4606992304325104e-02" rms="1.2417924404144287e-01" purity="0.0000000000000000e+00" nType="-99"/>
          <Node pos="r" depth="2" NCoef="0" IVar="-1" Cut="0.0000000000000000e+00" cType="1" res="-2.2544858977198601e-02" rms="5.5210977792739868e-02" purity="9.4802692532539368e-02" nType="-99"/>
        </Node>
      </Node>
    </BinaryTree>
    <BinaryTree type="DecisionTree" boostWeight="1.0000000000000000e+00" itree="36">
      <Node pos="s" depth="0" NCoef="0" IVar="1" Cut="-1.6464693546295166e+00" cType="1" res="-1.1310702393529937e-04" rms="7.7828295528888702e-02" purity="4.9943551421165466e-01" nType="0">
        <Node pos="l" depth="1" NCoef="0" IVar="29" Cut="1.3737186193466187e+00" cType="1" res="2.0310062915086746e-02" rms="7.6144799590110779e-02" purity="9.4320195913314819e-01" nType="0">
          <Node pos="l" depth="2" NCoef="0" IVar="-1" Cut="0.0000000000000000e+00" cType="1" res="2.9356129467487335e-02" rms="7.2512298822402954e-02" purity="9.4336754083633423e-01" nType="-99"/>
          <Node pos="r" depth="2" NCoef="0" IVar="-1" Cut="0.0000000000000000e+00" cType="1" res="5.8579694479703903e-02" rms="9.6415862441062927e-02" purity="9.4164150953292847e-01" nType="-99"/>
        </Node>
        <Node pos="r" depth="1" NCoef="0" IVar="29" Cut="-1.0698626041412354e+00" cType="1" res="-1.7125943675637245e-02" rms="7.5075156986713409e-02" purity="1.2977071106433868e-01" nType="0">
          <Node pos="l" depth="2" NCoef="0" IVar="-1" Cut="0.0000000000000000e+00" cType="1" res="-5.7588156312704086e-02" rms="1.3920626044273376e-01" purity="1.1698140949010849e-01" nType="-99"/>
          <Node pos="r" depth="2" NCoef="0" IVar="-1" Cut="0.0000000000000000e+00" cType="1" res="-1.9446624442934990e-02" rms="4.9327861517667770e-02" purity="1.3238930702209473e-01" nType="-99"/>
        </Node>
      </Node>
    </BinaryTree>
    <BinaryTree type="DecisionTree" boostWeight="1.0000000000000000e+00" itree="37">
      <Node pos="s" depth="0" NCoef="0" IVar="4" Cut="-1.5365002155303955e+00" cType="1" res="2.4590097018517554e-04" rms="7.6026469469070435e-02" purity="5.0078231096267700e-01" nType="0">
        <Node pos="l" depth="1" NCoef="0" IVar="29" Cut="1.3934584856033325e+00" cType="1" res="2.0101059228181839e-02" rms="7.9460971057415009e-02" purity="9.2928910255432129e-01" nType="0">
          <Node pos="l" depth="2" NCoef="0" IVar="-1" Cut="0.0000000000000000e+00" cType="1" res="2.6224868372082710e-02" rms="7.3798172175884247e-02" purity="9.2760401964187622e-01" nType="-99"/>
          <Node pos="r" depth="2" NCoef="0" IVar="-1" Cut="0.0000000000000000e+00" cType="1" res="5.9964913874864578e-02" rms="1.0934182256460190e-01" purity="9.4456332921981812e-01" nType="-99"/>
        </Node>
        <Node pos="r" depth="1" NCoef="0" IVar="21" Cut="1.5406616730615497e-03" cType="1" res="-1.5952136367559433e-02" rms="6.8995453417301178e-02" purity="1.5120218694210052e-01" nType="0">
          <Node pos="l" depth="2" NCoef="0" IVar="-1" Cut="0.0000000000000000e+00" cType="1" res="4.7471992671489716e-02" rms="7.8494556248188019e-02" purity="9.3676733970642090e-01" nType="-99"/>
          <Node pos="r" depth="2" NCoef="0" IVar="-1" Cut="0.0000000000000000e+00" cType="1" res="-4.6897910535335541e-02" rms="6.5540984272956848e-02" purity="7.6818324625492096e-02" nType="-99"/>
        </Node>
      </Node>
    </BinaryTree>
    <BinaryTree type="DecisionTree" boostWeight="1.0000000000000000e+00" itree="38">
      <Node pos="s" depth="0" NCoef="0" IVar="25" Cut="-3.0888204928487539e-03" cType="1" res="-3.6037809331901371e-04" rms="7.6039269566535950e-02" purity="4.9817022681236267e-01" nType="0">
        <Node pos="l" depth="1" NCoef="0" IVar="6" Cut="-4.2279967665672302e-01" cType="1" res="1.7987100407481194e-02" rms="7.6853126287460327e-02" purity="9.5191997289657593e-01" nType="0">
          <Node pos="l" depth="2" NCoef="0" IVar="-1" Cut="0.0000000000000000e+00" cType="1" res="3.9982847869396210e-02" rms="6.5973602235317230e-02" purity="9.8254036903381348e-01" nType="-99"/>
          <Node pos="r" depth="2" NCoef="0" IVar="-1" Cut="0.0000000000000000e+00" cType="1" res="-1.4006649143993855e-02" rms="1.4741945266723633e-01" purity="6.1693793535232544e-01" nType="-99"/>
        </Node>
        <Node pos="r" depth="1" NCoef="0" IVar="6" Cut="-2.1220278739929199e+00" cType="1" res="-1.5378255397081375e-02" rms="7.1965567767620087e-02" purity="1.2676452100276947e-01" nType="0">
          <Node pos="l" depth="2" NCoef="0" IVar="-1" Cut="0.0000000000000000e+00" cType="1" res="3.4411948174238205e-02" rms="1.2778854370117188e-01" purity="8.6343389749526978e-01" nType="-99"/>
          <Node pos="r" depth="2" NCoef="0" IVar="-1" Cut="0.0000000000000000e+00" cType="1" res="-4.7098990529775620e-02" rms="6.1842985451221466e-02" purity="5.7294856756925583e-02" nType="-99"/>
        </Node>
      </Node>
    </BinaryTree>
    <BinaryTree type="DecisionTree" boostWeight="1.0000000000000000e+00" itree="39">
      <Node pos="s" depth="0" NCoef="0" IVar="3" Cut="-1.6326997280120850e+00" cType="1" res="-4.8225960927084088e-04" rms="7.6459869742393494e-02" purity="4.9941781163215637e-01" nType="0">
        <Node pos="l" depth="1" NCoef="0" IVar="29" Cut="-1.2383401393890381e+00" cType="1" res="1.6567261889576912e-02" rms="8.0535016953945160e-02" purity="9.4292533397674561e-01" nType="0">
          <Node pos="l" depth="2" NCoef="0" IVar="-1" Cut="0.0000000000000000e+00" cType="1" res="-2.3451203480362892e-02" rms="1.6953615844249725e-01" purity="8.9916986227035522e-01" nType="-99"/>
          <Node pos="r" depth="2" NCoef="0" IVar="-1" Cut="0.0000000000000000e+00" cType="1" res="4.0893327444791794e-02" rms="5.3934182971715927e-02" purity="9.4956928491592407e-01" nType="-99"/>
        </Node>
        <Node pos="r" depth="1" NCoef="0" IVar="22" Cut="-8.0185622209683061e-04" cType="1" res="-1.4616114087402821e-02" rms="6.9821216166019440e-02" purity="1.3175521790981293e-01" nType="0">
          <Node pos="l" depth="2" NCoef="0" IVar="-1" Cut="0.0000000000000000e+00" cType="1" res="3.6832734942436218e-02" rms="9.5434688031673431e-02" purity="9.2170882225036621e-01" nType="-99"/>
          <Node pos="r" depth="2" NCoef="0" IVar="-1" Cut="0.0000000000000000e+00" cType="1" res="-4.6977680176496506e-02" rms="6.4950957894325256e-02" purity="5.3688228130340576e-02" nType="-99"/>
        </Node>
      </Node>
    </BinaryTree>
    <BinaryTree type="DecisionTree" boostWeight="1.0000000000000000e+00" itree="40">
      <Node pos="s" depth="0" NCoef="0" IVar="27" Cut="-4.6453904360532761e-03" cType="1" res="-9.3602779088541865e-05" rms="7.1748413145542145e-02" purity="4.9941059947013855e-01" nType="0">
        <Node pos="l" depth="1" NCoef="0" IVar="5" Cut="-8.3407872915267944e-01" cType="1" res="1.5180738642811775e-02" rms="7.3211491107940674e-02" purity="9.4537961483001709e-01" nType="0">
          <Node pos="l" depth="2" NCoef="0" IVar="-1" Cut="0.0000000000000000e+00" cType="1" res="4.0210880339145660e-02" rms="5.8667585253715515e-02" purity="9.8568099737167358e-01" nType="-99"/>
          <Node pos="r" depth="2" NCoef="0" IVar="-1" Cut="0.0000000000000000e+00" cType="1" res="-1.8025683239102364e-02" rms="1.4693111181259155e-01" purity="5.7653337717056274e-01" nType="-99"/>
        </Node>
        <Node pos="r" depth="1" NCoef="0" IVar="29" Cut="1.3888001441955566e+00" cType="1" res="-1.4607330784201622e-02" rms="6.7186102271080017e-02" purity="7.5649440288543701e-02" nType="0">
          <Node pos="l" depth="2" NCoef="0" IVar="-1" Cut="0.0000000000000000e+00" cType="1" res="-5.3476259112358093e-02" rms="6.1376731842756271e-02" purity="3.0722841620445251e-02" nType="-99"/>
          <Node pos="r" depth="2" NCoef="0" IVar="-1" Cut="0.0000000000000000e+00" cType="1" res="2.8719823807477951e-02" rms="8.5665374994277954e-02" purity="3.2186663150787354e-01" nType="-99"/>
        </Node>
      </Node>
    </BinaryTree>
    <BinaryTree type="DecisionTree" boostWeight="1.0000000000000000e+00" itree="41">
      <Node pos="s" depth="0" NCoef="0" IVar="26" Cut="-4.7695785760879517e-03" cType="1" res="-1.5140211326070130e-04" rms="7.1846596896648407e-02" purity="4.9918356537818909e-01" nType="0">
        <Node pos="l" depth="1" NCoef="0" IVar="19" Cut="2.0075976848602295e-02" cType="1" res="1.7211444675922394e-02" rms="6.3891969621181488e-02" purity="9.7266995906829834e-01" nType="0">
          <Node pos="l" depth="2" NCoef="0" IVar="-1" Cut="0.0000000000000000e+00" cType="1" res="4.8908505588769913e-02" rms="6.5254636108875275e-02" purity="9.8105096817016602e-01" nType="-99"/>
          <Node pos="r" depth="2" NCoef="0" IVar="-1" Cut="0.0000000000000000e+00" cType="1" res="3.2556187361478806e-02" rms="6.3212662935256958e-02" purity="9.7123837471008301e-01" nType="-99"/>
        </Node>
        <Node pos="r" depth="1" NCoef="0" IVar="29" Cut="-1.2773332595825195e+00" cType="1" res="-1.0460325516760349e-02" rms="7.4281573295593262e-02" purity="2.1805828809738159e-01" nType="0">
          <Node pos="l" depth="2" NCoef="0" IVar="-1" Cut="0.0000000000000000e+00" cType="1" res="-7.4526518583297729e-02" rms="1.6613273322582245e-01" purity="1.7376863956451416e-01" nType="-99"/>
          <Node pos="r" depth="2" NCoef="0" IVar="-1" Cut="0.0000000000000000e+00" cType="1" res="-1.2655838392674923e-02" rms="5.3032025694847107e-02" purity="2.2282946109771729e-01" nType="-99"/>
        </Node>
      </Node>
    </BinaryTree>
    <BinaryTree type="DecisionTree" boostWeight="1.0000000000000000e+00" itree="42">
      <Node pos="s" depth="0" NCoef="0" IVar="0" Cut="-1.0501903295516968e+00" cType="1" res="-3.3899737172760069e-04" rms="7.1908295154571533e-02" purity="5.0072860717773438e-01" nType="0">
        <Node pos="l" depth="1" NCoef="0" IVar="29" Cut="-7.9950082302093506e-01" cType="1" res="1.2867745943367481e-02" rms="7.2156287729740143e-02" purity="8.4727346897125244e-01" nType="0">
          <Node pos="l" depth="2" NCoef="0" IVar="-1" Cut="0.0000000000000000e+00" cType="1" res="-1.1685725301504135e-02" rms="1.2011376768350601e-01" purity="7.9726409912109375e-01" nType="-99"/>
          <Node pos="r" depth="2" NCoef="0" IVar="-1" Cut="0.0000000000000000e+00" cType="1" res="4.1398040950298309e-02" rms="4.8265468329191208e-02" purity="8.6204600334167480e-01" nType="-99"/>
        </Node>
        <Node pos="r" depth="1" NCoef="0" IVar="29" Cut="-8.9914822578430176e-01" cType="1" res="-1.3152053579688072e-02" rms="6.9301858544349670e-02" purity="1.6451407968997955e-01" nType="0">
          <Node pos="l" depth="2" NCoef="0" IVar="-1" Cut="0.0000000000000000e+00" cType="1" res="-5.6918803602457047e-02" rms="1.2555690109729767e-01" purity="1.7006362974643707e-01" nType="-99"/>
          <Node pos="r" depth="2" NCoef="0" IVar="-1" Cut="0.0000000000000000e+00" cType="1" res="-1.9301787018775940e-02" rms="3.8321264088153839e-02" purity="1.6294418275356293e-01" nType="-99"/>
        </Node>
      </Node>
    </BinaryTree>
    <BinaryTree type="DecisionTree" boostWeight="1.0000000000000000e+00" itree="43">
      <Node pos="s" depth="0" NCoef="0" IVar="2" Cut="-1.7573841810226440e+00" cType="1" res="-1.5939418517518789e-05" rms="6.9161161780357361e-02" purity="5.0024771690368652e-01" nType="0">
        <Node pos="l" depth="1" NCoef="0" IVar="29" Cut="1.2333118915557861e+00" cType="1" res="1.4065406285226345e-02" rms="6.7640997469425201e-02" purity="9.5449519157409668e-01" nType="0">
          <Node pos="l" depth="2" NCoef="0" IVar="-1" Cut="0.0000000000000000e+00" cType="1" res="2.4961952120065689e-02" rms="6.6904075443744659e-02" purity="9.5408302545547485e-01" nType="-99"/>
          <Node pos="r" depth="2" NCoef="0" IVar="-1" Cut="0.0000000000000000e+00" cType="1" res="5.3120754659175873e-02" rms="6.8132728338241577e-02" purity="9.5697408914566040e-01" nType="-99"/>
        </Node>
        <Node pos="r" depth="1" NCoef="0" IVar="25" Cut="-5.1228562369942665e-03" cType="1" res="-1.0901388712227345e-02" rms="6.8353891372680664e-02" purity="1.4909601211547852e-01" nType="0">
          <Node pos="l" depth="2" NCoef="0" IVar="-1" Cut="0.0000000000000000e+00" cType="1" res="3.8903519511222839e-02" rms="9.9719099700450897e-02" purity="9.4372695684432983e-01" nType="-99"/>
          <Node pos="r" depth="2" NCoef="0" IVar="-1" Cut="0.0000000000000000e+00" cType="1" res="-3.5936094820499420e-02" rms="6.5066874027252197e-02" purity="9.9891372025012970e-02" nType="-99"/>
        </Node>
      </Node>
    </BinaryTree>
    <BinaryTree type="DecisionTree" boostWeight="1.0000000000000000e+00" itree="44">
      <Node pos="s" depth="0" NCoef="0" IVar="23" Cut="8.8320591021329165e-04" cType="1" res="4.7211270430125296e-04" rms="6.7386329174041748e-02" purity="5.0055289268493652e-01" nType="0">
        <Node pos="l" depth="1" NCoef="0" IVar="5" Cut="-5.5861890316009521e-01" cType="1" res="1.3940139673650265e-02" rms="6.3299484550952911e-02" purity="9.2504400014877319e-01" nType="0">
          <Node pos="l" depth="2" NCoef="0" IVar="-1" Cut="0.0000000000000000e+00" cType="1" res="3.9479810744524002e-02" rms="5.4676216095685959e-02" purity="9.7636085748672485e-01" nType="-99"/>
          <Node pos="r" depth="2" NCoef="0" IVar="-1" Cut="0.0000000000000000e+00" cType="1" res="-1.4944965019822121e-02" rms="1.1982495337724686e-01" purity="3.6713731288909912e-01" nType="-99"/>
        </Node>
        <Node pos="r" depth="1" NCoef="0" IVar="6" Cut="-2.2374117374420166e+00" cType="1" res="-1.0235162451863289e-02" rms="6.8605229258537292e-02" purity="1.6307635605335236e-01" nType="0">
          <Node pos="l" depth="2" NCoef="0" IVar="-1" Cut="0.0000000000000000e+00" cType="1" res="3.7266410887241364e-02" rms="1.0268499702215195e-01" purity="9.1019344329833984e-01" nType="-99"/>
          <Node pos="r" depth="2" NCoef="0" IVar="-1" Cut="0.0000000000000000e+00" cType="1" res="-4.3961167335510254e-02" rms="6.2485091388225555e-02" purity="8.4430493414402008e-02" nType="-99"/>
        </Node>
      </Node>
    </BinaryTree>
    <BinaryTree type="DecisionTree" boostWeight="1.0000000000000000e+00" itree="45">
      <Node pos="s" depth="0" NCoef="0" IVar="27" Cut="-4.6453904360532761e-03" cType="1" res="4.6095174184301868e-06" rms="6.6753625869750977e-02" purity="5.0029760599136353e-01" nType="0">
        <Node pos="l" depth="1" NCoef="0" IVar="29" Cut="-9.0487617254257202e-01" cType="1" res="1.1445987969636917e-02" rms="7.0828892290592194e-02" purity="9.4614291191101074e-01" nType="0">
          <Node pos="l" depth="2" NCoef="0" IVar="-1" Cut="0.0000000000000000e+00" cType="1" res="-1.4274868182837963e-02" rms="1.2857653200626373e-01" purity="7.9212570190429688e-01" nType="-99"/>
          <Node pos="r" depth="2" NCoef="0" IVar="-1" Cut="0.0000000000000000e+00" cType="1" res="5.2939224988222122e-02" rms="3.0947308987379074e-02" purity="9.9777293205261230e-01" nType="-99"/>
        </Node>
        <Node pos="r" depth="1" NCoef="0" IVar="29" Cut="8.4172493219375610e-01" cType="1" res="-1.0872779414057732e-02" rms="6.0664903372526169e-02" purity="7.6429724693298340e-02" nType="0">
          <Node pos="l" depth="2" NCoef="0" IVar="-1" Cut="0.0000000000000000e+00" cType="1" res="-6.2811747193336487e-02" rms="5.9016052633523941e-02" purity="7.7664379205089062e-05" nType="-99"/>
          <Node pos="r" depth="2" NCoef="0" IVar="-1" Cut="0.0000000000000000e+00" cType="1" res="1.3883710838854313e-02" rms="6.0690749436616898e-02" purity="2.3953853547573090e-01" nType="-99"/>
        </Node>
      </Node>
    </BinaryTree>
    <BinaryTree type="DecisionTree" boostWeight="1.0000000000000000e+00" itree="46">
      <Node pos="s" depth="0" NCoef="0" IVar="28" Cut="-9.3390381336212158e-01" cType="1" res="-1.6324377793353051e-04" rms="6.7495763301849365e-02" purity="5.0145477056503296e-01" nType="0">
        <Node pos="l" depth="1" NCoef="0" IVar="-1" Cut="0.0000000000000000e+00" cType="1" res="-6.2489796429872513e-02" rms="2.0109324157238007e-01" purity="3.6277258396148682e-01" nType="-99"/>
        <Node pos="r" depth="1" NCoef="0" IVar="3" Cut="-1.4660990238189697e+00" cType="1" res="1.6260453267022967e-03" rms="5.8987326920032501e-02" purity="5.0513547658920288e-01" nType="0">
          <Node pos="l" depth="2" NCoef="0" IVar="-1" Cut="0.0000000000000000e+00" cType="1" res="3.1282633543014526e-02" rms="6.1557948589324951e-02" purity="9.3472892045974731e-01" nType="-99"/>
          <Node pos="r" depth="2" NCoef="0" IVar="-1" Cut="0.0000000000000000e+00" cType="1" res="-3.1174859032034874e-02" rms="5.4216213524341583e-02" purity="8.3853177726268768e-02" nType="-99"/>
        </Node>
      </Node>
    </BinaryTree>
    <BinaryTree type="DecisionTree" boostWeight="1.0000000000000000e+00" itree="47">
      <Node pos="s" depth="0" NCoef="0" IVar="23" Cut="8.8320591021329165e-04" cType="1" res="-2.7353648329153657e-04" rms="6.6241256892681122e-02" purity="5.0075942277908325e-01" nType="0">
        <Node pos="l" depth="1" NCoef="0" IVar="28" Cut="3.1581562012434006e-02" cType="1" res="1.1128498241305351e-02" rms="6.3731737434864044e-02" purity="9.2753630876541138e-01" nType="0">
          <Node pos="l" depth="2" NCoef="0" IVar="-1" Cut="0.0000000000000000e+00" cType="1" res="-6.8843141198158264e-03" rms="1.1114016920328140e-01" purity="9.0329790115356445e-01" nType="-99"/>
          <Node pos="r" depth="2" NCoef="0" IVar="-1" Cut="0.0000000000000000e+00" cType="1" res="3.8230624049901962e-02" rms="4.8208937048912048e-02" purity="9.3247240781784058e-01" nType="-99"/>
        </Node>
        <Node pos="r" depth="1" NCoef="0" IVar="29" Cut="-1.2693725824356079e+00" cType="1" res="-9.2499274760484695e-03" rms="6.6796407103538513e-02" purity="1.6477407515048981e-01" nType="0">
          <Node pos="l" depth="2" NCoef="0" IVar="-1" Cut="0.0000000000000000e+00" cType="1" res="-7.5967356562614441e-02" rms="1.5298554301261902e-01" purity="9.7533546388149261e-02" nType="-99"/>
          <Node pos="r" depth="2" NCoef="0" IVar="-1" Cut="0.0000000000000000e+00" cType="1" res="-1.4494426548480988e-02" rms="4.7188352793455124e-02" purity="1.7175564169883728e-01" nType="-99"/>
        </Node>
      </Node>
    </BinaryTree>
    <BinaryTree type="DecisionTree" boostWeight="1.0000000000000000e+00" itree="48">
      <Node pos="s" depth="0" NCoef="0" IVar="5" Cut="-1.5017689466476440e+00" cType="1" res="-7.0902118750382215e-05" rms="6.3539482653141022e-02" purity="5.0068134069442749e-01" nType="0">
        <Node pos="l" depth="1" NCoef="0" IVar="29" Cut="1.3630415201187134e+00" cType="1" res="1.1628276668488979e-02" rms="6.6655740141868591e-02" purity="9.1569316387176514e-01" nType="0">
          <Node pos="l" depth="2" NCoef="0" IVar="-1" Cut="0.0000000000000000e+00" cType="1" res="2.0923154428601265e-02" rms="6.2497764825820923e-02" purity="9.1353642940521240e-01" nType="-99"/>
          <Node pos="r" depth="2" NCoef="0" IVar="-1" Cut="0.0000000000000000e+00" cType="1" res="5.6693855673074722e-02" rms="8.7897196412086487e-02" purity="9.3298250436782837e-01" nType="-99"/>
        </Node>
        <Node pos="r" depth="1" NCoef="0" IVar="22" Cut="-8.0185622209683061e-04" cType="1" res="-8.0824131146073341e-03" rms="6.0012653470039368e-02" purity="2.1648439764976501e-01" nType="0">
          <Node pos="l" depth="2" NCoef="0" IVar="-1" Cut="0.0000000000000000e+00" cType="1" res="3.6825995892286301e-02" rms="6.2555275857448578e-02" purity="9.5466703176498413e-01" nType="-99"/>
          <Node pos="r" depth="2" NCoef="0" IVar="-1" Cut="0.0000000000000000e+00" cType="1" res="-4.8361521214246750e-02" rms="5.8410007506608963e-02" purity="8.7377913296222687e-02" nType="-99"/>
        </Node>
      </Node>
    </BinaryTree>
    <BinaryTree type="DecisionTree" boostWeight="1.0000000000000000e+00" itree="49">
      <Node pos="s" depth="0" NCoef="0" IVar="4" Cut="-1.7684789896011353e+00" cType="1" res="1.9882940978277475e-04" rms="6.3448801636695862e-02" purity="5.0273269414901733e-01" nType="0">
        <Node pos="l" depth="1" NCoef="0" IVar="29" Cut="1.2145740985870361e+00" cType="1" res="1.1813951656222343e-02" rms="6.6206693649291992e-02" purity="9.4976758956909180e-01" nType="0">
          <Node pos="l" depth="2" NCoef="0" IVar="-1" Cut="0.0000000000000000e+00" cType="1" res="2.1164992824196815e-02" rms="6.3361756503582001e-02" purity="9.4758599996566772e-01" nType="-99"/>
          <Node pos="r" depth="2" NCoef="0" IVar="-1" Cut="0.0000000000000000e+00" cType="1" res="5.4027765989303589e-02" rms="7.5629517436027527e-02" purity="9.6146398782730103e-01" nType="-99"/>
        </Node>
        <Node pos="r" depth="1" NCoef="0" IVar="23" Cut="-1.5437273541465402e-03" cType="1" res="-6.7660738714039326e-03" rms="6.0678869485855103e-02" purity="2.3467220366001129e-01" nType="0">
          <Node pos="l" depth="2" NCoef="0" IVar="-1" Cut="0.0000000000000000e+00" cType="1" res="2.8135836124420166e-02" rms="7.9830877482891083e-02" purity="9.2872560024261475e-01" nType="-99"/>
          <Node pos="r" depth="2" NCoef="0" IVar="-1" Cut="0.0000000000000000e+00" cType="1" res="-4.9152273684740067e-02" rms="5.3277846425771713e-02" purity="5.0120189785957336e-02" nType="-99"/>
        </Node>
      </Node>
    </BinaryTree>
    <BinaryTree type="DecisionTree" boostWeight="1.0000000000000000e+00" itree="50">
      <Node pos="s" depth="0" NCoef="0" IVar="1" Cut="-1.6064351797103882e+00" cType="1" res="1.2461410369724035e-04" rms="6.0465812683105469e-02" purity="5.0101321935653687e-01" nType="0">
        <Node pos="l" depth="1" NCoef="0" IVar="28" Cut="-3.7192249298095703e-01" cType="1" res="9.2222951352596283e-03" rms="5.9677522629499435e-02" purity="9.3900275230407715e-01" nType="0">
          <Node pos="l" depth="2" NCoef="0" IVar="-1" Cut="0.0000000000000000e+00" cType="1" res="-1.6445806249976158e-02" rms="1.3232609629631042e-01" purity="7.9171854257583618e-01" nType="-99"/>
          <Node pos="r" depth="2" NCoef="0" IVar="-1" Cut="0.0000000000000000e+00" cType="1" res="3.7186861038208008e-02" rms="4.3996989727020264e-02" purity="9.5566213130950928e-01" nType="-99"/>
        </Node>
        <Node pos="r" depth="1" NCoef="0" IVar="28" Cut="-5.7788503170013428e-01" cType="1" res="-7.8365569934248924e-03" rms="6.0026515275239944e-02" purity="1.1773872375488281e-01" nType="0">
          <Node pos="l" depth="2" NCoef="0" IVar="-1" Cut="0.0000000000000000e+00" cType="1" res="-6.3494004309177399e-02" rms="1.3438101112842560e-01" purity="8.1559322774410248e-02" nType="-99"/>
          <Node pos="r" depth="2" NCoef="0" IVar="-1" Cut="0.0000000000000000e+00" cType="1" res="-2.1322336047887802e-02" rms="5.1872592419385910e-02" purity="1.1980534344911575e-01" nType="-99"/>
        </Node>
      </Node>
    </BinaryTree>
    <BinaryTree type="DecisionTree" boostWeight="1.0000000000000000e+00" itree="51">
      <Node pos="s" depth="0" NCoef="0" IVar="0" Cut="-1.2766350507736206e+00" cType="1" res="-6.3150789355859160e-04" rms="6.3384570181369781e-02" purity="4.9788078665733337e-01" nType="0">
        <Node pos="l" depth="1" NCoef="0" IVar="30" Cut="-1.4312595129013062e+00" cType="1" res="8.7411226704716682e-03" rms="6.0732536017894745e-02" purity="8.7852668762207031e-01" nType="0">
          <Node pos="l" depth="2" NCoef="0" IVar="-1" Cut="0.0000000000000000e+00" cType="1" res="3.0991183593869209e-02" rms="6.2289115041494370e-02" purity="9.7433215379714966e-01" nType="-99"/>
          <Node pos="r" depth="2" NCoef="0" IVar="-1" Cut="0.0000000000000000e+00" cType="1" res="-4.4502511620521545e-02" rms="3.8594752550125122e-02" purity="5.4746936075389385e-03" nType="-99"/>
        </Node>
        <Node pos="r" depth="1" NCoef="0" IVar="28" Cut="-2.1963977813720703e-01" cType="1" res="-7.7133513987064362e-03" rms="6.4418837428092957e-02" purity="2.1026945114135742e-01" nType="0">
          <Node pos="l" depth="2" NCoef="0" IVar="-1" Cut="0.0000000000000000e+00" cType="1" res="-6.3042551279067993e-02" rms="1.2816208600997925e-01" purity="1.7285810410976410e-01" nType="-99"/>
          <Node pos="r" depth="2" NCoef="0" IVar="-1" Cut="0.0000000000000000e+00" cType="1" res="-1.8354883417487144e-02" rms="5.1261615008115768e-02" purity="2.1459637582302094e-01" nType="-99"/>
        </Node>
      </Node>
    </BinaryTree>
    <BinaryTree type="DecisionTree" boostWeight="1.0000000000000000e+00" itree="52">
      <Node pos="s" depth="0" NCoef="0" IVar="28" Cut="-7.3129969835281372e-01" cType="1" res="-1.1100242409156635e-04" rms="6.1935618519783020e-02" purity="4.9990710616111755e-01" nType="0">
        <Node pos="l" depth="1" NCoef="0" IVar="-1" Cut="0.0000000000000000e+00" cType="1" res="-4.7893036156892776e-02" rms="1.6365274786949158e-01" purity="4.0143373608589172e-01" nType="-99"/>
        <Node pos="r" depth="1" NCoef="0" IVar="4" Cut="-1.3686846494674683e+00" cType="1" res="1.5402038116008043e-03" rms="5.2673730999231339e-02" purity="5.0418126583099365e-01" nType="0">
          <Node pos="l" depth="2" NCoef="0" IVar="-1" Cut="0.0000000000000000e+00" cType="1" res="3.1554590910673141e-02" rms="5.4729007184505463e-02" purity="9.2609381675720215e-01" nType="-99"/>
          <Node pos="r" depth="2" NCoef="0" IVar="-1" Cut="0.0000000000000000e+00" cType="1" res="-3.1274102628231049e-02" rms="4.9210231751203537e-02" purity="1.0618243366479874e-01" nType="-99"/>
        </Node>
      </Node>
    </BinaryTree>
    <BinaryTree type="DecisionTree" boostWeight="1.0000000000000000e+00" itree="53">
      <Node pos="s" depth="0" NCoef="0" IVar="24" Cut="-2.5740389246493578e-03" cType="1" res="-3.9223385101649910e-05" rms="5.8968942612409592e-02" purity="4.9638092517852783e-01" nType="0">
        <Node pos="l" depth="1" NCoef="0" IVar="19" Cut="1.9618509337306023e-02" cType="1" res="1.0025148279964924e-02" rms="5.6475467979907990e-02" purity="9.6639579534530640e-01" nType="0">
          <Node pos="l" depth="2" NCoef="0" IVar="-1" Cut="0.0000000000000000e+00" cType="1" res="5.0672236829996109e-02" rms="5.9063594788312912e-02" purity="9.7717076539993286e-01" nType="-99"/>
          <Node pos="r" depth="2" NCoef="0" IVar="-1" Cut="0.0000000000000000e+00" cType="1" res="2.6980232447385788e-02" rms="5.5671732872724533e-02" purity="9.6459764242172241e-01" nType="-99"/>
        </Node>
        <Node pos="r" depth="1" NCoef="0" IVar="5" Cut="-2.0823841094970703e+00" cType="1" res="-5.6774714030325413e-03" rms="5.9582412242889404e-02" purity="2.3306985199451447e-01" nType="0">
          <Node pos="l" depth="2" NCoef="0" IVar="-1" Cut="0.0000000000000000e+00" cType="1" res="2.8670629486441612e-02" rms="8.2523986697196960e-02" purity="9.2513597011566162e-01" nType="-99"/>
          <Node pos="r" depth="2" NCoef="0" IVar="-1" Cut="0.0000000000000000e+00" cType="1" res="-4.2980045080184937e-02" rms="5.3186930716037750e-02" purity="1.0036315768957138e-01" nType="-99"/>
        </Node>
      </Node>
    </BinaryTree>
    <BinaryTree type="DecisionTree" boostWeight="1.0000000000000000e+00" itree="54">
      <Node pos="s" depth="0" NCoef="0" IVar="26" Cut="-4.7543924301862717e-03" cType="1" res="-9.4658258603885770e-05" rms="5.9762060642242432e-02" purity="4.9850958585739136e-01" nType="0">
        <Node pos="l" depth="1" NCoef="0" IVar="21" Cut="7.7634584158658981e-04" cType="1" res="8.9025534689426422e-03" rms="5.3783711045980453e-02" purity="9.7065263986587524e-01" nType="0">
          <Node pos="l" depth="2" NCoef="0" IVar="-1" Cut="0.0000000000000000e+00" cType="1" res="4.9582768231630325e-02" rms="4.9983114004135132e-02" purity="9.9364924430847168e-01" nType="-99"/>
          <Node pos="r" depth="2" NCoef="0" IVar="-1" Cut="0.0000000000000000e+00" cType="1" res="2.3935150355100632e-02" rms="5.4297335445880890e-02" purity="9.6567744016647339e-01" nType="-99"/>
        </Node>
        <Node pos="r" depth="1" NCoef="0" IVar="7" Cut="-2.0940191745758057e+00" cType="1" res="-5.5386475287377834e-03" rms="6.2478963285684586e-02" purity="2.1282751858234406e-01" nType="0">
          <Node pos="l" depth="2" NCoef="0" IVar="-1" Cut="0.0000000000000000e+00" cType="1" res="3.4485142678022385e-02" rms="9.5414720475673676e-02" purity="8.4051626920700073e-01" nType="-99"/>
          <Node pos="r" depth="2" NCoef="0" IVar="-1" Cut="0.0000000000000000e+00" cType="1" res="-3.5002723336219788e-02" rms="5.8026954531669617e-02" purity="1.5696237981319427e-01" nType="-99"/>
        </Node>
      </Node>
    </BinaryTree>
    <BinaryTree type="DecisionTree" boostWeight="1.0000000000000000e+00" itree="55">
      <Node pos="s" depth="0" NCoef="0" IVar="4" Cut="-1.7155613899230957e+00" cType="1" res="1.7227191710844636e-04" rms="5.7209193706512451e-02" purity="4.9944019317626953e-01" nType="0">
        <Node pos="l" depth="1" NCoef="0" IVar="29" Cut="7.5487238168716431e-01" cType="1" res="8.3872061222791672e-03" rms="6.2035638839006424e-02" purity="9.4474226236343384e-01" nType="0">
          <Node pos="l" depth="2" NCoef="0" IVar="-1" Cut="0.0000000000000000e+00" cType="1" res="1.1543658562004566e-02" rms="6.5076664090156555e-02" purity="9.3892806768417358e-01" nType="-99"/>
          <Node pos="r" depth="2" NCoef="0" IVar="-1" Cut="0.0000000000000000e+00" cType="1" res="4.8932973295450211e-02" rms="5.2440844476222992e-02" purity="9.5836454629898071e-01" nType="-99"/>
        </Node>
        <Node pos="r" depth="1" NCoef="0" IVar="15" Cut="1.4468656480312347e-01" cType="1" res="-5.1281787455081940e-03" rms="5.3196903318166733e-02" purity="2.1212185919284821e-01" nType="0">
          <Node pos="l" depth="2" NCoef="0" IVar="-1" Cut="0.0000000000000000e+00" cType="1" res="-4.0924202650785446e-02" rms="5.2133142948150635e-02" purity="1.1621476709842682e-01" nType="-99"/>
          <Node pos="r" depth="2" NCoef="0" IVar="-1" Cut="0.0000000000000000e+00" cType="1" res="3.5851128399372101e-02" rms="5.6016214191913605e-02" purity="8.2318770885467529e-01" nType="-99"/>
        </Node>
      </Node>
    </BinaryTree>
    <BinaryTree type="DecisionTree" boostWeight="1.0000000000000000e+00" itree="56">
      <Node pos="s" depth="0" NCoef="0" IVar="27" Cut="-4.6453974209725857e-03" cType="1" res="7.0466252509504557e-05" rms="5.7567138224840164e-02" purity="5.0032031536102295e-01" nType="0">
        <Node pos="l" depth="1" NCoef="0" IVar="4" Cut="-1.0929570198059082e+00" cType="1" res="6.7520528100430965e-03" rms="6.1478141695261002e-02" purity="9.4614410400390625e-01" nType="0">
          <Node pos="l" depth="2" NCoef="0" IVar="-1" Cut="0.0000000000000000e+00" cType="1" res="3.4415747970342636e-02" rms="5.0797611474990845e-02" purity="9.8945158720016479e-01" nType="-99"/>
          <Node pos="r" depth="2" NCoef="0" IVar="-1" Cut="0.0000000000000000e+00" cType="1" res="-2.0678147673606873e-02" rms="1.2331186980009079e-01" purity="5.1487445831298828e-01" nType="-99"/>
        </Node>
        <Node pos="r" depth="1" NCoef="0" IVar="29" Cut="-4.2613068222999573e-01" cType="1" res="-6.2839575111865997e-03" rms="5.2804831415414810e-02" purity="7.6326213777065277e-02" nType="0">
          <Node pos="l" depth="2" NCoef="0" IVar="-1" Cut="0.0000000000000000e+00" cType="1" res="-7.2649858891963959e-02" rms="7.3165178298950195e-02" purity="0.0000000000000000e+00" nType="-99"/>
          <Node pos="r" depth="2" NCoef="0" IVar="-1" Cut="0.0000000000000000e+00" cType="1" res="-4.2156763374805450e-03" rms="3.8980938494205475e-02" purity="1.1125008016824722e-01" nType="-99"/>
        </Node>
      </Node>
    </BinaryTree>
    <BinaryTree type="DecisionTree" boostWeight="1.0000000000000000e+00" itree="57">
      <Node pos="s" depth="0" NCoef="0" IVar="29" Cut="-1.0698626041412354e+00" cType="1" res="-8.1797144957818091e-05" rms="5.7187736034393311e-02" purity="4.9884718656539917e-01" nType="0">
        <Node pos="l" depth="1" NCoef="0" IVar="13" Cut="-1.6445401906967163e+00" cType="1" res="-1.8233412876725197e-02" rms="1.1365643888711929e-01" purity="4.7952613234519958e-01" nType="0">
          <Node pos="l" depth="2" NCoef="0" IVar="-1" Cut="0.0000000000000000e+00" cType="1" res="1.0981961153447628e-02" rms="8.6794778704643250e-02" purity="8.9633458852767944e-01" nType="-99"/>
          <Node pos="r" depth="2" NCoef="0" IVar="-1" Cut="0.0000000000000000e+00" cType="1" res="-8.5943102836608887e-02" rms="1.3181604444980621e-01" purity="4.7963697463274002e-02" nType="-99"/>
        </Node>
        <Node pos="r" depth="1" NCoef="0" IVar="30" Cut="-1.4315026998519897e+00" cType="1" res="3.5676036495715380e-03" rms="3.5373255610466003e-02" purity="5.0273174047470093e-01" nType="0">
          <Node pos="l" depth="2" NCoef="0" IVar="-1" Cut="0.0000000000000000e+00" cType="1" res="4.2155563831329346e-02" rms="4.4842183589935303e-02" purity="9.7796225547790527e-01" nType="-99"/>
          <Node pos="r" depth="2" NCoef="0" IVar="-1" Cut="0.0000000000000000e+00" cType="1" res="-4.5936062932014465e-02" rms="1.7229940742254257e-02" purity="1.4768582768738270e-03" nType="-99"/>
        </Node>
      </Node>
    </BinaryTree>
    <BinaryTree type="DecisionTree" boostWeight="1.0000000000000000e+00" itree="58">
      <Node pos="s" depth="0" NCoef="0" IVar="29" Cut="-1.0698626041412354e+00" cType="1" res="-1.1522221757331863e-04" rms="5.6131526827812195e-02" purity="4.9838683009147644e-01" nType="0">
        <Node pos="l" depth="1" NCoef="0" IVar="13" Cut="-1.6556982994079590e+00" cType="1" res="-1.7383096739649773e-02" rms="1.1289019882678986e-01" purity="4.7620856761932373e-01" nType="0">
          <Node pos="l" depth="2" NCoef="0" IVar="-1" Cut="0.0000000000000000e+00" cType="1" res="7.5992373749613762e-03" rms="9.3817859888076782e-02" purity="9.0162944793701172e-01" nType="-99"/>
          <Node pos="r" depth="2" NCoef="0" IVar="-1" Cut="0.0000000000000000e+00" cType="1" res="-8.2985065877437592e-02" rms="1.2581722438335419e-01" purity="4.9072526395320892e-02" nType="-99"/>
        </Node>
        <Node pos="r" depth="1" NCoef="0" IVar="27" Cut="-1.5356657095253468e-03" cType="1" res="3.3450354821980000e-03" rms="3.4009132534265518e-02" purity="5.0283110141754150e-01" nType="0">
          <Node pos="l" depth="2" NCoef="0" IVar="-1" Cut="0.0000000000000000e+00" cType="1" res="4.4971644878387451e-02" rms="3.6113478243350983e-02" purity="9.0475642681121826e-01" nType="-99"/>
          <Node pos="r" depth="2" NCoef="0" IVar="-1" Cut="0.0000000000000000e+00" cType="1" res="-4.2770195752382278e-02" rms="2.8798624873161316e-02" purity="3.0523743480443954e-03" nType="-99"/>
        </Node>
      </Node>
    </BinaryTree>
    <BinaryTree type="DecisionTree" boostWeight="1.0000000000000000e+00" itree="59">
      <Node pos="s" depth="0" NCoef="0" IVar="28" Cut="-6.2550038099288940e-01" cType="1" res="1.6055098967626691e-04" rms="5.2444178611040115e-02" purity="5.0090432167053223e-01" nType="0">
        <Node pos="l" depth="1" NCoef="0" IVar="10" Cut="-1.5111945867538452e+00" cType="1" res="-2.4398403242230415e-02" rms="1.3319329917430878e-01" purity="4.2995539307594299e-01" nType="0">
          <Node pos="l" depth="2" NCoef="0" IVar="-1" Cut="0.0000000000000000e+00" cType="1" res="-2.5954949669539928e-03" rms="1.0990430414676666e-01" purity="6.0845679044723511e-01" nType="-99"/>
          <Node pos="r" depth="2" NCoef="0" IVar="-1" Cut="0.0000000000000000e+00" cType="1" res="-7.8031614422798157e-02" rms="1.4902617037296295e-01" purity="2.5783920288085938e-01" nType="-99"/>
        </Node>
        <Node pos="r" depth="1" NCoef="0" IVar="5" Cut="-1.3176558017730713e+00" cType="1" res="1.5520803863182664e-03" rms="4.3184865266084671e-02" purity="5.0492429733276367e-01" nType="0">
