<?xml version="1.0"?>
<MethodSetup Method="BDT::BDTG">
  <GeneralInfo>
    <Info name="TMVA Release" value="4.2.1 [262657]"/>
    <Info name="ROOT Release" value="6.22/07 [398855]"/>
    <Info name="Creator" value="ecatanzaniherd"/>
    <Info name="Date" value="Mon Apr 25 14:55:37 2022"/>
    <Info name="Host" value="Linux ui-tier1.cr.cnaf.infn.it 3.10.0-1127.19.1.el7.x86_64 #1 SMP Tue Aug 25 17:23:54 UTC 2020 x86_64 x86_64 x86_64 GNU/Linux"/>
    <Info name="Dir" value="/storage/gpfs_data/herd/ecatanzaniherd/eFlux/Classifier/Train"/>
    <Info name="Training events" value="312838"/>
    <Info name="TrainingTime" value="5.67364049e+02"/>
    <Info name="AnalysisType" value="Classification"/>
  </GeneralInfo>
  <Options>
    <Option name="V" modified="Yes">False</Option>
    <Option name="VerbosityLevel" modified="No">Default</Option>
    <Option name="VarTransform" modified="No">None</Option>
    <Option name="H" modified="Yes">False</Option>
    <Option name="CreateMVAPdfs" modified="No">False</Option>
    <Option name="IgnoreNegWeightsInTraining" modified="No">False</Option>
    <Option name="NTrees" modified="Yes">1000</Option>
    <Option name="MaxDepth" modified="Yes">2</Option>
    <Option name="MinNodeSize" modified="Yes">2.5%</Option>
    <Option name="nCuts" modified="Yes">20</Option>
    <Option name="BoostType" modified="Yes">Grad</Option>
    <Option name="AdaBoostR2Loss" modified="No">quadratic</Option>
    <Option name="UseBaggedBoost" modified="Yes">True</Option>
    <Option name="Shrinkage" modified="Yes">1.000000e-01</Option>
    <Option name="AdaBoostBeta" modified="No">5.000000e-01</Option>
    <Option name="UseRandomisedTrees" modified="No">False</Option>
    <Option name="UseNvars" modified="No">6</Option>
    <Option name="UsePoissonNvars" modified="No">True</Option>
    <Option name="BaggedSampleFraction" modified="Yes">5.000000e-01</Option>
    <Option name="UseYesNoLeaf" modified="No">True</Option>
    <Option name="NegWeightTreatment" modified="No">pray</Option>
    <Option name="Css" modified="No">1.000000e+00</Option>
    <Option name="Cts_sb" modified="No">1.000000e+00</Option>
    <Option name="Ctb_ss" modified="No">1.000000e+00</Option>
    <Option name="Cbb" modified="No">1.000000e+00</Option>
    <Option name="NodePurityLimit" modified="No">5.000000e-01</Option>
    <Option name="SeparationType" modified="No">giniindex</Option>
    <Option name="RegressionLossFunctionBDTG" modified="No">huber</Option>
    <Option name="HuberQuantile" modified="No">7.000000e-01</Option>
    <Option name="DoBoostMonitor" modified="No">False</Option>
    <Option name="UseFisherCuts" modified="No">False</Option>
    <Option name="MinLinCorrForFisher" modified="No">8.000000e-01</Option>
    <Option name="UseExclusiveVars" modified="No">False</Option>
    <Option name="DoPreselection" modified="No">False</Option>
    <Option name="SigToBkgFraction" modified="No">1.000000e+00</Option>
    <Option name="PruneMethod" modified="No">nopruning</Option>
    <Option name="PruneStrength" modified="No">0.000000e+00</Option>
    <Option name="PruningValFraction" modified="No">5.000000e-01</Option>
    <Option name="SkipNormalization" modified="No">False</Option>
    <Option name="nEventsMin" modified="No">0</Option>
    <Option name="UseBaggedGrad" modified="No">False</Option>
    <Option name="GradBaggingFraction" modified="No">5.000000e-01</Option>
    <Option name="UseNTrainEvents" modified="No">0</Option>
    <Option name="NNodesMax" modified="No">0</Option>
  </Options>
  <Variables NVar="31">
    <Variable VarIndex="0" Expression="rmslayer_1" Label="rmslayer_1" Title="rmslayer_1" Unit="units" Internal="rmslayer_1" Type="D" Min="3.31088114e+00" Max="2.16062820e+02"/>
    <Variable VarIndex="1" Expression="rmslayer_2" Label="rmslayer_2" Title="rmslayer_2" Unit="units" Internal="rmslayer_2" Type="D" Min="4.45624208e+00" Max="1.08410492e+02"/>
    <Variable VarIndex="2" Expression="rmslayer_3" Label="rmslayer_3" Title="rmslayer_3" Unit="units" Internal="rmslayer_3" Type="D" Min="6.31330442e+00" Max="9.99413376e+01"/>
    <Variable VarIndex="3" Expression="rmslayer_4" Label="rmslayer_4" Title="rmslayer_4" Unit="units" Internal="rmslayer_4" Type="D" Min="7.00691652e+00" Max="1.05130676e+02"/>
    <Variable VarIndex="4" Expression="rmslayer_5" Label="rmslayer_5" Title="rmslayer_5" Unit="units" Internal="rmslayer_5" Type="D" Min="9.13721657e+00" Max="1.06806732e+02"/>
    <Variable VarIndex="5" Expression="rmslayer_6" Label="rmslayer_6" Title="rmslayer_6" Unit="units" Internal="rmslayer_6" Type="D" Min="9.65046215e+00" Max="1.98462021e+02"/>
    <Variable VarIndex="6" Expression="rmslayer_7" Label="rmslayer_7" Title="rmslayer_7" Unit="units" Internal="rmslayer_7" Type="D" Min="1.00293837e+01" Max="2.88662964e+02"/>
    <Variable VarIndex="7" Expression="rmslayer_8" Label="rmslayer_8" Title="rmslayer_8" Unit="units" Internal="rmslayer_8" Type="D" Min="9.60948372e+00" Max="3.05110291e+02"/>
    <Variable VarIndex="8" Expression="rmslayer_9" Label="rmslayer_9" Title="rmslayer_9" Unit="units" Internal="rmslayer_9" Type="D" Min="9.26119137e+00" Max="3.42893097e+02"/>
    <Variable VarIndex="9" Expression="rmslayer_10" Label="rmslayer_10" Title="rmslayer_10" Unit="units" Internal="rmslayer_10" Type="D" Min="6.46089840e+00" Max="4.07010651e+02"/>
    <Variable VarIndex="10" Expression="rmslayer_11" Label="rmslayer_11" Title="rmslayer_11" Unit="units" Internal="rmslayer_11" Type="D" Min="5.07799292e+00" Max="3.66952972e+02"/>
    <Variable VarIndex="11" Expression="rmslayer_12" Label="rmslayer_12" Title="rmslayer_12" Unit="units" Internal="rmslayer_12" Type="D" Min="3.57062864e+00" Max="3.83529083e+02"/>
    <Variable VarIndex="12" Expression="rmslayer_13" Label="rmslayer_13" Title="rmslayer_13" Unit="units" Internal="rmslayer_13" Type="D" Min="3.44866490e+00" Max="4.60523041e+02"/>
    <Variable VarIndex="13" Expression="rmslayer_14" Label="rmslayer_14" Title="rmslayer_14" Unit="units" Internal="rmslayer_14" Type="D" Min="2.38148379e+00" Max="4.12127960e+02"/>
    <Variable VarIndex="14" Expression="fraclayer_1" Label="fraclayer_1" Title="fraclayer_1" Unit="units" Internal="fraclayer_1" Type="D" Min="3.39793973e-03" Max="3.49966496e-01"/>
    <Variable VarIndex="15" Expression="fraclayer_2" Label="fraclayer_2" Title="fraclayer_2" Unit="units" Internal="fraclayer_2" Type="D" Min="5.61656384e-03" Max="3.49973738e-01"/>
    <Variable VarIndex="16" Expression="fraclayer_3" Label="fraclayer_3" Title="fraclayer_3" Unit="units" Internal="fraclayer_3" Type="D" Min="4.41067712e-03" Max="3.49968612e-01"/>
    <Variable VarIndex="17" Expression="fraclayer_4" Label="fraclayer_4" Title="fraclayer_4" Unit="units" Internal="fraclayer_4" Type="D" Min="4.44666715e-03" Max="3.46819758e-01"/>
    <Variable VarIndex="18" Expression="fraclayer_5" Label="fraclayer_5" Title="fraclayer_5" Unit="units" Internal="fraclayer_5" Type="D" Min="1.86491897e-03" Max="3.43117058e-01"/>
    <Variable VarIndex="19" Expression="fraclayer_6" Label="fraclayer_6" Title="fraclayer_6" Unit="units" Internal="fraclayer_6" Type="D" Min="3.24972533e-03" Max="2.92191029e-01"/>
    <Variable VarIndex="20" Expression="fraclayer_7" Label="fraclayer_7" Title="fraclayer_7" Unit="units" Internal="fraclayer_7" Type="D" Min="2.25062971e-03" Max="2.98846155e-01"/>
    <Variable VarIndex="21" Expression="fraclayer_8" Label="fraclayer_8" Title="fraclayer_8" Unit="units" Internal="fraclayer_8" Type="D" Min="1.36421889e-03" Max="2.68163294e-01"/>
    <Variable VarIndex="22" Expression="fraclayer_9" Label="fraclayer_9" Title="fraclayer_9" Unit="units" Internal="fraclayer_9" Type="D" Min="7.09788641e-04" Max="2.42512584e-01"/>
    <Variable VarIndex="23" Expression="fraclayer_10" Label="fraclayer_10" Title="fraclayer_10" Unit="units" Internal="fraclayer_10" Type="D" Min="1.79866562e-04" Max="2.44115323e-01"/>
    <Variable VarIndex="24" Expression="fraclayer_11" Label="fraclayer_11" Title="fraclayer_11" Unit="units" Internal="fraclayer_11" Type="D" Min="5.66410199e-05" Max="2.62184501e-01"/>
    <Variable VarIndex="25" Expression="fraclayer_12" Label="fraclayer_12" Title="fraclayer_12" Unit="units" Internal="fraclayer_12" Type="D" Min="3.37330530e-05" Max="2.87363946e-01"/>
    <Variable VarIndex="26" Expression="fraclayer_13" Label="fraclayer_13" Title="fraclayer_13" Unit="units" Internal="fraclayer_13" Type="D" Min="2.38824632e-05" Max="3.27567458e-01"/>
    <Variable VarIndex="27" Expression="fraclayer_14" Label="fraclayer_14" Title="fraclayer_14" Unit="units" Internal="fraclayer_14" Type="D" Min="2.08097044e-05" Max="3.49266201e-01"/>
    <Variable VarIndex="28" Expression="sumRms" Label="sumRms" Title="sumRms" Unit="units" Internal="sumRms" Type="D" Min="2.39670135e+02" Max="1.87359302e+03"/>
    <Variable VarIndex="29" Expression="fracLast" Label="fracLast" Title="fracLast" Unit="units" Internal="fracLast" Type="D" Min="2.08097044e-05" Max="3.49266201e-01"/>
    <Variable VarIndex="30" Expression="xtrl" Label="xtrl" Title="xtrl" Unit="units" Internal="xtrl" Type="D" Min="1.05434842e-01" Max="3.06136914e+04"/>
  </Variables>
  <Spectators NSpec="0"/>
  <Classes NClass="2">
    <Class Name="Signal" Index="0"/>
    <Class Name="Background" Index="1"/>
  </Classes>
  <Transformations NTransformations="0"/>
  <MVAPdfs/>
  <Weights NTrees="1000" AnalysisType="1">
    <BinaryTree type="DecisionTree" boostWeight="1.0000000000000000e+00" itree="0">
      <Node pos="s" depth="0" NCoef="0" IVar="24" Cut="1.1022672057151794e-02" cType="1" res="-4.1716406121850014e-04" rms="4.9999982118606567e-01" purity="4.9958282709121704e-01" nType="0">
        <Node pos="l" depth="1" NCoef="0" IVar="2" Cut="2.3976520538330078e+01" cType="1" res="3.5265281796455383e-01" rms="3.5445168614387512e-01" purity="8.5265278816223145e-01" nType="0">
          <Node pos="l" depth="2" NCoef="0" IVar="-1" Cut="0.0000000000000000e+00" cType="1" res="8.8893860578536987e-02" rms="2.2901318967342377e-01" purity="9.4446927309036255e-01" nType="-99"/>
          <Node pos="r" depth="2" NCoef="0" IVar="-1" Cut="0.0000000000000000e+00" cType="1" res="-7.2114892303943634e-02" rms="3.4639003872871399e-01" purity="1.3942553102970123e-01" nType="-99"/>
        </Node>
        <Node pos="r" depth="1" NCoef="0" IVar="28" Cut="4.5406326293945312e+02" cType="1" res="-4.3283548951148987e-01" rms="2.5030666589736938e-01" purity="6.7164495587348938e-02" nType="0">
          <Node pos="l" depth="2" NCoef="0" IVar="-1" Cut="0.0000000000000000e+00" cType="1" res="4.6905372291803360e-02" rms="4.4158482551574707e-01" purity="7.3452687263488770e-01" nType="-99"/>
          <Node pos="r" depth="2" NCoef="0" IVar="-1" Cut="0.0000000000000000e+00" cType="1" res="-9.8765820264816284e-02" rms="7.8312419354915619e-02" purity="6.1709154397249222e-03" nType="-99"/>
        </Node>
      </Node>
    </BinaryTree>
    <BinaryTree type="DecisionTree" boostWeight="1.0000000000000000e+00" itree="1">
      <Node pos="s" depth="0" NCoef="0" IVar="1" Cut="2.3496452331542969e+01" cType="1" res="1.9498461624607444e-03" rms="4.5916739106178284e-01" purity="5.0216281414031982e-01" nType="0">
        <Node pos="l" depth="1" NCoef="0" IVar="25" Cut="1.1839483864605427e-02" cType="1" res="2.9188296198844910e-01" rms="3.5656055808067322e-01" purity="8.2028490304946899e-01" nType="0">
          <Node pos="l" depth="2" NCoef="0" IVar="-1" Cut="0.0000000000000000e+00" cType="1" res="7.9453386366367340e-02" rms="2.3839722573757172e-01" purity="9.3230289220809937e-01" nType="-99"/>
          <Node pos="r" depth="2" NCoef="0" IVar="-1" Cut="0.0000000000000000e+00" cType="1" res="-7.9251222312450409e-02" rms="2.4168546497821808e-01" purity="7.0924341678619385e-02" nType="-99"/>
        </Node>
        <Node pos="r" depth="1" NCoef="0" IVar="4" Cut="2.3436992645263672e+01" cType="1" res="-4.1651904582977295e-01" rms="1.8760611116886139e-01" purity="4.3007902801036835e-02" nType="0">
          <Node pos="l" depth="2" NCoef="0" IVar="-1" Cut="0.0000000000000000e+00" cType="1" res="-2.7648461982607841e-02" rms="4.4628518819808960e-01" purity="3.5451504588127136e-01" nType="-99"/>
          <Node pos="r" depth="2" NCoef="0" IVar="-1" Cut="0.0000000000000000e+00" cType="1" res="-8.9542724192142487e-02" rms="1.0460820049047470e-01" purity="1.2741576880216599e-02" nType="-99"/>
        </Node>
      </Node>
    </BinaryTree>
    <BinaryTree type="DecisionTree" boostWeight="1.0000000000000000e+00" itree="2">
      <Node pos="s" depth="0" NCoef="0" IVar="1" Cut="2.3332178115844727e+01" cType="1" res="7.5020281656179577e-05" rms="4.2390194535255432e-01" purity="5.0024473667144775e-01" nType="0">
        <Node pos="l" depth="1" NCoef="0" IVar="25" Cut="1.3738403096795082e-02" cType="1" res="2.6406669616699219e-01" rms="3.3670863509178162e-01" purity="8.2148671150207520e-01" nType="0">
          <Node pos="l" depth="2" NCoef="0" IVar="-1" Cut="0.0000000000000000e+00" cType="1" res="7.1417115628719330e-02" rms="2.4920187890529633e-01" purity="9.2316395044326782e-01" nType="-99"/>
          <Node pos="r" depth="2" NCoef="0" IVar="-1" Cut="0.0000000000000000e+00" cType="1" res="-7.5088046491146088e-02" rms="2.2099080681800842e-01" purity="5.8334872126579285e-02" nType="-99"/>
        </Node>
        <Node pos="r" depth="1" NCoef="0" IVar="4" Cut="2.2870262145996094e+01" cType="1" res="-3.7336236238479614e-01" rms="1.8832996487617493e-01" purity="4.5822266489267349e-02" nType="0">
          <Node pos="l" depth="2" NCoef="0" IVar="-1" Cut="0.0000000000000000e+00" cType="1" res="-1.8808277323842049e-02" rms="4.5290595293045044e-01" purity="3.8906452059745789e-01" nType="-99"/>
          <Node pos="r" depth="2" NCoef="0" IVar="-1" Cut="0.0000000000000000e+00" cType="1" res="-8.2327932119369507e-02" rms="1.1180915683507919e-01" purity="1.4941605739295483e-02" nType="-99"/>
        </Node>
      </Node>
    </BinaryTree>
    <BinaryTree type="DecisionTree" boostWeight="1.0000000000000000e+00" itree="3">
      <Node pos="s" depth="0" NCoef="0" IVar="24" Cut="1.1045415885746479e-02" cType="1" res="5.9598742518573999e-04" rms="3.9337268471717834e-01" purity="5.0083374977111816e-01" nType="0">
        <Node pos="l" depth="1" NCoef="0" IVar="3" Cut="2.6102996826171875e+01" cType="1" res="2.6403397321701050e-01" rms="2.9945391416549683e-01" purity="8.5211521387100220e-01" nType="0">
          <Node pos="l" depth="2" NCoef="0" IVar="-1" Cut="0.0000000000000000e+00" cType="1" res="7.1514271199703217e-02" rms="2.0489534735679626e-01" purity="9.4609147310256958e-01" nType="-99"/>
          <Node pos="r" depth="2" NCoef="0" IVar="-1" Cut="0.0000000000000000e+00" cType="1" res="-6.1714310199022293e-02" rms="3.0182251334190369e-01" purity="1.5222069621086121e-01" nType="-99"/>
        </Node>
        <Node pos="r" depth="1" NCoef="0" IVar="28" Cut="4.1776681518554688e+02" cType="1" res="-3.2360854744911194e-01" rms="2.1048645675182343e-01" purity="6.8523213267326355e-02" nType="0">
          <Node pos="l" depth="2" NCoef="0" IVar="-1" Cut="0.0000000000000000e+00" cType="1" res="6.2149569392204285e-02" rms="3.3097442984580994e-01" purity="8.4793072938919067e-01" nType="-99"/>
          <Node pos="r" depth="2" NCoef="0" IVar="-1" Cut="0.0000000000000000e+00" cType="1" res="-7.7419027686119080e-02" rms="1.1810982227325439e-01" purity="1.9451597705483437e-02" nType="-99"/>
        </Node>
      </Node>
    </BinaryTree>
    <BinaryTree type="DecisionTree" boostWeight="1.0000000000000000e+00" itree="4">
      <Node pos="s" depth="0" NCoef="0" IVar="1" Cut="2.2641309738159180e+01" cType="1" res="-1.9526034593582153e-03" rms="3.6381354928016663e-01" purity="4.9773734807968140e-01" nType="0">
        <Node pos="l" depth="1" NCoef="0" IVar="25" Cut="1.3726144097745419e-02" cType="1" res="2.2895868122577667e-01" rms="2.9170268774032593e-01" purity="8.3752399682998657e-01" nType="0">
          <Node pos="l" depth="2" NCoef="0" IVar="-1" Cut="0.0000000000000000e+00" cType="1" res="6.3614226877689362e-02" rms="2.2901716828346252e-01" purity="9.2976301908493042e-01" nType="-99"/>
          <Node pos="r" depth="2" NCoef="0" IVar="-1" Cut="0.0000000000000000e+00" cType="1" res="-6.5129786729812622e-02" rms="2.1904577314853668e-01" purity="6.4230933785438538e-02" nType="-99"/>
        </Node>
        <Node pos="r" depth="1" NCoef="0" IVar="2" Cut="1.6771684646606445e+01" cType="1" res="-3.0048015713691711e-01" rms="1.8820142745971680e-01" purity="5.8453183621168137e-02" nType="0">
          <Node pos="l" depth="2" NCoef="0" IVar="-1" Cut="0.0000000000000000e+00" cType="1" res="2.7994373813271523e-02" rms="4.0479519963264465e-01" purity="6.4265930652618408e-01" nType="-99"/>
          <Node pos="r" depth="2" NCoef="0" IVar="-1" Cut="0.0000000000000000e+00" cType="1" res="-7.2688177227973938e-02" rms="1.2281397730112076e-01" purity="2.2300487384200096e-02" nType="-99"/>
        </Node>
      </Node>
    </BinaryTree>
    <BinaryTree type="DecisionTree" boostWeight="1.0000000000000000e+00" itree="5">
      <Node pos="s" depth="0" NCoef="0" IVar="24" Cut="1.1908478103578091e-02" cType="1" res="-3.2679294236004353e-04" rms="3.3961459994316101e-01" purity="4.9946641921997070e-01" nType="0">
        <Node pos="l" depth="1" NCoef="0" IVar="4" Cut="3.0682449340820312e+01" cType="1" res="2.1096876263618469e-01" rms="2.7871134877204895e-01" purity="8.4006655216217041e-01" nType="0">
          <Node pos="l" depth="2" NCoef="0" IVar="-1" Cut="0.0000000000000000e+00" cType="1" res="6.2960602343082428e-02" rms="2.0390379428863525e-01" purity="9.3690061569213867e-01" nType="-99"/>
          <Node pos="r" depth="2" NCoef="0" IVar="-1" Cut="0.0000000000000000e+00" cType="1" res="-5.5843856185674667e-02" rms="2.8887316584587097e-01" purity="1.7166115343570709e-01" nType="-99"/>
        </Node>
        <Node pos="r" depth="1" NCoef="0" IVar="28" Cut="4.5994290161132812e+02" cType="1" res="-2.7425381541252136e-01" rms="1.7675705254077911e-01" purity="5.7906784117221832e-02" nType="0">
          <Node pos="l" depth="2" NCoef="0" IVar="-1" Cut="0.0000000000000000e+00" cType="1" res="2.9133694246411324e-02" rms="3.9317527413368225e-01" purity="6.7386567592620850e-01" nType="-99"/>
          <Node pos="r" depth="2" NCoef="0" IVar="-1" Cut="0.0000000000000000e+00" cType="1" res="-7.2624668478965759e-02" rms="6.4711228013038635e-02" purity="3.7200243677943945e-03" nType="-99"/>
        </Node>
      </Node>
    </BinaryTree>
    <BinaryTree type="DecisionTree" boostWeight="1.0000000000000000e+00" itree="6">
      <Node pos="s" depth="0" NCoef="0" IVar="24" Cut="1.0888453572988510e-02" cType="1" res="-4.2192175897071138e-05" rms="3.1634810566902161e-01" purity="5.0024998188018799e-01" nType="0">
        <Node pos="l" depth="1" NCoef="0" IVar="2" Cut="2.4094690322875977e+01" cType="1" res="1.9877664744853973e-01" rms="2.6059690117835999e-01" purity="8.5481703281402588e-01" nType="0">
          <Node pos="l" depth="2" NCoef="0" IVar="-1" Cut="0.0000000000000000e+00" cType="1" res="6.0360655188560486e-02" rms="1.9814535975456238e-01" purity="9.4505554437637329e-01" nType="-99"/>
          <Node pos="r" depth="2" NCoef="0" IVar="-1" Cut="0.0000000000000000e+00" cType="1" res="-5.6858181953430176e-02" rms="2.6597157120704651e-01" purity="1.2941052019596100e-01" nType="-99"/>
        </Node>
        <Node pos="r" depth="1" NCoef="0" IVar="28" Cut="4.5994290161132812e+02" cType="1" res="-2.4144794046878815e-01" rms="1.8126931786537170e-01" purity="6.9734767079353333e-02" nType="0">
          <Node pos="l" depth="2" NCoef="0" IVar="-1" Cut="0.0000000000000000e+00" cType="1" res="3.3144026994705200e-02" rms="3.7450978159904480e-01" purity="7.2085696458816528e-01" nType="-99"/>
          <Node pos="r" depth="2" NCoef="0" IVar="-1" Cut="0.0000000000000000e+00" cType="1" res="-6.9418616592884064e-02" rms="7.1941122412681580e-02" purity="5.2714482881128788e-03" nType="-99"/>
        </Node>
      </Node>
    </BinaryTree>
    <BinaryTree type="DecisionTree" boostWeight="1.0000000000000000e+00" itree="7">
      <Node pos="s" depth="0" NCoef="0" IVar="1" Cut="1.9480785369873047e+01" cType="1" res="-1.0375973070040345e-03" rms="2.9614257812500000e-01" purity="4.9919295310974121e-01" nType="0">
        <Node pos="l" depth="1" NCoef="0" IVar="25" Cut="1.3716123998165131e-02" cType="1" res="2.1165655553340912e-01" rms="2.1274414658546448e-01" purity="9.0056413412094116e-01" nType="0">
          <Node pos="l" depth="2" NCoef="0" IVar="-1" Cut="0.0000000000000000e+00" cType="1" res="5.9979006648063660e-02" rms="1.7488367855548859e-01" purity="9.5658260583877563e-01" nType="-99"/>
          <Node pos="r" depth="2" NCoef="0" IVar="-1" Cut="0.0000000000000000e+00" cType="1" res="-5.1177550107240677e-02" rms="2.5524276494979858e-01" purity="9.9082186818122864e-02" nType="-99"/>
        </Node>
        <Node pos="r" depth="1" NCoef="0" IVar="2" Cut="1.6610019683837891e+01" cType="1" res="-1.8827560544013977e-01" rms="2.2400629520416260e-01" purity="1.4585956931114197e-01" nType="0">
          <Node pos="l" depth="2" NCoef="0" IVar="-1" Cut="0.0000000000000000e+00" cType="1" res="3.8783233612775803e-02" rms="3.0022022128105164e-01" purity="8.0022621154785156e-01" nType="-99"/>
          <Node pos="r" depth="2" NCoef="0" IVar="-1" Cut="0.0000000000000000e+00" cType="1" res="-6.0437235981225967e-02" rms="1.6234880685806274e-01" purity="5.9428259730339050e-02" nType="-99"/>
        </Node>
      </Node>
    </BinaryTree>
    <BinaryTree type="DecisionTree" boostWeight="1.0000000000000000e+00" itree="8">
      <Node pos="s" depth="0" NCoef="0" IVar="24" Cut="1.1908478103578091e-02" cType="1" res="9.8065519705414772e-04" rms="2.7849963307380676e-01" purity="5.0217676162719727e-01" nType="0">
        <Node pos="l" depth="1" NCoef="0" IVar="2" Cut="2.4482973098754883e+01" cType="1" res="1.5864223241806030e-01" rms="2.4717029929161072e-01" purity="8.4212547540664673e-01" nType="0">
          <Node pos="l" depth="2" NCoef="0" IVar="-1" Cut="0.0000000000000000e+00" cType="1" res="5.3902871906757355e-02" rms="2.0215244591236115e-01" purity="9.3592613935470581e-01" nType="-99"/>
          <Node pos="r" depth="2" NCoef="0" IVar="-1" Cut="0.0000000000000000e+00" cType="1" res="-5.6876651942729950e-02" rms="2.2640955448150635e-01" purity="9.2673510313034058e-02" nType="-99"/>
        </Node>
        <Node pos="r" depth="1" NCoef="0" IVar="28" Cut="4.3396591186523438e+02" cType="1" res="-2.0427218079566956e-01" rms="1.5656620264053345e-01" purity="5.9612102806568146e-02" nType="0">
          <Node pos="l" depth="2" NCoef="0" IVar="-1" Cut="0.0000000000000000e+00" cType="1" res="4.2803421616554260e-02" rms="3.4297910332679749e-01" purity="7.9598736763000488e-01" nType="-99"/>
          <Node pos="r" depth="2" NCoef="0" IVar="-1" Cut="0.0000000000000000e+00" cType="1" res="-6.4583919942378998e-02" rms="7.8940778970718384e-02" purity="8.1863980740308762e-03" nType="-99"/>
        </Node>
      </Node>
    </BinaryTree>
    <BinaryTree type="DecisionTree" boostWeight="1.0000000000000000e+00" itree="9">
      <Node pos="s" depth="0" NCoef="0" IVar="1" Cut="1.9191183090209961e+01" cType="1" res="8.9467747602611780e-04" rms="2.6179689168930054e-01" purity="5.0145250558853149e-01" nType="0">
        <Node pos="l" depth="1" NCoef="0" IVar="25" Cut="1.3732058927416801e-02" cType="1" res="1.7947691679000854e-01" rms="1.9483739137649536e-01" purity="9.0744298696517944e-01" nType="0">
          <Node pos="l" depth="2" NCoef="0" IVar="-1" Cut="0.0000000000000000e+00" cType="1" res="5.6115604937076569e-02" rms="1.6521634161472321e-01" purity="9.6034115552902222e-01" nType="-99"/>
          <Node pos="r" depth="2" NCoef="0" IVar="-1" Cut="0.0000000000000000e+00" cType="1" res="-4.4516496360301971e-02" rms="2.6220402121543884e-01" purity="1.1155823618173599e-01" nType="-99"/>
        </Node>
        <Node pos="r" depth="1" NCoef="0" IVar="0" Cut="2.3572971343994141e+01" cType="1" res="-1.5077386796474457e-01" rms="2.1075320243835449e-01" purity="1.5664789080619812e-01" nType="0">
          <Node pos="l" depth="2" NCoef="0" IVar="-1" Cut="0.0000000000000000e+00" cType="1" res="2.2990981116890907e-02" rms="2.9165053367614746e-01" purity="6.4994603395462036e-01" nType="-99"/>
          <Node pos="r" depth="2" NCoef="0" IVar="-1" Cut="0.0000000000000000e+00" cType="1" res="-5.8380652219057083e-02" rms="1.4453221857547760e-01" purity="5.1639016717672348e-02" nType="-99"/>
        </Node>
      </Node>
    </BinaryTree>
    <BinaryTree type="DecisionTree" boostWeight="1.0000000000000000e+00" itree="10">
      <Node pos="s" depth="0" NCoef="0" IVar="3" Cut="2.4716529846191406e+01" cType="1" res="-1.2283334217499942e-04" rms="2.4914467334747314e-01" purity="5.0046348571777344e-01" nType="0">
        <Node pos="l" depth="1" NCoef="0" IVar="26" Cut="1.3392684049904346e-02" cType="1" res="1.2844681739807129e-01" rms="2.2823610901832581e-01" purity="8.1144315004348755e-01" nType="0">
          <Node pos="l" depth="2" NCoef="0" IVar="-1" Cut="0.0000000000000000e+00" cType="1" res="4.9295261502265930e-02" rms="1.9456861913204193e-01" purity="9.0868264436721802e-01" nType="-99"/>
          <Node pos="r" depth="2" NCoef="0" IVar="-1" Cut="0.0000000000000000e+00" cType="1" res="-6.6622115671634674e-02" rms="1.5093997120857239e-01" purity="1.7486011609435081e-02" nType="-99"/>
        </Node>
        <Node pos="r" depth="1" NCoef="0" IVar="22" Cut="1.1492033489048481e-02" cType="1" res="-1.8237477540969849e-01" rms="1.3990758359432220e-01" purity="5.9638980776071548e-02" nType="0">
          <Node pos="l" depth="2" NCoef="0" IVar="-1" Cut="0.0000000000000000e+00" cType="1" res="9.1490633785724640e-03" rms="2.9020962119102478e-01" purity="5.5144959688186646e-01" nType="-99"/>
          <Node pos="r" depth="2" NCoef="0" IVar="-1" Cut="0.0000000000000000e+00" cType="1" res="-6.2276810407638550e-02" rms="1.0066835582256317e-01" purity="1.9361957907676697e-02" nType="-99"/>
        </Node>
      </Node>
    </BinaryTree>
    <BinaryTree type="DecisionTree" boostWeight="1.0000000000000000e+00" itree="11">
      <Node pos="s" depth="0" NCoef="0" IVar="0" Cut="2.7365427017211914e+01" cType="1" res="-1.3615977950394154e-03" rms="2.3624919354915619e-01" purity="4.9805441498756409e-01" nType="0">
        <Node pos="l" depth="1" NCoef="0" IVar="25" Cut="1.2846773490309715e-02" cType="1" res="1.3259539008140564e-01" rms="2.0428477227687836e-01" purity="8.3713972568511963e-01" nType="0">
          <Node pos="l" depth="2" NCoef="0" IVar="-1" Cut="0.0000000000000000e+00" cType="1" res="5.0786510109901428e-02" rms="1.7209348082542419e-01" purity="9.3123805522918701e-01" nType="-99"/>
          <Node pos="r" depth="2" NCoef="0" IVar="-1" Cut="0.0000000000000000e+00" cType="1" res="-4.7960445284843445e-02" rms="2.0643813908100128e-01" purity="7.6243095099925995e-02" nType="-99"/>
        </Node>
        <Node pos="r" depth="1" NCoef="0" IVar="1" Cut="1.5616580009460449e+01" cType="1" res="-1.5121309459209442e-01" rms="1.7040185630321503e-01" purity="1.1873537302017212e-01" nType="0">
          <Node pos="l" depth="2" NCoef="0" IVar="-1" Cut="0.0000000000000000e+00" cType="1" res="3.2817356288433075e-02" rms="2.4555023014545441e-01" purity="8.4095788002014160e-01" nType="-99"/>
          <Node pos="r" depth="2" NCoef="0" IVar="-1" Cut="0.0000000000000000e+00" cType="1" res="-5.6919921189546585e-02" rms="1.4012348651885986e-01" purity="5.3904198110103607e-02" nType="-99"/>
        </Node>
      </Node>
    </BinaryTree>
    <BinaryTree type="DecisionTree" boostWeight="1.0000000000000000e+00" itree="12">
      <Node pos="s" depth="0" NCoef="0" IVar="0" Cut="2.8418178558349609e+01" cType="1" res="-1.7455480701755732e-05" rms="2.2423811256885529e-01" purity="5.0101828575134277e-01" nType="0">
        <Node pos="l" depth="1" NCoef="0" IVar="3" Cut="2.5654817581176758e+01" cType="1" res="1.1393348127603531e-01" rms="2.0346702635288239e-01" purity="8.2027727365493774e-01" nType="0">
          <Node pos="l" depth="2" NCoef="0" IVar="-1" Cut="0.0000000000000000e+00" cType="1" res="4.8940870910882950e-02" rms="1.6919209063053131e-01" purity="9.2287474870681763e-01" nType="-99"/>
          <Node pos="r" depth="2" NCoef="0" IVar="-1" Cut="0.0000000000000000e+00" cType="1" res="-4.1731510311365128e-02" rms="2.2156473994255066e-01" purity="1.6909596323966980e-01" nType="-99"/>
        </Node>
        <Node pos="r" depth="1" NCoef="0" IVar="1" Cut="1.5977880477905273e+01" cType="1" res="-1.4414153993129730e-01" rms="1.5596209466457367e-01" purity="9.7222425043582916e-02" nType="0">
          <Node pos="l" depth="2" NCoef="0" IVar="-1" Cut="0.0000000000000000e+00" cType="1" res="2.5383282452821732e-02" rms="2.5944754481315613e-01" purity="8.0094045400619507e-01" nType="-99"/>
          <Node pos="r" depth="2" NCoef="0" IVar="-1" Cut="0.0000000000000000e+00" cType="1" res="-5.6487169116735458e-02" rms="1.2827588617801666e-01" purity="4.0961138904094696e-02" nType="-99"/>
        </Node>
      </Node>
    </BinaryTree>
    <BinaryTree type="DecisionTree" boostWeight="1.0000000000000000e+00" itree="13">
      <Node pos="s" depth="0" NCoef="0" IVar="2" Cut="2.0224981307983398e+01" cType="1" res="-8.3235395140945911e-04" rms="2.1403665840625763e-01" purity="4.9879091978073120e-01" nType="0">
        <Node pos="l" depth="1" NCoef="0" IVar="26" Cut="1.2564796023070812e-02" cType="1" res="1.2029783427715302e-01" rms="1.9208648800849915e-01" purity="8.7346178293228149e-01" nType="0">
          <Node pos="l" depth="2" NCoef="0" IVar="-1" Cut="0.0000000000000000e+00" cType="1" res="4.8740819096565247e-02" rms="1.6636550426483154e-01" purity="9.3893778324127197e-01" nType="-99"/>
          <Node pos="r" depth="2" NCoef="0" IVar="-1" Cut="0.0000000000000000e+00" cType="1" res="-6.4410045742988586e-02" rms="1.9337353110313416e-01" purity="3.2409921288490295e-02" nType="-99"/>
        </Node>
        <Node pos="r" depth="1" NCoef="0" IVar="1" Cut="1.5704136848449707e+01" cType="1" res="-1.1682917922735214e-01" rms="1.6383650898933411e-01" purity="1.3999824225902557e-01" nType="0">
          <Node pos="l" depth="2" NCoef="0" IVar="-1" Cut="0.0000000000000000e+00" cType="1" res="3.7099707871675491e-02" rms="2.1878989040851593e-01" purity="8.6898362636566162e-01" nType="-99"/>
          <Node pos="r" depth="2" NCoef="0" IVar="-1" Cut="0.0000000000000000e+00" cType="1" res="-5.2335187792778015e-02" rms="1.3345882296562195e-01" purity="5.8843176811933517e-02" nType="-99"/>
        </Node>
      </Node>
    </BinaryTree>
    <BinaryTree type="DecisionTree" boostWeight="1.0000000000000000e+00" itree="14">
      <Node pos="s" depth="0" NCoef="0" IVar="4" Cut="2.7793851852416992e+01" cType="1" res="-4.7157634980976582e-04" rms="2.0531500875949860e-01" purity="4.9979513883590698e-01" nType="0">
        <Node pos="l" depth="1" NCoef="0" IVar="25" Cut="1.0902766138315201e-02" cType="1" res="9.5179043710231781e-02" rms="1.9617110490798950e-01" purity="8.1398385763168335e-01" nType="0">
          <Node pos="l" depth="2" NCoef="0" IVar="-1" Cut="0.0000000000000000e+00" cType="1" res="4.7127000987529755e-02" rms="1.6617161035537720e-01" purity="9.3832987546920776e-01" nType="-99"/>
          <Node pos="r" depth="2" NCoef="0" IVar="-1" Cut="0.0000000000000000e+00" cType="1" res="-4.4884920120239258e-02" rms="2.0203481614589691e-01" purity="8.8131159543991089e-02" nType="-99"/>
        </Node>
        <Node pos="r" depth="1" NCoef="0" IVar="22" Cut="1.1840690858662128e-02" cType="1" res="-1.2660147249698639e-01" rms="1.3792049884796143e-01" purity="8.5489496588706970e-02" nType="0">
          <Node pos="l" depth="2" NCoef="0" IVar="-1" Cut="0.0000000000000000e+00" cType="1" res="1.7040215432643890e-02" rms="2.4683177471160889e-01" purity="6.5620052814483643e-01" nType="-99"/>
          <Node pos="r" depth="2" NCoef="0" IVar="-1" Cut="0.0000000000000000e+00" cType="1" res="-6.0396105051040649e-02" rms="9.5172770321369171e-02" purity="1.3130383566021919e-02" nType="-99"/>
        </Node>
      </Node>
    </BinaryTree>
    <BinaryTree type="DecisionTree" boostWeight="1.0000000000000000e+00" itree="15">
      <Node pos="s" depth="0" NCoef="0" IVar="1" Cut="2.0489023208618164e+01" cType="1" res="-5.2484113257378340e-04" rms="1.9637860357761383e-01" purity="5.0000321865081787e-01" nType="0">
        <Node pos="l" depth="1" NCoef="0" IVar="26" Cut="1.3464072719216347e-02" cType="1" res="9.8957411944866180e-02" rms="1.8157096207141876e-01" purity="8.8297528028488159e-01" nType="0">
          <Node pos="l" depth="2" NCoef="0" IVar="-1" Cut="0.0000000000000000e+00" cType="1" res="4.4497732073068619e-02" rms="1.6493752598762512e-01" purity="9.4133621454238892e-01" nType="-99"/>
          <Node pos="r" depth="2" NCoef="0" IVar="-1" Cut="0.0000000000000000e+00" cType="1" res="-6.1465818434953690e-02" rms="1.8914671242237091e-01" purity="2.7543224394321442e-02" nType="-99"/>
        </Node>
        <Node pos="r" depth="1" NCoef="0" IVar="2" Cut="1.6306150436401367e+01" cType="1" res="-9.9525317549705505e-02" rms="1.5647399425506592e-01" purity="1.1888576298952103e-01" nType="0">
          <Node pos="l" depth="2" NCoef="0" IVar="-1" Cut="0.0000000000000000e+00" cType="1" res="2.6429997757077217e-02" rms="2.6096844673156738e-01" purity="7.8686910867691040e-01" nType="-99"/>
          <Node pos="r" depth="2" NCoef="0" IVar="-1" Cut="0.0000000000000000e+00" cType="1" res="-4.9239870160818100e-02" rms="1.2754052877426147e-01" purity="5.2103392779827118e-02" nType="-99"/>
        </Node>
      </Node>
    </BinaryTree>
    <BinaryTree type="DecisionTree" boostWeight="1.0000000000000000e+00" itree="16">
      <Node pos="s" depth="0" NCoef="0" IVar="4" Cut="2.6789489746093750e+01" cType="1" res="-6.3381920335814357e-04" rms="1.8963374197483063e-01" purity="5.0081920623779297e-01" nType="0">
        <Node pos="l" depth="1" NCoef="0" IVar="26" Cut="1.4700700528919697e-02" cType="1" res="8.4778867661952972e-02" rms="1.8458166718482971e-01" purity="8.3122390508651733e-01" nType="0">
          <Node pos="l" depth="2" NCoef="0" IVar="-1" Cut="0.0000000000000000e+00" cType="1" res="4.2023438960313797e-02" rms="1.6986590623855591e-01" purity="9.1217684745788574e-01" nType="-99"/>
          <Node pos="r" depth="2" NCoef="0" IVar="-1" Cut="0.0000000000000000e+00" cType="1" res="-5.8545991778373718e-02" rms="1.5536206960678101e-01" purity="2.0677922293543816e-02" nType="-99"/>
        </Node>
        <Node pos="r" depth="1" NCoef="0" IVar="22" Cut="1.1847831308841705e-02" cType="1" res="-9.9481590092182159e-02" rms="1.4119194447994232e-01" purity="1.1844313144683838e-01" nType="0">
          <Node pos="l" depth="2" NCoef="0" IVar="-1" Cut="0.0000000000000000e+00" cType="1" res="2.4522680789232254e-02" rms="2.2231523692607880e-01" purity="7.4013125896453857e-01" nType="-99"/>
          <Node pos="r" depth="2" NCoef="0" IVar="-1" Cut="0.0000000000000000e+00" cType="1" res="-5.7984746992588043e-02" rms="1.0168129205703735e-01" purity="2.3863473907113075e-02" nType="-99"/>
        </Node>
      </Node>
    </BinaryTree>
    <BinaryTree type="DecisionTree" boostWeight="1.0000000000000000e+00" itree="17">
      <Node pos="s" depth="0" NCoef="0" IVar="24" Cut="1.1052015237510204e-02" cType="1" res="-5.0088466377928853e-04" rms="1.8289223313331604e-01" purity="4.9956837296485901e-01" nType="0">
        <Node pos="l" depth="1" NCoef="0" IVar="25" Cut="7.6662101782858372e-03" cType="1" res="7.5910001993179321e-02" rms="1.8698938190937042e-01" purity="8.5208564996719360e-01" nType="0">
          <Node pos="l" depth="2" NCoef="0" IVar="-1" Cut="0.0000000000000000e+00" cType="1" res="3.8468945771455765e-02" rms="1.6889005899429321e-01" purity="8.9879912137985229e-01" nType="-99"/>
          <Node pos="r" depth="2" NCoef="0" IVar="-1" Cut="0.0000000000000000e+00" cType="1" res="-7.6491042971611023e-02" rms="2.1144889295101166e-01" purity="4.9968373030424118e-02" nType="-99"/>
        </Node>
        <Node pos="r" depth="1" NCoef="0" IVar="28" Cut="4.3458697509765625e+02" cType="1" res="-9.4311028718948364e-02" rms="1.2498226761817932e-01" purity="6.6780626773834229e-02" nType="0">
          <Node pos="l" depth="2" NCoef="0" IVar="-1" Cut="0.0000000000000000e+00" cType="1" res="3.6808375269174576e-02" rms="2.7867525815963745e-01" purity="8.0538302659988403e-01" nType="-99"/>
          <Node pos="r" depth="2" NCoef="0" IVar="-1" Cut="0.0000000000000000e+00" cType="1" res="-5.5518671870231628e-02" rms="8.4874048829078674e-02" purity="1.2207434512674809e-02" nType="-99"/>
        </Node>
      </Node>
    </BinaryTree>
    <BinaryTree type="DecisionTree" boostWeight="1.0000000000000000e+00" itree="18">
      <Node pos="s" depth="0" NCoef="0" IVar="3" Cut="2.2255445480346680e+01" cType="1" res="-7.1296741953119636e-04" rms="1.7625789344310760e-01" purity="5.0034844875335693e-01" nType="0">
        <Node pos="l" depth="1" NCoef="0" IVar="27" Cut="1.4906546100974083e-02" cType="1" res="7.9421244561672211e-02" rms="1.7127619683742523e-01" purity="8.6183458566665649e-01" nType="0">
          <Node pos="l" depth="2" NCoef="0" IVar="-1" Cut="0.0000000000000000e+00" cType="1" res="4.1676554828882217e-02" rms="1.5775677561759949e-01" purity="9.2040967941284180e-01" nType="-99"/>
          <Node pos="r" depth="2" NCoef="0" IVar="-1" Cut="0.0000000000000000e+00" cType="1" res="-7.0243820548057556e-02" rms="1.6598474979400635e-01" purity="6.0741039924323559e-03" nType="-99"/>
        </Node>
        <Node pos="r" depth="1" NCoef="0" IVar="2" Cut="1.7196903228759766e+01" cType="1" res="-7.8601330518722534e-02" rms="1.4297381043434143e-01" purity="1.4899329841136932e-01" nType="0">
          <Node pos="l" depth="2" NCoef="0" IVar="-1" Cut="0.0000000000000000e+00" cType="1" res="2.1625107154250145e-02" rms="2.2357234358787537e-01" purity="8.0565601587295532e-01" nType="-99"/>
          <Node pos="r" depth="2" NCoef="0" IVar="-1" Cut="0.0000000000000000e+00" cType="1" res="-4.9038384109735489e-02" rms="1.1815595626831055e-01" purity="6.3650347292423248e-02" nType="-99"/>
        </Node>
      </Node>
    </BinaryTree>
    <BinaryTree type="DecisionTree" boostWeight="1.0000000000000000e+00" itree="19">
      <Node pos="s" depth="0" NCoef="0" IVar="0" Cut="2.3572971343994141e+01" cType="1" res="1.6188918380066752e-04" rms="1.7027541995048523e-01" purity="5.0137740373611450e-01" nType="0">
        <Node pos="l" depth="1" NCoef="0" IVar="4" Cut="3.0953817367553711e+01" cType="1" res="8.4984362125396729e-02" rms="1.4970281720161438e-01" purity="8.9422345161437988e-01" nType="0">
          <Node pos="l" depth="2" NCoef="0" IVar="-1" Cut="0.0000000000000000e+00" cType="1" res="4.5412771403789520e-02" rms="1.3504037261009216e-01" purity="9.4434219598770142e-01" nType="-99"/>
          <Node pos="r" depth="2" NCoef="0" IVar="-1" Cut="0.0000000000000000e+00" cType="1" res="-3.8990233093500137e-02" rms="2.0910567045211792e-01" purity="1.9409659504890442e-01" nType="-99"/>
        </Node>
        <Node pos="r" depth="1" NCoef="0" IVar="1" Cut="1.5690280914306641e+01" cType="1" res="-6.3275389373302460e-02" rms="1.5656204521656036e-01" purity="2.0757457613945007e-01" nType="0">
          <Node pos="l" depth="2" NCoef="0" IVar="-1" Cut="0.0000000000000000e+00" cType="1" res="3.0293999239802361e-02" rms="1.8445126712322235e-01" purity="8.9136290550231934e-01" nType="-99"/>
          <Node pos="r" depth="2" NCoef="0" IVar="-1" Cut="0.0000000000000000e+00" cType="1" res="-4.3914500623941422e-02" rms="1.4044925570487976e-01" purity="9.5343999564647675e-02" nType="-99"/>
        </Node>
      </Node>
    </BinaryTree>
    <BinaryTree type="DecisionTree" boostWeight="1.0000000000000000e+00" itree="20">
      <Node pos="s" depth="0" NCoef="0" IVar="23" Cut="1.1841059662401676e-02" cType="1" res="-1.3524229871109128e-04" rms="1.6579672694206238e-01" purity="5.0013774633407593e-01" nType="0">
        <Node pos="l" depth="1" NCoef="0" IVar="3" Cut="3.0225650787353516e+01" cType="1" res="7.7665440738201141e-02" rms="1.5176361799240112e-01" purity="8.8996583223342896e-01" nType="0">
          <Node pos="l" depth="2" NCoef="0" IVar="-1" Cut="0.0000000000000000e+00" cType="1" res="4.3533135205507278e-02" rms="1.4165595173835754e-01" purity="9.4625079631805420e-01" nType="-99"/>
          <Node pos="r" depth="2" NCoef="0" IVar="-1" Cut="0.0000000000000000e+00" cType="1" res="-5.8960493654012680e-02" rms="1.4005073904991150e-01" purity="2.6477541774511337e-02" nType="-99"/>
        </Node>
        <Node pos="r" depth="1" NCoef="0" IVar="6" Cut="2.6904253005981445e+01" cType="1" res="-6.1986379325389862e-02" rms="1.4964526891708374e-01" purity="1.9022645056247711e-01" nType="0">
          <Node pos="l" depth="2" NCoef="0" IVar="-1" Cut="0.0000000000000000e+00" cType="1" res="3.5275831818580627e-02" rms="1.9158747792243958e-01" purity="8.1237822771072388e-01" nType="-99"/>
          <Node pos="r" depth="2" NCoef="0" IVar="-1" Cut="0.0000000000000000e+00" cType="1" res="-5.3976360708475113e-02" rms="1.1721748113632202e-01" purity="5.6337438523769379e-02" nType="-99"/>
        </Node>
      </Node>
    </BinaryTree>
    <BinaryTree type="DecisionTree" boostWeight="1.0000000000000000e+00" itree="21">
      <Node pos="s" depth="0" NCoef="0" IVar="23" Cut="1.0941493324935436e-02" cType="1" res="3.7747086025774479e-04" rms="1.5835379064083099e-01" purity="5.0078070163726807e-01" nType="0">
        <Node pos="l" depth="1" NCoef="0" IVar="3" Cut="2.8826103210449219e+01" cType="1" res="7.4695922434329987e-02" rms="1.4107869565486908e-01" purity="9.0171611309051514e-01" nType="0">
          <Node pos="l" depth="2" NCoef="0" IVar="-1" Cut="0.0000000000000000e+00" cType="1" res="4.4914413243532181e-02" rms="1.2875580787658691e-01" purity="9.5951759815216064e-01" nType="-99"/>
          <Node pos="r" depth="2" NCoef="0" IVar="-1" Cut="0.0000000000000000e+00" cType="1" res="-5.1566075533628464e-02" rms="1.6461631655693054e-01" purity="6.2262356281280518e-02" nType="-99"/>
        </Node>
        <Node pos="r" depth="1" NCoef="0" IVar="28" Cut="4.9576812744140625e+02" cType="1" res="-5.2999205887317657e-02" rms="1.4824005961418152e-01" purity="2.1282257139682770e-01" nType="0">
          <Node pos="l" depth="2" NCoef="0" IVar="-1" Cut="0.0000000000000000e+00" cType="1" res="2.9038628563284874e-02" rms="1.9087986648082733e-01" purity="7.9950255155563354e-01" nType="-99"/>
          <Node pos="r" depth="2" NCoef="0" IVar="-1" Cut="0.0000000000000000e+00" cType="1" res="-5.4915200918912888e-02" rms="1.1135276407003403e-01" purity="4.2061183601617813e-02" nType="-99"/>
        </Node>
      </Node>
    </BinaryTree>
    <BinaryTree type="DecisionTree" boostWeight="1.0000000000000000e+00" itree="22">
      <Node pos="s" depth="0" NCoef="0" IVar="0" Cut="2.4866254806518555e+01" cType="1" res="-5.5665010586380959e-04" rms="1.5562449395656586e-01" purity="4.9975025653839111e-01" nType="0">
        <Node pos="l" depth="1" NCoef="0" IVar="26" Cut="1.5629284083843231e-02" cType="1" res="6.2231834977865219e-02" rms="1.4643457531929016e-01" purity="8.7468224763870239e-01" nType="0">
          <Node pos="l" depth="2" NCoef="0" IVar="-1" Cut="0.0000000000000000e+00" cType="1" res="3.9369568228721619e-02" rms="1.3727921247482300e-01" purity="9.2781823873519897e-01" nType="-99"/>
          <Node pos="r" depth="2" NCoef="0" IVar="-1" Cut="0.0000000000000000e+00" cType="1" res="-5.2869770675897598e-02" rms="1.7297722399234772e-01" purity="3.1686861068010330e-02" nType="-99"/>
        </Node>
        <Node pos="r" depth="1" NCoef="0" IVar="3" Cut="1.6352037429809570e+01" cType="1" res="-5.4808344691991806e-02" rms="1.4236514270305634e-01" purity="1.7579439282417297e-01" nType="0">
          <Node pos="l" depth="2" NCoef="0" IVar="-1" Cut="0.0000000000000000e+00" cType="1" res="3.1347595155239105e-02" rms="1.9192346930503845e-01" purity="8.5982000827789307e-01" nType="-99"/>
          <Node pos="r" depth="2" NCoef="0" IVar="-1" Cut="0.0000000000000000e+00" cType="1" res="-4.1463665664196014e-02" rms="1.3157910108566284e-01" purity="1.1558891832828522e-01" nType="-99"/>
        </Node>
      </Node>
    </BinaryTree>
    <BinaryTree type="DecisionTree" boostWeight="1.0000000000000000e+00" itree="23">
      <Node pos="s" depth="0" NCoef="0" IVar="4" Cut="2.6930885314941406e+01" cType="1" res="-2.7568833320401609e-04" rms="1.5159347653388977e-01" purity="5.0022721290588379e-01" nType="0">
        <Node pos="l" depth="1" NCoef="0" IVar="27" Cut="1.5337132848799229e-02" cType="1" res="4.8871822655200958e-02" rms="1.5990732610225677e-01" purity="8.2836729288101196e-01" nType="0">
          <Node pos="l" depth="2" NCoef="0" IVar="-1" Cut="0.0000000000000000e+00" cType="1" res="3.4618046134710312e-02" rms="1.5146908164024353e-01" purity="8.9805018901824951e-01" nType="-99"/>
          <Node pos="r" depth="2" NCoef="0" IVar="-1" Cut="0.0000000000000000e+00" cType="1" res="-6.6278710961341858e-02" rms="1.5211896598339081e-01" purity="6.3472874462604523e-03" nType="-99"/>
        </Node>
        <Node pos="r" depth="1" NCoef="0" IVar="21" Cut="1.4068936929106712e-02" cType="1" res="-5.8414351195096970e-02" rms="1.1695963144302368e-01" purity="1.1205644160509109e-01" nType="0">
          <Node pos="l" depth="2" NCoef="0" IVar="-1" Cut="0.0000000000000000e+00" cType="1" res="3.8030602037906647e-02" rms="1.6659918427467346e-01" purity="7.9591459035873413e-01" nType="-99"/>
          <Node pos="r" depth="2" NCoef="0" IVar="-1" Cut="0.0000000000000000e+00" cType="1" res="-5.0621390342712402e-02" rms="1.0300680249929428e-01" purity="5.5876392871141434e-02" nType="-99"/>
        </Node>
      </Node>
    </BinaryTree>
    <BinaryTree type="DecisionTree" boostWeight="1.0000000000000000e+00" itree="24">
      <Node pos="s" depth="0" NCoef="0" IVar="0" Cut="2.6587209701538086e+01" cType="1" res="-7.7757175313308835e-04" rms="1.4782588183879852e-01" purity="4.9826967716217041e-01" nType="0">
        <Node pos="l" depth="1" NCoef="0" IVar="27" Cut="1.6548495739698410e-02" cType="1" res="4.9111410975456238e-02" rms="1.4694616198539734e-01" purity="8.4915953874588013e-01" nType="0">
          <Node pos="l" depth="2" NCoef="0" IVar="-1" Cut="0.0000000000000000e+00" cType="1" res="3.4826532006263733e-02" rms="1.3937142491340637e-01" purity="9.0013271570205688e-01" nType="-99"/>
          <Node pos="r" depth="2" NCoef="0" IVar="-1" Cut="0.0000000000000000e+00" cType="1" res="-6.8390533328056335e-02" rms="1.5704719722270966e-01" purity="4.8362277448177338e-03" nType="-99"/>
        </Node>
        <Node pos="r" depth="1" NCoef="0" IVar="3" Cut="1.5857357025146484e+01" cType="1" res="-5.2734449505805969e-02" rms="1.2973420321941376e-01" purity="1.3283541798591614e-01" nType="0">
          <Node pos="l" depth="2" NCoef="0" IVar="-1" Cut="0.0000000000000000e+00" cType="1" res="2.9841700568795204e-02" rms="1.9197683036327362e-01" purity="8.5271131992340088e-01" nType="-99"/>
          <Node pos="r" depth="2" NCoef="0" IVar="-1" Cut="0.0000000000000000e+00" cType="1" res="-4.2490810155868530e-02" rms="1.2167270481586456e-01" purity="9.0901568531990051e-02" nType="-99"/>
        </Node>
      </Node>
    </BinaryTree>
    <BinaryTree type="DecisionTree" boostWeight="1.0000000000000000e+00" itree="25">
      <Node pos="s" depth="0" NCoef="0" IVar="23" Cut="1.1014060117304325e-02" cType="1" res="2.5137662305496633e-04" rms="1.4482229948043823e-01" purity="5.0298476219177246e-01" nType="0">
        <Node pos="l" depth="1" NCoef="0" IVar="4" Cut="3.5605247497558594e+01" cType="1" res="5.6175470352172852e-02" rms="1.3653619587421417e-01" purity="8.9773052930831909e-01" nType="0">
          <Node pos="l" depth="2" NCoef="0" IVar="-1" Cut="0.0000000000000000e+00" cType="1" res="4.0505442768335342e-02" rms="1.2758763134479523e-01" purity="9.5037358999252319e-01" nType="-99"/>
          <Node pos="r" depth="2" NCoef="0" IVar="-1" Cut="0.0000000000000000e+00" cType="1" res="-5.2136402577161789e-02" rms="1.6841912269592285e-01" purity="6.6345907747745514e-02" nType="-99"/>
        </Node>
        <Node pos="r" depth="1" NCoef="0" IVar="28" Cut="4.8262045288085938e+02" cType="1" res="-4.0660791099071503e-02" rms="1.3681106269359589e-01" purity="2.1420219540596008e-01" nType="0">
          <Node pos="l" depth="2" NCoef="0" IVar="-1" Cut="0.0000000000000000e+00" cType="1" res="2.8651425614953041e-02" rms="1.7936049401760101e-01" purity="8.3053880929946899e-01" nType="-99"/>
          <Node pos="r" depth="2" NCoef="0" IVar="-1" Cut="0.0000000000000000e+00" cType="1" res="-5.1039189100265503e-02" rms="1.1059403419494629e-01" purity="5.6924078613519669e-02" nType="-99"/>
        </Node>
      </Node>
    </BinaryTree>
    <BinaryTree type="DecisionTree" boostWeight="1.0000000000000000e+00" itree="26">
      <Node pos="s" depth="0" NCoef="0" IVar="3" Cut="2.2018077850341797e+01" cType="1" res="-3.5006829421035945e-05" rms="1.4207214117050171e-01" purity="5.0026422739028931e-01" nType="0">
        <Node pos="l" depth="1" NCoef="0" IVar="27" Cut="1.4908232726156712e-02" cType="1" res="4.5755542814731598e-02" rms="1.4810650050640106e-01" purity="8.6883729696273804e-01" nType="0">
          <Node pos="l" depth="2" NCoef="0" IVar="-1" Cut="0.0000000000000000e+00" cType="1" res="3.5209212452173233e-02" rms="1.4093318581581116e-01" purity="9.2533195018768311e-01" nType="-99"/>
          <Node pos="r" depth="2" NCoef="0" IVar="-1" Cut="0.0000000000000000e+00" cType="1" res="-6.6956214606761932e-02" rms="1.6007837653160095e-01" purity="7.4171028099954128e-03" nType="-99"/>
        </Node>
        <Node pos="r" depth="1" NCoef="0" IVar="22" Cut="1.1879345402121544e-02" cType="1" res="-4.2303558439016342e-02" rms="1.2184416502714157e-01" purity="1.6004015505313873e-01" nType="0">
          <Node pos="l" depth="2" NCoef="0" IVar="-1" Cut="0.0000000000000000e+00" cType="1" res="1.8983341753482819e-02" rms="1.8755041062831879e-01" purity="7.3998218774795532e-01" nType="-99"/>
          <Node pos="r" depth="2" NCoef="0" IVar="-1" Cut="0.0000000000000000e+00" cType="1" res="-4.5432958751916885e-02" rms="1.0423164814710617e-01" purity="7.6991736888885498e-02" nType="-99"/>
        </Node>
      </Node>
    </BinaryTree>
    <BinaryTree type="DecisionTree" boostWeight="1.0000000000000000e+00" itree="27">
      <Node pos="s" depth="0" NCoef="0" IVar="0" Cut="2.6317478179931641e+01" cType="1" res="2.3874716134741902e-04" rms="1.3767349720001221e-01" purity="5.0109016895294189e-01" nType="0">
        <Node pos="l" depth="1" NCoef="0" IVar="4" Cut="2.9965534210205078e+01" cType="1" res="4.0456961840391159e-02" rms="1.3759872317314148e-01" purity="8.5406380891799927e-01" nType="0">
          <Node pos="l" depth="2" NCoef="0" IVar="-1" Cut="0.0000000000000000e+00" cType="1" res="3.5695716738700867e-02" rms="1.2805053591728210e-01" purity="9.3059813976287842e-01" nType="-99"/>
          <Node pos="r" depth="2" NCoef="0" IVar="-1" Cut="0.0000000000000000e+00" cType="1" res="-3.3715903759002686e-02" rms="1.6978783905506134e-01" purity="2.0848225057125092e-01" nType="-99"/>
        </Node>
        <Node pos="r" depth="1" NCoef="0" IVar="22" Cut="1.1714621447026730e-02" cType="1" res="-4.1021935641765594e-02" rms="1.2495291978120804e-01" purity="1.3896733522415161e-01" nType="0">
          <Node pos="l" depth="2" NCoef="0" IVar="-1" Cut="0.0000000000000000e+00" cType="1" res="1.7412086948752403e-02" rms="1.9574432075023651e-01" purity="6.7357897758483887e-01" nType="-99"/>
          <Node pos="r" depth="2" NCoef="0" IVar="-1" Cut="0.0000000000000000e+00" cType="1" res="-4.2076781392097473e-02" rms="1.1308997124433517e-01" purity="8.8133908808231354e-02" nType="-99"/>
        </Node>
      </Node>
    </BinaryTree>
    <BinaryTree type="DecisionTree" boostWeight="1.0000000000000000e+00" itree="28">
      <Node pos="s" depth="0" NCoef="0" IVar="5" Cut="3.1763654708862305e+01" cType="1" res="-4.8732053255662322e-04" rms="1.3617077469825745e-01" purity="4.9933108687400818e-01" nType="0">
        <Node pos="l" depth="1" NCoef="0" IVar="26" Cut="1.2613252736628056e-02" cType="1" res="3.4872692078351974e-02" rms="1.4258860051631927e-01" purity="7.9783308506011963e-01" nType="0">
          <Node pos="l" depth="2" NCoef="0" IVar="-1" Cut="0.0000000000000000e+00" cType="1" res="3.3082619309425354e-02" rms="1.3860467076301575e-01" purity="9.1174095869064331e-01" nType="-99"/>
          <Node pos="r" depth="2" NCoef="0" IVar="-1" Cut="0.0000000000000000e+00" cType="1" res="-5.0152521580457687e-02" rms="1.2752895057201385e-01" purity="1.9079482182860374e-02" nType="-99"/>
        </Node>
        <Node pos="r" depth="1" NCoef="0" IVar="21" Cut="1.4137144200503826e-02" cType="1" res="-4.4074263423681259e-02" rms="1.1356126517057419e-01" purity="1.3137906789779663e-01" nType="0">
          <Node pos="l" depth="2" NCoef="0" IVar="-1" Cut="0.0000000000000000e+00" cType="1" res="3.6149095743894577e-02" rms="1.4675687253475189e-01" purity="8.3005851507186890e-01" nType="-99"/>
          <Node pos="r" depth="2" NCoef="0" IVar="-1" Cut="0.0000000000000000e+00" cType="1" res="-5.2805069833993912e-02" rms="1.0272856801748276e-01" purity="5.8185759931802750e-02" nType="-99"/>
        </Node>
      </Node>
    </BinaryTree>
    <BinaryTree type="DecisionTree" boostWeight="1.0000000000000000e+00" itree="29">
      <Node pos="s" depth="0" NCoef="0" IVar="2" Cut="1.9688737869262695e+01" cType="1" res="-2.6692947722040117e-04" rms="1.3440012931823730e-01" purity="5.0083231925964355e-01" nType="0">
        <Node pos="l" depth="1" NCoef="0" IVar="26" Cut="1.5628132969141006e-02" cType="1" res="3.8173954933881760e-02" rms="1.4311839640140533e-01" purity="8.8629865646362305e-01" nType="0">
          <Node pos="l" depth="2" NCoef="0" IVar="-1" Cut="0.0000000000000000e+00" cType="1" res="3.2314989715814590e-02" rms="1.3876688480377197e-01" purity="9.3773055076599121e-01" nType="-99"/>
          <Node pos="r" depth="2" NCoef="0" IVar="-1" Cut="0.0000000000000000e+00" cType="1" res="-5.1650255918502808e-02" rms="1.5819050371646881e-01" purity="2.5000000372529030e-02" nType="-99"/>
        </Node>
        <Node pos="r" depth="1" NCoef="0" IVar="1" Cut="1.5411392211914062e+01" cType="1" res="-3.4474138170480728e-02" rms="1.1586756259202957e-01" purity="1.5781924128532410e-01" nType="0">
          <Node pos="l" depth="2" NCoef="0" IVar="-1" Cut="0.0000000000000000e+00" cType="1" res="2.2615315392613411e-02" rms="1.6537326574325562e-01" purity="8.8621491193771362e-01" nType="-99"/>
          <Node pos="r" depth="2" NCoef="0" IVar="-1" Cut="0.0000000000000000e+00" cType="1" res="-4.0429946035146713e-02" rms="1.0516805946826935e-01" purity="6.8997226655483246e-02" nType="-99"/>
        </Node>
      </Node>
    </BinaryTree>
    <BinaryTree type="DecisionTree" boostWeight="1.0000000000000000e+00" itree="30">
      <Node pos="s" depth="0" NCoef="0" IVar="23" Cut="1.0542038828134537e-02" cType="1" res="3.2865882531041279e-05" rms="1.3269917666912079e-01" purity="4.9960586428642273e-01" nType="0">
        <Node pos="l" depth="1" NCoef="0" IVar="24" Cut="4.5408480800688267e-03" cType="1" res="4.1455168277025223e-02" rms="1.2696564197540283e-01" purity="9.0080118179321289e-01" nType="0">
          <Node pos="l" depth="2" NCoef="0" IVar="-1" Cut="0.0000000000000000e+00" cType="1" res="4.5899584889411926e-02" rms="9.6793375909328461e-02" purity="9.6712797880172729e-01" nType="-99"/>
          <Node pos="r" depth="2" NCoef="0" IVar="-1" Cut="0.0000000000000000e+00" cType="1" res="-1.6513673588633537e-02" rms="1.8615032732486725e-01" purity="6.6484582424163818e-01" nType="-99"/>
        </Node>
        <Node pos="r" depth="1" NCoef="0" IVar="6" Cut="2.9297107696533203e+01" cType="1" res="-2.8320407494902611e-02" rms="1.2903401255607605e-01" purity="2.2499056160449982e-01" nType="0">
          <Node pos="l" depth="2" NCoef="0" IVar="-1" Cut="0.0000000000000000e+00" cType="1" res="2.4183372035622597e-02" rms="1.7331860959529877e-01" purity="7.7905720472335815e-01" nType="-99"/>
          <Node pos="r" depth="2" NCoef="0" IVar="-1" Cut="0.0000000000000000e+00" cType="1" res="-5.4180111736059189e-02" rms="1.0072956979274750e-01" purity="4.0915235877037048e-02" nType="-99"/>
        </Node>
      </Node>
    </BinaryTree>
    <BinaryTree type="DecisionTree" boostWeight="1.0000000000000000e+00" itree="31">
      <Node pos="s" depth="0" NCoef="0" IVar="5" Cut="2.8347364425659180e+01" cType="1" res="-5.6557042989879847e-04" rms="1.3091477751731873e-01" purity="5.0115865468978882e-01" nType="0">
        <Node pos="l" depth="1" NCoef="0" IVar="27" Cut="1.6549965366721153e-02" cType="1" res="3.6021571606397629e-02" rms="1.3772790133953094e-01" purity="8.5345095396041870e-01" nType="0">
          <Node pos="l" depth="2" NCoef="0" IVar="-1" Cut="0.0000000000000000e+00" cType="1" res="3.3465038985013962e-02" rms="1.3337641954421997e-01" purity="9.1313159465789795e-01" nType="-99"/>
          <Node pos="r" depth="2" NCoef="0" IVar="-1" Cut="0.0000000000000000e+00" cType="1" res="-6.4489774405956268e-02" rms="1.4306634664535522e-01" purity="6.3405795954167843e-03" nType="-99"/>
        </Node>
        <Node pos="r" depth="1" NCoef="0" IVar="22" Cut="1.1492033489048481e-02" cType="1" res="-2.8112981468439102e-02" rms="1.1829563975334167e-01" purity="2.3590865731239319e-01" nType="0">
          <Node pos="l" depth="2" NCoef="0" IVar="-1" Cut="0.0000000000000000e+00" cType="1" res="2.7019679546356201e-02" rms="1.4354896545410156e-01" purity="8.6388623714447021e-01" nType="-99"/>
          <Node pos="r" depth="2" NCoef="0" IVar="-1" Cut="0.0000000000000000e+00" cType="1" res="-5.2357293665409088e-02" rms="1.0301836580038071e-01" purity="6.6669516265392303e-02" nType="-99"/>
        </Node>
      </Node>
    </BinaryTree>
    <BinaryTree type="DecisionTree" boostWeight="1.0000000000000000e+00" itree="32">
      <Node pos="s" depth="0" NCoef="0" IVar="23" Cut="1.1009793728590012e-02" cType="1" res="-2.0365780801512301e-04" rms="1.2895545363426208e-01" purity="5.0180631875991821e-01" nType="0">
        <Node pos="l" depth="1" NCoef="0" IVar="24" Cut="4.7425660304725170e-03" cType="1" res="3.4413412213325500e-02" rms="1.2791092693805695e-01" purity="8.9924979209899902e-01" nType="0">
          <Node pos="l" depth="2" NCoef="0" IVar="-1" Cut="0.0000000000000000e+00" cType="1" res="4.2973298579454422e-02" rms="9.9147185683250427e-02" purity="9.6506792306900024e-01" nType="-99"/>
          <Node pos="r" depth="2" NCoef="0" IVar="-1" Cut="0.0000000000000000e+00" cType="1" res="-1.8352184444665909e-02" rms="1.9009612500667572e-01" purity="6.5300977230072021e-01" nType="-99"/>
        </Node>
        <Node pos="r" depth="1" NCoef="0" IVar="7" Cut="3.4096881866455078e+01" cType="1" res="-2.5453403592109680e-02" rms="1.2374807149171829e-01" purity="2.1191041171550751e-01" nType="0">
          <Node pos="l" depth="2" NCoef="0" IVar="-1" Cut="0.0000000000000000e+00" cType="1" res="1.8013764172792435e-02" rms="1.6443644464015961e-01" purity="6.7649382352828979e-01" nType="-99"/>
          <Node pos="r" depth="2" NCoef="0" IVar="-1" Cut="0.0000000000000000e+00" cType="1" res="-5.6126143783330917e-02" rms="9.6353814005851746e-02" purity="3.0968138948082924e-02" nType="-99"/>
        </Node>
      </Node>
    </BinaryTree>
    <BinaryTree type="DecisionTree" boostWeight="1.0000000000000000e+00" itree="33">
      <Node pos="s" depth="0" NCoef="0" IVar="0" Cut="2.7238737106323242e+01" cType="1" res="-2.1074361575301737e-04" rms="1.2470795959234238e-01" purity="5.0074100494384766e-01" nType="0">
        <Node pos="l" depth="1" NCoef="0" IVar="27" Cut="1.6652507707476616e-02" cType="1" res="2.5395153090357780e-02" rms="1.2941253185272217e-01" purity="8.3818471431732178e-01" nType="0">
          <Node pos="l" depth="2" NCoef="0" IVar="-1" Cut="0.0000000000000000e+00" cType="1" res="2.7293378487229347e-02" rms="1.2600000202655792e-01" purity="8.9198559522628784e-01" nType="-99"/>
          <Node pos="r" depth="2" NCoef="0" IVar="-1" Cut="0.0000000000000000e+00" cType="1" res="-6.3381381332874298e-02" rms="1.4020682871341705e-01" purity="6.5515185706317425e-03" nType="-99"/>
        </Node>
        <Node pos="r" depth="1" NCoef="0" IVar="3" Cut="1.8091913223266602e+01" cType="1" res="-2.9034283012151718e-02" rms="1.1241649836301804e-01" purity="1.2089404463768005e-01" nType="0">
          <Node pos="l" depth="2" NCoef="0" IVar="-1" Cut="0.0000000000000000e+00" cType="1" res="8.7025649845600128e-03" rms="2.0049273967742920e-01" purity="7.2268187999725342e-01" nType="-99"/>
          <Node pos="r" depth="2" NCoef="0" IVar="-1" Cut="0.0000000000000000e+00" cType="1" res="-4.1621256619691849e-02" rms="9.7493879497051239e-02" purity="5.7584080845117569e-02" nType="-99"/>
        </Node>
      </Node>
    </BinaryTree>
    <BinaryTree type="DecisionTree" boostWeight="1.0000000000000000e+00" itree="34">
      <Node pos="s" depth="0" NCoef="0" IVar="1" Cut="1.9306848526000977e+01" cType="1" res="3.2388110412284732e-04" rms="1.2191189825534821e-01" purity="5.0164282321929932e-01" nType="0">
        <Node pos="l" depth="1" NCoef="0" IVar="24" Cut="1.1089481413364410e-02" cType="1" res="2.8126293793320656e-02" rms="1.2773114442825317e-01" purity="9.0594917535781860e-01" nType="0">
          <Node pos="l" depth="2" NCoef="0" IVar="-1" Cut="0.0000000000000000e+00" cType="1" res="3.4696608781814575e-02" rms="1.1281756311655045e-01" purity="9.7379988431930542e-01" nType="-99"/>
          <Node pos="r" depth="2" NCoef="0" IVar="-1" Cut="0.0000000000000000e+00" cType="1" res="-1.4520113356411457e-02" rms="1.9799080491065979e-01" purity="4.1217985749244690e-01" nType="-99"/>
        </Node>
        <Node pos="r" depth="1" NCoef="0" IVar="4" Cut="1.8994852066040039e+01" cType="1" res="-2.3736007511615753e-02" rms="1.1116443574428558e-01" purity="1.5176074206829071e-01" nType="0">
          <Node pos="l" depth="2" NCoef="0" IVar="-1" Cut="0.0000000000000000e+00" cType="1" res="2.4368863552808762e-02" rms="1.8394437432289124e-01" purity="8.1946176290512085e-01" nType="-99"/>
          <Node pos="r" depth="2" NCoef="0" IVar="-1" Cut="0.0000000000000000e+00" cType="1" res="-3.3917047083377838e-02" rms="1.0223730653524399e-01" purity="1.0398387908935547e-01" nType="-99"/>
        </Node>
      </Node>
    </BinaryTree>
    <BinaryTree type="DecisionTree" boostWeight="1.0000000000000000e+00" itree="35">
      <Node pos="s" depth="0" NCoef="0" IVar="5" Cut="2.7632514953613281e+01" cType="1" res="-8.7959918892011046e-04" rms="1.2403825670480728e-01" purity="4.9857330322265625e-01" nType="0">
        <Node pos="l" depth="1" NCoef="0" IVar="30" Cut="1.8301188659667969e+02" cType="1" res="2.9088038951158524e-02" rms="1.3450789451599121e-01" purity="8.6180156469345093e-01" nType="0">
          <Node pos="l" depth="2" NCoef="0" IVar="-1" Cut="0.0000000000000000e+00" cType="1" res="3.0688827857375145e-02" rms="1.3247530162334442e-01" purity="9.2141479253768921e-01" nType="-99"/>
          <Node pos="r" depth="2" NCoef="0" IVar="-1" Cut="0.0000000000000000e+00" cType="1" res="-6.9894589483737946e-02" rms="1.2476462870836258e-01" purity="1.7374037997797132e-03" nType="-99"/>
        </Node>
        <Node pos="r" depth="1" NCoef="0" IVar="22" Cut="1.1841258965432644e-02" cType="1" res="-2.0664179697632790e-02" rms="1.1231242865324020e-01" purity="2.5877067446708679e-01" nType="0">
          <Node pos="l" depth="2" NCoef="0" IVar="-1" Cut="0.0000000000000000e+00" cType="1" res="2.3990128189325333e-02" rms="1.3421869277954102e-01" purity="8.6865240335464478e-01" nType="-99"/>
          <Node pos="r" depth="2" NCoef="0" IVar="-1" Cut="0.0000000000000000e+00" cType="1" res="-4.8822347074747086e-02" rms="1.0019521415233612e-01" purity="7.9518437385559082e-02" nType="-99"/>
        </Node>
      </Node>
    </BinaryTree>
    <BinaryTree type="DecisionTree" boostWeight="1.0000000000000000e+00" itree="36">
      <Node pos="s" depth="0" NCoef="0" IVar="23" Cut="1.1800106614828110e-02" cType="1" res="-1.9412026449572295e-04" rms="1.2153511494398117e-01" purity="5.0167310237884521e-01" nType="0">
        <Node pos="l" depth="1" NCoef="0" IVar="0" Cut="3.6877887725830078e+01" cType="1" res="2.5387162342667580e-02" rms="1.2614861130714417e-01" purity="8.9070761203765869e-01" nType="0">
          <Node pos="l" depth="2" NCoef="0" IVar="-1" Cut="0.0000000000000000e+00" cType="1" res="3.1303789466619492e-02" rms="1.1815857887268066e-01" purity="9.4084250926971436e-01" nType="-99"/>
          <Node pos="r" depth="2" NCoef="0" IVar="-1" Cut="0.0000000000000000e+00" cType="1" res="-5.0470259040594101e-02" rms="1.8220089375972748e-01" purity="1.5096481144428253e-01" nType="-99"/>
        </Node>
        <Node pos="r" depth="1" NCoef="0" IVar="7" Cut="2.9732814788818359e+01" cType="1" res="-2.0555464550852776e-02" rms="1.1369174718856812e-01" purity="1.9202229380607605e-01" nType="0">
          <Node pos="l" depth="2" NCoef="0" IVar="-1" Cut="0.0000000000000000e+00" cType="1" res="2.4824462831020355e-02" rms="1.6810731589794159e-01" purity="7.6757735013961792e-01" nType="-99"/>
          <Node pos="r" depth="2" NCoef="0" IVar="-1" Cut="0.0000000000000000e+00" cType="1" res="-4.6629838645458221e-02" rms="9.4665534794330597e-02" purity="7.3070481419563293e-02" nType="-99"/>
        </Node>
      </Node>
    </BinaryTree>
    <BinaryTree type="DecisionTree" boostWeight="1.0000000000000000e+00" itree="37">
      <Node pos="s" depth="0" NCoef="0" IVar="1" Cut="1.8238563537597656e+01" cType="1" res="-3.4813492675311863e-04" rms="1.1874333769083023e-01" purity="5.0112181901931763e-01" nType="0">
        <Node pos="l" depth="1" NCoef="0" IVar="25" Cut="1.0904354043304920e-02" cType="1" res="2.4187877774238586e-02" rms="1.2181028723716736e-01" purity="9.2263442277908325e-01" nType="0">
          <Node pos="l" depth="2" NCoef="0" IVar="-1" Cut="0.0000000000000000e+00" cType="1" res="3.1807500869035721e-02" rms="1.1256510764360428e-01" purity="9.7309333086013794e-01" nType="-99"/>
          <Node pos="r" depth="2" NCoef="0" IVar="-1" Cut="0.0000000000000000e+00" cType="1" res="-2.7668571099638939e-02" rms="2.0472861826419830e-01" purity="1.6666667163372040e-01" nType="-99"/>
        </Node>
        <Node pos="r" depth="1" NCoef="0" IVar="3" Cut="1.7633558273315430e+01" cType="1" res="-1.9018307328224182e-02" rms="1.1283583194017410e-01" purity="1.8038049340248108e-01" nType="0">
          <Node pos="l" depth="2" NCoef="0" IVar="-1" Cut="0.0000000000000000e+00" cType="1" res="1.8790086731314659e-02" rms="1.7826393246650696e-01" purity="8.2135617733001709e-01" nType="-99"/>
          <Node pos="r" depth="2" NCoef="0" IVar="-1" Cut="0.0000000000000000e+00" cType="1" res="-3.2316632568836212e-02" rms="1.0166541486978531e-01" purity="1.0944063961505890e-01" nType="-99"/>
        </Node>
      </Node>
    </BinaryTree>
    <BinaryTree type="DecisionTree" boostWeight="1.0000000000000000e+00" itree="38">
      <Node pos="s" depth="0" NCoef="0" IVar="5" Cut="2.9239933013916016e+01" cType="1" res="-1.0556382767390460e-04" rms="1.1862896382808685e-01" purity="4.9852305650711060e-01" nType="0">
        <Node pos="l" depth="1" NCoef="0" IVar="0" Cut="3.5383609771728516e+01" cType="1" res="2.2225705906748772e-02" rms="1.3102187216281891e-01" purity="8.3878231048583984e-01" nType="0">
          <Node pos="l" depth="2" NCoef="0" IVar="-1" Cut="0.0000000000000000e+00" cType="1" res="2.9219271615147591e-02" rms="1.2454496324062347e-01" purity="9.1134446859359741e-01" nType="-99"/>
          <Node pos="r" depth="2" NCoef="0" IVar="-1" Cut="0.0000000000000000e+00" cType="1" res="-4.1248314082622528e-02" rms="1.6523483395576477e-01" purity="1.4854073524475098e-01" nType="-99"/>
        </Node>
        <Node pos="r" depth="1" NCoef="0" IVar="21" Cut="1.4542717486619949e-02" cType="1" res="-1.9429100677371025e-02" rms="1.0291122645139694e-01" purity="2.0409236848354340e-01" nType="0">
          <Node pos="l" depth="2" NCoef="0" IVar="-1" Cut="0.0000000000000000e+00" cType="1" res="3.2536599785089493e-02" rms="1.2537938356399536e-01" purity="8.6078733205795288e-01" nType="-99"/>
          <Node pos="r" depth="2" NCoef="0" IVar="-1" Cut="0.0000000000000000e+00" cType="1" res="-4.1355311870574951e-02" rms="9.7226366400718689e-02" purity="1.2401104718446732e-01" nType="-99"/>
        </Node>
      </Node>
    </BinaryTree>
    <BinaryTree type="DecisionTree" boostWeight="1.0000000000000000e+00" itree="39">
      <Node pos="s" depth="0" NCoef="0" IVar="23" Cut="1.1119505390524864e-02" cType="1" res="-5.3769507212564349e-04" rms="1.1804430931806564e-01" purity="5.0022649765014648e-01" nType="0">
        <Node pos="l" depth="1" NCoef="0" IVar="24" Cut="4.6887258067727089e-03" cType="1" res="2.1947523579001427e-02" rms="1.2162813544273376e-01" purity="8.9432334899902344e-01" nType="0">
          <Node pos="l" depth="2" NCoef="0" IVar="-1" Cut="0.0000000000000000e+00" cType="1" res="4.0090534836053848e-02" rms="9.4528794288635254e-02" purity="9.6635496616363525e-01" nType="-99"/>
          <Node pos="r" depth="2" NCoef="0" IVar="-1" Cut="0.0000000000000000e+00" cType="1" res="-2.3185556754469872e-02" rms="1.7834508419036865e-01" purity="6.4687103033065796e-01" nType="-99"/>
        </Node>
        <Node pos="r" depth="1" NCoef="0" IVar="6" Cut="2.7133777618408203e+01" cType="1" res="-1.7188955098390579e-02" rms="1.1245755106210709e-01" purity="2.0838098227977753e-01" nType="0">
          <Node pos="l" depth="2" NCoef="0" IVar="-1" Cut="0.0000000000000000e+00" cType="1" res="2.1255098283290863e-02" rms="1.6498294472694397e-01" purity="8.2126027345657349e-01" nType="-99"/>
          <Node pos="r" depth="2" NCoef="0" IVar="-1" Cut="0.0000000000000000e+00" cType="1" res="-4.6162791550159454e-02" rms="9.2794217169284821e-02" purity="6.3836209475994110e-02" nType="-99"/>
        </Node>
      </Node>
    </BinaryTree>
    <BinaryTree type="DecisionTree" boostWeight="1.0000000000000000e+00" itree="40">
      <Node pos="s" depth="0" NCoef="0" IVar="4" Cut="2.6477403640747070e+01" cType="1" res="5.7670251408126205e-05" rms="1.1492387950420380e-01" purity="5.0039535760879517e-01" nType="0">
        <Node pos="l" depth="1" NCoef="0" IVar="27" Cut="1.4071389101445675e-02" cType="1" res="1.7928803339600563e-02" rms="1.3015398383140564e-01" purity="8.3782994747161865e-01" nType="0">
          <Node pos="l" depth="2" NCoef="0" IVar="-1" Cut="0.0000000000000000e+00" cType="1" res="2.4421319365501404e-02" rms="1.2793304026126862e-01" purity="9.0731942653656006e-01" nType="-99"/>
          <Node pos="r" depth="2" NCoef="0" IVar="-1" Cut="0.0000000000000000e+00" cType="1" res="-6.2948375940322876e-02" rms="1.3319556415081024e-01" purity="6.7663257941603661e-03" nType="-99"/>
        </Node>
        <Node pos="r" depth="1" NCoef="0" IVar="21" Cut="1.3459211215376854e-02" cType="1" res="-1.9707467406988144e-02" rms="9.1298788785934448e-02" purity="1.2719899415969849e-01" nType="0">
          <Node pos="l" depth="2" NCoef="0" IVar="-1" Cut="0.0000000000000000e+00" cType="1" res="2.3424515500664711e-02" rms="1.4289480447769165e-01" purity="8.1675583124160767e-01" nType="-99"/>
          <Node pos="r" depth="2" NCoef="0" IVar="-1" Cut="0.0000000000000000e+00" cType="1" res="-4.3717712163925171e-02" rms="8.4634661674499512e-02" purity="7.3080658912658691e-02" nType="-99"/>
        </Node>
      </Node>
    </BinaryTree>
    <BinaryTree type="DecisionTree" boostWeight="1.0000000000000000e+00" itree="41">
      <Node pos="s" depth="0" NCoef="0" IVar="6" Cut="3.4977684020996094e+01" cType="1" res="-5.4416846251115203e-04" rms="1.1488474160432816e-01" purity="4.9800238013267517e-01" nType="0">
        <Node pos="l" depth="1" NCoef="0" IVar="25" Cut="1.0213593021035194e-02" cType="1" res="1.7793638631701469e-02" rms="1.2550842761993408e-01" purity="7.9822206497192383e-01" nType="0">
          <Node pos="l" depth="2" NCoef="0" IVar="-1" Cut="0.0000000000000000e+00" cType="1" res="2.9949359595775604e-02" rms="1.2040669471025467e-01" purity="9.4877964258193970e-01" nType="-99"/>
          <Node pos="r" depth="2" NCoef="0" IVar="-1" Cut="0.0000000000000000e+00" cType="1" res="-2.8172738850116730e-02" rms="1.3806261122226715e-01" purity="9.7400657832622528e-02" nType="-99"/>
        </Node>
        <Node pos="r" depth="1" NCoef="0" IVar="22" Cut="1.1788996867835522e-02" cType="1" res="-1.7582919448614120e-02" rms="1.0110780596733093e-01" purity="2.1905030310153961e-01" nType="0">
          <Node pos="l" depth="2" NCoef="0" IVar="-1" Cut="0.0000000000000000e+00" cType="1" res="1.5872456133365631e-02" rms="1.3525368273258209e-01" purity="8.5084205865859985e-01" nType="-99"/>
          <Node pos="r" depth="2" NCoef="0" IVar="-1" Cut="0.0000000000000000e+00" cType="1" res="-5.7249654084444046e-02" rms="8.6281985044479370e-02" purity="3.6964427679777145e-02" nType="-99"/>
        </Node>
      </Node>
    </BinaryTree>
    <BinaryTree type="DecisionTree" boostWeight="1.0000000000000000e+00" itree="42">
      <Node pos="s" depth="0" NCoef="0" IVar="1" Cut="1.5065958023071289e+01" cType="1" res="3.8852507714182138e-05" rms="1.1146768927574158e-01" purity="4.9732673168182373e-01" nType="0">
        <Node pos="l" depth="1" NCoef="0" IVar="8" Cut="3.0988683700561523e+01" cType="1" res="2.4040874093770981e-02" rms="9.9019318819046021e-02" purity="9.6514242887496948e-01" nType="0">
          <Node pos="l" depth="2" NCoef="0" IVar="-1" Cut="0.0000000000000000e+00" cType="1" res="4.4259805232286453e-02" rms="1.2143440544605255e-01" purity="9.7276926040649414e-01" nType="-99"/>
          <Node pos="r" depth="2" NCoef="0" IVar="-1" Cut="0.0000000000000000e+00" cType="1" res="3.0168652534484863e-02" rms="9.4741895794868469e-02" purity="9.6396160125732422e-01" nType="-99"/>
        </Node>
        <Node pos="r" depth="1" NCoef="0" IVar="2" Cut="1.5787036895751953e+01" cType="1" res="-1.0785667225718498e-02" rms="1.1502061784267426e-01" purity="2.8634947538375854e-01" nType="0">
          <Node pos="l" depth="2" NCoef="0" IVar="-1" Cut="0.0000000000000000e+00" cType="1" res="1.9580772146582603e-02" rms="1.3970614969730377e-01" purity="9.0399336814880371e-01" nType="-99"/>
          <Node pos="r" depth="2" NCoef="0" IVar="-1" Cut="0.0000000000000000e+00" cType="1" res="-2.6247523725032806e-02" rms="1.0765843838453293e-01" purity="1.5093055367469788e-01" nType="-99"/>
        </Node>
      </Node>
    </BinaryTree>
    <BinaryTree type="DecisionTree" boostWeight="1.0000000000000000e+00" itree="43">
      <Node pos="s" depth="0" NCoef="0" IVar="0" Cut="2.4931062698364258e+01" cType="1" res="1.6944119124673307e-04" rms="1.1281209439039230e-01" purity="5.0041860342025757e-01" nType="0">
        <Node pos="l" depth="1" NCoef="0" IVar="5" Cut="3.5418178558349609e+01" cType="1" res="1.6557432711124420e-02" rms="1.1699458956718445e-01" purity="8.7324982881546021e-01" nType="0">
          <Node pos="l" depth="2" NCoef="0" IVar="-1" Cut="0.0000000000000000e+00" cType="1" res="2.7338117361068726e-02" rms="1.1178835481405258e-01" purity="9.3512117862701416e-01" nType="-99"/>
          <Node pos="r" depth="2" NCoef="0" IVar="-1" Cut="0.0000000000000000e+00" cType="1" res="-2.5890173390507698e-02" rms="1.4596335589885712e-01" purity="3.7160646915435791e-01" nType="-99"/>
        </Node>
        <Node pos="r" depth="1" NCoef="0" IVar="16" Cut="2.5252690911293030e-01" cType="1" res="-1.4211171306669712e-02" rms="1.0696104913949966e-01" purity="1.7325574159622192e-01" nType="0">
          <Node pos="l" depth="2" NCoef="0" IVar="-1" Cut="0.0000000000000000e+00" cType="1" res="-2.9037933796644211e-02" rms="1.0027147084474564e-01" purity="1.2621232867240906e-01" nType="-99"/>
          <Node pos="r" depth="2" NCoef="0" IVar="-1" Cut="0.0000000000000000e+00" cType="1" res="1.5305921435356140e-02" rms="1.6522829234600067e-01" purity="7.5647002458572388e-01" nType="-99"/>
        </Node>
      </Node>
    </BinaryTree>
    <BinaryTree type="DecisionTree" boostWeight="1.0000000000000000e+00" itree="44">
      <Node pos="s" depth="0" NCoef="0" IVar="5" Cut="2.7909276962280273e+01" cType="1" res="-3.2004056265577674e-04" rms="1.1346329748630524e-01" purity="5.0146025419235229e-01" nType="0">
        <Node pos="l" depth="1" NCoef="0" IVar="0" Cut="3.4236560821533203e+01" cType="1" res="1.7921630293130875e-02" rms="1.2649428844451904e-01" purity="8.6155825853347778e-01" nType="0">
          <Node pos="l" depth="2" NCoef="0" IVar="-1" Cut="0.0000000000000000e+00" cType="1" res="2.8120314702391624e-02" rms="1.1907193809747696e-01" purity="9.2872554063796997e-01" nType="-99"/>
          <Node pos="r" depth="2" NCoef="0" IVar="-1" Cut="0.0000000000000000e+00" cType="1" res="-3.3479042351245880e-02" rms="1.7370432615280151e-01" purity="2.1036028861999512e-01" nType="-99"/>
        </Node>
        <Node pos="r" depth="1" NCoef="0" IVar="22" Cut="1.2224207632243633e-02" cType="1" res="-1.2989845126867294e-02" rms="1.0154058784246445e-01" purity="2.5135314464569092e-01" nType="0">
          <Node pos="l" depth="2" NCoef="0" IVar="-1" Cut="0.0000000000000000e+00" cType="1" res="1.5880867838859558e-02" rms="1.3397988677024841e-01" purity="8.5680001974105835e-01" nType="-99"/>
          <Node pos="r" depth="2" NCoef="0" IVar="-1" Cut="0.0000000000000000e+00" cType="1" res="-4.6358194202184677e-02" rms="8.7410360574722290e-02" purity="6.6772654652595520e-02" nType="-99"/>
        </Node>
      </Node>
    </BinaryTree>
    <BinaryTree type="DecisionTree" boostWeight="1.0000000000000000e+00" itree="45">
      <Node pos="s" depth="0" NCoef="0" IVar="23" Cut="1.1119505390524864e-02" cType="1" res="-3.5838031908497214e-04" rms="1.1084422469139099e-01" purity="4.9992018938064575e-01" nType="0">
        <Node pos="l" depth="1" NCoef="0" IVar="24" Cut="4.6821264550089836e-03" cType="1" res="1.6278848052024841e-02" rms="1.1620663106441498e-01" purity="8.9748489856719971e-01" nType="0">
          <Node pos="l" depth="2" NCoef="0" IVar="-1" Cut="0.0000000000000000e+00" cType="1" res="3.6376457661390305e-02" rms="9.3782052397727966e-02" purity="9.6596872806549072e-01" nType="-99"/>
          <Node pos="r" depth="2" NCoef="0" IVar="-1" Cut="0.0000000000000000e+00" cType="1" res="-2.1154383197426796e-02" rms="1.6752153635025024e-01" purity="6.5874409675598145e-01" nType="-99"/>
        </Node>
        <Node pos="r" depth="1" NCoef="0" IVar="7" Cut="2.8996616363525391e+01" cType="1" res="-1.2618916109204292e-02" rms="1.0504710674285889e-01" purity="2.0694130659103394e-01" nType="0">
          <Node pos="l" depth="2" NCoef="0" IVar="-1" Cut="0.0000000000000000e+00" cType="1" res="2.4549342691898346e-02" rms="1.5044125914573669e-01" purity="7.9169368743896484e-01" nType="-99"/>
          <Node pos="r" depth="2" NCoef="0" IVar="-1" Cut="0.0000000000000000e+00" cType="1" res="-4.0507826954126358e-02" rms="9.2632323503494263e-02" purity="1.0063313692808151e-01" nType="-99"/>
        </Node>
      </Node>
    </BinaryTree>
    <BinaryTree type="DecisionTree" boostWeight="1.0000000000000000e+00" itree="46">
      <Node pos="s" depth="0" NCoef="0" IVar="4" Cut="2.2625762939453125e+01" cType="1" res="-5.3793723054695874e-05" rms="1.0957422107458115e-01" purity="4.9823015928268433e-01" nType="0">
        <Node pos="l" depth="1" NCoef="0" IVar="0" Cut="3.2836025238037109e+01" cType="1" res="1.8856817856431007e-02" rms="1.2144766002893448e-01" purity="9.0302610397338867e-01" nType="0">
          <Node pos="l" depth="2" NCoef="0" IVar="-1" Cut="0.0000000000000000e+00" cType="1" res="2.8689322993159294e-02" rms="1.1280138790607452e-01" purity="9.4646054506301880e-01" nType="-99"/>
          <Node pos="r" depth="2" NCoef="0" IVar="-1" Cut="0.0000000000000000e+00" cType="1" res="-2.0264871418476105e-02" rms="1.9536590576171875e-01" purity="3.4768378734588623e-01" nType="-99"/>
        </Node>
        <Node pos="r" depth="1" NCoef="0" IVar="22" Cut="1.1560633778572083e-02" cType="1" res="-1.0258464142680168e-02" rms="1.0113944858312607e-01" purity="2.7979147434234619e-01" nType="0">
          <Node pos="l" depth="2" NCoef="0" IVar="-1" Cut="0.0000000000000000e+00" cType="1" res="1.3489252887666225e-02" rms="1.3312120735645294e-01" purity="8.6878824234008789e-01" nType="-99"/>
          <Node pos="r" depth="2" NCoef="0" IVar="-1" Cut="0.0000000000000000e+00" cType="1" res="-3.4206286072731018e-02" rms="9.0402342379093170e-02" purity="1.3135588169097900e-01" nType="-99"/>
        </Node>
      </Node>
    </BinaryTree>
    <BinaryTree type="DecisionTree" boostWeight="1.0000000000000000e+00" itree="47">
      <Node pos="s" depth="0" NCoef="0" IVar="6" Cut="3.1458892822265625e+01" cType="1" res="-1.7801560170482844e-04" rms="1.1091573536396027e-01" purity="5.0092792510986328e-01" nType="0">
        <Node pos="l" depth="1" NCoef="0" IVar="1" Cut="2.7202739715576172e+01" cType="1" res="1.7260299995541573e-02" rms="1.2804947793483734e-01" purity="8.4590989351272583e-01" nType="0">
          <Node pos="l" depth="2" NCoef="0" IVar="-1" Cut="0.0000000000000000e+00" cType="1" res="2.6155618950724602e-02" rms="1.2521336972713470e-01" purity="9.1308641433715820e-01" nType="-99"/>
          <Node pos="r" depth="2" NCoef="0" IVar="-1" Cut="0.0000000000000000e+00" cType="1" res="-4.3869223445653915e-02" rms="1.4574554562568665e-01" purity="7.4716478586196899e-02" nType="-99"/>
        </Node>
        <Node pos="r" depth="1" NCoef="0" IVar="22" Cut="1.1368970386683941e-02" cType="1" res="-9.8990136757493019e-03" rms="9.8771847784519196e-02" purity="3.0861756205558777e-01" nType="0">
          <Node pos="l" depth="2" NCoef="0" IVar="-1" Cut="0.0000000000000000e+00" cType="1" res="1.8657347187399864e-02" rms="1.1460812389850616e-01" purity="8.9567428827285767e-01" nType="-99"/>
          <Node pos="r" depth="2" NCoef="0" IVar="-1" Cut="0.0000000000000000e+00" cType="1" res="-4.2255934327840805e-02" rms="9.1448001563549042e-02" purity="1.1716434359550476e-01" nType="-99"/>
        </Node>
      </Node>
    </BinaryTree>
    <BinaryTree type="DecisionTree" boostWeight="1.0000000000000000e+00" itree="48">
      <Node pos="s" depth="0" NCoef="0" IVar="5" Cut="3.2468818664550781e+01" cType="1" res="-1.4975947851780802e-04" rms="1.0847265273332596e-01" purity="4.9964246153831482e-01" nType="0">
        <Node pos="l" depth="1" NCoef="0" IVar="24" Cut="9.3398625031113625e-03" cType="1" res="1.0428984649479389e-02" rms="1.2254040688276291e-01" purity="7.8370505571365356e-01" nType="0">
          <Node pos="l" depth="2" NCoef="0" IVar="-1" Cut="0.0000000000000000e+00" cType="1" res="2.9484923928976059e-02" rms="1.0946702957153320e-01" purity="9.6673816442489624e-01" nType="-99"/>
          <Node pos="r" depth="2" NCoef="0" IVar="-1" Cut="0.0000000000000000e+00" cType="1" res="-1.9395384937524796e-02" rms="1.4876399934291840e-01" purity="2.8706493973731995e-01" nType="-99"/>
        </Node>
        <Node pos="r" depth="1" NCoef="0" IVar="21" Cut="1.4542717486619949e-02" cType="1" res="-1.4418579638004303e-02" rms="8.3835132420063019e-02" purity="1.1649321019649506e-01" nType="0">
          <Node pos="l" depth="2" NCoef="0" IVar="-1" Cut="0.0000000000000000e+00" cType="1" res="1.4351530000567436e-02" rms="1.3738657534122467e-01" purity="8.0694442987442017e-01" nType="-99"/>
          <Node pos="r" depth="2" NCoef="0" IVar="-1" Cut="0.0000000000000000e+00" cType="1" res="-4.9564268440008163e-02" rms="7.5111225247383118e-02" purity="4.2174678295850754e-02" nType="-99"/>
        </Node>
      </Node>
    </BinaryTree>
    <BinaryTree type="DecisionTree" boostWeight="1.0000000000000000e+00" itree="49">
      <Node pos="s" depth="0" NCoef="0" IVar="7" Cut="3.5800979614257812e+01" cType="1" res="7.4520602356642485e-04" rms="1.0482157766819000e-01" purity="5.0111448764801025e-01" nType="0">
        <Node pos="l" depth="1" NCoef="0" IVar="27" Cut="1.5340630896389484e-02" cType="1" res="1.6789091750979424e-02" rms="1.1653484404087067e-01" purity="7.9486095905303955e-01" nType="0">
          <Node pos="l" depth="2" NCoef="0" IVar="-1" Cut="0.0000000000000000e+00" cType="1" res="2.8310399502515793e-02" rms="1.1578380316495895e-01" purity="8.9461719989776611e-01" nType="-99"/>
          <Node pos="r" depth="2" NCoef="0" IVar="-1" Cut="0.0000000000000000e+00" cType="1" res="-5.4748386144638062e-02" rms="1.1150633543729782e-01" purity="7.1789850480854511e-03" nType="-99"/>
        </Node>
        <Node pos="r" depth="1" NCoef="0" IVar="22" Cut="1.1147580109536648e-02" cType="1" res="-7.7895349822938442e-03" rms="9.6945941448211670e-02" purity="3.4485247731208801e-01" nType="0">
          <Node pos="l" depth="2" NCoef="0" IVar="-1" Cut="0.0000000000000000e+00" cType="1" res="1.9752129912376404e-02" rms="1.0863272845745087e-01" purity="9.0700602531433105e-01" nType="-99"/>
          <Node pos="r" depth="2" NCoef="0" IVar="-1" Cut="0.0000000000000000e+00" cType="1" res="-3.7033013999462128e-02" rms="9.1444447636604309e-02" purity="1.5944209694862366e-01" nType="-99"/>
        </Node>
      </Node>
    </BinaryTree>
    <BinaryTree type="DecisionTree" boostWeight="1.0000000000000000e+00" itree="50">
      <Node pos="s" depth="0" NCoef="0" IVar="1" Cut="1.5545789718627930e+01" cType="1" res="1.1471808102214709e-04" rms="1.0698114335536957e-01" purity="4.9951410293579102e-01" nType="0">
        <Node pos="l" depth="1" NCoef="0" IVar="24" Cut="9.2687215656042099e-03" cType="1" res="1.5812056139111519e-02" rms="9.9443547427654266e-02" purity="9.6040475368499756e-01" nType="0">
          <Node pos="l" depth="2" NCoef="0" IVar="-1" Cut="0.0000000000000000e+00" cType="1" res="3.5434298217296600e-02" rms="7.9263620078563690e-02" purity="9.8967188596725464e-01" nType="-99"/>
          <Node pos="r" depth="2" NCoef="0" IVar="-1" Cut="0.0000000000000000e+00" cType="1" res="-2.5045792572200298e-03" rms="1.9861178100109100e-01" purity="7.1726721525192261e-01" nType="-99"/>
        </Node>
        <Node pos="r" depth="1" NCoef="0" IVar="3" Cut="1.7400711059570312e+01" cType="1" res="-7.7432878315448761e-03" rms="1.0972131043672562e-01" purity="2.6879462599754333e-01" nType="0">
          <Node pos="l" depth="2" NCoef="0" IVar="-1" Cut="0.0000000000000000e+00" cType="1" res="1.6604222357273102e-02" rms="1.4820133149623871e-01" purity="8.7120890617370605e-01" nType="-99"/>
          <Node pos="r" depth="2" NCoef="0" IVar="-1" Cut="0.0000000000000000e+00" cType="1" res="-2.2060807794332504e-02" rms="1.0181760787963867e-01" purity="1.7395117878913879e-01" nType="-99"/>
        </Node>
      </Node>
    </BinaryTree>
    <BinaryTree type="DecisionTree" boostWeight="1.0000000000000000e+00" itree="51">
      <Node pos="s" depth="0" NCoef="0" IVar="0" Cut="1.9591106414794922e+01" cType="1" res="-1.2840247654821724e-04" rms="1.0679662972688675e-01" purity="4.9912208318710327e-01" nType="0">
        <Node pos="l" depth="1" NCoef="0" IVar="7" Cut="3.9696441650390625e+01" cType="1" res="1.6945570707321167e-02" rms="9.9845245480537415e-02" purity="9.3724131584167480e-01" nType="0">
          <Node pos="l" depth="2" NCoef="0" IVar="-1" Cut="0.0000000000000000e+00" cType="1" res="3.5624630749225616e-02" rms="9.2093534767627716e-02" purity="9.6901267766952515e-01" nType="-99"/>
          <Node pos="r" depth="2" NCoef="0" IVar="-1" Cut="0.0000000000000000e+00" cType="1" res="7.9573160037398338e-03" rms="1.1581205576658249e-01" purity="8.5961687564849854e-01" nType="-99"/>
        </Node>
        <Node pos="r" depth="1" NCoef="0" IVar="23" Cut="1.0788262821733952e-02" cType="1" res="-7.0327916182577610e-03" rms="1.0872367024421692e-01" purity="3.2195502519607544e-01" nType="0">
          <Node pos="l" depth="2" NCoef="0" IVar="-1" Cut="0.0000000000000000e+00" cType="1" res="7.9386783763766289e-03" rms="1.3710394501686096e-01" purity="8.1693923473358154e-01" nType="-99"/>
          <Node pos="r" depth="2" NCoef="0" IVar="-1" Cut="0.0000000000000000e+00" cType="1" res="-3.0150040984153748e-02" rms="9.3464203178882599e-02" purity="1.1157279461622238e-01" nType="-99"/>
        </Node>
      </Node>
    </BinaryTree>
    <BinaryTree type="DecisionTree" boostWeight="1.0000000000000000e+00" itree="52">
      <Node pos="s" depth="0" NCoef="0" IVar="6" Cut="3.6565914154052734e+01" cType="1" res="1.9704722217284143e-04" rms="1.0539308190345764e-01" purity="5.0129765272140503e-01" nType="0">
        <Node pos="l" depth="1" NCoef="0" IVar="27" Cut="1.4851498417556286e-02" cType="1" res="1.0285953991115093e-02" rms="1.1744939535856247e-01" purity="7.7595072984695435e-01" nType="0">
          <Node pos="l" depth="2" NCoef="0" IVar="-1" Cut="0.0000000000000000e+00" cType="1" res="2.0462397485971451e-02" rms="1.1860352009534836e-01" purity="8.7357306480407715e-01" nType="-99"/>
          <Node pos="r" depth="2" NCoef="0" IVar="-1" Cut="0.0000000000000000e+00" cType="1" res="-5.9470362961292267e-02" rms="1.0039579868316650e-01" purity="4.7684647142887115e-03" nType="-99"/>
        </Node>
        <Node pos="r" depth="1" NCoef="0" IVar="21" Cut="1.3750556856393814e-02" cType="1" res="-1.1436785571277142e-02" rms="8.8073335587978363e-02" purity="1.8458665907382965e-01" nType="0">
          <Node pos="l" depth="2" NCoef="0" IVar="-1" Cut="0.0000000000000000e+00" cType="1" res="1.6788028180599213e-02" rms="1.2705975770950317e-01" purity="8.6445546150207520e-01" nType="-99"/>
          <Node pos="r" depth="2" NCoef="0" IVar="-1" Cut="0.0000000000000000e+00" cType="1" res="-4.2332332581281662e-02" rms="8.1673972308635712e-02" purity="1.0470272600650787e-01" nType="-99"/>
        </Node>
      </Node>
    </BinaryTree>
    <BinaryTree type="DecisionTree" boostWeight="1.0000000000000000e+00" itree="53">
      <Node pos="s" depth="0" NCoef="0" IVar="2" Cut="1.6000736236572266e+01" cType="1" res="-3.6442383134271950e-05" rms="1.0399025678634644e-01" purity="4.9961560964584351e-01" nType="0">
        <Node pos="l" depth="1" NCoef="0" IVar="8" Cut="5.1609100341796875e+01" cType="1" res="1.4564123004674911e-02" rms="1.0778022557497025e-01" purity="9.5014131069183350e-01" nType="0">
          <Node pos="l" depth="2" NCoef="0" IVar="-1" Cut="0.0000000000000000e+00" cType="1" res="2.7760811150074005e-02" rms="1.0301046818494797e-01" purity="9.5821869373321533e-01" nType="-99"/>
          <Node pos="r" depth="2" NCoef="0" IVar="-1" Cut="0.0000000000000000e+00" cType="1" res="-6.5812346292659640e-04" rms="1.3212053477764130e-01" purity="9.0112709999084473e-01" nType="-99"/>
        </Node>
        <Node pos="r" depth="1" NCoef="0" IVar="3" Cut="1.7633558273315430e+01" cType="1" res="-6.8251723423600197e-03" rms="1.0146716237068176e-01" purity="2.9013758897781372e-01" nType="0">
          <Node pos="l" depth="2" NCoef="0" IVar="-1" Cut="0.0000000000000000e+00" cType="1" res="1.7229644581675529e-02" rms="1.2999315559864044e-01" purity="8.8380891084671021e-01" nType="-99"/>
          <Node pos="r" depth="2" NCoef="0" IVar="-1" Cut="0.0000000000000000e+00" cType="1" res="-2.2719059139490128e-02" rms="9.5001123845577240e-02" purity="1.8430539965629578e-01" nType="-99"/>
        </Node>
      </Node>
    </BinaryTree>
    <BinaryTree type="DecisionTree" boostWeight="1.0000000000000000e+00" itree="54">
      <Node pos="s" depth="0" NCoef="0" IVar="0" Cut="3.3704013824462891e+01" cType="1" res="-1.8561095203040168e-05" rms="1.0483146458864212e-01" purity="5.0125324726104736e-01" nType="0">
        <Node pos="l" depth="1" NCoef="0" IVar="27" Cut="1.6546810045838356e-02" cType="1" res="6.7864442244172096e-03" rms="1.1567762494087219e-01" purity="7.3747813701629639e-01" nType="0">
          <Node pos="l" depth="2" NCoef="0" IVar="-1" Cut="0.0000000000000000e+00" cType="1" res="1.5534804202616215e-02" rms="1.1664733290672302e-01" purity="8.2600349187850952e-01" nType="-99"/>
          <Node pos="r" depth="2" NCoef="0" IVar="-1" Cut="0.0000000000000000e+00" cType="1" res="-6.2866710126399994e-02" rms="1.0194882005453110e-01" purity="3.6643131170421839e-03" nType="-99"/>
        </Node>
        <Node pos="r" depth="1" NCoef="0" IVar="24" Cut="1.1152218095958233e-02" cType="1" res="-1.3400936499238014e-02" rms="7.7563732862472534e-02" purity="3.6705579608678818e-02" nType="0">
          <Node pos="l" depth="2" NCoef="0" IVar="-1" Cut="0.0000000000000000e+00" cType="1" res="-3.6652516573667526e-02" rms="1.6856813430786133e-01" purity="1.9773824512958527e-01" nType="-99"/>
          <Node pos="r" depth="2" NCoef="0" IVar="-1" Cut="0.0000000000000000e+00" cType="1" res="-4.7313146293163300e-02" rms="3.4621853381395340e-02" purity="3.1775059178471565e-03" nType="-99"/>
        </Node>
      </Node>
    </BinaryTree>
    <BinaryTree type="DecisionTree" boostWeight="1.0000000000000000e+00" itree="55">
      <Node pos="s" depth="0" NCoef="0" IVar="23" Cut="1.0793790221214294e-02" cType="1" res="6.5281565184704959e-05" rms="1.0430255532264709e-01" purity="5.0043570995330811e-01" nType="0">
        <Node pos="l" depth="1" NCoef="0" IVar="5" Cut="4.2698825836181641e+01" cType="1" res="1.0932306759059429e-02" rms="1.0961371660232544e-01" purity="9.0258109569549561e-01" nType="0">
          <Node pos="l" depth="2" NCoef="0" IVar="-1" Cut="0.0000000000000000e+00" cType="1" res="2.5045925751328468e-02" rms="1.0461204499006271e-01" purity="9.5177024602890015e-01" nType="-99"/>
          <Node pos="r" depth="2" NCoef="0" IVar="-1" Cut="0.0000000000000000e+00" cType="1" res="-4.5988403260707855e-02" rms="1.5544922649860382e-01" purity="1.4011128246784210e-01" nType="-99"/>
        </Node>
        <Node pos="r" depth="1" NCoef="0" IVar="8" Cut="3.6586193084716797e+01" cType="1" res="-7.6432563364505768e-03" rms="9.9648922681808472e-02" purity="2.1517336368560791e-01" nType="0">
          <Node pos="l" depth="2" NCoef="0" IVar="-1" Cut="0.0000000000000000e+00" cType="1" res="1.7117744311690331e-02" rms="1.3443702459335327e-01" purity="6.5759110450744629e-01" nType="-99"/>
          <Node pos="r" depth="2" NCoef="0" IVar="-1" Cut="0.0000000000000000e+00" cType="1" res="-4.5950740575790405e-02" rms="8.3840996026992798e-02" purity="6.8659089505672455e-02" nType="-99"/>
        </Node>
      </Node>
    </BinaryTree>
    <BinaryTree type="DecisionTree" boostWeight="1.0000000000000000e+00" itree="56">
      <Node pos="s" depth="0" NCoef="0" IVar="0" Cut="2.0458482742309570e+01" cType="1" res="3.0989441438578069e-04" rms="1.0282456129789352e-01" purity="5.0124228000640869e-01" nType="0">
        <Node pos="l" depth="1" NCoef="0" IVar="6" Cut="4.0627948760986328e+01" cType="1" res="1.3456513173878193e-02" rms="9.6152372658252716e-02" purity="9.3109619617462158e-01" nType="0">
          <Node pos="l" depth="2" NCoef="0" IVar="-1" Cut="0.0000000000000000e+00" cType="1" res="2.9228670522570610e-02" rms="9.1703489422798157e-02" purity="9.6103388071060181e-01" nType="-99"/>
          <Node pos="r" depth="2" NCoef="0" IVar="-1" Cut="0.0000000000000000e+00" cType="1" res="-1.2375934049487114e-02" rms="1.3373029232025146e-01" purity="6.0119473934173584e-01" nType="-99"/>
        </Node>
        <Node pos="r" depth="1" NCoef="0" IVar="23" Cut="1.1800106614828110e-02" cType="1" res="-5.9368107467889786e-03" rms="1.0527379065752029e-01" purity="2.9699426889419556e-01" nType="0">
          <Node pos="l" depth="2" NCoef="0" IVar="-1" Cut="0.0000000000000000e+00" cType="1" res="5.6644496507942677e-03" rms="1.3892526924610138e-01" purity="7.8115153312683105e-01" nType="-99"/>
          <Node pos="r" depth="2" NCoef="0" IVar="-1" Cut="0.0000000000000000e+00" cType="1" res="-3.0380878597497940e-02" rms="8.6273856461048126e-02" purity="8.6820468306541443e-02" nType="-99"/>
        </Node>
      </Node>
    </BinaryTree>
    <BinaryTree type="DecisionTree" boostWeight="1.0000000000000000e+00" itree="57">
      <Node pos="s" depth="0" NCoef="0" IVar="7" Cut="4.0614475250244141e+01" cType="1" res="-1.4284513599704951e-04" rms="1.0307436436414719e-01" purity="4.9949544668197632e-01" nType="0">
        <Node pos="l" depth="1" NCoef="0" IVar="25" Cut="1.1889505200088024e-02" cType="1" res="8.3763441070914268e-03" rms="1.1243455857038498e-01" purity="7.4134767055511475e-01" nType="0">
          <Node pos="l" depth="2" NCoef="0" IVar="-1" Cut="0.0000000000000000e+00" cType="1" res="2.1533478051424026e-02" rms="1.1422594636678696e-01" purity="9.3064713478088379e-01" nType="-99"/>
          <Node pos="r" depth="2" NCoef="0" IVar="-1" Cut="0.0000000000000000e+00" cType="1" res="-2.0988337695598602e-02" rms="1.0348825156688690e-01" purity="5.7082328945398331e-02" nType="-99"/>
        </Node>
        <Node pos="r" depth="1" NCoef="0" IVar="22" Cut="1.0298282839357853e-02" cType="1" res="-8.6910296231508255e-03" rms="9.1947585344314575e-02" purity="2.5682005286216736e-01" nType="0">
          <Node pos="l" depth="2" NCoef="0" IVar="-1" Cut="0.0000000000000000e+00" cType="1" res="1.8115710467100143e-02" rms="1.1424048990011215e-01" purity="8.9219439029693604e-01" nType="-99"/>
          <Node pos="r" depth="2" NCoef="0" IVar="-1" Cut="0.0000000000000000e+00" cType="1" res="-5.0720855593681335e-02" rms="8.3611987531185150e-02" purity="8.0520458519458771e-02" nType="-99"/>
        </Node>
      </Node>
    </BinaryTree>
    <BinaryTree type="DecisionTree" boostWeight="1.0000000000000000e+00" itree="58">
      <Node pos="s" depth="0" NCoef="0" IVar="3" Cut="2.0289125442504883e+01" cType="1" res="-1.2050542864017189e-04" rms="1.0192284733057022e-01" purity="4.9862837791442871e-01" nType="0">
        <Node pos="l" depth="1" NCoef="0" IVar="24" Cut="9.3886228278279305e-03" cType="1" res="9.3551883473992348e-03" rms="1.1468970030546188e-01" purity="9.0082734823226929e-01" nType="0">
          <Node pos="l" depth="2" NCoef="0" IVar="-1" Cut="0.0000000000000000e+00" cType="1" res="2.8373636305332184e-02" rms="9.6439734101295471e-02" purity="9.7997021675109863e-01" nType="-99"/>
          <Node pos="r" depth="2" NCoef="0" IVar="-1" Cut="0.0000000000000000e+00" cType="1" res="-1.5353659167885780e-02" rms="1.7775034904479980e-01" purity="5.0555241107940674e-01" nType="-99"/>
        </Node>
        <Node pos="r" depth="1" NCoef="0" IVar="4" Cut="1.8498218536376953e+01" cType="1" res="-6.6323871724307537e-03" rms="9.1562427580356598e-02" purity="2.2222942113876343e-01" nType="0">
          <Node pos="l" depth="2" NCoef="0" IVar="-1" Cut="0.0000000000000000e+00" cType="1" res="2.4749772623181343e-02" rms="1.3246430456638336e-01" purity="8.7521159648895264e-01" nType="-99"/>
          <Node pos="r" depth="2" NCoef="0" IVar="-1" Cut="0.0000000000000000e+00" cType="1" res="-2.0658725872635841e-02" rms="8.8968954980373383e-02" purity="1.9173827767372131e-01" nType="-99"/>
        </Node>
      </Node>
    </BinaryTree>
    <BinaryTree type="DecisionTree" boostWeight="1.0000000000000000e+00" itree="59">
      <Node pos="s" depth="0" NCoef="0" IVar="0" Cut="3.3704013824462891e+01" cType="1" res="6.0668605146929622e-04" rms="1.0157795995473862e-01" purity="5.0191390514373779e-01" nType="0">
        <Node pos="l" depth="1" NCoef="0" IVar="1" Cut="2.8063348770141602e+01" cType="1" res="6.2783635221421719e-03" rms="1.1168881505727768e-01" purity="7.3888754844665527e-01" nType="0">
          <Node pos="l" depth="2" NCoef="0" IVar="-1" Cut="0.0000000000000000e+00" cType="1" res="1.5569864772260189e-02" rms="1.1393528431653976e-01" purity="8.3339887857437134e-01" nType="-99"/>
          <Node pos="r" depth="2" NCoef="0" IVar="-1" Cut="0.0000000000000000e+00" cType="1" res="-4.8675384372472763e-02" rms="8.9165441691875458e-02" purity="2.4845233187079430e-02" nType="-99"/>
        </Node>
        <Node pos="r" depth="1" NCoef="0" IVar="24" Cut="1.1007332243025303e-02" cType="1" res="-1.0518237948417664e-02" rms="7.6822198927402496e-02" purity="3.7093110382556915e-02" nType="0">
          <Node pos="l" depth="2" NCoef="0" IVar="-1" Cut="0.0000000000000000e+00" cType="1" res="-3.2106071710586548e-02" rms="1.6668990254402161e-01" purity="2.0028722286224365e-01" nType="-99"/>
