<?xml version="1.0"?>
<MethodSetup Method="BDT::BDTG">
  <GeneralInfo>
    <Info name="TMVA Release" value="4.2.1 [262657]"/>
    <Info name="ROOT Release" value="6.22/07 [398855]"/>
    <Info name="Creator" value="ecatanzaniherd"/>
    <Info name="Date" value="Mon Apr 25 15:59:46 2022"/>
    <Info name="Host" value="Linux ui-tier1.cr.cnaf.infn.it 3.10.0-1127.19.1.el7.x86_64 #1 SMP Tue Aug 25 17:23:54 UTC 2020 x86_64 x86_64 x86_64 GNU/Linux"/>
    <Info name="Dir" value="/storage/gpfs_data/herd/ecatanzaniherd/eFlux/Classifier/Train"/>
    <Info name="Training events" value="89658"/>
    <Info name="TrainingTime" value="1.30338091e+02"/>
    <Info name="AnalysisType" value="Classification"/>
  </GeneralInfo>
  <Options>
    <Option name="V" modified="Yes">False</Option>
    <Option name="VerbosityLevel" modified="No">Default</Option>
    <Option name="VarTransform" modified="No">None</Option>
    <Option name="H" modified="Yes">False</Option>
    <Option name="CreateMVAPdfs" modified="No">False</Option>
    <Option name="IgnoreNegWeightsInTraining" modified="No">False</Option>
    <Option name="NTrees" modified="Yes">1000</Option>
    <Option name="MaxDepth" modified="Yes">2</Option>
    <Option name="MinNodeSize" modified="Yes">2.5%</Option>
    <Option name="nCuts" modified="Yes">20</Option>
    <Option name="BoostType" modified="Yes">Grad</Option>
    <Option name="AdaBoostR2Loss" modified="No">quadratic</Option>
    <Option name="UseBaggedBoost" modified="Yes">True</Option>
    <Option name="Shrinkage" modified="Yes">1.000000e-01</Option>
    <Option name="AdaBoostBeta" modified="No">5.000000e-01</Option>
    <Option name="UseRandomisedTrees" modified="No">False</Option>
    <Option name="UseNvars" modified="No">6</Option>
    <Option name="UsePoissonNvars" modified="No">True</Option>
    <Option name="BaggedSampleFraction" modified="Yes">5.000000e-01</Option>
    <Option name="UseYesNoLeaf" modified="No">True</Option>
    <Option name="NegWeightTreatment" modified="No">pray</Option>
    <Option name="Css" modified="No">1.000000e+00</Option>
    <Option name="Cts_sb" modified="No">1.000000e+00</Option>
    <Option name="Ctb_ss" modified="No">1.000000e+00</Option>
    <Option name="Cbb" modified="No">1.000000e+00</Option>
    <Option name="NodePurityLimit" modified="No">5.000000e-01</Option>
    <Option name="SeparationType" modified="No">giniindex</Option>
    <Option name="RegressionLossFunctionBDTG" modified="No">huber</Option>
    <Option name="HuberQuantile" modified="No">7.000000e-01</Option>
    <Option name="DoBoostMonitor" modified="No">False</Option>
    <Option name="UseFisherCuts" modified="No">False</Option>
    <Option name="MinLinCorrForFisher" modified="No">8.000000e-01</Option>
    <Option name="UseExclusiveVars" modified="No">False</Option>
    <Option name="DoPreselection" modified="No">False</Option>
    <Option name="SigToBkgFraction" modified="No">1.000000e+00</Option>
    <Option name="PruneMethod" modified="No">nopruning</Option>
    <Option name="PruneStrength" modified="No">0.000000e+00</Option>
    <Option name="PruningValFraction" modified="No">5.000000e-01</Option>
    <Option name="SkipNormalization" modified="No">False</Option>
    <Option name="nEventsMin" modified="No">0</Option>
    <Option name="UseBaggedGrad" modified="No">False</Option>
    <Option name="GradBaggingFraction" modified="No">5.000000e-01</Option>
    <Option name="UseNTrainEvents" modified="No">0</Option>
    <Option name="NNodesMax" modified="No">0</Option>
  </Options>
  <Variables NVar="31">
    <Variable VarIndex="0" Expression="rmslayer_1" Label="rmslayer_1" Title="rmslayer_1" Unit="units" Internal="rmslayer_1" Type="D" Min="1.55942926e+01" Max="2.87808472e+02"/>
    <Variable VarIndex="1" Expression="rmslayer_2" Label="rmslayer_2" Title="rmslayer_2" Unit="units" Internal="rmslayer_2" Type="D" Min="9.68939304e+00" Max="2.08562424e+02"/>
    <Variable VarIndex="2" Expression="rmslayer_3" Label="rmslayer_3" Title="rmslayer_3" Unit="units" Internal="rmslayer_3" Type="D" Min="8.64291859e+00" Max="2.61311768e+02"/>
    <Variable VarIndex="3" Expression="rmslayer_4" Label="rmslayer_4" Title="rmslayer_4" Unit="units" Internal="rmslayer_4" Type="D" Min="8.27964687e+00" Max="2.00870377e+02"/>
    <Variable VarIndex="4" Expression="rmslayer_5" Label="rmslayer_5" Title="rmslayer_5" Unit="units" Internal="rmslayer_5" Type="D" Min="9.17578316e+00" Max="1.80312836e+02"/>
    <Variable VarIndex="5" Expression="rmslayer_6" Label="rmslayer_6" Title="rmslayer_6" Unit="units" Internal="rmslayer_6" Type="D" Min="9.61115265e+00" Max="1.98399734e+02"/>
    <Variable VarIndex="6" Expression="rmslayer_7" Label="rmslayer_7" Title="rmslayer_7" Unit="units" Internal="rmslayer_7" Type="D" Min="1.02467813e+01" Max="1.29946457e+02"/>
    <Variable VarIndex="7" Expression="rmslayer_8" Label="rmslayer_8" Title="rmslayer_8" Unit="units" Internal="rmslayer_8" Type="D" Min="1.12228107e+01" Max="1.27091225e+02"/>
    <Variable VarIndex="8" Expression="rmslayer_9" Label="rmslayer_9" Title="rmslayer_9" Unit="units" Internal="rmslayer_9" Type="D" Min="1.09636497e+01" Max="1.31563843e+02"/>
    <Variable VarIndex="9" Expression="rmslayer_10" Label="rmslayer_10" Title="rmslayer_10" Unit="units" Internal="rmslayer_10" Type="D" Min="1.12564602e+01" Max="1.32507324e+02"/>
    <Variable VarIndex="10" Expression="rmslayer_11" Label="rmslayer_11" Title="rmslayer_11" Unit="units" Internal="rmslayer_11" Type="D" Min="1.05528154e+01" Max="2.21822235e+02"/>
    <Variable VarIndex="11" Expression="rmslayer_12" Label="rmslayer_12" Title="rmslayer_12" Unit="units" Internal="rmslayer_12" Type="D" Min="1.18260832e+01" Max="2.46428818e+02"/>
    <Variable VarIndex="12" Expression="rmslayer_13" Label="rmslayer_13" Title="rmslayer_13" Unit="units" Internal="rmslayer_13" Type="D" Min="1.10791492e+01" Max="2.94758636e+02"/>
    <Variable VarIndex="13" Expression="rmslayer_14" Label="rmslayer_14" Title="rmslayer_14" Unit="units" Internal="rmslayer_14" Type="D" Min="1.39924335e+01" Max="3.35002625e+02"/>
    <Variable VarIndex="14" Expression="fraclayer_1" Label="fraclayer_1" Title="fraclayer_1" Unit="units" Internal="fraclayer_1" Type="D" Min="4.85129494e-05" Max="3.06994736e-01"/>
    <Variable VarIndex="15" Expression="fraclayer_2" Label="fraclayer_2" Title="fraclayer_2" Unit="units" Internal="fraclayer_2" Type="D" Min="1.09087079e-04" Max="3.32147449e-01"/>
    <Variable VarIndex="16" Expression="fraclayer_3" Label="fraclayer_3" Title="fraclayer_3" Unit="units" Internal="fraclayer_3" Type="D" Min="9.99817494e-05" Max="3.49482328e-01"/>
    <Variable VarIndex="17" Expression="fraclayer_4" Label="fraclayer_4" Title="fraclayer_4" Unit="units" Internal="fraclayer_4" Type="D" Min="8.73502868e-05" Max="3.42969507e-01"/>
    <Variable VarIndex="18" Expression="fraclayer_5" Label="fraclayer_5" Title="fraclayer_5" Unit="units" Internal="fraclayer_5" Type="D" Min="7.42882912e-05" Max="3.15554351e-01"/>
    <Variable VarIndex="19" Expression="fraclayer_6" Label="fraclayer_6" Title="fraclayer_6" Unit="units" Internal="fraclayer_6" Type="D" Min="1.07611319e-04" Max="3.13429117e-01"/>
    <Variable VarIndex="20" Expression="fraclayer_7" Label="fraclayer_7" Title="fraclayer_7" Unit="units" Internal="fraclayer_7" Type="D" Min="2.20058733e-04" Max="3.41662139e-01"/>
    <Variable VarIndex="21" Expression="fraclayer_8" Label="fraclayer_8" Title="fraclayer_8" Unit="units" Internal="fraclayer_8" Type="D" Min="4.54369147e-04" Max="3.30055237e-01"/>
    <Variable VarIndex="22" Expression="fraclayer_9" Label="fraclayer_9" Title="fraclayer_9" Unit="units" Internal="fraclayer_9" Type="D" Min="6.17725018e-04" Max="2.53527313e-01"/>
    <Variable VarIndex="23" Expression="fraclayer_10" Label="fraclayer_10" Title="fraclayer_10" Unit="units" Internal="fraclayer_10" Type="D" Min="3.22485488e-04" Max="2.57180631e-01"/>
    <Variable VarIndex="24" Expression="fraclayer_11" Label="fraclayer_11" Title="fraclayer_11" Unit="units" Internal="fraclayer_11" Type="D" Min="1.40040691e-04" Max="2.89638162e-01"/>
    <Variable VarIndex="25" Expression="fraclayer_12" Label="fraclayer_12" Title="fraclayer_12" Unit="units" Internal="fraclayer_12" Type="D" Min="1.16918549e-04" Max="3.48873764e-01"/>
    <Variable VarIndex="26" Expression="fraclayer_13" Label="fraclayer_13" Title="fraclayer_13" Unit="units" Internal="fraclayer_13" Type="D" Min="4.29279498e-05" Max="3.46287966e-01"/>
    <Variable VarIndex="27" Expression="fraclayer_14" Label="fraclayer_14" Title="fraclayer_14" Unit="units" Internal="fraclayer_14" Type="D" Min="1.51608710e-05" Max="3.48857462e-01"/>
    <Variable VarIndex="28" Expression="sumRms" Label="sumRms" Title="sumRms" Unit="units" Internal="sumRms" Type="D" Min="2.28131958e+02" Max="1.54788049e+03"/>
    <Variable VarIndex="29" Expression="fracLast" Label="fracLast" Title="fracLast" Unit="units" Internal="fracLast" Type="D" Min="1.51608710e-05" Max="3.48857462e-01"/>
    <Variable VarIndex="30" Expression="xtrl" Label="xtrl" Title="xtrl" Unit="units" Internal="xtrl" Type="D" Min="1.87599051e+00" Max="2.09902359e+05"/>
  </Variables>
  <Spectators NSpec="0"/>
  <Classes NClass="2">
    <Class Name="Signal" Index="0"/>
    <Class Name="Background" Index="1"/>
  </Classes>
  <Transformations NTransformations="0"/>
  <MVAPdfs/>
  <Weights NTrees="1000" AnalysisType="1">
    <BinaryTree type="DecisionTree" boostWeight="1.0000000000000000e+00" itree="0">
      <Node pos="s" depth="0" NCoef="0" IVar="27" Cut="1.6626698896288872e-02" cType="1" res="5.6353146210312843e-03" rms="4.9996823072433472e-01" purity="5.0563532114028931e-01" nType="0">
        <Node pos="l" depth="1" NCoef="0" IVar="30" Cut="2.4581285476684570e+01" cType="1" res="4.2404055595397949e-01" rms="2.6493319869041443e-01" purity="9.2404055595397949e-01" nType="0">
          <Node pos="l" depth="2" NCoef="0" IVar="-1" Cut="0.0000000000000000e+00" cType="1" res="9.8885767161846161e-02" rms="7.4431993067264557e-02" purity="9.9442881345748901e-01" nType="-99"/>
          <Node pos="r" depth="2" NCoef="0" IVar="-1" Cut="0.0000000000000000e+00" cType="1" res="-5.7468589395284653e-02" rms="4.0918704867362976e-01" purity="2.1265704929828644e-01" nType="-99"/>
        </Node>
        <Node pos="r" depth="1" NCoef="0" IVar="28" Cut="3.7132284545898438e+02" cType="1" res="-4.7333332896232605e-01" rms="1.6110728681087494e-01" purity="2.6666667312383652e-02" nType="0">
          <Node pos="l" depth="2" NCoef="0" IVar="-1" Cut="0.0000000000000000e+00" cType="1" res="-6.1750985682010651e-02" rms="3.9328157901763916e-01" purity="1.9124506413936615e-01" nType="-99"/>
          <Node pos="r" depth="2" NCoef="0" IVar="-1" Cut="0.0000000000000000e+00" cType="1" res="-9.9745333194732666e-02" rms="3.5660900175571442e-02" purity="1.2733211042359471e-03" nType="-99"/>
        </Node>
      </Node>
    </BinaryTree>
    <BinaryTree type="DecisionTree" boostWeight="1.0000000000000000e+00" itree="1">
      <Node pos="s" depth="0" NCoef="0" IVar="27" Cut="1.6646420583128929e-02" cType="1" res="1.0004070354625583e-03" rms="4.5464953780174255e-01" purity="5.0102096796035767e-01" nType="0">
        <Node pos="l" depth="1" NCoef="0" IVar="30" Cut="2.9732955932617188e+01" cType="1" res="3.7968358397483826e-01" rms="2.4980790913105011e-01" purity="9.2163848876953125e-01" nType="0">
          <Node pos="l" depth="2" NCoef="0" IVar="-1" Cut="0.0000000000000000e+00" cType="1" res="8.9586518704891205e-02" rms="8.8995784521102905e-02" purity="9.9162572622299194e-01" nType="-99"/>
          <Node pos="r" depth="2" NCoef="0" IVar="-1" Cut="0.0000000000000000e+00" cType="1" res="-7.3853552341461182e-02" rms="3.0428043007850647e-01" purity="1.0324640572071075e-01" nType="-99"/>
        </Node>
        <Node pos="r" depth="1" NCoef="0" IVar="28" Cut="3.6083267211914062e+02" cType="1" res="-4.2497575283050537e-01" rms="1.6206271946430206e-01" purity="2.7873413637280464e-02" nType="0">
          <Node pos="l" depth="2" NCoef="0" IVar="-1" Cut="0.0000000000000000e+00" cType="1" res="-4.2405243963003159e-02" rms="4.3750298023223877e-01" purity="2.5794392824172974e-01" nType="-99"/>
          <Node pos="r" depth="2" NCoef="0" IVar="-1" Cut="0.0000000000000000e+00" cType="1" res="-9.0669311583042145e-02" rms="4.4946417212486267e-02" purity="2.0458479411900043e-03" nType="-99"/>
        </Node>
      </Node>
    </BinaryTree>
    <BinaryTree type="DecisionTree" boostWeight="1.0000000000000000e+00" itree="2">
      <Node pos="s" depth="0" NCoef="0" IVar="27" Cut="1.6646420583128929e-02" cType="1" res="2.0335929002612829e-03" rms="4.1374406218528748e-01" purity="5.0246983766555786e-01" nType="0">
        <Node pos="l" depth="1" NCoef="0" IVar="30" Cut="2.9329689025878906e+01" cType="1" res="3.4084555506706238e-01" rms="2.3316492140293121e-01" purity="9.2006021738052368e-01" nType="0">
          <Node pos="l" depth="2" NCoef="0" IVar="-1" Cut="0.0000000000000000e+00" cType="1" res="8.2767121493816376e-02" rms="8.9048847556114197e-02" purity="9.9153816699981689e-01" nType="-99"/>
          <Node pos="r" depth="2" NCoef="0" IVar="-1" Cut="0.0000000000000000e+00" cType="1" res="-6.6555678844451904e-02" rms="3.0939742922782898e-01" purity="1.0893134027719498e-01" nType="-99"/>
        </Node>
        <Node pos="r" depth="1" NCoef="0" IVar="28" Cut="3.4940682983398438e+02" cType="1" res="-3.8341656327247620e-01" rms="1.5784721076488495e-01" purity="2.7397260069847107e-02" nType="0">
          <Node pos="l" depth="2" NCoef="0" IVar="-1" Cut="0.0000000000000000e+00" cType="1" res="-2.4452328681945801e-02" rms="4.6917790174484253e-01" purity="3.2716456055641174e-01" nType="-99"/>
          <Node pos="r" depth="2" NCoef="0" IVar="-1" Cut="0.0000000000000000e+00" cType="1" res="-8.3610795438289642e-02" rms="6.3413687050342560e-02" purity="4.1515044867992401e-03" nType="-99"/>
        </Node>
      </Node>
    </BinaryTree>
    <BinaryTree type="DecisionTree" boostWeight="1.0000000000000000e+00" itree="3">
      <Node pos="s" depth="0" NCoef="0" IVar="27" Cut="1.6643481329083443e-02" cType="1" res="-3.5685393959283829e-03" rms="3.7723347544670105e-01" purity="4.9512195587158203e-01" nType="0">
        <Node pos="l" depth="1" NCoef="0" IVar="30" Cut="3.0487211227416992e+01" cType="1" res="3.0636247992515564e-01" rms="2.1830533444881439e-01" purity="9.1874039173126221e-01" nType="0">
          <Node pos="l" depth="2" NCoef="0" IVar="-1" Cut="0.0000000000000000e+00" cType="1" res="7.7268987894058228e-02" rms="9.3550771474838257e-02" purity="9.9031823873519897e-01" nType="-99"/>
          <Node pos="r" depth="2" NCoef="0" IVar="-1" Cut="0.0000000000000000e+00" cType="1" res="-6.3422471284866333e-02" rms="2.9633781313896179e-01" purity="9.7288675606250763e-02" nType="-99"/>
        </Node>
        <Node pos="r" depth="1" NCoef="0" IVar="28" Cut="3.6694238281250000e+02" cType="1" res="-3.4630066156387329e-01" rms="1.5258206427097321e-01" purity="2.6670435443520546e-02" nType="0">
          <Node pos="l" depth="2" NCoef="0" IVar="-1" Cut="0.0000000000000000e+00" cType="1" res="-4.2035110294818878e-02" rms="4.0586772561073303e-01" purity="2.1629212796688080e-01" nType="-99"/>
          <Node pos="r" depth="2" NCoef="0" IVar="-1" Cut="0.0000000000000000e+00" cType="1" res="-7.8630201518535614e-02" rms="3.7865627557039261e-02" purity="1.4415376354008913e-03" nType="-99"/>
        </Node>
      </Node>
    </BinaryTree>
    <BinaryTree type="DecisionTree" boostWeight="1.0000000000000000e+00" itree="4">
      <Node pos="s" depth="0" NCoef="0" IVar="27" Cut="1.6537152230739594e-02" cType="1" res="5.7500897673889995e-04" rms="3.4555092453956604e-01" purity="5.0122296810150146e-01" nType="0">
        <Node pos="l" depth="1" NCoef="0" IVar="30" Cut="2.9921138763427734e+01" cType="1" res="2.7790454030036926e-01" rms="2.0198743045330048e-01" purity="9.2163264751434326e-01" nType="0">
          <Node pos="l" depth="2" NCoef="0" IVar="-1" Cut="0.0000000000000000e+00" cType="1" res="7.2844818234443665e-02" rms="9.7502954304218292e-02" purity="9.8990684747695923e-01" nType="-99"/>
          <Node pos="r" depth="2" NCoef="0" IVar="-1" Cut="0.0000000000000000e+00" cType="1" res="-5.9770133346319199e-02" rms="2.8988906741142273e-01" purity="9.3489147722721100e-02" nType="-99"/>
        </Node>
        <Node pos="r" depth="1" NCoef="0" IVar="28" Cut="3.4068527221679688e+02" cType="1" res="-3.1147196888923645e-01" rms="1.5472276508808136e-01" purity="2.8184462338685989e-02" nType="0">
          <Node pos="l" depth="2" NCoef="0" IVar="-1" Cut="0.0000000000000000e+00" cType="1" res="-2.3399610072374344e-03" rms="4.8915043473243713e-01" purity="4.0616965293884277e-01" nType="-99"/>
          <Node pos="r" depth="2" NCoef="0" IVar="-1" Cut="0.0000000000000000e+00" cType="1" res="-7.3952727019786835e-02" rms="7.5021460652351379e-02" purity="5.9084938839077950e-03" nType="-99"/>
        </Node>
      </Node>
    </BinaryTree>
    <BinaryTree type="DecisionTree" boostWeight="1.0000000000000000e+00" itree="5">
      <Node pos="s" depth="0" NCoef="0" IVar="27" Cut="1.6643481329083443e-02" cType="1" res="-6.9825060199946165e-04" rms="3.1661465764045715e-01" purity="4.9940979480743408e-01" nType="0">
        <Node pos="l" depth="1" NCoef="0" IVar="30" Cut="4.2398353576660156e+01" cType="1" res="2.5047826766967773e-01" rms="1.9016584753990173e-01" purity="9.2118912935256958e-01" nType="0">
          <Node pos="l" depth="2" NCoef="0" IVar="-1" Cut="0.0000000000000000e+00" cType="1" res="6.7794576287269592e-02" rms="1.2380158156156540e-01" purity="9.7729003429412842e-01" nType="-99"/>
          <Node pos="r" depth="2" NCoef="0" IVar="-1" Cut="0.0000000000000000e+00" cType="1" res="-7.1825921535491943e-02" rms="1.4047282934188843e-01" purity="2.0143885165452957e-02" nType="-99"/>
        </Node>
        <Node pos="r" depth="1" NCoef="0" IVar="28" Cut="3.7324618530273438e+02" cType="1" res="-2.8188458085060120e-01" rms="1.4929762482643127e-01" purity="2.7237538248300552e-02" nType="0">
          <Node pos="l" depth="2" NCoef="0" IVar="-1" Cut="0.0000000000000000e+00" cType="1" res="-4.0291897952556610e-02" rms="3.7316545844078064e-01" purity="1.8436674773693085e-01" nType="-99"/>
          <Node pos="r" depth="2" NCoef="0" IVar="-1" Cut="0.0000000000000000e+00" cType="1" res="-7.1065448224544525e-02" rms="3.1474482268095016e-02" purity="9.9162629339843988e-04" nType="-99"/>
        </Node>
      </Node>
    </BinaryTree>
    <BinaryTree type="DecisionTree" boostWeight="1.0000000000000000e+00" itree="6">
      <Node pos="s" depth="0" NCoef="0" IVar="27" Cut="1.6587516292929649e-02" cType="1" res="-8.3287415327504277e-04" rms="2.9144805669784546e-01" purity="4.9846345186233521e-01" nType="0">
        <Node pos="l" depth="1" NCoef="0" IVar="30" Cut="2.8907133102416992e+01" cType="1" res="2.2775998711585999e-01" rms="1.7760019004344940e-01" purity="9.2361140251159668e-01" nType="0">
          <Node pos="l" depth="2" NCoef="0" IVar="-1" Cut="0.0000000000000000e+00" cType="1" res="6.6622637212276459e-02" rms="9.3326143920421600e-02" purity="9.9086654186248779e-01" nType="-99"/>
          <Node pos="r" depth="2" NCoef="0" IVar="-1" Cut="0.0000000000000000e+00" cType="1" res="-5.0146594643592834e-02" rms="2.9617369174957275e-01" purity="1.1625344306230545e-01" nType="-99"/>
        </Node>
        <Node pos="r" depth="1" NCoef="0" IVar="28" Cut="3.6783163452148438e+02" cType="1" res="-2.5410598516464233e-01" rms="1.4853893220424652e-01" purity="2.7413979172706604e-02" nType="0">
          <Node pos="l" depth="2" NCoef="0" IVar="-1" Cut="0.0000000000000000e+00" cType="1" res="-3.2397516071796417e-02" rms="3.9620763063430786e-01" purity="2.1329745650291443e-01" nType="-99"/>
          <Node pos="r" depth="2" NCoef="0" IVar="-1" Cut="0.0000000000000000e+00" cType="1" res="-6.8133004009723663e-02" rms="3.9167482405900955e-02" purity="1.5507192583754659e-03" nType="-99"/>
        </Node>
      </Node>
    </BinaryTree>
    <BinaryTree type="DecisionTree" boostWeight="1.0000000000000000e+00" itree="7">
      <Node pos="s" depth="0" NCoef="0" IVar="27" Cut="1.6596676781773567e-02" cType="1" res="8.7171472841873765e-04" rms="2.6945644617080688e-01" purity="5.0116723775863647e-01" nType="0">
        <Node pos="l" depth="1" NCoef="0" IVar="30" Cut="3.0423236846923828e+01" cType="1" res="2.0633243024349213e-01" rms="1.6718570888042450e-01" purity="9.2367923259735107e-01" nType="0">
          <Node pos="l" depth="2" NCoef="0" IVar="-1" Cut="0.0000000000000000e+00" cType="1" res="6.4178906381130219e-02" rms="9.2618621885776520e-02" purity="9.9062526226043701e-01" nType="-99"/>
          <Node pos="r" depth="2" NCoef="0" IVar="-1" Cut="0.0000000000000000e+00" cType="1" res="-4.9108598381280899e-02" rms="2.8574815392494202e-01" purity="9.7697921097278595e-02" nType="-99"/>
        </Node>
        <Node pos="r" depth="1" NCoef="0" IVar="8" Cut="1.9412767410278320e+01" cType="1" res="-2.2911223769187927e-01" rms="1.4982388913631439e-01" purity="2.8225425630807877e-02" nType="0">
          <Node pos="l" depth="2" NCoef="0" IVar="-1" Cut="0.0000000000000000e+00" cType="1" res="-2.0766247063875198e-02" rms="3.6527428030967712e-01" purity="2.0635950565338135e-01" nType="-99"/>
          <Node pos="r" depth="2" NCoef="0" IVar="-1" Cut="0.0000000000000000e+00" cType="1" res="-6.3681684434413910e-02" rms="1.0945758223533630e-01" purity="1.4277730137109756e-02" nType="-99"/>
        </Node>
      </Node>
    </BinaryTree>
    <BinaryTree type="DecisionTree" boostWeight="1.0000000000000000e+00" itree="8">
      <Node pos="s" depth="0" NCoef="0" IVar="27" Cut="1.6632234677672386e-02" cType="1" res="-9.2759722610935569e-04" rms="2.4927639961242676e-01" purity="4.9943137168884277e-01" nType="0">
        <Node pos="l" depth="1" NCoef="0" IVar="30" Cut="2.8907133102416992e+01" cType="1" res="1.8441569805145264e-01" rms="1.6291236877441406e-01" purity="9.2187631130218506e-01" nType="0">
          <Node pos="l" depth="2" NCoef="0" IVar="-1" Cut="0.0000000000000000e+00" cType="1" res="6.1885196715593338e-02" rms="9.4779320061206818e-02" purity="9.9062216281890869e-01" nType="-99"/>
          <Node pos="r" depth="2" NCoef="0" IVar="-1" Cut="0.0000000000000000e+00" cType="1" res="-4.6422392129898071e-02" rms="2.8718328475952148e-01" purity="1.0780064761638641e-01" nType="-99"/>
        </Node>
        <Node pos="r" depth="1" NCoef="0" IVar="8" Cut="1.9970417022705078e+01" cType="1" res="-2.0877791941165924e-01" rms="1.4259888231754303e-01" purity="2.5687118992209435e-02" nType="0">
          <Node pos="l" depth="2" NCoef="0" IVar="-1" Cut="0.0000000000000000e+00" cType="1" res="-2.7045432478189468e-02" rms="3.3594018220901489e-01" purity="1.6717635095119476e-01" nType="-99"/>
          <Node pos="r" depth="2" NCoef="0" IVar="-1" Cut="0.0000000000000000e+00" cType="1" res="-6.2119755893945694e-02" rms="9.8313331604003906e-02" purity="1.1211346834897995e-02" nType="-99"/>
        </Node>
      </Node>
    </BinaryTree>
    <BinaryTree type="DecisionTree" boostWeight="1.0000000000000000e+00" itree="9">
      <Node pos="s" depth="0" NCoef="0" IVar="27" Cut="1.6643481329083443e-02" cType="1" res="9.0588064631447196e-04" rms="2.3404930531978607e-01" purity="5.0118452310562134e-01" nType="0">
        <Node pos="l" depth="1" NCoef="0" IVar="30" Cut="3.0338842391967773e+01" cType="1" res="1.6736441850662231e-01" rms="1.5601749718189240e-01" purity="9.2219215631484985e-01" nType="0">
          <Node pos="l" depth="2" NCoef="0" IVar="-1" Cut="0.0000000000000000e+00" cType="1" res="5.9742055833339691e-02" rms="9.8769880831241608e-02" purity="9.8920994997024536e-01" nType="-99"/>
          <Node pos="r" depth="2" NCoef="0" IVar="-1" Cut="0.0000000000000000e+00" cType="1" res="-4.3471246957778931e-02" rms="2.8535982966423035e-01" purity="9.6846848726272583e-02" nType="-99"/>
        </Node>
        <Node pos="r" depth="1" NCoef="0" IVar="28" Cut="3.4744589233398438e+02" cType="1" res="-1.8568927049636841e-01" rms="1.5172559022903442e-01" purity="2.9247250407934189e-02" nType="0">
          <Node pos="l" depth="2" NCoef="0" IVar="-1" Cut="0.0000000000000000e+00" cType="1" res="5.4333093576133251e-03" rms="4.6853670477867126e-01" purity="3.5231077671051025e-01" nType="-99"/>
          <Node pos="r" depth="2" NCoef="0" IVar="-1" Cut="0.0000000000000000e+00" cType="1" res="-6.1685867607593536e-02" rms="6.6734410822391510e-02" purity="4.6421466395258904e-03" nType="-99"/>
        </Node>
      </Node>
    </BinaryTree>
    <BinaryTree type="DecisionTree" boostWeight="1.0000000000000000e+00" itree="10">
      <Node pos="s" depth="0" NCoef="0" IVar="27" Cut="1.6634043306112289e-02" cType="1" res="-1.4035142958164215e-03" rms="2.1721392869949341e-01" purity="4.9744760990142822e-01" nType="0">
        <Node pos="l" depth="1" NCoef="0" IVar="30" Cut="4.2059886932373047e+01" cType="1" res="1.5024854242801666e-01" rms="1.5179932117462158e-01" purity="9.2018681764602661e-01" nType="0">
          <Node pos="l" depth="2" NCoef="0" IVar="-1" Cut="0.0000000000000000e+00" cType="1" res="5.7042639702558517e-02" rms="1.1801479756832123e-01" purity="9.7830510139465332e-01" nType="-99"/>
          <Node pos="r" depth="2" NCoef="0" IVar="-1" Cut="0.0000000000000000e+00" cType="1" res="-5.9857986867427826e-02" rms="1.4264190196990967e-01" purity="2.0979020744562149e-02" nType="-99"/>
        </Node>
        <Node pos="r" depth="1" NCoef="0" IVar="28" Cut="3.4068527221679688e+02" cType="1" res="-1.7062821984291077e-01" rms="1.4077483117580414e-01" purity="2.5723624974489212e-02" nType="0">
          <Node pos="l" depth="2" NCoef="0" IVar="-1" Cut="0.0000000000000000e+00" cType="1" res="9.3129519373178482e-03" rms="4.7854834794998169e-01" purity="3.8023152947425842e-01" nType="-99"/>
          <Node pos="r" depth="2" NCoef="0" IVar="-1" Cut="0.0000000000000000e+00" cType="1" res="-5.9868790209293365e-02" rms="7.3410063982009888e-02" purity="5.8040628209710121e-03" nType="-99"/>
        </Node>
      </Node>
    </BinaryTree>
    <BinaryTree type="DecisionTree" boostWeight="1.0000000000000000e+00" itree="11">
      <Node pos="s" depth="0" NCoef="0" IVar="27" Cut="1.6626698896288872e-02" cType="1" res="-2.6347974198870361e-04" rms="2.0417934656143188e-01" purity="4.9838021397590637e-01" nType="0">
        <Node pos="l" depth="1" NCoef="0" IVar="30" Cut="4.7488800048828125e+01" cType="1" res="1.3595828413963318e-01" rms="1.4445245265960693e-01" purity="9.1924965381622314e-01" nType="0">
          <Node pos="l" depth="2" NCoef="0" IVar="-1" Cut="0.0000000000000000e+00" cType="1" res="5.5031836032867432e-02" rms="1.1812537163496017e-01" purity="9.7426569461822510e-01" nType="-99"/>
          <Node pos="r" depth="2" NCoef="0" IVar="-1" Cut="0.0000000000000000e+00" cType="1" res="-6.0340180993080139e-02" rms="1.0820704698562622e-01" purity="1.1851851828396320e-02" nType="-99"/>
        </Node>
        <Node pos="r" depth="1" NCoef="0" IVar="28" Cut="3.4744589233398438e+02" cType="1" res="-1.5241847932338715e-01" rms="1.4515326917171478e-01" purity="2.8283592313528061e-02" nType="0">
          <Node pos="l" depth="2" NCoef="0" IVar="-1" Cut="0.0000000000000000e+00" cType="1" res="2.6527077425271273e-03" rms="4.6117722988128662e-01" purity="3.4090909361839294e-01" nType="-99"/>
          <Node pos="r" depth="2" NCoef="0" IVar="-1" Cut="0.0000000000000000e+00" cType="1" res="-5.8694444596767426e-02" rms="6.5369822084903717e-02" purity="4.4790552929043770e-03" nType="-99"/>
        </Node>
      </Node>
    </BinaryTree>
    <BinaryTree type="DecisionTree" boostWeight="1.0000000000000000e+00" itree="12">
      <Node pos="s" depth="0" NCoef="0" IVar="27" Cut="1.6626698896288872e-02" cType="1" res="2.4813655181787908e-04" rms="1.9166016578674316e-01" purity="5.0052833557128906e-01" nType="0">
        <Node pos="l" depth="1" NCoef="0" IVar="30" Cut="2.9732955932617188e+01" cType="1" res="1.2406771630048752e-01" rms="1.3938045501708984e-01" purity="9.2151284217834473e-01" nType="0">
          <Node pos="l" depth="2" NCoef="0" IVar="-1" Cut="0.0000000000000000e+00" cType="1" res="5.5778235197067261e-02" rms="9.2040672898292542e-02" purity="9.9110966920852661e-01" nType="-99"/>
          <Node pos="r" depth="2" NCoef="0" IVar="-1" Cut="0.0000000000000000e+00" cType="1" res="-3.7081275135278702e-02" rms="2.7974951267242432e-01" purity="1.0438074916601181e-01" nType="-99"/>
        </Node>
        <Node pos="r" depth="1" NCoef="0" IVar="28" Cut="3.4940682983398438e+02" cType="1" res="-1.3916502892971039e-01" rms="1.3972038030624390e-01" purity="2.6525832712650299e-02" nType="0">
          <Node pos="l" depth="2" NCoef="0" IVar="-1" Cut="0.0000000000000000e+00" cType="1" res="-2.0059749949723482e-03" rms="4.5152086019515991e-01" purity="3.1707316637039185e-01" nType="-99"/>
          <Node pos="r" depth="2" NCoef="0" IVar="-1" Cut="0.0000000000000000e+00" cType="1" res="-5.7647418230772018e-02" rms="6.0642000287771225e-02" purity="3.8132537156343460e-03" nType="-99"/>
        </Node>
      </Node>
    </BinaryTree>
    <BinaryTree type="DecisionTree" boostWeight="1.0000000000000000e+00" itree="13">
      <Node pos="s" depth="0" NCoef="0" IVar="27" Cut="1.6652619466185570e-02" cType="1" res="-1.8223515944555402e-03" rms="1.8221156299114227e-01" purity="4.9513953924179077e-01" nType="0">
        <Node pos="l" depth="1" NCoef="0" IVar="30" Cut="2.9329689025878906e+01" cType="1" res="1.1029023677110672e-01" rms="1.3917428255081177e-01" purity="9.1989409923553467e-01" nType="0">
          <Node pos="l" depth="2" NCoef="0" IVar="-1" Cut="0.0000000000000000e+00" cType="1" res="5.4137714207172394e-02" rms="9.7037628293037415e-02" purity="9.9021518230438232e-01" nType="-99"/>
          <Node pos="r" depth="2" NCoef="0" IVar="-1" Cut="0.0000000000000000e+00" cType="1" res="-3.7435710430145264e-02" rms="2.7254483103752136e-01" purity="1.0242587327957153e-01" nType="-99"/>
        </Node>
        <Node pos="r" depth="1" NCoef="0" IVar="6" Cut="1.6441608428955078e+01" cType="1" res="-1.2551221251487732e-01" rms="1.3890488445758820e-01" purity="2.6522824540734291e-02" nType="0">
          <Node pos="l" depth="2" NCoef="0" IVar="-1" Cut="0.0000000000000000e+00" cType="1" res="-1.0789127554744482e-03" rms="3.3797827363014221e-01" purity="1.9743935763835907e-01" nType="-99"/>
          <Node pos="r" depth="2" NCoef="0" IVar="-1" Cut="0.0000000000000000e+00" cType="1" res="-5.4104752838611603e-02" rms="1.0464911162853241e-01" purity="1.3675733469426632e-02" nType="-99"/>
        </Node>
      </Node>
    </BinaryTree>
    <BinaryTree type="DecisionTree" boostWeight="1.0000000000000000e+00" itree="14">
      <Node pos="s" depth="0" NCoef="0" IVar="27" Cut="1.6626698896288872e-02" cType="1" res="-3.9218529127538204e-04" rms="1.7176614701747894e-01" purity="5.0122761726379395e-01" nType="0">
        <Node pos="l" depth="1" NCoef="0" IVar="30" Cut="2.9158172607421875e+01" cType="1" res="1.0061925649642944e-01" rms="1.3271464407444000e-01" purity="9.2271751165390015e-01" nType="0">
          <Node pos="l" depth="2" NCoef="0" IVar="-1" Cut="0.0000000000000000e+00" cType="1" res="5.3206164389848709e-02" rms="9.4048053026199341e-02" purity="9.9078887701034546e-01" nType="-99"/>
          <Node pos="r" depth="2" NCoef="0" IVar="-1" Cut="0.0000000000000000e+00" cType="1" res="-3.5291619598865509e-02" rms="2.6955220103263855e-01" purity="1.0563765466213226e-01" nType="-99"/>
        </Node>
        <Node pos="r" depth="1" NCoef="0" IVar="6" Cut="1.6228834152221680e+01" cType="1" res="-1.1442063748836517e-01" rms="1.3566744327545166e-01" purity="2.5421716272830963e-02" nType="0">
          <Node pos="l" depth="2" NCoef="0" IVar="-1" Cut="0.0000000000000000e+00" cType="1" res="-8.5960479918867350e-04" rms="3.4152722358703613e-01" purity="1.9821283221244812e-01" nType="-99"/>
          <Node pos="r" depth="2" NCoef="0" IVar="-1" Cut="0.0000000000000000e+00" cType="1" res="-5.2426833659410477e-02" rms="1.0713426023721695e-01" purity="1.4686585403978825e-02" nType="-99"/>
        </Node>
      </Node>
    </BinaryTree>
    <BinaryTree type="DecisionTree" boostWeight="1.0000000000000000e+00" itree="15">
      <Node pos="s" depth="0" NCoef="0" IVar="27" Cut="1.6597807407379150e-02" cType="1" res="-3.7336457171477377e-04" rms="1.6358159482479095e-01" purity="4.9976414442062378e-01" nType="0">
        <Node pos="l" depth="1" NCoef="0" IVar="30" Cut="2.9580728530883789e+01" cType="1" res="9.1555431485176086e-02" rms="1.2798567116260529e-01" purity="9.2295593023300171e-01" nType="0">
          <Node pos="l" depth="2" NCoef="0" IVar="-1" Cut="0.0000000000000000e+00" cType="1" res="5.2413828670978546e-02" rms="9.0574972331523895e-02" purity="9.9130111932754517e-01" nType="-99"/>
          <Node pos="r" depth="2" NCoef="0" IVar="-1" Cut="0.0000000000000000e+00" cType="1" res="-3.4181423485279083e-02" rms="2.7041795849800110e-01" purity="9.4308033585548401e-02" nType="-99"/>
        </Node>
        <Node pos="r" depth="1" NCoef="0" IVar="9" Cut="2.0223764419555664e+01" cType="1" res="-1.0333904623985291e-01" rms="1.3533714413642883e-01" purity="2.5764359161257744e-02" nType="0">
          <Node pos="l" depth="2" NCoef="0" IVar="-1" Cut="0.0000000000000000e+00" cType="1" res="6.3871464226394892e-04" rms="3.4023177623748779e-01" purity="1.9289340078830719e-01" nType="-99"/>
          <Node pos="r" depth="2" NCoef="0" IVar="-1" Cut="0.0000000000000000e+00" cType="1" res="-5.1502633839845657e-02" rms="1.0312363505363464e-01" purity="1.4017024077475071e-02" nType="-99"/>
        </Node>
      </Node>
    </BinaryTree>
    <BinaryTree type="DecisionTree" boostWeight="1.0000000000000000e+00" itree="16">
      <Node pos="s" depth="0" NCoef="0" IVar="27" Cut="1.6646420583128929e-02" cType="1" res="4.4972842442803085e-04" rms="1.6091851890087128e-01" purity="5.0348764657974243e-01" nType="0">
        <Node pos="l" depth="1" NCoef="0" IVar="30" Cut="2.2559728622436523e+01" cType="1" res="8.1640265882015228e-02" rms="1.3172706961631775e-01" purity="9.2140614986419678e-01" nType="0">
          <Node pos="l" depth="2" NCoef="0" IVar="-1" Cut="0.0000000000000000e+00" cType="1" res="5.3361494094133377e-02" rms="6.8931043148040771e-02" purity="9.9522584676742554e-01" nType="-99"/>
          <Node pos="r" depth="2" NCoef="0" IVar="-1" Cut="0.0000000000000000e+00" cType="1" res="-2.8330501168966293e-02" rms="3.0811116099357605e-01" purity="2.9802370071411133e-01" nType="-99"/>
        </Node>
        <Node pos="r" depth="1" NCoef="0" IVar="28" Cut="3.6108230590820312e+02" cType="1" res="-9.2030391097068787e-02" rms="1.3987249135971069e-01" purity="2.7457335963845253e-02" nType="0">
          <Node pos="l" depth="2" NCoef="0" IVar="-1" Cut="0.0000000000000000e+00" cType="1" res="2.1156978327780962e-03" rms="4.0300032496452332e-01" purity="2.4976873397827148e-01" nType="-99"/>
          <Node pos="r" depth="2" NCoef="0" IVar="-1" Cut="0.0000000000000000e+00" cType="1" res="-5.4924972355365753e-02" rms="4.3365586549043655e-02" purity="1.9132653251290321e-03" nType="-99"/>
        </Node>
      </Node>
    </BinaryTree>
    <BinaryTree type="DecisionTree" boostWeight="1.0000000000000000e+00" itree="17">
      <Node pos="s" depth="0" NCoef="0" IVar="27" Cut="1.6644610092043877e-02" cType="1" res="1.7823949456214905e-03" rms="1.5416063368320465e-01" purity="5.0437951087951660e-01" nType="0">
        <Node pos="l" depth="1" NCoef="0" IVar="30" Cut="3.0290376663208008e+01" cType="1" res="7.5337134301662445e-02" rms="1.2317013740539551e-01" purity="9.2369157075881958e-01" nType="0">
          <Node pos="l" depth="2" NCoef="0" IVar="-1" Cut="0.0000000000000000e+00" cType="1" res="5.0345111638307571e-02" rms="9.2048846185207367e-02" purity="9.9077922105789185e-01" nType="-99"/>
          <Node pos="r" depth="2" NCoef="0" IVar="-1" Cut="0.0000000000000000e+00" cType="1" res="-3.0325211584568024e-02" rms="2.6498174667358398e-01" purity="8.9376054704189301e-02" nType="-99"/>
        </Node>
        <Node pos="r" depth="1" NCoef="0" IVar="28" Cut="3.6108230590820312e+02" cType="1" res="-8.1626638770103455e-02" rms="1.4289635419845581e-01" purity="2.8891313821077347e-02" nType="0">
          <Node pos="l" depth="2" NCoef="0" IVar="-1" Cut="0.0000000000000000e+00" cType="1" res="5.3446972742676735e-03" rms="4.0985149145126343e-01" purity="2.6212686300277710e-01" nType="-99"/>
          <Node pos="r" depth="2" NCoef="0" IVar="-1" Cut="0.0000000000000000e+00" cType="1" res="-5.3888697177171707e-02" rms="4.9313459545373917e-02" purity="2.4821758270263672e-03" nType="-99"/>
        </Node>
      </Node>
    </BinaryTree>
    <BinaryTree type="DecisionTree" boostWeight="1.0000000000000000e+00" itree="18">
      <Node pos="s" depth="0" NCoef="0" IVar="27" Cut="1.6626698896288872e-02" cType="1" res="-7.2475499473512173e-04" rms="1.5018366277217865e-01" purity="5.0018954277038574e-01" nType="0">
        <Node pos="l" depth="1" NCoef="0" IVar="30" Cut="2.9597414016723633e+01" cType="1" res="6.6207468509674072e-02" rms="1.2766164541244507e-01" purity="9.2101269960403442e-01" nType="0">
          <Node pos="l" depth="2" NCoef="0" IVar="-1" Cut="0.0000000000000000e+00" cType="1" res="4.8597775399684906e-02" rms="9.8219633102416992e-02" purity="9.8977869749069214e-01" nType="-99"/>
          <Node pos="r" depth="2" NCoef="0" IVar="-1" Cut="0.0000000000000000e+00" cType="1" res="-2.8896924108266830e-02" rms="2.6977375149726868e-01" purity="9.4349972903728485e-02" nType="-99"/>
        </Node>
        <Node pos="r" depth="1" NCoef="0" IVar="27" Cut="3.2447788864374161e-02" cType="1" res="-7.6014392077922821e-02" rms="1.3742740452289581e-01" purity="2.6820831000804901e-02" nType="0">
          <Node pos="l" depth="2" NCoef="0" IVar="-1" Cut="0.0000000000000000e+00" cType="1" res="-1.7880292609333992e-02" rms="2.1649782359600067e-01" purity="7.5807288289070129e-02" nType="-99"/>
          <Node pos="r" depth="2" NCoef="0" IVar="-1" Cut="0.0000000000000000e+00" cType="1" res="-5.2314795553684235e-02" rms="8.5703171789646149e-02" purity="8.2941483706235886e-03" nType="-99"/>
        </Node>
      </Node>
    </BinaryTree>
    <BinaryTree type="DecisionTree" boostWeight="1.0000000000000000e+00" itree="19">
      <Node pos="s" depth="0" NCoef="0" IVar="27" Cut="1.6642488539218903e-02" cType="1" res="-4.5600807061418891e-04" rms="1.4248159527778625e-01" purity="4.9948877096176147e-01" nType="0">
        <Node pos="l" depth="1" NCoef="0" IVar="30" Cut="4.2799781799316406e+01" cType="1" res="6.1339419335126877e-02" rms="1.2247874587774277e-01" purity="9.2057037353515625e-01" nType="0">
          <Node pos="l" depth="2" NCoef="0" IVar="-1" Cut="0.0000000000000000e+00" cType="1" res="4.7574691474437714e-02" rms="1.1173401027917862e-01" purity="9.7944593429565430e-01" nType="-99"/>
          <Node pos="r" depth="2" NCoef="0" IVar="-1" Cut="0.0000000000000000e+00" cType="1" res="-4.8852339386940002e-02" rms="1.4316648244857788e-01" purity="2.1160408854484558e-02" nType="-99"/>
        </Node>
        <Node pos="r" depth="1" NCoef="0" IVar="28" Cut="3.4744589233398438e+02" cType="1" res="-7.0142075419425964e-02" rms="1.3082541525363922e-01" purity="2.4639394134283066e-02" nType="0">
          <Node pos="l" depth="2" NCoef="0" IVar="-1" Cut="0.0000000000000000e+00" cType="1" res="1.5389543026685715e-02" rms="4.4664236903190613e-01" purity="3.2996389269828796e-01" nType="-99"/>
          <Node pos="r" depth="2" NCoef="0" IVar="-1" Cut="0.0000000000000000e+00" cType="1" res="-5.2515082061290741e-02" rms="5.5330701172351837e-02" purity="3.2388663385063410e-03" nType="-99"/>
        </Node>
      </Node>
    </BinaryTree>
    <BinaryTree type="DecisionTree" boostWeight="1.0000000000000000e+00" itree="20">
      <Node pos="s" depth="0" NCoef="0" IVar="27" Cut="1.6642488539218903e-02" cType="1" res="-1.1546427849680185e-03" rms="1.4234095811843872e-01" purity="4.9554967880249023e-01" nType="0">
        <Node pos="l" depth="1" NCoef="0" IVar="27" Cut="8.7387822568416595e-03" cType="1" res="5.4993357509374619e-02" rms="1.2707665562629700e-01" purity="9.2197823524475098e-01" nType="0">
          <Node pos="l" depth="2" NCoef="0" IVar="-1" Cut="0.0000000000000000e+00" cType="1" res="4.9042452126741409e-02" rms="8.4885723888874054e-02" purity="9.8508501052856445e-01" nType="-99"/>
          <Node pos="r" depth="2" NCoef="0" IVar="-1" Cut="0.0000000000000000e+00" cType="1" res="-1.1850668117403984e-02" rms="2.5313785672187805e-01" purity="5.3298717737197876e-01" nType="-99"/>
        </Node>
        <Node pos="r" depth="1" NCoef="0" IVar="28" Cut="3.4808795166015625e+02" cType="1" res="-6.3096761703491211e-02" rms="1.3222347199916840e-01" purity="2.5116410106420517e-02" nType="0">
          <Node pos="l" depth="2" NCoef="0" IVar="-1" Cut="0.0000000000000000e+00" cType="1" res="1.0517043992877007e-02" rms="4.4065132737159729e-01" purity="3.1575295329093933e-01" nType="-99"/>
          <Node pos="r" depth="2" NCoef="0" IVar="-1" Cut="0.0000000000000000e+00" cType="1" res="-5.1278930157423019e-02" rms="6.1519809067249298e-02" purity="3.9858729578554630e-03" nType="-99"/>
        </Node>
      </Node>
    </BinaryTree>
    <BinaryTree type="DecisionTree" boostWeight="1.0000000000000000e+00" itree="21">
      <Node pos="s" depth="0" NCoef="0" IVar="27" Cut="1.6640242189168930e-02" cType="1" res="-4.6552851563319564e-04" rms="1.3865263760089874e-01" purity="4.9836975336074829e-01" nType="0">
        <Node pos="l" depth="1" NCoef="0" IVar="30" Cut="2.9158172607421875e+01" cType="1" res="4.9459323287010193e-02" rms="1.2151195108890533e-01" purity="9.2123198509216309e-01" nType="0">
          <Node pos="l" depth="2" NCoef="0" IVar="-1" Cut="0.0000000000000000e+00" cType="1" res="4.6701043844223022e-02" rms="9.2322811484336853e-02" purity="9.9109631776809692e-01" nType="-99"/>
          <Node pos="r" depth="2" NCoef="0" IVar="-1" Cut="0.0000000000000000e+00" cType="1" res="-2.5811688974499702e-02" rms="2.7066907286643982e-01" purity="1.0080429166555405e-01" nType="-99"/>
        </Node>
        <Node pos="r" depth="1" NCoef="0" IVar="28" Cut="3.4940682983398438e+02" cType="1" res="-5.6120768189430237e-02" rms="1.3535034656524658e-01" purity="2.6971247047185898e-02" nType="0">
          <Node pos="l" depth="2" NCoef="0" IVar="-1" Cut="0.0000000000000000e+00" cType="1" res="1.1407075449824333e-02" rms="4.3957629799842834e-01" purity="3.1693649291992188e-01" nType="-99"/>
          <Node pos="r" depth="2" NCoef="0" IVar="-1" Cut="0.0000000000000000e+00" cType="1" res="-5.1076740026473999e-02" rms="5.6360956281423569e-02" purity="3.3480443526059389e-03" nType="-99"/>
        </Node>
      </Node>
    </BinaryTree>
    <BinaryTree type="DecisionTree" boostWeight="1.0000000000000000e+00" itree="22">
      <Node pos="s" depth="0" NCoef="0" IVar="27" Cut="1.6617888584733009e-02" cType="1" res="-3.1632435275241733e-04" rms="1.3643464446067810e-01" purity="5.0108921527862549e-01" nType="0">
        <Node pos="l" depth="1" NCoef="0" IVar="30" Cut="4.7816131591796875e+01" cType="1" res="4.4761527329683304e-02" rms="1.2359278649091721e-01" purity="9.2159187793731689e-01" nType="0">
          <Node pos="l" depth="2" NCoef="0" IVar="-1" Cut="0.0000000000000000e+00" cType="1" res="4.2875349521636963e-02" rms="1.1810298264026642e-01" purity="9.7301894426345825e-01" nType="-99"/>
          <Node pos="r" depth="2" NCoef="0" IVar="-1" Cut="0.0000000000000000e+00" cType="1" res="-4.8160236328840256e-02" rms="1.2955082952976227e-01" purity="1.7309205606579781e-02" nType="-99"/>
        </Node>
        <Node pos="r" depth="1" NCoef="0" IVar="9" Cut="2.0600835800170898e+01" cType="1" res="-5.1243711262941360e-02" rms="1.3227874040603638e-01" purity="2.6019994169473648e-02" nType="0">
          <Node pos="l" depth="2" NCoef="0" IVar="-1" Cut="0.0000000000000000e+00" cType="1" res="1.1764445342123508e-02" rms="3.1450143456459045e-01" purity="1.7892156541347504e-01" nType="-99"/>
          <Node pos="r" depth="2" NCoef="0" IVar="-1" Cut="0.0000000000000000e+00" cType="1" res="-4.5368887484073639e-02" rms="1.0019996762275696e-01" purity="1.3073929585516453e-02" nType="-99"/>
        </Node>
      </Node>
    </BinaryTree>
    <BinaryTree type="DecisionTree" boostWeight="1.0000000000000000e+00" itree="23">
      <Node pos="s" depth="0" NCoef="0" IVar="27" Cut="1.6594540327787399e-02" cType="1" res="-3.6400332464836538e-04" rms="1.3469149172306061e-01" purity="4.9910786747932434e-01" nType="0">
        <Node pos="l" depth="1" NCoef="0" IVar="30" Cut="3.0155511856079102e+01" cType="1" res="4.0720582008361816e-02" rms="1.2197770923376083e-01" purity="9.2160838842391968e-01" nType="0">
          <Node pos="l" depth="2" NCoef="0" IVar="-1" Cut="0.0000000000000000e+00" cType="1" res="4.4006135314702988e-02" rms="9.6928365528583527e-02" purity="9.8980200290679932e-01" nType="-99"/>
          <Node pos="r" depth="2" NCoef="0" IVar="-1" Cut="0.0000000000000000e+00" cType="1" res="-2.0461477339267731e-02" rms="2.6909071207046509e-01" purity="9.7291320562362671e-02" nType="-99"/>
        </Node>
        <Node pos="r" depth="1" NCoef="0" IVar="28" Cut="3.4940682983398438e+02" cType="1" res="-4.6333692967891693e-02" rms="1.3338363170623779e-01" purity="2.6370510458946228e-02" nType="0">
          <Node pos="l" depth="2" NCoef="0" IVar="-1" Cut="0.0000000000000000e+00" cType="1" res="1.0357192717492580e-02" rms="4.3210378289222717e-01" purity="3.0676788091659546e-01" nType="-99"/>
          <Node pos="r" depth="2" NCoef="0" IVar="-1" Cut="0.0000000000000000e+00" cType="1" res="-4.9661874771118164e-02" rms="5.9195838868618011e-02" purity="3.7284845020622015e-03" nType="-99"/>
        </Node>
      </Node>
    </BinaryTree>
    <BinaryTree type="DecisionTree" boostWeight="1.0000000000000000e+00" itree="24">
      <Node pos="s" depth="0" NCoef="0" IVar="27" Cut="1.6634043306112289e-02" cType="1" res="-8.3466700743883848e-04" rms="1.3197122514247894e-01" purity="4.9983322620391846e-01" nType="0">
        <Node pos="l" depth="1" NCoef="0" IVar="30" Cut="2.5023506164550781e+01" cType="1" res="3.6077089607715607e-02" rms="1.2264302372932434e-01" purity="9.2212647199630737e-01" nType="0">
          <Node pos="l" depth="2" NCoef="0" IVar="-1" Cut="0.0000000000000000e+00" cType="1" res="4.5798946171998978e-02" rms="8.2951031625270844e-02" purity="9.9302184581756592e-01" nType="-99"/>
          <Node pos="r" depth="2" NCoef="0" IVar="-1" Cut="0.0000000000000000e+00" cType="1" res="-2.6453940197825432e-02" rms="2.9450795054435730e-01" purity="2.1057513356208801e-01" nType="-99"/>
        </Node>
        <Node pos="r" depth="1" NCoef="0" IVar="22" Cut="1.4533933997154236e-01" cType="1" res="-4.2307667434215546e-02" rms="1.2974643707275391e-01" purity="2.5356501340866089e-02" nType="0">
          <Node pos="l" depth="2" NCoef="0" IVar="-1" Cut="0.0000000000000000e+00" cType="1" res="-4.1482497006654739e-02" rms="1.1126922816038132e-01" purity="1.7196035012602806e-02" nType="-99"/>
          <Node pos="r" depth="2" NCoef="0" IVar="-1" Cut="0.0000000000000000e+00" cType="1" res="2.5542579591274261e-02" rms="2.6850089430809021e-01" purity="1.4011380076408386e-01" nType="-99"/>
        </Node>
      </Node>
    </BinaryTree>
    <BinaryTree type="DecisionTree" boostWeight="1.0000000000000000e+00" itree="25">
      <Node pos="s" depth="0" NCoef="0" IVar="27" Cut="3.3229429274797440e-02" cType="1" res="-1.5807909949216992e-04" rms="1.2999659776687622e-01" purity="5.0313210487365723e-01" nType="0">
        <Node pos="l" depth="1" NCoef="0" IVar="11" Cut="2.7178073883056641e+01" cType="1" res="2.5994567200541496e-02" rms="1.4173237979412079e-01" purity="7.4867999553680420e-01" nType="0">
          <Node pos="l" depth="2" NCoef="0" IVar="-1" Cut="0.0000000000000000e+00" cType="1" res="1.0159345716238022e-01" rms="3.4499546885490417e-01" purity="8.2020545005798340e-01" nType="-99"/>
          <Node pos="r" depth="2" NCoef="0" IVar="-1" Cut="0.0000000000000000e+00" cType="1" res="1.7902215942740440e-02" rms="1.2099495530128479e-01" purity="7.4579375982284546e-01" nType="-99"/>
        </Node>
        <Node pos="r" depth="1" NCoef="0" IVar="28" Cut="4.0065063476562500e+02" cType="1" res="-5.2995022386312485e-02" rms="7.9264193773269653e-02" purity="7.0446156896650791e-03" nType="0">
          <Node pos="l" depth="2" NCoef="0" IVar="-1" Cut="0.0000000000000000e+00" cType="1" res="-4.4136740267276764e-02" rms="1.5310683846473694e-01" purity="2.7062190696597099e-02" nType="-99"/>
          <Node pos="r" depth="2" NCoef="0" IVar="-1" Cut="0.0000000000000000e+00" cType="1" res="-5.2341874688863754e-02" rms="1.1082139797508717e-02" purity="9.0399567852728069e-05" nType="-99"/>
        </Node>
      </Node>
    </BinaryTree>
    <BinaryTree type="DecisionTree" boostWeight="1.0000000000000000e+00" itree="26">
      <Node pos="s" depth="0" NCoef="0" IVar="26" Cut="1.6441039741039276e-02" cType="1" res="-4.3440621811896563e-04" rms="1.2712335586547852e-01" purity="5.0107127428054810e-01" nType="0">
        <Node pos="l" depth="1" NCoef="0" IVar="27" Cut="7.1898903697729111e-03" cType="1" res="3.3614661544561386e-02" rms="9.8525114357471466e-02" purity="9.5186311006546021e-01" nType="0">
          <Node pos="l" depth="2" NCoef="0" IVar="-1" Cut="0.0000000000000000e+00" cType="1" res="4.6929553151130676e-02" rms="7.1245662868022919e-02" purity="9.9044936895370483e-01" nType="-99"/>
          <Node pos="r" depth="2" NCoef="0" IVar="-1" Cut="0.0000000000000000e+00" cType="1" res="-2.8966512531042099e-02" rms="2.1057169139385223e-01" purity="6.1177551746368408e-01" nType="-99"/>
        </Node>
        <Node pos="r" depth="1" NCoef="0" IVar="28" Cut="3.4744589233398438e+02" cType="1" res="-3.1384807080030441e-02" rms="1.4147248864173889e-01" purity="9.1304160654544830e-02" nType="0">
          <Node pos="l" depth="2" NCoef="0" IVar="-1" Cut="0.0000000000000000e+00" cType="1" res="2.0668515935540199e-02" rms="3.4587767720222473e-01" purity="6.0442656278610229e-01" nType="-99"/>
          <Node pos="r" depth="2" NCoef="0" IVar="-1" Cut="0.0000000000000000e+00" cType="1" res="-4.3650329113006592e-02" rms="8.5028238594532013e-02" purity="3.0544172972440720e-02" nType="-99"/>
        </Node>
      </Node>
    </BinaryTree>
    <BinaryTree type="DecisionTree" boostWeight="1.0000000000000000e+00" itree="27">
      <Node pos="s" depth="0" NCoef="0" IVar="27" Cut="3.3238109201192856e-02" cType="1" res="-1.8838576579582877e-05" rms="1.2593802809715271e-01" purity="5.0138753652572632e-01" nType="0">
        <Node pos="l" depth="1" NCoef="0" IVar="30" Cut="8.5916732788085938e+01" cType="1" res="2.1950889378786087e-02" rms="1.3796190917491913e-01" purity="7.4912476539611816e-01" nType="0">
          <Node pos="l" depth="2" NCoef="0" IVar="-1" Cut="0.0000000000000000e+00" cType="1" res="3.5589642822742462e-02" rms="1.4557056128978729e-01" purity="8.9354336261749268e-01" nType="-99"/>
          <Node pos="r" depth="2" NCoef="0" IVar="-1" Cut="0.0000000000000000e+00" cType="1" res="-5.1856163889169693e-02" rms="3.8147535175085068e-02" purity="1.2360939290374517e-03" nType="-99"/>
        </Node>
        <Node pos="r" depth="1" NCoef="0" IVar="28" Cut="3.7132284545898438e+02" cType="1" res="-4.3793357908725739e-02" rms="8.1609345972537994e-02" purity="7.7730533666908741e-03" nType="0">
          <Node pos="l" depth="2" NCoef="0" IVar="-1" Cut="0.0000000000000000e+00" cType="1" res="-3.6227598786354065e-02" rms="2.2160416841506958e-01" purity="5.9585493057966232e-02" nType="-99"/>
          <Node pos="r" depth="2" NCoef="0" IVar="-1" Cut="0.0000000000000000e+00" cType="1" res="-5.1820524036884308e-02" rms="1.3202828355133533e-02" purity="1.5241578512359411e-04" nType="-99"/>
        </Node>
      </Node>
    </BinaryTree>
    <BinaryTree type="DecisionTree" boostWeight="1.0000000000000000e+00" itree="28">
      <Node pos="s" depth="0" NCoef="0" IVar="27" Cut="3.3238235861063004e-02" cType="1" res="3.0379040981642902e-04" rms="1.2791122496128082e-01" purity="4.9907010793685913e-01" nType="0">
        <Node pos="l" depth="1" NCoef="0" IVar="30" Cut="8.1471458435058594e+01" cType="1" res="2.0734209567308426e-02" rms="1.4067281782627106e-01" purity="7.4779701232910156e-01" nType="0">
          <Node pos="l" depth="2" NCoef="0" IVar="-1" Cut="0.0000000000000000e+00" cType="1" res="3.5544682294130325e-02" rms="1.5017983317375183e-01" purity="9.0193045139312744e-01" nType="-99"/>
          <Node pos="r" depth="2" NCoef="0" IVar="-1" Cut="0.0000000000000000e+00" cType="1" res="-5.2164949476718903e-02" rms="2.8459280729293823e-02" purity="5.9230008628219366e-04" nType="-99"/>
        </Node>
        <Node pos="r" depth="1" NCoef="0" IVar="28" Cut="4.0065063476562500e+02" cType="1" res="-4.0011238306760788e-02" rms="8.4550447762012482e-02" purity="8.2611590623855591e-03" nType="0">
          <Node pos="l" depth="2" NCoef="0" IVar="-1" Cut="0.0000000000000000e+00" cType="1" res="-3.8449268788099289e-02" rms="1.6270615160465240e-01" purity="3.1130390241742134e-02" nType="-99"/>
          <Node pos="r" depth="2" NCoef="0" IVar="-1" Cut="0.0000000000000000e+00" cType="1" res="-5.1546003669500351e-02" rms="1.4086316339671612e-02" purity="1.8032638763543218e-04" nType="-99"/>
        </Node>
      </Node>
    </BinaryTree>
    <BinaryTree type="DecisionTree" boostWeight="1.0000000000000000e+00" itree="29">
      <Node pos="s" depth="0" NCoef="0" IVar="27" Cut="3.3108349889516830e-02" cType="1" res="-5.5167876416817307e-04" rms="1.2506325542926788e-01" purity="4.9907425045967102e-01" nType="0">
        <Node pos="l" depth="1" NCoef="0" IVar="10" Cut="2.5767477035522461e+01" cType="1" res="1.7333362251520157e-02" rms="1.3909596204757690e-01" purity="7.4589616060256958e-01" nType="0">
          <Node pos="l" depth="2" NCoef="0" IVar="-1" Cut="0.0000000000000000e+00" cType="1" res="7.1603275835514069e-02" rms="2.7658891677856445e-01" purity="8.0614036321640015e-01" nType="-99"/>
          <Node pos="r" depth="2" NCoef="0" IVar="-1" Cut="0.0000000000000000e+00" cType="1" res="1.0480267927050591e-02" rms="1.1708126962184906e-01" purity="7.4091404676437378e-01" nType="-99"/>
        </Node>
        <Node pos="r" depth="1" NCoef="0" IVar="28" Cut="3.9142111206054688e+02" cType="1" res="-3.6192808300256729e-02" rms="7.9662226140499115e-02" purity="7.2100940160453320e-03" nType="0">
          <Node pos="l" depth="2" NCoef="0" IVar="-1" Cut="0.0000000000000000e+00" cType="1" res="-3.6655947566032410e-02" rms="1.7162925004959106e-01" purity="3.4005038440227509e-02" nType="-99"/>
          <Node pos="r" depth="2" NCoef="0" IVar="-1" Cut="0.0000000000000000e+00" cType="1" res="-5.1639035344123840e-02" rms="3.7501701153814793e-03" purity="0.0000000000000000e+00" nType="-99"/>
        </Node>
      </Node>
    </BinaryTree>
    <BinaryTree type="DecisionTree" boostWeight="1.0000000000000000e+00" itree="30">
      <Node pos="s" depth="0" NCoef="0" IVar="27" Cut="1.6614323481917381e-02" cType="1" res="-3.3381820685463026e-05" rms="1.2231967598199844e-01" purity="5.0179725885391235e-01" nType="0">
        <Node pos="l" depth="1" NCoef="0" IVar="27" Cut="8.7092490866780281e-03" cType="1" res="2.2302145138382912e-02" rms="1.1949969828128815e-01" purity="9.2304778099060059e-01" nType="0">
          <Node pos="l" depth="2" NCoef="0" IVar="-1" Cut="0.0000000000000000e+00" cType="1" res="4.1127830743789673e-02" rms="8.3779573440551758e-02" purity="9.8385441303253174e-01" nType="-99"/>
          <Node pos="r" depth="2" NCoef="0" IVar="-1" Cut="0.0000000000000000e+00" cType="1" res="-1.6893852502107620e-02" rms="2.3703004419803619e-01" purity="5.4971462488174438e-01" nType="-99"/>
        </Node>
        <Node pos="r" depth="1" NCoef="0" IVar="8" Cut="1.9412767410278320e+01" cType="1" res="-2.5285286828875542e-02" rms="1.2054624408483505e-01" purity="2.5543453171849251e-02" nType="0">
          <Node pos="l" depth="2" NCoef="0" IVar="-1" Cut="0.0000000000000000e+00" cType="1" res="2.5826904922723770e-02" rms="2.9482641816139221e-01" purity="1.9524405896663666e-01" nType="-99"/>
          <Node pos="r" depth="2" NCoef="0" IVar="-1" Cut="0.0000000000000000e+00" cType="1" res="-4.0471643209457397e-02" rms="8.9763261377811432e-02" purity="1.1583011597394943e-02" nType="-99"/>
        </Node>
      </Node>
    </BinaryTree>
    <BinaryTree type="DecisionTree" boostWeight="1.0000000000000000e+00" itree="31">
      <Node pos="s" depth="0" NCoef="0" IVar="27" Cut="3.3262860029935837e-02" cType="1" res="9.1395509662106633e-04" rms="1.2465581297874451e-01" purity="5.0391602516174316e-01" nType="0">
        <Node pos="l" depth="1" NCoef="0" IVar="10" Cut="2.5796979904174805e+01" cType="1" res="1.6602620482444763e-02" rms="1.3984121382236481e-01" purity="7.4810612201690674e-01" nType="0">
          <Node pos="l" depth="2" NCoef="0" IVar="-1" Cut="0.0000000000000000e+00" cType="1" res="7.0213347673416138e-02" rms="2.8781172633171082e-01" purity="8.1759929656982422e-01" nType="-99"/>
          <Node pos="r" depth="2" NCoef="0" IVar="-1" Cut="0.0000000000000000e+00" cType="1" res="9.5677906647324562e-03" rms="1.1480218917131424e-01" purity="7.4221688508987427e-01" nType="-99"/>
        </Node>
        <Node pos="r" depth="1" NCoef="0" IVar="28" Cut="3.6388775634765625e+02" cType="1" res="-3.1016416847705841e-02" rms="7.6446093618869781e-02" purity="6.9279358722269535e-03" nType="0">
          <Node pos="l" depth="2" NCoef="0" IVar="-1" Cut="0.0000000000000000e+00" cType="1" res="-3.0388465151190758e-02" rms="2.3262287676334381e-01" purity="6.6142760217189789e-02" nType="-99"/>
          <Node pos="r" depth="2" NCoef="0" IVar="-1" Cut="0.0000000000000000e+00" cType="1" res="-5.1291354000568390e-02" rms="9.9363839253783226e-03" purity="7.5780539191327989e-05" nType="-99"/>
        </Node>
      </Node>
    </BinaryTree>
    <BinaryTree type="DecisionTree" boostWeight="1.0000000000000000e+00" itree="32">
      <Node pos="s" depth="0" NCoef="0" IVar="26" Cut="1.6146024689078331e-02" cType="1" res="2.0558827964123338e-04" rms="1.2100391089916229e-01" purity="5.0183916091918945e-01" nType="0">
        <Node pos="l" depth="1" NCoef="0" IVar="27" Cut="7.4670552276074886e-03" cType="1" res="2.1168660372495651e-02" rms="9.9756583571434021e-02" purity="9.5442688465118408e-01" nType="0">
          <Node pos="l" depth="2" NCoef="0" IVar="-1" Cut="0.0000000000000000e+00" cType="1" res="4.3546404689550400e-02" rms="7.4765674769878387e-02" purity="9.8950147628784180e-01" nType="-99"/>
          <Node pos="r" depth="2" NCoef="0" IVar="-1" Cut="0.0000000000000000e+00" cType="1" res="-4.5413285493850708e-02" rms="2.2539784014225006e-01" purity="5.6710451841354370e-01" nType="-99"/>
        </Node>
        <Node pos="r" depth="1" NCoef="0" IVar="8" Cut="1.8229293823242188e+01" cType="1" res="-1.8605777993798256e-02" rms="1.3454684615135193e-01" purity="9.5706202089786530e-02" nType="0">
          <Node pos="l" depth="2" NCoef="0" IVar="-1" Cut="0.0000000000000000e+00" cType="1" res="4.3480344116687775e-02" rms="2.7962252497673035e-01" purity="4.6294820308685303e-01" nType="-99"/>
          <Node pos="r" depth="2" NCoef="0" IVar="-1" Cut="0.0000000000000000e+00" cType="1" res="-2.9969686642289162e-02" rms="1.1875972896814346e-01" purity="7.4986509978771210e-02" nType="-99"/>
        </Node>
      </Node>
    </BinaryTree>
    <BinaryTree type="DecisionTree" boostWeight="1.0000000000000000e+00" itree="33">
      <Node pos="s" depth="0" NCoef="0" IVar="27" Cut="3.3254180103540421e-02" cType="1" res="-2.4866743478924036e-04" rms="1.1924709379673004e-01" purity="5.0252199172973633e-01" nType="0">
        <Node pos="l" depth="1" NCoef="0" IVar="24" Cut="7.0336088538169861e-02" cType="1" res="1.2522847391664982e-02" rms="1.3283149898052216e-01" purity="7.4786323308944702e-01" nType="0">
          <Node pos="l" depth="2" NCoef="0" IVar="-1" Cut="0.0000000000000000e+00" cType="1" res="9.1009847819805145e-03" rms="1.1538901180028915e-01" purity="7.6318180561065674e-01" nType="-99"/>
          <Node pos="r" depth="2" NCoef="0" IVar="-1" Cut="0.0000000000000000e+00" cType="1" res="6.4417466521263123e-02" rms="3.1120941042900085e-01" purity="4.1400304436683655e-01" nType="-99"/>
        </Node>
        <Node pos="r" depth="1" NCoef="0" IVar="28" Cut="3.7329440307617188e+02" cType="1" res="-2.6001488789916039e-02" rms="7.9516269266605377e-02" purity="7.8093442134559155e-03" nType="0">
          <Node pos="l" depth="2" NCoef="0" IVar="-1" Cut="0.0000000000000000e+00" cType="1" res="-2.7215819805860519e-02" rms="2.1063227951526642e-01" purity="5.6056056171655655e-02" nType="-99"/>
          <Node pos="r" depth="2" NCoef="0" IVar="-1" Cut="0.0000000000000000e+00" cType="1" res="-5.0534024834632874e-02" rms="1.8164902925491333e-02" purity="3.1113877776078880e-04" nType="-99"/>
        </Node>
      </Node>
    </BinaryTree>
    <BinaryTree type="DecisionTree" boostWeight="1.0000000000000000e+00" itree="34">
      <Node pos="s" depth="0" NCoef="0" IVar="27" Cut="1.6626698896288872e-02" cType="1" res="3.4471476101316512e-04" rms="1.1842056363821030e-01" purity="5.0018960237503052e-01" nType="0">
        <Node pos="l" depth="1" NCoef="0" IVar="27" Cut="9.5066633075475693e-03" cType="1" res="1.7372306436300278e-02" rms="1.1898992955684662e-01" purity="9.2364865541458130e-01" nType="0">
          <Node pos="l" depth="2" NCoef="0" IVar="-1" Cut="0.0000000000000000e+00" cType="1" res="3.7515845149755478e-02" rms="8.7333969771862030e-02" purity="9.8086237907409668e-01" nType="-99"/>
          <Node pos="r" depth="2" NCoef="0" IVar="-1" Cut="0.0000000000000000e+00" cType="1" res="-1.8685173243284225e-02" rms="2.4466829001903534e-01" purity="5.0229603052139282e-01" nType="-99"/>
        </Node>
        <Node pos="r" depth="1" NCoef="0" IVar="0" Cut="3.9805255889892578e+01" cType="1" res="-1.8713438883423805e-02" rms="1.1482339352369308e-01" purity="2.6232453063130379e-02" nType="0">
          <Node pos="l" depth="2" NCoef="0" IVar="-1" Cut="0.0000000000000000e+00" cType="1" res="2.5764685124158859e-02" rms="2.8992980718612671e-01" purity="2.0428335666656494e-01" nType="-99"/>
          <Node pos="r" depth="2" NCoef="0" IVar="-1" Cut="0.0000000000000000e+00" cType="1" res="-3.4405369311571121e-02" rms="9.2466726899147034e-02" purity="1.5393872745335102e-02" nType="-99"/>
        </Node>
      </Node>
    </BinaryTree>
    <BinaryTree type="DecisionTree" boostWeight="1.0000000000000000e+00" itree="35">
      <Node pos="s" depth="0" NCoef="0" IVar="26" Cut="1.6289772465825081e-02" cType="1" res="-3.4859325387515128e-04" rms="1.1318789422512054e-01" purity="5.0060415267944336e-01" nType="0">
        <Node pos="l" depth="1" NCoef="0" IVar="27" Cut="6.6104619763791561e-03" cType="1" res="1.6858024522662163e-02" rms="9.2151939868927002e-02" purity="9.5400017499923706e-01" nType="0">
          <Node pos="l" depth="2" NCoef="0" IVar="-1" Cut="0.0000000000000000e+00" cType="1" res="4.3752685189247131e-02" rms="6.5681263804435730e-02" purity="9.9206733703613281e-01" nType="-99"/>
          <Node pos="r" depth="2" NCoef="0" IVar="-1" Cut="0.0000000000000000e+00" cType="1" res="-3.1809419393539429e-02" rms="1.8634463846683502e-01" purity="6.8709796667098999e-01" nType="-99"/>
        </Node>
        <Node pos="r" depth="1" NCoef="0" IVar="9" Cut="2.2424306869506836e+01" cType="1" res="-1.5841573476791382e-02" rms="1.2725649774074554e-01" purity="9.2362649738788605e-02" nType="0">
          <Node pos="l" depth="2" NCoef="0" IVar="-1" Cut="0.0000000000000000e+00" cType="1" res="2.1485570818185806e-02" rms="2.2887913882732391e-01" purity="3.1075382232666016e-01" nType="-99"/>
          <Node pos="r" depth="2" NCoef="0" IVar="-1" Cut="0.0000000000000000e+00" cType="1" res="-3.6884766072034836e-02" rms="9.3599356710910797e-02" purity="5.0349861383438110e-02" nType="-99"/>
        </Node>
      </Node>
    </BinaryTree>
    <BinaryTree type="DecisionTree" boostWeight="1.0000000000000000e+00" itree="36">
      <Node pos="s" depth="0" NCoef="0" IVar="7" Cut="1.6740354537963867e+01" cType="1" res="5.7692494010552764e-04" rms="1.1800672858953476e-01" purity="4.9942028522491455e-01" nType="0">
        <Node pos="l" depth="1" NCoef="0" IVar="-1" Cut="0.0000000000000000e+00" cType="1" res="5.2270382642745972e-02" rms="2.4154713749885559e-01" purity="6.7022472620010376e-01" nType="-99"/>
        <Node pos="r" depth="1" NCoef="0" IVar="26" Cut="1.6565607860684395e-02" cType="1" res="-2.4461073335260153e-03" rms="1.0890157520771027e-01" purity="4.9236127734184265e-01" nType="0">
          <Node pos="l" depth="2" NCoef="0" IVar="-1" Cut="0.0000000000000000e+00" cType="1" res="2.3392427712678909e-02" rms="9.9252298474311829e-02" purity="9.4722688198089600e-01" nType="-99"/>
          <Node pos="r" depth="2" NCoef="0" IVar="-1" Cut="0.0000000000000000e+00" cType="1" res="-2.5232480838894844e-02" rms="1.1513500660657883e-01" purity="6.6531807184219360e-02" nType="-99"/>
        </Node>
      </Node>
    </BinaryTree>
    <BinaryTree type="DecisionTree" boostWeight="1.0000000000000000e+00" itree="37">
      <Node pos="s" depth="0" NCoef="0" IVar="27" Cut="1.6594540327787399e-02" cType="1" res="-2.5042233755812049e-04" rms="1.1649337410926819e-01" purity="5.0073122978210449e-01" nType="0">
        <Node pos="l" depth="1" NCoef="0" IVar="23" Cut="8.2276791334152222e-02" cType="1" res="1.3032909482717514e-02" rms="1.1859910190105438e-01" purity="9.2359513044357300e-01" nType="0">
          <Node pos="l" depth="2" NCoef="0" IVar="-1" Cut="0.0000000000000000e+00" cType="1" res="1.4251091517508030e-02" rms="1.0715033859014511e-01" purity="9.2352366447448730e-01" nType="-99"/>
          <Node pos="r" depth="2" NCoef="0" IVar="-1" Cut="0.0000000000000000e+00" cType="1" res="7.0645034313201904e-02" rms="2.2798019647598267e-01" purity="9.2479521036148071e-01" nType="-99"/>
        </Node>
        <Node pos="r" depth="1" NCoef="0" IVar="10" Cut="2.3712278366088867e+01" cType="1" res="-1.5204416587948799e-02" rms="1.1221025884151459e-01" purity="2.4683216586709023e-02" nType="0">
          <Node pos="l" depth="2" NCoef="0" IVar="-1" Cut="0.0000000000000000e+00" cType="1" res="1.5176369808614254e-02" rms="2.3144845664501190e-01" purity="1.2335958331823349e-01" nType="-99"/>
          <Node pos="r" depth="2" NCoef="0" IVar="-1" Cut="0.0000000000000000e+00" cType="1" res="-3.9711352437734604e-02" rms="7.3925249278545380e-02" purity="8.1403665244579315e-03" nType="-99"/>
        </Node>
      </Node>
    </BinaryTree>
    <BinaryTree type="DecisionTree" boostWeight="1.0000000000000000e+00" itree="38">
      <Node pos="s" depth="0" NCoef="0" IVar="27" Cut="3.3187050372362137e-02" cType="1" res="1.4262100448831916e-03" rms="1.1527843773365021e-01" purity="5.0209695100784302e-01" nType="0">
        <Node pos="l" depth="1" NCoef="0" IVar="12" Cut="3.0399871826171875e+01" cType="1" res="1.1153405532240868e-02" rms="1.2810641527175903e-01" purity="7.4908310174942017e-01" nType="0">
          <Node pos="l" depth="2" NCoef="0" IVar="-1" Cut="0.0000000000000000e+00" cType="1" res="6.0722474008798599e-02" rms="3.0084618926048279e-01" purity="7.0115774869918823e-01" nType="-99"/>
          <Node pos="r" depth="2" NCoef="0" IVar="-1" Cut="0.0000000000000000e+00" cType="1" res="8.8073136284947395e-03" rms="1.1025832593441010e-01" purity="7.5142037868499756e-01" nType="-99"/>
        </Node>
        <Node pos="r" depth="1" NCoef="0" IVar="15" Cut="6.9519020617008209e-03" cType="1" res="-1.8014444038271904e-02" rms="8.0512203276157379e-02" purity="8.4734363481402397e-03" nType="0">
          <Node pos="l" depth="2" NCoef="0" IVar="-1" Cut="0.0000000000000000e+00" cType="1" res="-2.7671001851558685e-02" rms="9.3518733978271484e-02" purity="1.2532572261989117e-02" nType="-99"/>
          <Node pos="r" depth="2" NCoef="0" IVar="-1" Cut="0.0000000000000000e+00" cType="1" res="-4.6981140971183777e-02" rms="6.1143316328525543e-02" purity="3.6705329548567533e-03" nType="-99"/>
        </Node>
      </Node>
    </BinaryTree>
    <BinaryTree type="DecisionTree" boostWeight="1.0000000000000000e+00" itree="39">
      <Node pos="s" depth="0" NCoef="0" IVar="7" Cut="1.6306928634643555e+01" cType="1" res="-1.6738619888201356e-04" rms="1.1521674692630768e-01" purity="4.9838620424270630e-01" nType="0">
        <Node pos="l" depth="1" NCoef="0" IVar="-1" Cut="0.0000000000000000e+00" cType="1" res="5.0955832004547119e-02" rms="2.5978019833564758e-01" purity="6.8497574329376221e-01" nType="-99"/>
        <Node pos="r" depth="1" NCoef="0" IVar="25" Cut="1.6792017966508865e-02" cType="1" res="-2.3941157851368189e-03" rms="1.0751160979270935e-01" purity="4.9309864640235901e-01" nType="0">
          <Node pos="l" depth="2" NCoef="0" IVar="-1" Cut="0.0000000000000000e+00" cType="1" res="3.0144348740577698e-02" rms="7.9917967319488525e-02" purity="9.6884137392044067e-01" nType="-99"/>
          <Node pos="r" depth="2" NCoef="0" IVar="-1" Cut="0.0000000000000000e+00" cType="1" res="-1.9269201904535294e-02" rms="1.1951832473278046e-01" purity="2.1602433919906616e-01" nType="-99"/>
        </Node>
      </Node>
    </BinaryTree>
    <BinaryTree type="DecisionTree" boostWeight="1.0000000000000000e+00" itree="40">
      <Node pos="s" depth="0" NCoef="0" IVar="28" Cut="3.3577041625976562e+02" cType="1" res="3.2617480610497296e-04" rms="1.1449382454156876e-01" purity="5.0181937217712402e-01" nType="0">
        <Node pos="l" depth="1" NCoef="0" IVar="28" Cut="3.2039114379882812e+02" cType="1" res="5.8332454413175583e-02" rms="2.4413843452930450e-01" purity="8.1378090381622314e-01" nType="0">
          <Node pos="l" depth="2" NCoef="0" IVar="-1" Cut="0.0000000000000000e+00" cType="1" res="6.8000249564647675e-02" rms="2.6445662975311279e-01" purity="8.6671686172485352e-01" nType="-99"/>
          <Node pos="r" depth="2" NCoef="0" IVar="-1" Cut="0.0000000000000000e+00" cType="1" res="3.6252124700695276e-03" rms="2.1059839427471161e-01" purity="7.6697736978530884e-01" nType="-99"/>
        </Node>
        <Node pos="r" depth="1" NCoef="0" IVar="27" Cut="1.6644610092043877e-02" cType="1" res="-3.5601360723376274e-03" rms="9.8758503794670105e-02" purity="4.8091855645179749e-01" nType="0">
          <Node pos="l" depth="2" NCoef="0" IVar="-1" Cut="0.0000000000000000e+00" cType="1" res="1.6004880890250206e-02" rms="1.1645522713661194e-01" purity="9.1327178478240967e-01" nType="-99"/>
          <Node pos="r" depth="2" NCoef="0" IVar="-1" Cut="0.0000000000000000e+00" cType="1" res="-3.9477411657571793e-02" rms="7.1748077869415283e-02" purity="6.8493150174617767e-03" nType="-99"/>
        </Node>
      </Node>
    </BinaryTree>
    <BinaryTree type="DecisionTree" boostWeight="1.0000000000000000e+00" itree="41">
      <Node pos="s" depth="0" NCoef="0" IVar="28" Cut="3.4025039672851562e+02" cType="1" res="-1.4778808690607548e-04" rms="1.1392679810523987e-01" purity="5.0275516510009766e-01" nType="0">
        <Node pos="l" depth="1" NCoef="0" IVar="23" Cut="8.5489913821220398e-02" cType="1" res="3.8947694003582001e-02" rms="2.4227412045001984e-01" purity="7.8142559528350830e-01" nType="0">
          <Node pos="l" depth="2" NCoef="0" IVar="-1" Cut="0.0000000000000000e+00" cType="1" res="-4.1470453143119812e-03" rms="1.7574436962604523e-01" purity="7.8940153121948242e-01" nType="-99"/>
          <Node pos="r" depth="2" NCoef="0" IVar="-1" Cut="0.0000000000000000e+00" cType="1" res="4.8664785921573639e-02" rms="3.1619393825531006e-01" purity="7.6677852869033813e-01" nType="-99"/>
        </Node>
        <Node pos="r" depth="1" NCoef="0" IVar="25" Cut="1.6778632998466492e-02" cType="1" res="-3.3371960744261742e-03" rms="9.5471598207950592e-02" purity="4.8002123832702637e-01" nType="0">
          <Node pos="l" depth="2" NCoef="0" IVar="-1" Cut="0.0000000000000000e+00" cType="1" res="2.7673022821545601e-02" rms="7.8843668103218079e-02" purity="9.6664571762084961e-01" nType="-99"/>
          <Node pos="r" depth="2" NCoef="0" IVar="-1" Cut="0.0000000000000000e+00" cType="1" res="-2.4717792868614197e-02" rms="1.0314590483903885e-01" purity="1.7742818593978882e-01" nType="-99"/>
        </Node>
      </Node>
    </BinaryTree>
    <BinaryTree type="DecisionTree" boostWeight="1.0000000000000000e+00" itree="42">
      <Node pos="s" depth="0" NCoef="0" IVar="27" Cut="3.3229429274797440e-02" cType="1" res="-1.0140495578525588e-04" rms="1.1345484107732773e-01" purity="4.9751877784729004e-01" nType="0">
        <Node pos="l" depth="1" NCoef="0" IVar="23" Cut="9.8524369299411774e-02" cType="1" res="7.7730184420943260e-03" rms="1.2819460034370422e-01" purity="7.4762850999832153e-01" nType="0">
          <Node pos="l" depth="2" NCoef="0" IVar="-1" Cut="0.0000000000000000e+00" cType="1" res="4.9261865206062794e-03" rms="1.1345066875219345e-01" purity="7.5990360975265503e-01" nType="-99"/>
          <Node pos="r" depth="2" NCoef="0" IVar="-1" Cut="0.0000000000000000e+00" cType="1" res="5.7633120566606522e-02" rms="2.8032469749450684e-01" purity="5.0035691261291504e-01" nType="-99"/>
        </Node>
        <Node pos="r" depth="1" NCoef="0" IVar="28" Cut="3.6783163452148438e+02" cType="1" res="-1.5536066144704819e-02" rms="7.4368268251419067e-02" purity="7.2785019874572754e-03" nType="0">
          <Node pos="l" depth="2" NCoef="0" IVar="-1" Cut="0.0000000000000000e+00" cType="1" res="-2.0657336339354515e-02" rms="2.1791648864746094e-01" purity="6.3529409468173981e-02" nType="-99"/>
          <Node pos="r" depth="2" NCoef="0" IVar="-1" Cut="0.0000000000000000e+00" cType="1" res="-5.0195090472698212e-02" rms="1.2966196052730083e-02" purity="1.4910906611476094e-04" nType="-99"/>
        </Node>
      </Node>
    </BinaryTree>
    <BinaryTree type="DecisionTree" boostWeight="1.0000000000000000e+00" itree="43">
      <Node pos="s" depth="0" NCoef="0" IVar="7" Cut="1.6740354537963867e+01" cType="1" res="-7.0097652496770024e-04" rms="1.1446762830018997e-01" purity="4.9732321500778198e-01" nType="0">
        <Node pos="l" depth="1" NCoef="0" IVar="-1" Cut="0.0000000000000000e+00" cType="1" res="4.3551221489906311e-02" rms="2.3419967293739319e-01" purity="6.8197280168533325e-01" nType="-99"/>
        <Node pos="r" depth="1" NCoef="0" IVar="25" Cut="1.6771588474512100e-02" cType="1" res="-3.0292137525975704e-03" rms="1.0609015077352524e-01" purity="4.8975989222526550e-01" nType="0">
          <Node pos="l" depth="2" NCoef="0" IVar="-1" Cut="0.0000000000000000e+00" cType="1" res="2.4266051128506660e-02" rms="7.9178743064403534e-02" purity="9.6821027994155884e-01" nType="-99"/>
          <Node pos="r" depth="2" NCoef="0" IVar="-1" Cut="0.0000000000000000e+00" cType="1" res="-1.8565274775028229e-02" rms="1.1838777363300323e-01" purity="2.0748727023601532e-01" nType="-99"/>
        </Node>
      </Node>
    </BinaryTree>
    <BinaryTree type="DecisionTree" boostWeight="1.0000000000000000e+00" itree="44">
      <Node pos="s" depth="0" NCoef="0" IVar="25" Cut="1.3700071722269058e-02" cType="1" res="-5.5245531257241964e-04" rms="1.1360444128513336e-01" purity="5.0032448768615723e-01" nType="0">
        <Node pos="l" depth="1" NCoef="0" IVar="27" Cut="3.0444255098700523e-03" cType="1" res="1.4027998782694340e-02" rms="6.8598732352256775e-02" purity="9.7975295782089233e-01" nType="0">
          <Node pos="l" depth="2" NCoef="0" IVar="-1" Cut="0.0000000000000000e+00" cType="1" res="5.0027266144752502e-02" rms="3.2900687307119370e-02" purity="9.9923437833786011e-01" nType="-99"/>
          <Node pos="r" depth="2" NCoef="0" IVar="-1" Cut="0.0000000000000000e+00" cType="1" res="-2.0900977775454521e-02" rms="1.6094055771827698e-01" purity="8.6085152626037598e-01" nType="-99"/>
        </Node>
        <Node pos="r" depth="1" NCoef="0" IVar="28" Cut="3.8958966064453125e+02" cType="1" res="-6.9858939386904240e-03" rms="1.2801954150199890e-01" purity="2.8878280520439148e-01" nType="0">
          <Node pos="l" depth="2" NCoef="0" IVar="-1" Cut="0.0000000000000000e+00" cType="1" res="1.2883909977972507e-02" rms="1.8308144807815552e-01" purity="6.3874208927154541e-01" nType="-99"/>
          <Node pos="r" depth="2" NCoef="0" IVar="-1" Cut="0.0000000000000000e+00" cType="1" res="-4.0469795465469360e-02" rms="7.8541561961174011e-02" purity="8.6649030447006226e-02" nType="-99"/>
        </Node>
      </Node>
    </BinaryTree>
    <BinaryTree type="DecisionTree" boostWeight="1.0000000000000000e+00" itree="45">
      <Node pos="s" depth="0" NCoef="0" IVar="22" Cut="1.3201095163822174e-01" cType="1" res="1.6107305782497860e-05" rms="1.1413685232400894e-01" purity="5.0046694278717041e-01" nType="0">
        <Node pos="l" depth="1" NCoef="0" IVar="25" Cut="1.6778632998466492e-02" cType="1" res="-2.7964492328464985e-03" rms="1.0421108454465866e-01" purity="5.1855933666229248e-01" nType="0">
          <Node pos="l" depth="2" NCoef="0" IVar="-1" Cut="0.0000000000000000e+00" cType="1" res="2.3632777854800224e-02" rms="7.5232565402984619e-02" purity="9.6795582771301270e-01" nType="-99"/>
          <Node pos="r" depth="2" NCoef="0" IVar="-1" Cut="0.0000000000000000e+00" cType="1" res="-1.8909471109509468e-02" rms="1.1843980848789215e-01" purity="2.3080854117870331e-01" nType="-99"/>
        </Node>
        <Node pos="r" depth="1" NCoef="0" IVar="28" Cut="4.0024465942382812e+02" cType="1" res="3.6230485886335373e-02" rms="1.9879533350467682e-01" purity="2.6751002669334412e-01" nType="0">
          <Node pos="l" depth="2" NCoef="0" IVar="-1" Cut="0.0000000000000000e+00" cType="1" res="6.3715390861034393e-02" rms="2.8397163748741150e-01" purity="6.9334459304809570e-01" nType="-99"/>
          <Node pos="r" depth="2" NCoef="0" IVar="-1" Cut="0.0000000000000000e+00" cType="1" res="-2.4529740214347839e-02" rms="9.7652591764926910e-02" purity="2.1421616896986961e-02" nType="-99"/>
        </Node>
      </Node>
    </BinaryTree>
    <BinaryTree type="DecisionTree" boostWeight="1.0000000000000000e+00" itree="46">
      <Node pos="s" depth="0" NCoef="0" IVar="22" Cut="1.2768338620662689e-01" cType="1" res="-2.4997457512654364e-04" rms="1.1099228262901306e-01" purity="4.9708202481269836e-01" nType="0">
        <Node pos="l" depth="1" NCoef="0" IVar="25" Cut="1.4389420859515667e-02" cType="1" res="-3.0874160584062338e-03" rms="1.0146913677453995e-01" purity="5.1973974704742432e-01" nType="0">
          <Node pos="l" depth="2" NCoef="0" IVar="-1" Cut="0.0000000000000000e+00" cType="1" res="3.0405500903725624e-02" rms="6.8442828953266144e-02" purity="9.8110157251358032e-01" nType="-99"/>
          <Node pos="r" depth="2" NCoef="0" IVar="-1" Cut="0.0000000000000000e+00" cType="1" res="-1.9279690459370613e-02" rms="1.1455128341913223e-01" purity="2.7330380678176880e-01" nType="-99"/>
        </Node>
        <Node pos="r" depth="1" NCoef="0" IVar="28" Cut="4.0246612548828125e+02" cType="1" res="2.8663357719779015e-02" rms="1.7893730103969574e-01" purity="2.6620140671730042e-01" nType="0">
          <Node pos="l" depth="2" NCoef="0" IVar="-1" Cut="0.0000000000000000e+00" cType="1" res="5.6746646761894226e-02" rms="2.5840243697166443e-01" purity="6.8897902965545654e-01" nType="-99"/>
          <Node pos="r" depth="2" NCoef="0" IVar="-1" Cut="0.0000000000000000e+00" cType="1" res="-2.4009706452488899e-02" rms="8.6998000741004944e-02" purity="1.9344650208950043e-02" nType="-99"/>
        </Node>
      </Node>
    </BinaryTree>
    <BinaryTree type="DecisionTree" boostWeight="1.0000000000000000e+00" itree="47">
      <Node pos="s" depth="0" NCoef="0" IVar="6" Cut="1.6228834152221680e+01" cType="1" res="-6.4364343415945768e-04" rms="1.1097858846187592e-01" purity="4.9799099564552307e-01" nType="0">
        <Node pos="l" depth="1" NCoef="0" IVar="11" Cut="2.8253051757812500e+01" cType="1" res="2.7035206556320190e-02" rms="1.8763381242752075e-01" purity="7.2067826986312866e-01" nType="0">
          <Node pos="l" depth="2" NCoef="0" IVar="-1" Cut="0.0000000000000000e+00" cType="1" res="3.9660990238189697e-02" rms="2.5731885433197021e-01" purity="5.8105939626693726e-01" nType="-99"/>
          <Node pos="r" depth="2" NCoef="0" IVar="-1" Cut="0.0000000000000000e+00" cType="1" res="1.5846455469727516e-02" rms="1.4664058387279510e-01" purity="7.7866667509078979e-01" nType="-99"/>
        </Node>
        <Node pos="r" depth="1" NCoef="0" IVar="25" Cut="1.4481958933174610e-02" cType="1" res="-3.5240727011114359e-03" rms="9.9227659404277802e-02" purity="4.7481679916381836e-01" nType="0">
          <Node pos="l" depth="2" NCoef="0" IVar="-1" Cut="0.0000000000000000e+00" cType="1" res="2.8575371950864792e-02" rms="7.3747046291828156e-02" purity="9.7714644670486450e-01" nType="-99"/>
          <Node pos="r" depth="2" NCoef="0" IVar="-1" Cut="0.0000000000000000e+00" cType="1" res="-2.0688304677605629e-02" rms="1.0974767804145813e-01" purity="2.0605719089508057e-01" nType="-99"/>
        </Node>
      </Node>
    </BinaryTree>
    <BinaryTree type="DecisionTree" boostWeight="1.0000000000000000e+00" itree="48">
      <Node pos="s" depth="0" NCoef="0" IVar="21" Cut="1.5744045376777649e-01" cType="1" res="7.5499864760786295e-04" rms="1.1064392328262329e-01" purity="4.9993285536766052e-01" nType="0">
        <Node pos="l" depth="1" NCoef="0" IVar="1" Cut="1.9929458618164062e+01" cType="1" res="-1.6515110619366169e-03" rms="1.0274309664964676e-01" purity="4.9933180212974548e-01" nType="0">
          <Node pos="l" depth="2" NCoef="0" IVar="-1" Cut="0.0000000000000000e+00" cType="1" res="3.2246578484773636e-02" rms="1.0782664269208908e-01" purity="9.2848914861679077e-01" nType="-99"/>
          <Node pos="r" depth="2" NCoef="0" IVar="-1" Cut="0.0000000000000000e+00" cType="1" res="-1.4871789142489433e-02" rms="1.0056465119123459e-01" purity="3.7263932824134827e-01" nType="-99"/>
        </Node>
        <Node pos="r" depth="1" NCoef="0" IVar="28" Cut="3.9587747192382812e+02" cType="1" res="3.7160191684961319e-02" rms="1.9061377644538879e-01" purity="5.0902527570724487e-01" nType="0">
          <Node pos="l" depth="2" NCoef="0" IVar="-1" Cut="0.0000000000000000e+00" cType="1" res="5.4843600839376450e-02" rms="2.1876180171966553e-01" purity="8.9814126491546631e-01" nType="-99"/>
          <Node pos="r" depth="2" NCoef="0" IVar="-1" Cut="0.0000000000000000e+00" cType="1" res="8.4548546001315117e-03" rms="1.5295411646366119e-01" purity="1.4175438880920410e-01" nType="-99"/>
        </Node>
      </Node>
    </BinaryTree>
    <BinaryTree type="DecisionTree" boostWeight="1.0000000000000000e+00" itree="49">
      <Node pos="s" depth="0" NCoef="0" IVar="28" Cut="3.6613983154296875e+02" cType="1" res="2.1435953385662287e-04" rms="1.1241315305233002e-01" purity="4.9783906340599060e-01" nType="0">
        <Node pos="l" depth="1" NCoef="0" IVar="30" Cut="7.1219512939453125e+01" cType="1" res="1.9772037863731384e-02" rms="1.8984985351562500e-01" purity="7.4312961101531982e-01" nType="0">
          <Node pos="l" depth="2" NCoef="0" IVar="-1" Cut="0.0000000000000000e+00" cType="1" res="3.5437189042568207e-02" rms="1.9610702991485596e-01" purity="8.9635258913040161e-01" nType="-99"/>
          <Node pos="r" depth="2" NCoef="0" IVar="-1" Cut="0.0000000000000000e+00" cType="1" res="-4.3302640318870544e-02" rms="1.3486231863498688e-01" purity="1.7278617247939110e-02" nType="-99"/>
        </Node>
        <Node pos="r" depth="1" NCoef="0" IVar="24" Cut="1.3925665058195591e-02" cType="1" res="-4.0071834810078144e-03" rms="8.6510531604290009e-02" purity="4.4489288330078125e-01" nType="0">
          <Node pos="l" depth="2" NCoef="0" IVar="-1" Cut="0.0000000000000000e+00" cType="1" res="4.4954776763916016e-02" rms="5.5940374732017517e-02" purity="9.8985451459884644e-01" nType="-99"/>
          <Node pos="r" depth="2" NCoef="0" IVar="-1" Cut="0.0000000000000000e+00" cType="1" res="-2.0982066169381142e-02" rms="9.2112019658088684e-02" purity="3.0617100000381470e-01" nType="-99"/>
        </Node>
      </Node>
    </BinaryTree>
    <BinaryTree type="DecisionTree" boostWeight="1.0000000000000000e+00" itree="50">
      <Node pos="s" depth="0" NCoef="0" IVar="9" Cut="2.3340829849243164e+01" cType="1" res="-1.3306966866366565e-04" rms="1.1141731590032578e-01" purity="5.0149893760681152e-01" nType="0">
        <Node pos="l" depth="1" NCoef="0" IVar="27" Cut="3.3891767263412476e-02" cType="1" res="2.3019697517156601e-02" rms="1.9341066479682922e-01" purity="4.1267153620719910e-01" nType="0">
          <Node pos="l" depth="2" NCoef="0" IVar="-1" Cut="0.0000000000000000e+00" cType="1" res="4.8127423971891403e-02" rms="2.3022739589214325e-01" purity="8.2454288005828857e-01" nType="-99"/>
          <Node pos="r" depth="2" NCoef="0" IVar="-1" Cut="0.0000000000000000e+00" cType="1" res="-1.7858495935797691e-02" rms="1.4239458739757538e-01" purity="2.9748283326625824e-02" nType="-99"/>
        </Node>
        <Node pos="r" depth="1" NCoef="0" IVar="25" Cut="1.2800011783838272e-02" cType="1" res="-3.6259847693145275e-03" rms="9.2466622591018677e-02" purity="5.1489979028701782e-01" nType="0">
          <Node pos="l" depth="2" NCoef="0" IVar="-1" Cut="0.0000000000000000e+00" cType="1" res="2.9578294605016708e-02" rms="6.2045272439718246e-02" purity="9.8433160781860352e-01" nType="-99"/>
          <Node pos="r" depth="2" NCoef="0" IVar="-1" Cut="0.0000000000000000e+00" cType="1" res="-2.1509822458028793e-02" rms="1.0368498414754868e-01" purity="2.8251567482948303e-01" nType="-99"/>
        </Node>
      </Node>
    </BinaryTree>
    <BinaryTree type="DecisionTree" boostWeight="1.0000000000000000e+00" itree="51">
      <Node pos="s" depth="0" NCoef="0" IVar="28" Cut="3.4940682983398438e+02" cType="1" res="9.4214244745671749e-04" rms="1.0918481647968292e-01" purity="5.0685667991638184e-01" nType="0">
        <Node pos="l" depth="1" NCoef="0" IVar="14" Cut="1.1520524276420474e-03" cType="1" res="2.5087716057896614e-02" rms="2.0845626294612885e-01" purity="7.7847701311111450e-01" nType="0">
          <Node pos="l" depth="2" NCoef="0" IVar="-1" Cut="0.0000000000000000e+00" cType="1" res="5.4126087576150894e-02" rms="2.3814035952091217e-01" purity="8.6164170503616333e-01" nType="-99"/>
          <Node pos="r" depth="2" NCoef="0" IVar="-1" Cut="0.0000000000000000e+00" cType="1" res="-1.0243078693747520e-02" rms="1.7645855247974396e-01" purity="7.2155475616455078e-01" nType="-99"/>
        </Node>
        <Node pos="r" depth="1" NCoef="0" IVar="27" Cut="1.6627026721835136e-02" cType="1" res="-1.9401621539145708e-03" rms="8.9884944260120392e-02" purity="4.7443282604217529e-01" nType="0">
          <Node pos="l" depth="2" NCoef="0" IVar="-1" Cut="0.0000000000000000e+00" cType="1" res="1.2338447384536266e-02" rms="1.1392767727375031e-01" purity="9.1231882572174072e-01" nType="-99"/>
          <Node pos="r" depth="2" NCoef="0" IVar="-1" Cut="0.0000000000000000e+00" cType="1" res="-4.0117248892784119e-02" rms="5.1513474434614182e-02" purity="3.1714672222733498e-03" nType="-99"/>
        </Node>
      </Node>
    </BinaryTree>
    <BinaryTree type="DecisionTree" boostWeight="1.0000000000000000e+00" itree="52">
      <Node pos="s" depth="0" NCoef="0" IVar="21" Cut="1.4173966646194458e-01" cType="1" res="-2.7121268794871867e-04" rms="1.0550820827484131e-01" purity="4.9926555156707764e-01" nType="0">
        <Node pos="l" depth="1" NCoef="0" IVar="25" Cut="1.4481958933174610e-02" cType="1" res="-3.1940634362399578e-03" rms="9.3502148985862732e-02" purity="5.0000000000000000e-01" nType="0">
          <Node pos="l" depth="2" NCoef="0" IVar="-1" Cut="0.0000000000000000e+00" cType="1" res="2.5698751211166382e-02" rms="6.2073078006505966e-02" purity="9.7923558950424194e-01" nType="-99"/>
          <Node pos="r" depth="2" NCoef="0" IVar="-1" Cut="0.0000000000000000e+00" cType="1" res="-2.0320348441600800e-02" rms="1.0719197988510132e-01" purity="2.1873837709426880e-01" nType="-99"/>
        </Node>
        <Node pos="r" depth="1" NCoef="0" IVar="27" Cut="2.4545105174183846e-02" cType="1" res="1.6954682767391205e-02" rms="1.5769109129905701e-01" purity="4.9493709206581116e-01" nType="0">
          <Node pos="l" depth="2" NCoef="0" IVar="-1" Cut="0.0000000000000000e+00" cType="1" res="4.1183013468980789e-02" rms="1.7818787693977356e-01" purity="7.8880596160888672e-01" nType="-99"/>
          <Node pos="r" depth="2" NCoef="0" IVar="-1" Cut="0.0000000000000000e+00" cType="1" res="-3.3786248415708542e-02" rms="1.0963213443756104e-01" purity="2.2017614915966988e-02" nType="-99"/>
        </Node>
      </Node>
    </BinaryTree>
    <BinaryTree type="DecisionTree" boostWeight="1.0000000000000000e+00" itree="53">
      <Node pos="s" depth="0" NCoef="0" IVar="8" Cut="2.2101840972900391e+01" cType="1" res="2.7317015337757766e-04" rms="1.0654059052467346e-01" purity="4.9907857179641724e-01" nType="0">
        <Node pos="l" depth="1" NCoef="0" IVar="27" Cut="3.1275570392608643e-02" cType="1" res="1.7856156453490257e-02" rms="1.7215092480182648e-01" purity="5.2030330896377563e-01" nType="0">
          <Node pos="l" depth="2" NCoef="0" IVar="-1" Cut="0.0000000000000000e+00" cType="1" res="3.7723135203123093e-02" rms="1.8795450031757355e-01" purity="8.3430409431457520e-01" nType="-99"/>
          <Node pos="r" depth="2" NCoef="0" IVar="-1" Cut="0.0000000000000000e+00" cType="1" res="-1.7372591421008110e-02" rms="1.3914403319358826e-01" purity="3.1279325485229492e-02" nType="-99"/>
        </Node>
        <Node pos="r" depth="1" NCoef="0" IVar="25" Cut="1.3565105386078358e-02" cType="1" res="-3.6849381867796183e-03" rms="8.4554634988307953e-02" purity="4.9430066347122192e-01" nType="0">
          <Node pos="l" depth="2" NCoef="0" IVar="-1" Cut="0.0000000000000000e+00" cType="1" res="2.6708368211984634e-02" rms="6.0592699795961380e-02" purity="9.8374289274215698e-01" nType="-99"/>
          <Node pos="r" depth="2" NCoef="0" IVar="-1" Cut="0.0000000000000000e+00" cType="1" res="-2.4359859526157379e-02" rms="9.4969309866428375e-02" purity="2.1402901411056519e-01" nType="-99"/>
        </Node>
      </Node>
    </BinaryTree>
    <BinaryTree type="DecisionTree" boostWeight="1.0000000000000000e+00" itree="54">
      <Node pos="s" depth="0" NCoef="0" IVar="9" Cut="2.2804161071777344e+01" cType="1" res="1.0072384611703455e-05" rms="1.0549394786357880e-01" purity="5.0108277797698975e-01" nType="0">
        <Node pos="l" depth="1" NCoef="0" IVar="27" Cut="3.4869059920310974e-02" cType="1" res="2.0918969064950943e-02" rms="1.9396384060382843e-01" purity="4.0351930260658264e-01" nType="0">
          <Node pos="l" depth="2" NCoef="0" IVar="-1" Cut="0.0000000000000000e+00" cType="1" res="4.1405495256185532e-02" rms="2.3149380087852478e-01" purity="7.9369628429412842e-01" nType="-99"/>
          <Node pos="r" depth="2" NCoef="0" IVar="-1" Cut="0.0000000000000000e+00" cType="1" res="-1.4288436621427536e-02" rms="1.4302103221416473e-01" purity="3.0883502215147018e-02" nType="-99"/>
        </Node>
        <Node pos="r" depth="1" NCoef="0" IVar="26" Cut="1.6342323273420334e-02" cType="1" res="-2.5876320432871580e-03" rms="8.8184133172035217e-02" purity="5.1320397853851318e-01" nType="0">
          <Node pos="l" depth="2" NCoef="0" IVar="-1" Cut="0.0000000000000000e+00" cType="1" res="1.2187654152512550e-02" rms="9.5496974885463715e-02" purity="9.5259475708007812e-01" nType="-99"/>
          <Node pos="r" depth="2" NCoef="0" IVar="-1" Cut="0.0000000000000000e+00" cType="1" res="-2.9545675963163376e-02" rms="7.8908555209636688e-02" purity="4.7343637794256210e-02" nType="-99"/>
        </Node>
      </Node>
    </BinaryTree>
    <BinaryTree type="DecisionTree" boostWeight="1.0000000000000000e+00" itree="55">
      <Node pos="s" depth="0" NCoef="0" IVar="28" Cut="3.3495037841796875e+02" cType="1" res="-4.0518358582630754e-04" rms="1.1180488765239716e-01" purity="4.9928951263427734e-01" nType="0">
        <Node pos="l" depth="1" NCoef="0" IVar="23" Cut="7.3069788515567780e-02" cType="1" res="3.5057149827480316e-02" rms="2.4243041872978210e-01" purity="7.9245972633361816e-01" nType="0">
          <Node pos="l" depth="2" NCoef="0" IVar="-1" Cut="0.0000000000000000e+00" cType="1" res="-1.2901701964437962e-02" rms="1.7433574795722961e-01" purity="7.9917693138122559e-01" nType="-99"/>
          <Node pos="r" depth="2" NCoef="0" IVar="-1" Cut="0.0000000000000000e+00" cType="1" res="4.0176223963499069e-02" rms="2.8016367554664612e-01" purity="7.8707975149154663e-01" nType="-99"/>
        </Node>
        <Node pos="r" depth="1" NCoef="0" IVar="24" Cut="1.2373377569019794e-02" cType="1" res="-2.6951311156153679e-03" rms="9.7087070345878601e-02" purity="4.8035833239555359e-01" nType="0">
          <Node pos="l" depth="2" NCoef="0" IVar="-1" Cut="0.0000000000000000e+00" cType="1" res="4.4624172151088715e-02" rms="4.2362716048955917e-02" purity="9.9378699064254761e-01" nType="-99"/>
          <Node pos="r" depth="2" NCoef="0" IVar="-1" Cut="0.0000000000000000e+00" cType="1" res="-1.2638178654015064e-02" rms="1.0410157591104507e-01" purity="3.8272196054458618e-01" nType="-99"/>
        </Node>
      </Node>
    </BinaryTree>
    <BinaryTree type="DecisionTree" boostWeight="1.0000000000000000e+00" itree="56">
      <Node pos="s" depth="0" NCoef="0" IVar="28" Cut="3.1962295532226562e+02" cType="1" res="-1.7993633809965104e-04" rms="1.0730764269828796e-01" purity="5.0020229816436768e-01" nType="0">
        <Node pos="l" depth="1" NCoef="0" IVar="-1" Cut="0.0000000000000000e+00" cType="1" res="4.8688046634197235e-02" rms="2.3757006227970123e-01" purity="8.5782748460769653e-01" nType="-99"/>
        <Node pos="r" depth="1" NCoef="0" IVar="27" Cut="1.6644610092043877e-02" cType="1" res="-2.3044152185320854e-03" rms="1.0026791691780090e-01" purity="4.8984643816947937e-01" nType="0">
          <Node pos="l" depth="2" NCoef="0" IVar="-1" Cut="0.0000000000000000e+00" cType="1" res="7.9240277409553528e-03" rms="1.1555177718400955e-01" purity="9.1858118772506714e-01" nType="-99"/>
          <Node pos="r" depth="2" NCoef="0" IVar="-1" Cut="0.0000000000000000e+00" cType="1" res="-2.8574611991643906e-02" rms="7.9264767467975616e-02" purity="1.1161151342093945e-02" nType="-99"/>
        </Node>
      </Node>
    </BinaryTree>
    <BinaryTree type="DecisionTree" boostWeight="1.0000000000000000e+00" itree="57">
      <Node pos="s" depth="0" NCoef="0" IVar="6" Cut="1.6429178237915039e+01" cType="1" res="2.9373529832810163e-04" rms="1.0875035822391510e-01" purity="5.0167346000671387e-01" nType="0">
        <Node pos="l" depth="1" NCoef="0" IVar="11" Cut="2.9284284591674805e+01" cType="1" res="2.0489998161792755e-02" rms="1.7491963505744934e-01" purity="7.2293657064437866e-01" nType="0">
          <Node pos="l" depth="2" NCoef="0" IVar="-1" Cut="0.0000000000000000e+00" cType="1" res="3.1592365354299545e-02" rms="2.3436778783798218e-01" purity="6.0411900281906128e-01" nType="-99"/>
          <Node pos="r" depth="2" NCoef="0" IVar="-1" Cut="0.0000000000000000e+00" cType="1" res="1.5096831135451794e-02" rms="1.2815353274345398e-01" purity="7.9050099849700928e-01" nType="-99"/>
        </Node>
        <Node pos="r" depth="1" NCoef="0" IVar="25" Cut="1.4389420859515667e-02" cType="1" res="-2.1411676425486803e-03" rms="9.7511827945709229e-02" purity="4.7499749064445496e-01" nType="0">
          <Node pos="l" depth="2" NCoef="0" IVar="-1" Cut="0.0000000000000000e+00" cType="1" res="2.2065866738557816e-02" rms="6.7927084863185883e-02" purity="9.8053473234176636e-01" nType="-99"/>
          <Node pos="r" depth="2" NCoef="0" IVar="-1" Cut="0.0000000000000000e+00" cType="1" res="-1.4977185986936092e-02" rms="1.0997807979583740e-01" purity="2.0199453830718994e-01" nType="-99"/>
        </Node>
      </Node>
    </BinaryTree>
    <BinaryTree type="DecisionTree" boostWeight="1.0000000000000000e+00" itree="58">
      <Node pos="s" depth="0" NCoef="0" IVar="5" Cut="1.5807074546813965e+01" cType="1" res="-6.1089743394404650e-04" rms="1.0925075411796570e-01" purity="4.9808990955352783e-01" nType="0">
        <Node pos="l" depth="1" NCoef="0" IVar="23" Cut="9.0487390756607056e-02" cType="1" res="1.4760654419660568e-02" rms="1.5052439272403717e-01" purity="7.8275781869888306e-01" nType="0">
          <Node pos="l" depth="2" NCoef="0" IVar="-1" Cut="0.0000000000000000e+00" cType="1" res="1.2632374651730061e-02" rms="1.2292781472206116e-01" purity="8.3540940284729004e-01" nType="-99"/>
          <Node pos="r" depth="2" NCoef="0" IVar="-1" Cut="0.0000000000000000e+00" cType="1" res="4.2909320443868637e-02" rms="2.4842727184295654e-01" purity="4.9580472707748413e-01" nType="-99"/>
        </Node>
        <Node pos="r" depth="1" NCoef="0" IVar="24" Cut="1.4083749614655972e-02" cType="1" res="-4.1654217056930065e-03" rms="9.6897497773170471e-02" purity="4.3226319551467896e-01" nType="0">
          <Node pos="l" depth="2" NCoef="0" IVar="-1" Cut="0.0000000000000000e+00" cType="1" res="3.5963516682386398e-02" rms="5.2891556173563004e-02" purity="9.9009639024734497e-01" nType="-99"/>
          <Node pos="r" depth="2" NCoef="0" IVar="-1" Cut="0.0000000000000000e+00" cType="1" res="-1.7672156915068626e-02" rms="1.0517819970846176e-01" purity="2.8656664490699768e-01" nType="-99"/>
        </Node>
      </Node>
    </BinaryTree>
    <BinaryTree type="DecisionTree" boostWeight="1.0000000000000000e+00" itree="59">
      <Node pos="s" depth="0" NCoef="0" IVar="21" Cut="1.5993267297744751e-01" cType="1" res="-6.6920870449393988e-04" rms="1.0875271260738373e-01" purity="4.9969980120658875e-01" nType="0">
        <Node pos="l" depth="1" NCoef="0" IVar="1" Cut="1.9211204528808594e+01" cType="1" res="-2.2284269798547029e-03" rms="1.0237596184015274e-01" purity="4.9888244271278381e-01" nType="0">
          <Node pos="l" depth="2" NCoef="0" IVar="-1" Cut="0.0000000000000000e+00" cType="1" res="2.3473802953958511e-02" rms="1.0908398032188416e-01" purity="9.3158334493637085e-01" nType="-99"/>
          <Node pos="r" depth="2" NCoef="0" IVar="-1" Cut="0.0000000000000000e+00" cType="1" res="-1.3327450491487980e-02" rms="1.0042361915111542e-01" purity="3.9200210571289062e-01" nType="-99"/>
        </Node>
        <Node pos="r" depth="1" NCoef="0" IVar="2" Cut="2.4595582962036133e+01" cType="1" res="2.6204859837889671e-02" rms="1.8511506915092468e-01" purity="5.1378750801086426e-01" nType="0">
          <Node pos="l" depth="2" NCoef="0" IVar="-1" Cut="0.0000000000000000e+00" cType="1" res="5.1468688994646072e-02" rms="2.1321091055870056e-01" purity="8.8117951154708862e-01" nType="-99"/>
          <Node pos="r" depth="2" NCoef="0" IVar="-1" Cut="0.0000000000000000e+00" cType="1" res="8.4419697523117065e-03" rms="1.5335731208324432e-01" purity="1.9116526842117310e-01" nType="-99"/>
        </Node>
      </Node>
    </BinaryTree>
    <BinaryTree type="DecisionTree" boostWeight="1.0000000000000000e+00" itree="60">
      <Node pos="s" depth="0" NCoef="0" IVar="28" Cut="3.7135784912109375e+02" cType="1" res="-3.3458014513598755e-05" rms="1.0490538179874420e-01" purity="4.9937465786933899e-01" nType="0">
        <Node pos="l" depth="1" NCoef="0" IVar="14" Cut="6.8685953738167882e-04" cType="1" res="1.1932856403291225e-02" rms="1.7716529965400696e-01" purity="7.3394292593002319e-01" nType="0">
          <Node pos="l" depth="2" NCoef="0" IVar="-1" Cut="0.0000000000000000e+00" cType="1" res="5.8792680501937866e-02" rms="2.4183410406112671e-01" purity="8.0223882198333740e-01" nType="-99"/>
          <Node pos="r" depth="2" NCoef="0" IVar="-1" Cut="0.0000000000000000e+00" cType="1" res="-1.8083798931911588e-03" rms="1.5646618604660034e-01" purity="7.1902173757553101e-01" nType="-99"/>
        </Node>
        <Node pos="r" depth="1" NCoef="0" IVar="25" Cut="1.4333033002912998e-02" cType="1" res="-3.0303834937512875e-03" rms="7.6521798968315125e-02" purity="4.4062778353691101e-01" nType="0">
          <Node pos="l" depth="2" NCoef="0" IVar="-1" Cut="0.0000000000000000e+00" cType="1" res="1.8871858716011047e-02" rms="6.6330693662166595e-02" purity="9.7991693019866943e-01" nType="-99"/>
