<?xml version="1.0"?>
<MethodSetup Method="BDT::BDTG">
  <GeneralInfo>
    <Info name="TMVA Release" value="4.2.1 [262657]"/>
    <Info name="ROOT Release" value="6.24/06 [399366]"/>
    <Info name="Creator" value="dampe_usr"/>
    <Info name="Date" value="Mon Jan 17 19:03:50 2022"/>
    <Info name="Host" value="Linux buildkitsandbox 5.10.47-linuxkit #1 SMP Sat Jul 3 21:51:47 UTC 2021 x86_64 x86_64 x86_64 GNU/Linux"/>
    <Info name="Dir" value="/mnt/eFlux/Classifier/Train"/>
    <Info name="Training events" value="1042386"/>
    <Info name="TrainingTime" value="1.15102497e+03"/>
    <Info name="AnalysisType" value="Classification"/>
  </GeneralInfo>
  <Options>
    <Option name="V" modified="Yes">False</Option>
    <Option name="VerbosityLevel" modified="No">Default</Option>
    <Option name="VarTransform" modified="No">None</Option>
    <Option name="H" modified="Yes">False</Option>
    <Option name="CreateMVAPdfs" modified="No">False</Option>
    <Option name="IgnoreNegWeightsInTraining" modified="No">False</Option>
    <Option name="NTrees" modified="Yes">1000</Option>
    <Option name="MaxDepth" modified="Yes">2</Option>
    <Option name="MinNodeSize" modified="Yes">2.5%</Option>
    <Option name="nCuts" modified="Yes">20</Option>
    <Option name="BoostType" modified="Yes">Grad</Option>
    <Option name="AdaBoostR2Loss" modified="No">quadratic</Option>
    <Option name="UseBaggedBoost" modified="Yes">True</Option>
    <Option name="Shrinkage" modified="Yes">1.000000e-01</Option>
    <Option name="AdaBoostBeta" modified="No">5.000000e-01</Option>
    <Option name="UseRandomisedTrees" modified="No">False</Option>
    <Option name="UseNvars" modified="No">6</Option>
    <Option name="UsePoissonNvars" modified="No">True</Option>
    <Option name="BaggedSampleFraction" modified="Yes">5.000000e-01</Option>
    <Option name="UseYesNoLeaf" modified="No">True</Option>
    <Option name="NegWeightTreatment" modified="No">pray</Option>
    <Option name="Css" modified="No">1.000000e+00</Option>
    <Option name="Cts_sb" modified="No">1.000000e+00</Option>
    <Option name="Ctb_ss" modified="No">1.000000e+00</Option>
    <Option name="Cbb" modified="No">1.000000e+00</Option>
    <Option name="NodePurityLimit" modified="No">5.000000e-01</Option>
    <Option name="SeparationType" modified="No">giniindex</Option>
    <Option name="RegressionLossFunctionBDTG" modified="No">huber</Option>
    <Option name="HuberQuantile" modified="No">7.000000e-01</Option>
    <Option name="DoBoostMonitor" modified="No">False</Option>
    <Option name="UseFisherCuts" modified="No">False</Option>
    <Option name="MinLinCorrForFisher" modified="No">8.000000e-01</Option>
    <Option name="UseExclusiveVars" modified="No">False</Option>
    <Option name="DoPreselection" modified="No">False</Option>
    <Option name="SigToBkgFraction" modified="No">1.000000e+00</Option>
    <Option name="PruneMethod" modified="No">nopruning</Option>
    <Option name="PruneStrength" modified="No">0.000000e+00</Option>
    <Option name="PruningValFraction" modified="No">5.000000e-01</Option>
    <Option name="SkipNormalization" modified="No">False</Option>
    <Option name="nEventsMin" modified="No">0</Option>
    <Option name="UseBaggedGrad" modified="No">False</Option>
    <Option name="GradBaggingFraction" modified="No">5.000000e-01</Option>
    <Option name="UseNTrainEvents" modified="No">0</Option>
    <Option name="NNodesMax" modified="No">0</Option>
  </Options>
  <Variables NVar="31">
    <Variable VarIndex="0" Expression="rmslayer_norm_1" Label="rmslayer_norm_1" Title="rmslayer_norm_1" Unit="units" Internal="rmslayer_norm_1" Type="D" Min="-4.81163406e+00" Max="2.28042603e+00"/>
    <Variable VarIndex="1" Expression="rmslayer_norm_2" Label="rmslayer_norm_2" Title="rmslayer_norm_2" Unit="units" Internal="rmslayer_norm_2" Type="D" Min="-4.60302448e+00" Max="2.76035047e+00"/>
    <Variable VarIndex="2" Expression="rmslayer_norm_3" Label="rmslayer_norm_3" Title="rmslayer_norm_3" Unit="units" Internal="rmslayer_norm_3" Type="D" Min="-4.30739021e+00" Max="3.00459814e+00"/>
    <Variable VarIndex="3" Expression="rmslayer_norm_4" Label="rmslayer_norm_4" Title="rmslayer_norm_4" Unit="units" Internal="rmslayer_norm_4" Type="D" Min="-4.26606035e+00" Max="2.96769071e+00"/>
    <Variable VarIndex="4" Expression="rmslayer_norm_5" Label="rmslayer_norm_5" Title="rmslayer_norm_5" Unit="units" Internal="rmslayer_norm_5" Type="D" Min="-4.41478491e+00" Max="3.14944267e+00"/>
    <Variable VarIndex="5" Expression="rmslayer_norm_6" Label="rmslayer_norm_6" Title="rmslayer_norm_6" Unit="units" Internal="rmslayer_norm_6" Type="D" Min="-4.83027363e+00" Max="3.53252673e+00"/>
    <Variable VarIndex="6" Expression="rmslayer_norm_7" Label="rmslayer_norm_7" Title="rmslayer_norm_7" Unit="units" Internal="rmslayer_norm_7" Type="D" Min="-5.13961029e+00" Max="3.56698513e+00"/>
    <Variable VarIndex="7" Expression="rmslayer_norm_8" Label="rmslayer_norm_8" Title="rmslayer_norm_8" Unit="units" Internal="rmslayer_norm_8" Type="D" Min="-4.67865753e+00" Max="3.60101056e+00"/>
    <Variable VarIndex="8" Expression="rmslayer_norm_9" Label="rmslayer_norm_9" Title="rmslayer_norm_9" Unit="units" Internal="rmslayer_norm_9" Type="D" Min="-4.61604214e+00" Max="3.63099360e+00"/>
    <Variable VarIndex="9" Expression="rmslayer_norm_10" Label="rmslayer_norm_10" Title="rmslayer_norm_10" Unit="units" Internal="rmslayer_norm_10" Type="D" Min="-4.89406395e+00" Max="3.44161177e+00"/>
    <Variable VarIndex="10" Expression="rmslayer_norm_11" Label="rmslayer_norm_11" Title="rmslayer_norm_11" Unit="units" Internal="rmslayer_norm_11" Type="D" Min="-5.41954708e+00" Max="3.30973673e+00"/>
    <Variable VarIndex="11" Expression="rmslayer_norm_12" Label="rmslayer_norm_12" Title="rmslayer_norm_12" Unit="units" Internal="rmslayer_norm_12" Type="D" Min="-5.43914080e+00" Max="3.28123236e+00"/>
    <Variable VarIndex="12" Expression="rmslayer_norm_13" Label="rmslayer_norm_13" Title="rmslayer_norm_13" Unit="units" Internal="rmslayer_norm_13" Type="D" Min="-5.34025431e+00" Max="2.91662955e+00"/>
    <Variable VarIndex="13" Expression="rmslayer_norm_14" Label="rmslayer_norm_14" Title="rmslayer_norm_14" Unit="units" Internal="rmslayer_norm_14" Type="D" Min="-5.09605169e+00" Max="2.88657594e+00"/>
    <Variable VarIndex="14" Expression="fraclayer_norm_1" Label="fraclayer_norm_1" Title="fraclayer_norm_1" Unit="units" Internal="fraclayer_norm_1" Type="D" Min="-4.77574766e-03" Max="9.54088792e-02"/>
    <Variable VarIndex="15" Expression="fraclayer_norm_2" Label="fraclayer_norm_2" Title="fraclayer_norm_2" Unit="units" Internal="fraclayer_norm_2" Type="D" Min="-1.54189672e-02" Max="1.94258988e-01"/>
    <Variable VarIndex="16" Expression="fraclayer_norm_3" Label="fraclayer_norm_3" Title="fraclayer_norm_3" Unit="units" Internal="fraclayer_norm_3" Type="D" Min="-3.80691700e-02" Max="3.36022764e-01"/>
    <Variable VarIndex="17" Expression="fraclayer_norm_4" Label="fraclayer_norm_4" Title="fraclayer_norm_4" Unit="units" Internal="fraclayer_norm_4" Type="D" Min="-5.94103858e-02" Max="4.35332835e-01"/>
    <Variable VarIndex="18" Expression="fraclayer_norm_5" Label="fraclayer_norm_5" Title="fraclayer_norm_5" Unit="units" Internal="fraclayer_norm_5" Type="D" Min="-4.76129912e-02" Max="3.87057036e-01"/>
    <Variable VarIndex="19" Expression="fraclayer_norm_6" Label="fraclayer_norm_6" Title="fraclayer_norm_6" Unit="units" Internal="fraclayer_norm_6" Type="D" Min="-2.36881077e-02" Max="1.90746501e-01"/>
    <Variable VarIndex="20" Expression="fraclayer_norm_7" Label="fraclayer_norm_7" Title="fraclayer_norm_7" Unit="units" Internal="fraclayer_norm_7" Type="D" Min="-1.42142214e-02" Max="1.04374230e-01"/>
    <Variable VarIndex="21" Expression="fraclayer_norm_8" Label="fraclayer_norm_8" Title="fraclayer_norm_8" Unit="units" Internal="fraclayer_norm_8" Type="D" Min="-9.79928952e-03" Max="6.98095933e-02"/>
    <Variable VarIndex="22" Expression="fraclayer_norm_9" Label="fraclayer_norm_9" Title="fraclayer_norm_9" Unit="units" Internal="fraclayer_norm_9" Type="D" Min="-9.41521209e-03" Max="5.39616756e-02"/>
    <Variable VarIndex="23" Expression="fraclayer_norm_10" Label="fraclayer_norm_10" Title="fraclayer_norm_10" Unit="units" Internal="fraclayer_norm_10" Type="D" Min="-9.14238580e-03" Max="4.34919707e-02"/>
    <Variable VarIndex="24" Expression="fraclayer_norm_11" Label="fraclayer_norm_11" Title="fraclayer_norm_11" Unit="units" Internal="fraclayer_norm_11" Type="D" Min="-9.23087727e-03" Max="3.67618911e-02"/>
    <Variable VarIndex="25" Expression="fraclayer_norm_12" Label="fraclayer_norm_12" Title="fraclayer_norm_12" Unit="units" Internal="fraclayer_norm_12" Type="D" Min="-9.28629097e-03" Max="3.42793986e-02"/>
    <Variable VarIndex="26" Expression="fraclayer_norm_13" Label="fraclayer_norm_13" Title="fraclayer_norm_13" Unit="units" Internal="fraclayer_norm_13" Type="D" Min="-8.15942604e-03" Max="2.74339747e-02"/>
    <Variable VarIndex="27" Expression="fraclayer_norm_14" Label="fraclayer_norm_14" Title="fraclayer_norm_14" Unit="units" Internal="fraclayer_norm_14" Type="D" Min="-7.75512913e-03" Max="2.48971265e-02"/>
    <Variable VarIndex="28" Expression="sumrms_norm" Label="sumrms_norm" Title="sumrms_norm" Unit="units" Internal="sumrms_norm" Type="D" Min="-1.09444361e+01" Max="6.26835442e+00"/>
    <Variable VarIndex="29" Expression="fraclastlayer_norm" Label="fraclastlayer_norm" Title="fraclastlayer_norm" Unit="units" Internal="fraclastlayer_norm" Type="D" Min="-2.28651886e+01" Max="1.93581474e+00"/>
    <Variable VarIndex="30" Expression="xtrl_norm" Label="xtrl_norm" Title="xtrl_norm" Unit="units" Internal="xtrl_norm" Type="D" Min="-2.21272159e+00" Max="1.88846886e+00"/>
  </Variables>
  <Spectators NSpec="1">
    <Spectator SpecIndex="0" Expression="xtrl" Label="xtrl" Title="xtrl" Unit="units" Internal="xtrl" Type="F" Min="2.38618497e-02" Max="8.63862422e+04"/>
  </Spectators>
  <Classes NClass="2">
    <Class Name="Signal" Index="0"/>
    <Class Name="Background" Index="1"/>
  </Classes>
  <Transformations NTransformations="0"/>
  <MVAPdfs/>
  <Weights NTrees="1000" AnalysisType="1">
    <BinaryTree type="DecisionTree" boostWeight="1.0000000000000000e+00" itree="0">
      <Node pos="s" depth="0" NCoef="0" IVar="30" Cut="-1.4315423965454102e+00" cType="1" res="1.0645048459991813e-03" rms="4.9999886751174927e-01" purity="5.0106447935104370e-01" nType="0">
        <Node pos="l" depth="1" NCoef="0" IVar="26" Cut="-3.2143231946974993e-03" cType="1" res="4.3445262312889099e-01" rms="2.4748922884464264e-01" purity="9.3445259332656860e-01" nType="0">
          <Node pos="l" depth="2" NCoef="0" IVar="-1" Cut="0.0000000000000000e+00" cType="1" res="9.6330471336841583e-02" rms="1.3420507311820984e-01" purity="9.8165231943130493e-01" nType="-99"/>
          <Node pos="r" depth="2" NCoef="0" IVar="-1" Cut="0.0000000000000000e+00" cType="1" res="-1.4766600914299488e-02" rms="4.9451863765716553e-01" purity="4.2616698145866394e-01" nType="-99"/>
        </Node>
        <Node pos="r" depth="1" NCoef="0" IVar="25" Cut="4.6189897693693638e-04" cType="1" res="-4.9954813718795776e-01" rms="2.1252322942018509e-02" purity="4.5186543138697743e-04" nType="0">
          <Node pos="l" depth="2" NCoef="0" IVar="-1" Cut="0.0000000000000000e+00" cType="1" res="-9.8941184580326080e-02" rms="7.2567559778690338e-02" purity="5.2940775640308857e-03" nType="-99"/>
          <Node pos="r" depth="2" NCoef="0" IVar="-1" Cut="0.0000000000000000e+00" cType="1" res="-9.9992237985134125e-02" rms="6.2296064570546150e-03" purity="3.8809499528724700e-05" nType="-99"/>
        </Node>
      </Node>
    </BinaryTree>
    <BinaryTree type="DecisionTree" boostWeight="1.0000000000000000e+00" itree="1">
      <Node pos="s" depth="0" NCoef="0" IVar="27" Cut="-3.0906528700143099e-03" cType="1" res="5.1791418809443712e-04" rms="4.5435592532157898e-01" purity="5.0059419870376587e-01" nType="0">
        <Node pos="l" depth="1" NCoef="0" IVar="1" Cut="-1.0718607902526855e+00" cType="1" res="3.9816412329673767e-01" rms="2.2191745042800903e-01" purity="9.4096416234970093e-01" nType="0">
          <Node pos="l" depth="2" NCoef="0" IVar="-1" Cut="0.0000000000000000e+00" cType="1" res="8.8694296777248383e-02" rms="1.1589351296424866e-01" purity="9.8531973361968994e-01" nType="-99"/>
          <Node pos="r" depth="2" NCoef="0" IVar="-1" Cut="0.0000000000000000e+00" cType="1" res="-4.9024183303117752e-02" rms="4.0851873159408569e-01" purity="2.5302848219871521e-01" nType="-99"/>
        </Node>
        <Node pos="r" depth="1" NCoef="0" IVar="28" Cut="-6.8057471513748169e-01" cType="1" res="-4.4171062111854553e-01" rms="9.9188499152660370e-02" purity="1.0851966217160225e-02" nType="0">
          <Node pos="l" depth="2" NCoef="0" IVar="-1" Cut="0.0000000000000000e+00" cType="1" res="-6.4327992498874664e-02" rms="3.4205636382102966e-01" purity="1.4770267903804779e-01" nType="-99"/>
          <Node pos="r" depth="2" NCoef="0" IVar="-1" Cut="0.0000000000000000e+00" cType="1" res="-9.1100767254829407e-02" rms="1.9163301214575768e-02" purity="3.3495822572149336e-04" nType="-99"/>
        </Node>
      </Node>
    </BinaryTree>
    <BinaryTree type="DecisionTree" boostWeight="1.0000000000000000e+00" itree="2">
      <Node pos="s" depth="0" NCoef="0" IVar="30" Cut="-1.4314724206924438e+00" cType="1" res="-4.1113057523034513e-04" rms="4.1316673159599304e-01" purity="4.9954935908317566e-01" nType="0">
        <Node pos="l" depth="1" NCoef="0" IVar="1" Cut="-1.1797833442687988e+00" cType="1" res="3.5268294811248779e-01" rms="2.2471320629119873e-01" purity="9.3324607610702515e-01" nType="0">
          <Node pos="l" depth="2" NCoef="0" IVar="-1" Cut="0.0000000000000000e+00" cType="1" res="8.0017156898975372e-02" rms="1.4670324325561523e-01" purity="9.7360253334045410e-01" nType="-99"/>
          <Node pos="r" depth="2" NCoef="0" IVar="-1" Cut="0.0000000000000000e+00" cType="1" res="-2.9411800205707550e-02" rms="4.4893750548362732e-01" purity="3.5268133878707886e-01" nType="-99"/>
        </Node>
        <Node pos="r" depth="1" NCoef="0" IVar="27" Cut="-8.3208834985271096e-04" cType="1" res="-4.0674754977226257e-01" rms="2.1437054499983788e-02" purity="4.5648147352039814e-04" nType="0">
          <Node pos="l" depth="2" NCoef="0" IVar="-1" Cut="0.0000000000000000e+00" cType="1" res="-8.4872610867023468e-02" rms="5.7183653116226196e-02" purity="3.3333206083625555e-03" nType="-99"/>
          <Node pos="r" depth="2" NCoef="0" IVar="-1" Cut="0.0000000000000000e+00" cType="1" res="-8.4195919334888458e-02" rms="1.0970214381814003e-02" purity="1.1236596037633717e-04" nType="-99"/>
        </Node>
      </Node>
    </BinaryTree>
    <BinaryTree type="DecisionTree" boostWeight="1.0000000000000000e+00" itree="3">
      <Node pos="s" depth="0" NCoef="0" IVar="27" Cut="-3.0906528700143099e-03" cType="1" res="1.5186687232926488e-04" rms="3.7703239917755127e-01" purity="5.0026166439056396e-01" nType="0">
        <Node pos="l" depth="1" NCoef="0" IVar="2" Cut="-1.2641971111297607e+00" cType="1" res="3.2468774914741516e-01" rms="1.9934059679508209e-01" purity="9.4021034240722656e-01" nType="0">
          <Node pos="l" depth="2" NCoef="0" IVar="-1" Cut="0.0000000000000000e+00" cType="1" res="7.7543079853057861e-02" rms="1.0303787142038345e-01" purity="9.8725998401641846e-01" nType="-99"/>
          <Node pos="r" depth="2" NCoef="0" IVar="-1" Cut="0.0000000000000000e+00" cType="1" res="-3.6364827305078506e-02" rms="3.9013737440109253e-01" purity="3.2583895325660706e-01" nType="-99"/>
        </Node>
        <Node pos="r" depth="1" NCoef="0" IVar="5" Cut="-1.5449063777923584e+00" cType="1" res="-3.6072182655334473e-01" rms="9.3227453529834747e-02" purity="1.1052581481635571e-02" nType="0">
          <Node pos="l" depth="2" NCoef="0" IVar="-1" Cut="0.0000000000000000e+00" cType="1" res="-5.3912568837404251e-02" rms="3.2425779104232788e-01" purity="1.5312534570693970e-01" nType="-99"/>
          <Node pos="r" depth="2" NCoef="0" IVar="-1" Cut="0.0000000000000000e+00" cType="1" res="-7.9203173518180847e-02" rms="2.6925204321742058e-02" purity="5.6806934298947453e-04" nType="-99"/>
        </Node>
      </Node>
    </BinaryTree>
    <BinaryTree type="DecisionTree" boostWeight="1.0000000000000000e+00" itree="4">
      <Node pos="s" depth="0" NCoef="0" IVar="26" Cut="-3.0746546108275652e-03" cType="1" res="4.8186755157075822e-04" rms="3.4408047795295715e-01" purity="5.0081700086593628e-01" nType="0">
        <Node pos="l" depth="1" NCoef="0" IVar="28" Cut="2.6498037576675415e-01" cType="1" res="3.0838325619697571e-01" rms="1.5527850389480591e-01" purity="9.6119880676269531e-01" nType="0">
          <Node pos="l" depth="2" NCoef="0" IVar="-1" Cut="0.0000000000000000e+00" cType="1" res="7.3726259171962738e-02" rms="9.0340606868267059e-02" purity="9.8991376161575317e-01" nType="-99"/>
          <Node pos="r" depth="2" NCoef="0" IVar="-1" Cut="0.0000000000000000e+00" cType="1" res="8.0683676060289145e-04" rms="3.8517767190933228e-01" purity="5.5846565961837769e-01" nType="-99"/>
        </Node>
        <Node pos="r" depth="1" NCoef="0" IVar="30" Cut="-1.6135492324829102e+00" cType="1" res="-3.1158319115638733e-01" rms="1.4309567213058472e-01" purity="3.4209597855806351e-02" nType="0">
          <Node pos="l" depth="2" NCoef="0" IVar="-1" Cut="0.0000000000000000e+00" cType="1" res="1.3686845079064369e-02" rms="4.4039750099182129e-01" purity="5.8920788764953613e-01" nType="-99"/>
          <Node pos="r" depth="2" NCoef="0" IVar="-1" Cut="0.0000000000000000e+00" cType="1" res="-7.4998021125793457e-02" rms="3.9912734180688858e-02" purity="1.9261892884969711e-03" nType="-99"/>
        </Node>
      </Node>
    </BinaryTree>
    <BinaryTree type="DecisionTree" boostWeight="1.0000000000000000e+00" itree="5">
      <Node pos="s" depth="0" NCoef="0" IVar="27" Cut="-4.6453955583274364e-03" cType="1" res="2.2869704480399378e-05" rms="3.1505686044692993e-01" purity="5.0006270408630371e-01" nType="0">
        <Node pos="l" depth="1" NCoef="0" IVar="2" Cut="-1.4165567159652710e+00" cType="1" res="2.9120174050331116e-01" rms="1.2011449784040451e-01" purity="9.7778850793838501e-01" nType="0">
          <Node pos="l" depth="2" NCoef="0" IVar="-1" Cut="0.0000000000000000e+00" cType="1" res="7.1331016719341278e-02" rms="6.3753873109817505e-02" purity="9.9559265375137329e-01" nType="-99"/>
          <Node pos="r" depth="2" NCoef="0" IVar="-1" Cut="0.0000000000000000e+00" cType="1" res="2.6868393644690514e-02" rms="3.5709518194198608e-01" purity="7.3063814640045166e-01" nType="-99"/>
        </Node>
        <Node pos="r" depth="1" NCoef="0" IVar="28" Cut="-1.3063472509384155e+00" cType="1" res="-2.7110293507575989e-01" rms="1.6061286628246307e-01" purity="5.5237215012311935e-02" nType="0">
          <Node pos="l" depth="2" NCoef="0" IVar="-1" Cut="0.0000000000000000e+00" cType="1" res="3.8997408002614975e-02" rms="3.4533137083053589e-01" purity="7.3761302232742310e-01" nType="-99"/>
          <Node pos="r" depth="2" NCoef="0" IVar="-1" Cut="0.0000000000000000e+00" cType="1" res="-7.0622801780700684e-02" rms="8.2335524260997772e-02" purity="1.2992360629141331e-02" nType="-99"/>
        </Node>
      </Node>
    </BinaryTree>
    <BinaryTree type="DecisionTree" boostWeight="1.0000000000000000e+00" itree="6">
      <Node pos="s" depth="0" NCoef="0" IVar="30" Cut="-1.4314712285995483e+00" cType="1" res="-5.2707007853314281e-04" rms="2.8844663500785828e-01" purity="4.9925020337104797e-01" nType="0">
        <Node pos="l" depth="1" NCoef="0" IVar="1" Cut="-1.1064939498901367e+00" cType="1" res="2.3645108938217163e-01" rms="1.8596741557121277e-01" purity="9.3400257825851440e-01" nType="0">
          <Node pos="l" depth="2" NCoef="0" IVar="-1" Cut="0.0000000000000000e+00" cType="1" res="6.4306080341339111e-02" rms="1.3238823413848877e-01" purity="9.7226321697235107e-01" nType="-99"/>
          <Node pos="r" depth="2" NCoef="0" IVar="-1" Cut="0.0000000000000000e+00" cType="1" res="-3.4858193248510361e-02" rms="3.7862023711204529e-01" purity="3.0688986182212830e-01" nType="-99"/>
        </Node>
        <Node pos="r" depth="1" NCoef="0" IVar="27" Cut="-8.3209824515506625e-04" cType="1" res="-2.7235427498817444e-01" rms="2.5718217715620995e-02" purity="5.6496949400752783e-04" nType="0">
          <Node pos="l" depth="2" NCoef="0" IVar="-1" Cut="0.0000000000000000e+00" cType="1" res="-7.0182152092456818e-02" rms="6.6320098936557770e-02" purity="4.1758134029805660e-03" nType="-99"/>
          <Node pos="r" depth="2" NCoef="0" IVar="-1" Cut="0.0000000000000000e+00" cType="1" res="-6.8531118333339691e-02" rms="1.3435193337500095e-02" purity="1.3371699606068432e-04" nType="-99"/>
        </Node>
      </Node>
    </BinaryTree>
    <BinaryTree type="DecisionTree" boostWeight="1.0000000000000000e+00" itree="7">
      <Node pos="s" depth="0" NCoef="0" IVar="27" Cut="-4.6454579569399357e-03" cType="1" res="-1.1454128252808005e-04" rms="2.6541963219642639e-01" purity="5.0013011693954468e-01" nType="0">
        <Node pos="l" depth="1" NCoef="0" IVar="3" Cut="-1.2637170553207397e+00" cType="1" res="2.3943300545215607e-01" rms="1.1390166729688644e-01" purity="9.7799199819564819e-01" nType="0">
          <Node pos="l" depth="2" NCoef="0" IVar="-1" Cut="0.0000000000000000e+00" cType="1" res="6.6061414778232574e-02" rms="6.8197056651115417e-02" purity="9.9462294578552246e-01" nType="-99"/>
          <Node pos="r" depth="2" NCoef="0" IVar="-1" Cut="0.0000000000000000e+00" cType="1" res="1.6211269423365593e-02" rms="3.2876291871070862e-01" purity="7.2430634498596191e-01" nType="-99"/>
        </Node>
        <Node pos="r" depth="1" NCoef="0" IVar="5" Cut="-2.0926232337951660e+00" cType="1" res="-2.2288094460964203e-01" rms="1.4459353685379028e-01" purity="5.5744022130966187e-02" nType="0">
          <Node pos="l" depth="2" NCoef="0" IVar="-1" Cut="0.0000000000000000e+00" cType="1" res="3.4216225147247314e-02" rms="3.2061061263084412e-01" purity="7.2200500965118408e-01" nType="-99"/>
          <Node pos="r" depth="2" NCoef="0" IVar="-1" Cut="0.0000000000000000e+00" cType="1" res="-6.5285950899124146e-02" rms="8.3860836923122406e-02" purity="1.5129312872886658e-02" nType="-99"/>
        </Node>
      </Node>
    </BinaryTree>
    <BinaryTree type="DecisionTree" boostWeight="1.0000000000000000e+00" itree="8">
      <Node pos="s" depth="0" NCoef="0" IVar="26" Cut="-3.0755512416362762e-03" cType="1" res="-3.4340796992182732e-04" rms="2.4438939988613129e-01" purity="4.9971511960029602e-01" nType="0">
        <Node pos="l" depth="1" NCoef="0" IVar="2" Cut="-1.2826899290084839e+00" cType="1" res="2.0795047283172607e-01" rms="1.3396532833576202e-01" purity="9.6089565753936768e-01" nType="0">
          <Node pos="l" depth="2" NCoef="0" IVar="-1" Cut="0.0000000000000000e+00" cType="1" res="6.3066206872463226e-02" rms="8.1702984869480133e-02" purity="9.9043625593185425e-01" nType="-99"/>
          <Node pos="r" depth="2" NCoef="0" IVar="-1" Cut="0.0000000000000000e+00" cType="1" res="-1.7375733703374863e-02" rms="3.5498213768005371e-01" purity="4.5655852556228638e-01" nType="-99"/>
        </Node>
        <Node pos="r" depth="1" NCoef="0" IVar="6" Cut="-1.8228120803833008e+00" cType="1" res="-2.1036008000373840e-01" rms="1.1831744760274887e-01" purity="3.4720089286565781e-02" nType="0">
          <Node pos="l" depth="2" NCoef="0" IVar="-1" Cut="0.0000000000000000e+00" cType="1" res="7.3357988148927689e-03" rms="3.4037101268768311e-01" purity="4.9251526594161987e-01" nType="-99"/>
          <Node pos="r" depth="2" NCoef="0" IVar="-1" Cut="0.0000000000000000e+00" cType="1" res="-6.4766153693199158e-02" rms="5.2413940429687500e-02" purity="3.3276712056249380e-03" nType="-99"/>
        </Node>
      </Node>
    </BinaryTree>
    <BinaryTree type="DecisionTree" boostWeight="1.0000000000000000e+00" itree="9">
      <Node pos="s" depth="0" NCoef="0" IVar="27" Cut="-3.0905210878700018e-03" cType="1" res="-8.8595016859471798e-04" rms="2.2541470825672150e-01" purity="4.9845546483993530e-01" nType="0">
        <Node pos="l" depth="1" NCoef="0" IVar="1" Cut="-1.0861635208129883e+00" cType="1" res="1.7920114099979401e-01" rms="1.5134754776954651e-01" purity="9.3954581022262573e-01" nType="0">
          <Node pos="l" depth="2" NCoef="0" IVar="-1" Cut="0.0000000000000000e+00" cType="1" res="6.0228034853935242e-02" rms="9.7092166543006897e-02" purity="9.8579013347625732e-01" nType="-99"/>
          <Node pos="r" depth="2" NCoef="0" IVar="-1" Cut="0.0000000000000000e+00" cType="1" res="-3.7074234336614609e-02" rms="3.1763717532157898e-01" purity="2.5231552124023438e-01" nType="-99"/>
        </Node>
        <Node pos="r" depth="1" NCoef="0" IVar="9" Cut="-1.5343502759933472e+00" cType="1" res="-1.9995352625846863e-01" rms="7.8620962798595428e-02" purity="1.0875977575778961e-02" nType="0">
          <Node pos="l" depth="2" NCoef="0" IVar="-1" Cut="0.0000000000000000e+00" cType="1" res="-4.2945779860019684e-02" rms="2.2951987385749817e-01" purity="1.1228868365287781e-01" nType="-99"/>
          <Node pos="r" depth="2" NCoef="0" IVar="-1" Cut="0.0000000000000000e+00" cType="1" res="-6.2820822000503540e-02" rms="4.2783886194229126e-02" purity="1.7920293612405658e-03" nType="-99"/>
        </Node>
      </Node>
    </BinaryTree>
    <BinaryTree type="DecisionTree" boostWeight="1.0000000000000000e+00" itree="10">
      <Node pos="s" depth="0" NCoef="0" IVar="30" Cut="-1.6268372535705566e+00" cType="1" res="-4.7229620395228267e-04" rms="2.0863892138004303e-01" purity="4.9941629171371460e-01" nType="0">
        <Node pos="l" depth="1" NCoef="0" IVar="2" Cut="-1.3213802576065063e+00" cType="1" res="1.7573198676109314e-01" rms="1.3289266824722290e-01" purity="9.6532273292541504e-01" nType="0">
          <Node pos="l" depth="2" NCoef="0" IVar="-1" Cut="0.0000000000000000e+00" cType="1" res="5.8842048048973083e-02" rms="1.0049578547477722e-01" purity="9.8423016071319580e-01" nType="-99"/>
          <Node pos="r" depth="2" NCoef="0" IVar="-1" Cut="0.0000000000000000e+00" cType="1" res="1.2981804320588708e-03" rms="3.5548070073127747e-01" purity="6.1702138185501099e-01" nType="-99"/>
        </Node>
        <Node pos="r" depth="1" NCoef="0" IVar="26" Cut="-4.2176414281129837e-03" cType="1" res="-1.6873255372047424e-01" rms="1.0136040300130844e-01" purity="5.4514881223440170e-02" nType="0">
          <Node pos="l" depth="2" NCoef="0" IVar="-1" Cut="0.0000000000000000e+00" cType="1" res="3.0790437012910843e-02" rms="2.2266089916229248e-01" purity="8.2329994440078735e-01" nType="-99"/>
          <Node pos="r" depth="2" NCoef="0" IVar="-1" Cut="0.0000000000000000e+00" cType="1" res="-6.0896277427673340e-02" rms="5.5962719023227692e-02" purity="7.9608149826526642e-03" nType="-99"/>
        </Node>
      </Node>
    </BinaryTree>
    <BinaryTree type="DecisionTree" boostWeight="1.0000000000000000e+00" itree="11">
      <Node pos="s" depth="0" NCoef="0" IVar="27" Cut="-4.6453904360532761e-03" cType="1" res="-1.1605915642576292e-04" rms="1.9351698458194733e-01" purity="4.9989613890647888e-01" nType="0">
        <Node pos="l" depth="1" NCoef="0" IVar="28" Cut="2.6607990264892578e-01" cType="1" res="1.6233164072036743e-01" rms="1.0533086955547333e-01" purity="9.7779369354248047e-01" nType="0">
          <Node pos="l" depth="2" NCoef="0" IVar="-1" Cut="0.0000000000000000e+00" cType="1" res="5.9431295841932297e-02" rms="6.6766157746315002e-02" purity="9.9489378929138184e-01" nType="-99"/>
          <Node pos="r" depth="2" NCoef="0" IVar="-1" Cut="0.0000000000000000e+00" cType="1" res="1.5546418726444244e-03" rms="3.0980402231216431e-01" purity="6.9202846288681030e-01" nType="-99"/>
        </Node>
        <Node pos="r" depth="1" NCoef="0" IVar="28" Cut="-1.3314877748489380e+00" cType="1" res="-1.5114289522171021e-01" rms="1.2086007744073868e-01" purity="5.5597145110368729e-02" nType="0">
          <Node pos="l" depth="2" NCoef="0" IVar="-1" Cut="0.0000000000000000e+00" cType="1" res="3.1303316354751587e-02" rms="2.9495009779930115e-01" purity="7.3776936531066895e-01" nType="-99"/>
          <Node pos="r" depth="2" NCoef="0" IVar="-1" Cut="0.0000000000000000e+00" cType="1" res="-5.8975644409656525e-02" rms="7.3060438036918640e-02" purity="1.3747079297900200e-02" nType="-99"/>
        </Node>
      </Node>
    </BinaryTree>
    <BinaryTree type="DecisionTree" boostWeight="1.0000000000000000e+00" itree="12">
      <Node pos="s" depth="0" NCoef="0" IVar="26" Cut="-3.0749833676964045e-03" cType="1" res="-2.5519568225718103e-05" rms="1.7938633263111115e-01" purity="4.9979335069656372e-01" nType="0">
        <Node pos="l" depth="1" NCoef="0" IVar="3" Cut="-1.1672518253326416e+00" cType="1" res="1.4143797755241394e-01" rms="1.1738648265600204e-01" purity="9.6173930168151855e-01" nType="0">
          <Node pos="l" depth="2" NCoef="0" IVar="-1" Cut="0.0000000000000000e+00" cType="1" res="5.7010266929864883e-02" rms="8.1020697951316833e-02" purity="9.8924577236175537e-01" nType="-99"/>
          <Node pos="r" depth="2" NCoef="0" IVar="-1" Cut="0.0000000000000000e+00" cType="1" res="-2.0589666441082954e-02" rms="2.9088890552520752e-01" purity="5.0693070888519287e-01" nType="-99"/>
        </Node>
        <Node pos="r" depth="1" NCoef="0" IVar="5" Cut="-1.9619573354721069e+00" cType="1" res="-1.4247098565101624e-01" rms="1.0131880640983582e-01" purity="3.4640844911336899e-02" nType="0">
          <Node pos="l" depth="2" NCoef="0" IVar="-1" Cut="0.0000000000000000e+00" cType="1" res="1.7173396423459053e-02" rms="3.0807921290397644e-01" purity="5.7808274030685425e-01" nType="-99"/>
          <Node pos="r" depth="2" NCoef="0" IVar="-1" Cut="0.0000000000000000e+00" cType="1" res="-5.9041388332843781e-02" rms="5.4658014327287674e-02" purity="4.4219195842742920e-03" nType="-99"/>
        </Node>
      </Node>
    </BinaryTree>
    <BinaryTree type="DecisionTree" boostWeight="1.0000000000000000e+00" itree="13">
      <Node pos="s" depth="0" NCoef="0" IVar="30" Cut="-1.6268372535705566e+00" cType="1" res="9.7264230134896934e-05" rms="1.6748014092445374e-01" purity="5.0061595439910889e-01" nType="0">
        <Node pos="l" depth="1" NCoef="0" IVar="0" Cut="-7.6785117387771606e-01" cType="1" res="1.3185285031795502e-01" rms="1.2427256256341934e-01" purity="9.6540975570678711e-01" nType="0">
          <Node pos="l" depth="2" NCoef="0" IVar="-1" Cut="0.0000000000000000e+00" cType="1" res="5.4749570786952972e-02" rms="9.7576983273029327e-02" purity="9.8190838098526001e-01" nType="-99"/>
          <Node pos="r" depth="2" NCoef="0" IVar="-1" Cut="0.0000000000000000e+00" cType="1" res="1.0741406586021185e-03" rms="2.8165045380592346e-01" purity="7.3808699846267700e-01" nType="-99"/>
        </Node>
        <Node pos="r" depth="1" NCoef="0" IVar="26" Cut="-4.2182393372058868e-03" cType="1" res="-1.2619787454605103e-01" rms="8.6847759783267975e-02" purity="5.5084958672523499e-02" nType="0">
          <Node pos="l" depth="2" NCoef="0" IVar="-1" Cut="0.0000000000000000e+00" cType="1" res="2.4345807731151581e-02" rms="2.0977289974689484e-01" purity="8.2467520236968994e-01" nType="-99"/>
          <Node pos="r" depth="2" NCoef="0" IVar="-1" Cut="0.0000000000000000e+00" cType="1" res="-5.7270616292953491e-02" rms="5.2764557301998138e-02" purity="8.1144999712705612e-03" nType="-99"/>
        </Node>
      </Node>
    </BinaryTree>
    <BinaryTree type="DecisionTree" boostWeight="1.0000000000000000e+00" itree="14">
      <Node pos="s" depth="0" NCoef="0" IVar="27" Cut="-4.6453904360532761e-03" cType="1" res="-3.2802112400531769e-04" rms="1.5738253295421600e-01" purity="4.9981740117073059e-01" nType="0">
        <Node pos="l" depth="1" NCoef="0" IVar="0" Cut="-6.2740182876586914e-01" cType="1" res="1.2128701806068420e-01" rms="1.0116846114397049e-01" purity="9.7742438316345215e-01" nType="0">
          <Node pos="l" depth="2" NCoef="0" IVar="-1" Cut="0.0000000000000000e+00" cType="1" res="5.5347304791212082e-02" rms="7.1358732879161835e-02" purity="9.9212813377380371e-01" nType="-99"/>
          <Node pos="r" depth="2" NCoef="0" IVar="-1" Cut="0.0000000000000000e+00" cType="1" res="-2.4220224004238844e-03" rms="2.8413403034210205e-01" purity="7.2571104764938354e-01" nType="-99"/>
        </Node>
        <Node pos="r" depth="1" NCoef="0" IVar="28" Cut="-1.4609081745147705e+00" cType="1" res="-1.1351926624774933e-01" rms="1.0825306177139282e-01" purity="5.5292371660470963e-02" nType="0">
          <Node pos="l" depth="2" NCoef="0" IVar="-1" Cut="0.0000000000000000e+00" cType="1" res="3.1226625666022301e-02" rms="2.7722176909446716e-01" purity="7.6951146125793457e-01" nType="-99"/>
          <Node pos="r" depth="2" NCoef="0" IVar="-1" Cut="0.0000000000000000e+00" cType="1" res="-5.5257011204957962e-02" rms="7.3845714330673218e-02" purity="1.7488958314061165e-02" nType="-99"/>
        </Node>
      </Node>
    </BinaryTree>
    <BinaryTree type="DecisionTree" boostWeight="1.0000000000000000e+00" itree="15">
      <Node pos="s" depth="0" NCoef="0" IVar="30" Cut="-1.6267617940902710e+00" cType="1" res="-3.4401690936647356e-04" rms="1.4753802120685577e-01" purity="4.9927949905395508e-01" nType="0">
        <Node pos="l" depth="1" NCoef="0" IVar="2" Cut="-1.3315137624740601e+00" cType="1" res="1.0856339335441589e-01" rms="1.2069770693778992e-01" purity="9.6588927507400513e-01" nType="0">
          <Node pos="l" depth="2" NCoef="0" IVar="-1" Cut="0.0000000000000000e+00" cType="1" res="5.2409909665584564e-02" rms="9.4959884881973267e-02" purity="9.8416239023208618e-01" nType="-99"/>
          <Node pos="r" depth="2" NCoef="0" IVar="-1" Cut="0.0000000000000000e+00" cType="1" res="-4.9287420697510242e-03" rms="3.1307333707809448e-01" purity="6.3575023412704468e-01" nType="-99"/>
        </Node>
        <Node pos="r" depth="1" NCoef="0" IVar="26" Cut="-4.2176414281129837e-03" cType="1" res="-1.0416161268949509e-01" rms="8.0906890332698822e-02" purity="5.4476846009492874e-02" nType="0">
          <Node pos="l" depth="2" NCoef="0" IVar="-1" Cut="0.0000000000000000e+00" cType="1" res="2.0769074559211731e-02" rms="2.0758211612701416e-01" purity="8.2256084680557251e-01" nType="-99"/>
          <Node pos="r" depth="2" NCoef="0" IVar="-1" Cut="0.0000000000000000e+00" cType="1" res="-5.5373318493366241e-02" rms="5.1780559122562408e-02" purity="8.1376312300562859e-03" nType="-99"/>
        </Node>
      </Node>
    </BinaryTree>
    <BinaryTree type="DecisionTree" boostWeight="1.0000000000000000e+00" itree="16">
      <Node pos="s" depth="0" NCoef="0" IVar="27" Cut="-4.6453955583274364e-03" cType="1" res="6.0560932615771890e-04" rms="1.3937677443027496e-01" purity="5.0235050916671753e-01" nType="0">
        <Node pos="l" depth="1" NCoef="0" IVar="3" Cut="-1.2360090017318726e+00" cType="1" res="1.0049651563167572e-01" rms="9.8019614815711975e-02" purity="9.7774720191955566e-01" nType="0">
          <Node pos="l" depth="2" NCoef="0" IVar="-1" Cut="0.0000000000000000e+00" cType="1" res="5.4153550416231155e-02" rms="6.6690981388092041e-02" purity="9.9428176879882812e-01" nType="-99"/>
          <Node pos="r" depth="2" NCoef="0" IVar="-1" Cut="0.0000000000000000e+00" cType="1" res="-6.7357318475842476e-03" rms="2.8067696094512939e-01" purity="7.0641535520553589e-01" nType="-99"/>
        </Node>
        <Node pos="r" depth="1" NCoef="0" IVar="4" Cut="-2.1326234340667725e+00" cType="1" res="-9.3100354075431824e-02" rms="1.0244432091712952e-01" purity="5.6388940662145615e-02" nType="0">
          <Node pos="l" depth="2" NCoef="0" IVar="-1" Cut="0.0000000000000000e+00" cType="1" res="3.1988728791475296e-02" rms="2.5076502561569214e-01" purity="7.3833411931991577e-01" nType="-99"/>
          <Node pos="r" depth="2" NCoef="0" IVar="-1" Cut="0.0000000000000000e+00" cType="1" res="-5.3840704262256622e-02" rms="7.1597360074520111e-02" purity="1.7347011715173721e-02" nType="-99"/>
        </Node>
      </Node>
    </BinaryTree>
    <BinaryTree type="DecisionTree" boostWeight="1.0000000000000000e+00" itree="17">
      <Node pos="s" depth="0" NCoef="0" IVar="26" Cut="-3.0769933946430683e-03" cType="1" res="-1.4685367932543159e-04" rms="1.3217182457447052e-01" purity="5.0000655651092529e-01" nType="0">
        <Node pos="l" depth="1" NCoef="0" IVar="4" Cut="-9.0141296386718750e-01" cType="1" res="8.7444245815277100e-02" rms="1.0904236137866974e-01" purity="9.6098881959915161e-01" nType="0">
          <Node pos="l" depth="2" NCoef="0" IVar="-1" Cut="0.0000000000000000e+00" cType="1" res="5.1257289946079254e-02" rms="8.4246598184108734e-02" purity="9.8636466264724731e-01" nType="-99"/>
          <Node pos="r" depth="2" NCoef="0" IVar="-1" Cut="0.0000000000000000e+00" cType="1" res="-2.8710160404443741e-02" rms="2.5949311256408691e-01" purity="5.0424063205718994e-01" nType="-99"/>
        </Node>
        <Node pos="r" depth="1" NCoef="0" IVar="5" Cut="-1.8055669069290161e+00" cType="1" res="-8.8523834943771362e-02" rms="8.6873918771743774e-02" purity="3.4888256341218948e-02" nType="0">
          <Node pos="l" depth="2" NCoef="0" IVar="-1" Cut="0.0000000000000000e+00" cType="1" res="7.5087505392730236e-03" rms="2.6326611638069153e-01" purity="4.9955052137374878e-01" nType="-99"/>
          <Node pos="r" depth="2" NCoef="0" IVar="-1" Cut="0.0000000000000000e+00" cType="1" res="-5.5592775344848633e-02" rms="4.8370972275733948e-02" purity="2.7588172815740108e-03" nType="-99"/>
        </Node>
      </Node>
    </BinaryTree>
    <BinaryTree type="DecisionTree" boostWeight="1.0000000000000000e+00" itree="18">
      <Node pos="s" depth="0" NCoef="0" IVar="30" Cut="-1.6268372535705566e+00" cType="1" res="-7.1028414822649211e-05" rms="1.2513230741024017e-01" purity="5.0001609325408936e-01" nType="0">
        <Node pos="l" depth="1" NCoef="0" IVar="0" Cut="-6.6306066513061523e-01" cType="1" res="8.1710137426853180e-02" rms="1.1635451763868332e-01" purity="9.6570289134979248e-01" nType="0">
          <Node pos="l" depth="2" NCoef="0" IVar="-1" Cut="0.0000000000000000e+00" cType="1" res="4.9032270908355713e-02" rms="9.5224484801292419e-02" purity="9.8065435886383057e-01" nType="-99"/>
          <Node pos="r" depth="2" NCoef="0" IVar="-1" Cut="0.0000000000000000e+00" cType="1" res="-1.1956275440752506e-02" rms="2.7470478415489197e-01" purity="7.1224302053451538e-01" nType="-99"/>
        </Node>
        <Node pos="r" depth="1" NCoef="0" IVar="28" Cut="-1.1410411596298218e+00" cType="1" res="-7.8230217099189758e-02" rms="7.1993932127952576e-02" purity="5.4953899234533310e-02" nType="0">
          <Node pos="l" depth="2" NCoef="0" IVar="-1" Cut="0.0000000000000000e+00" cType="1" res="2.0542018115520477e-02" rms="1.5462568402290344e-01" purity="7.1138226985931396e-01" nType="-99"/>
          <Node pos="r" depth="2" NCoef="0" IVar="-1" Cut="0.0000000000000000e+00" cType="1" res="-5.3716257214546204e-02" rms="5.3709935396909714e-02" purity="1.2409078888595104e-02" nType="-99"/>
        </Node>
      </Node>
    </BinaryTree>
    <BinaryTree type="DecisionTree" boostWeight="1.0000000000000000e+00" itree="19">
      <Node pos="s" depth="0" NCoef="0" IVar="27" Cut="-4.6453955583274364e-03" cType="1" res="-2.0000296353828162e-04" rms="1.1957883089780807e-01" purity="4.9981606006622314e-01" nType="0">
        <Node pos="l" depth="1" NCoef="0" IVar="28" Cut="2.6607990264892578e-01" cType="1" res="7.5961083173751831e-02" rms="9.3569457530975342e-02" purity="9.7793740034103394e-01" nType="0">
          <Node pos="l" depth="2" NCoef="0" IVar="-1" Cut="0.0000000000000000e+00" cType="1" res="5.2085503935813904e-02" rms="6.4927734434604645e-02" purity="9.9441355466842651e-01" nType="-99"/>
          <Node pos="r" depth="2" NCoef="0" IVar="-1" Cut="0.0000000000000000e+00" cType="1" res="-1.5476771630346775e-02" rms="2.6743909716606140e-01" purity="6.9713002443313599e-01" nType="-99"/>
        </Node>
        <Node pos="r" depth="1" NCoef="0" IVar="6" Cut="-2.0442039966583252e+00" cType="1" res="-7.0968218147754669e-02" rms="9.5144480466842651e-02" purity="5.5549874901771545e-02" nType="0">
          <Node pos="l" depth="2" NCoef="0" IVar="-1" Cut="0.0000000000000000e+00" cType="1" res="2.4048211053013802e-02" rms="2.4142126739025116e-01" purity="6.8098074197769165e-01" nType="-99"/>
          <Node pos="r" depth="2" NCoef="0" IVar="-1" Cut="0.0000000000000000e+00" cType="1" res="-5.2611570805311203e-02" rms="6.7353837192058563e-02" purity="1.5714786946773529e-02" nType="-99"/>
        </Node>
      </Node>
    </BinaryTree>
    <BinaryTree type="DecisionTree" boostWeight="1.0000000000000000e+00" itree="20">
      <Node pos="s" depth="0" NCoef="0" IVar="1" Cut="-1.3666943311691284e+00" cType="1" res="-2.4287146516144276e-05" rms="1.1431259661912918e-01" purity="5.0049149990081787e-01" nType="0">
        <Node pos="l" depth="1" NCoef="0" IVar="27" Cut="-1.5374982031062245e-03" cType="1" res="6.4540416002273560e-02" rms="9.9703252315521240e-02" purity="9.1498064994812012e-01" nType="0">
          <Node pos="l" depth="2" NCoef="0" IVar="-1" Cut="0.0000000000000000e+00" cType="1" res="4.9218550324440002e-02" rms="8.4690541028976440e-02" purity="9.8340874910354614e-01" nType="-99"/>
          <Node pos="r" depth="2" NCoef="0" IVar="-1" Cut="0.0000000000000000e+00" cType="1" res="-4.6023797243833542e-02" rms="1.4503410458564758e-01" purity="4.7493144869804382e-02" nType="-99"/>
        </Node>
        <Node pos="r" depth="1" NCoef="0" IVar="2" Cut="-1.7677968740463257e+00" cType="1" res="-7.0203445851802826e-02" rms="8.3723805844783783e-02" purity="4.9959074705839157e-02" nType="0">
          <Node pos="l" depth="2" NCoef="0" IVar="-1" Cut="0.0000000000000000e+00" cType="1" res="9.1641889885067940e-03" rms="1.9342814385890961e-01" purity="6.1865586042404175e-01" nType="-99"/>
          <Node pos="r" depth="2" NCoef="0" IVar="-1" Cut="0.0000000000000000e+00" cType="1" res="-5.4178345948457718e-02" rms="6.6347531974315643e-02" purity="1.1906347237527370e-02" nType="-99"/>
        </Node>
      </Node>
    </BinaryTree>
    <BinaryTree type="DecisionTree" boostWeight="1.0000000000000000e+00" itree="21">
      <Node pos="s" depth="0" NCoef="0" IVar="2" Cut="-1.1756092309951782e+00" cType="1" res="3.7159526982577518e-05" rms="1.0866924375295639e-01" purity="5.0125324726104736e-01" nType="0">
        <Node pos="l" depth="1" NCoef="0" IVar="27" Cut="-1.5371001791208982e-03" cType="1" res="5.5039752274751663e-02" rms="1.0397461056709290e-01" purity="8.9073443412780762e-01" nType="0">
          <Node pos="l" depth="2" NCoef="0" IVar="-1" Cut="0.0000000000000000e+00" cType="1" res="4.6712126582860947e-02" rms="9.0990595519542694e-02" purity="9.7620904445648193e-01" nType="-99"/>
          <Node pos="r" depth="2" NCoef="0" IVar="-1" Cut="0.0000000000000000e+00" cType="1" res="-4.6443622559309006e-02" rms="1.2891937792301178e-01" purity="3.6253888159990311e-02" nType="-99"/>
        </Node>
        <Node pos="r" depth="1" NCoef="0" IVar="30" Cut="-1.2356578111648560e+00" cType="1" res="-6.8243965506553650e-02" rms="6.8046599626541138e-02" purity="1.7744846642017365e-02" nType="0">
          <Node pos="l" depth="2" NCoef="0" IVar="-1" Cut="0.0000000000000000e+00" cType="1" res="-4.6961519867181778e-02" rms="2.0447844266891479e-01" purity="1.8039356172084808e-01" nType="-99"/>
          <Node pos="r" depth="2" NCoef="0" IVar="-1" Cut="0.0000000000000000e+00" cType="1" res="-5.3527310490608215e-02" rms="1.6353270038962364e-02" purity="3.7443787732627243e-05" nType="-99"/>
        </Node>
      </Node>
    </BinaryTree>
    <BinaryTree type="DecisionTree" boostWeight="1.0000000000000000e+00" itree="22">
      <Node pos="s" depth="0" NCoef="0" IVar="1" Cut="-1.4480062723159790e+00" cType="1" res="-1.3357358693610877e-04" rms="1.0414633899927139e-01" purity="4.9940314888954163e-01" nType="0">
        <Node pos="l" depth="1" NCoef="0" IVar="27" Cut="-1.5359162352979183e-03" cType="1" res="5.4926745593547821e-02" rms="9.3004867434501648e-02" purity="9.2280131578445435e-01" nType="0">
          <Node pos="l" depth="2" NCoef="0" IVar="-1" Cut="0.0000000000000000e+00" cType="1" res="4.7814309597015381e-02" rms="8.1341437995433807e-02" purity="9.8474436998367310e-01" nType="-99"/>
          <Node pos="r" depth="2" NCoef="0" IVar="-1" Cut="0.0000000000000000e+00" cType="1" res="-4.0627785027027130e-02" rms="1.4498004317283630e-01" purity="5.0237853080034256e-02" nType="-99"/>
        </Node>
        <Node pos="r" depth="1" NCoef="0" IVar="2" Cut="-1.7655024528503418e+00" cType="1" res="-5.6674435734748840e-02" rms="8.2413889467716217e-02" purity="6.4620025455951691e-02" nType="0">
          <Node pos="l" depth="2" NCoef="0" IVar="-1" Cut="0.0000000000000000e+00" cType="1" res="1.1637507006525993e-02" rms="1.7386326193809509e-01" purity="6.7183417081832886e-01" nType="-99"/>
          <Node pos="r" depth="2" NCoef="0" IVar="-1" Cut="0.0000000000000000e+00" cType="1" res="-5.2775569260120392e-02" rms="6.5744690597057343e-02" purity="1.4816443435847759e-02" nType="-99"/>
        </Node>
      </Node>
    </BinaryTree>
    <BinaryTree type="DecisionTree" boostWeight="1.0000000000000000e+00" itree="23">
      <Node pos="s" depth="0" NCoef="0" IVar="27" Cut="-4.6453904360532761e-03" cType="1" res="5.4667856602463871e-05" rms="9.9888034164905548e-02" purity="5.0007158517837524e-01" nType="0">
        <Node pos="l" depth="1" NCoef="0" IVar="3" Cut="-1.2360090017318726e+00" cType="1" res="5.2615113556385040e-02" rms="8.5911467671394348e-02" purity="9.7761905193328857e-01" nType="0">
          <Node pos="l" depth="2" NCoef="0" IVar="-1" Cut="0.0000000000000000e+00" cType="1" res="4.9531914293766022e-02" rms="6.3846029341220856e-02" purity="9.9433767795562744e-01" nType="-99"/>
          <Node pos="r" depth="2" NCoef="0" IVar="-1" Cut="0.0000000000000000e+00" cType="1" res="-1.3579173013567924e-02" rms="2.3425905406475067e-01" purity="6.9890952110290527e-01" nType="-99"/>
        </Node>
        <Node pos="r" depth="1" NCoef="0" IVar="5" Cut="-2.1925206184387207e+00" cType="1" res="-4.8901911824941635e-02" rms="8.6177013814449310e-02" purity="5.5267740041017532e-02" nType="0">
          <Node pos="l" depth="2" NCoef="0" IVar="-1" Cut="0.0000000000000000e+00" cType="1" res="2.7168352156877518e-02" rms="2.2230894863605499e-01" purity="7.6165533065795898e-01" nType="-99"/>
          <Node pos="r" depth="2" NCoef="0" IVar="-1" Cut="0.0000000000000000e+00" cType="1" res="-4.9812782555818558e-02" rms="6.6413074731826782e-02" purity="1.8211202695965767e-02" nType="-99"/>
        </Node>
      </Node>
    </BinaryTree>
    <BinaryTree type="DecisionTree" boostWeight="1.0000000000000000e+00" itree="24">
      <Node pos="s" depth="0" NCoef="0" IVar="1" Cut="-1.3074831962585449e+00" cType="1" res="-2.7954851975664496e-04" rms="9.7178138792514801e-02" purity="4.9902293086051941e-01" nType="0">
        <Node pos="l" depth="1" NCoef="0" IVar="27" Cut="-1.5431478386744857e-03" cType="1" res="4.3790515512228012e-02" rms="9.3744695186614990e-02" purity="9.0747797489166260e-01" nType="0">
          <Node pos="l" depth="2" NCoef="0" IVar="-1" Cut="0.0000000000000000e+00" cType="1" res="4.5140132308006287e-02" rms="8.4162570536136627e-02" purity="9.8210138082504272e-01" nType="-99"/>
          <Node pos="r" depth="2" NCoef="0" IVar="-1" Cut="0.0000000000000000e+00" cType="1" res="-3.9257168769836426e-02" rms="1.3282909989356995e-01" purity="4.2690966278314590e-02" nType="-99"/>
        </Node>
        <Node pos="r" depth="1" NCoef="0" IVar="3" Cut="-1.6711331605911255e+00" cType="1" res="-4.9777694046497345e-02" rms="7.4487589299678802e-02" purity="4.0258787572383881e-02" nType="0">
          <Node pos="l" depth="2" NCoef="0" IVar="-1" Cut="0.0000000000000000e+00" cType="1" res="3.0543250031769276e-03" rms="1.8438403308391571e-01" purity="5.1275217533111572e-01" nType="-99"/>
          <Node pos="r" depth="2" NCoef="0" IVar="-1" Cut="0.0000000000000000e+00" cType="1" res="-5.3038004785776138e-02" rms="5.9197638183832169e-02" purity="9.8394304513931274e-03" nType="-99"/>
        </Node>
      </Node>
    </BinaryTree>
    <BinaryTree type="DecisionTree" boostWeight="1.0000000000000000e+00" itree="25">
      <Node pos="s" depth="0" NCoef="0" IVar="2" Cut="-1.1851211786270142e+00" cType="1" res="-1.1180671572219580e-04" rms="9.3902662396430969e-02" purity="4.9999135732650757e-01" nType="0">
        <Node pos="l" depth="1" NCoef="0" IVar="27" Cut="-3.0905285384505987e-03" cType="1" res="3.8201186805963516e-02" rms="9.7473293542861938e-02" purity="8.9149886369705200e-01" nType="0">
          <Node pos="l" depth="2" NCoef="0" IVar="-1" Cut="0.0000000000000000e+00" cType="1" res="4.4799491763114929e-02" rms="8.3138547837734222e-02" purity="9.8591989278793335e-01" nType="-99"/>
          <Node pos="r" depth="2" NCoef="0" IVar="-1" Cut="0.0000000000000000e+00" cType="1" res="-3.0247652903199196e-02" rms="1.5304130315780640e-01" purity="8.4283404052257538e-02" nType="-99"/>
        </Node>
        <Node pos="r" depth="1" NCoef="0" IVar="30" Cut="-1.4303721189498901e+00" cType="1" res="-4.7214459627866745e-02" rms="6.2883280217647552e-02" purity="1.8665311858057976e-02" nType="0">
          <Node pos="l" depth="2" NCoef="0" IVar="-1" Cut="0.0000000000000000e+00" cType="1" res="-3.8719579577445984e-02" rms="2.3083631694316864e-01" purity="2.8942593932151794e-01" nType="-99"/>
          <Node pos="r" depth="2" NCoef="0" IVar="-1" Cut="0.0000000000000000e+00" cType="1" res="-5.2510451525449753e-02" rms="1.8416820093989372e-02" purity="7.8812001447658986e-05" nType="-99"/>
        </Node>
      </Node>
    </BinaryTree>
    <BinaryTree type="DecisionTree" boostWeight="1.0000000000000000e+00" itree="26">
      <Node pos="s" depth="0" NCoef="0" IVar="26" Cut="-3.0749833676964045e-03" cType="1" res="3.3498457696623518e-07" rms="9.0998359024524689e-02" purity="4.9993050098419189e-01" nType="0">
        <Node pos="l" depth="1" NCoef="0" IVar="3" Cut="-1.1752629280090332e+00" cType="1" res="3.8546640425920486e-02" rms="9.1212667524814606e-02" purity="9.6171689033508301e-01" nType="0">
          <Node pos="l" depth="2" NCoef="0" IVar="-1" Cut="0.0000000000000000e+00" cType="1" res="4.5712362974882126e-02" rms="7.4280925095081329e-02" purity="9.8924136161804199e-01" nType="-99"/>
          <Node pos="r" depth="2" NCoef="0" IVar="-1" Cut="0.0000000000000000e+00" cType="1" res="-2.4887107312679291e-02" rms="2.1161741018295288e-01" purity="5.1548457145690918e-01" nType="-99"/>
        </Node>
        <Node pos="r" depth="1" NCoef="0" IVar="7" Cut="-1.7114037275314331e+00" cType="1" res="-3.8888916373252869e-02" rms="7.2318010032176971e-02" purity="3.4035593271255493e-02" nType="0">
          <Node pos="l" depth="2" NCoef="0" IVar="-1" Cut="0.0000000000000000e+00" cType="1" res="8.0269025638699532e-03" rms="1.9445066154003143e-01" purity="4.0374031662940979e-01" nType="-99"/>
          <Node pos="r" depth="2" NCoef="0" IVar="-1" Cut="0.0000000000000000e+00" cType="1" res="-5.2825644612312317e-02" rms="4.8210036009550095e-02" purity="4.0517118759453297e-03" nType="-99"/>
        </Node>
      </Node>
    </BinaryTree>
    <BinaryTree type="DecisionTree" boostWeight="1.0000000000000000e+00" itree="27">
      <Node pos="s" depth="0" NCoef="0" IVar="2" Cut="-1.5244929790496826e+00" cType="1" res="6.3173531088978052e-05" rms="8.8978253304958344e-02" purity="5.0050902366638184e-01" nType="0">
        <Node pos="l" depth="1" NCoef="0" IVar="27" Cut="-3.0907248146831989e-03" cType="1" res="3.6312740296125412e-02" rms="8.7568230926990509e-02" purity="9.3373751640319824e-01" nType="0">
          <Node pos="l" depth="2" NCoef="0" IVar="-1" Cut="0.0000000000000000e+00" cType="1" res="4.5535448938608170e-02" rms="7.2754241526126862e-02" purity="9.9074661731719971e-01" nType="-99"/>
          <Node pos="r" depth="2" NCoef="0" IVar="-1" Cut="0.0000000000000000e+00" cType="1" res="-1.9198069348931313e-02" rms="1.8929913640022278e-01" purity="1.3119886815547943e-01" nType="-99"/>
        </Node>
        <Node pos="r" depth="1" NCoef="0" IVar="25" Cut="-5.0832927227020264e-03" cType="1" res="-3.5057406872510910e-02" rms="7.5178116559982300e-02" purity="8.0773323774337769e-02" nType="0">
          <Node pos="l" depth="2" NCoef="0" IVar="-1" Cut="0.0000000000000000e+00" cType="1" res="3.5586491227149963e-02" rms="1.2873463332653046e-01" purity="9.3817353248596191e-01" nType="-99"/>
          <Node pos="r" depth="2" NCoef="0" IVar="-1" Cut="0.0000000000000000e+00" cType="1" res="-4.8506502062082291e-02" rms="6.8113684654235840e-02" purity="3.4884277731180191e-02" nType="-99"/>
        </Node>
      </Node>
    </BinaryTree>
    <BinaryTree type="DecisionTree" boostWeight="1.0000000000000000e+00" itree="28">
      <Node pos="s" depth="0" NCoef="0" IVar="1" Cut="-1.4472923278808594e+00" cType="1" res="-1.2291737948544323e-04" rms="8.7018661201000214e-02" purity="4.9991130828857422e-01" nType="0">
        <Node pos="l" depth="1" NCoef="0" IVar="27" Cut="-1.5359233366325498e-03" cType="1" res="3.2527163624763489e-02" rms="8.6810298264026642e-02" purity="9.2302525043487549e-01" nType="0">
          <Node pos="l" depth="2" NCoef="0" IVar="-1" Cut="0.0000000000000000e+00" cType="1" res="4.3016552925109863e-02" rms="7.9383380711078644e-02" purity="9.8501259088516235e-01" nType="-99"/>
          <Node pos="r" depth="2" NCoef="0" IVar="-1" Cut="0.0000000000000000e+00" cType="1" res="-2.9828188940882683e-02" rms="1.4057454466819763e-01" purity="4.9373641610145569e-02" nType="-99"/>
        </Node>
        <Node pos="r" depth="1" NCoef="0" IVar="2" Cut="-2.0612990856170654e+00" cType="1" res="-3.3726695924997330e-02" rms="7.3369920253753662e-02" purity="6.4438380300998688e-02" nType="0">
          <Node pos="l" depth="2" NCoef="0" IVar="-1" Cut="0.0000000000000000e+00" cType="1" res="2.0786272361874580e-02" rms="1.5389271080493927e-01" purity="7.9293686151504517e-01" nType="-99"/>
          <Node pos="r" depth="2" NCoef="0" IVar="-1" Cut="0.0000000000000000e+00" cType="1" res="-4.8994369804859161e-02" rms="6.4394243061542511e-02" purity="2.4697536602616310e-02" nType="-99"/>
        </Node>
      </Node>
    </BinaryTree>
    <BinaryTree type="DecisionTree" boostWeight="1.0000000000000000e+00" itree="29">
      <Node pos="s" depth="0" NCoef="0" IVar="1" Cut="-1.4480062723159790e+00" cType="1" res="-7.3703136877156794e-05" rms="8.4506250917911530e-02" purity="4.9862110614776611e-01" nType="0">
        <Node pos="l" depth="1" NCoef="0" IVar="26" Cut="-1.3701483840122819e-03" cType="1" res="2.9682045802474022e-02" rms="8.5550285875797272e-02" purity="9.2481470108032227e-01" nType="0">
          <Node pos="l" depth="2" NCoef="0" IVar="-1" Cut="0.0000000000000000e+00" cType="1" res="4.3818395584821701e-02" rms="7.3206871747970581e-02" purity="9.8799961805343628e-01" nType="-99"/>
          <Node pos="r" depth="2" NCoef="0" IVar="-1" Cut="0.0000000000000000e+00" cType="1" res="-2.1182384341955185e-02" rms="1.6718779504299164e-01" purity="1.3394515216350555e-01" nType="-99"/>
        </Node>
        <Node pos="r" depth="1" NCoef="0" IVar="28" Cut="-8.5649508237838745e-01" cType="1" res="-3.0420759692788124e-02" rms="7.1667924523353577e-02" purity="6.3958145678043365e-02" nType="0">
          <Node pos="l" depth="2" NCoef="0" IVar="-1" Cut="0.0000000000000000e+00" cType="1" res="1.3638681732118130e-02" rms="1.5430369973182678e-01" purity="6.1107033491134644e-01" nType="-99"/>
          <Node pos="r" depth="2" NCoef="0" IVar="-1" Cut="0.0000000000000000e+00" cType="1" res="-5.1434565335512161e-02" rms="5.7846833020448685e-02" purity="1.8520679324865341e-02" nType="-99"/>
        </Node>
      </Node>
    </BinaryTree>
    <BinaryTree type="DecisionTree" boostWeight="1.0000000000000000e+00" itree="30">
      <Node pos="s" depth="0" NCoef="0" IVar="25" Cut="-3.0606735963374376e-03" cType="1" res="-6.8039611505810171e-05" rms="8.3581142127513885e-02" purity="4.9950310587882996e-01" nType="0">
        <Node pos="l" depth="1" NCoef="0" IVar="0" Cut="-6.1005491018295288e-01" cType="1" res="3.0194953083992004e-02" rms="7.6619513332843781e-02" purity="9.7325456142425537e-01" nType="0">
          <Node pos="l" depth="2" NCoef="0" IVar="-1" Cut="0.0000000000000000e+00" cType="1" res="4.5604217797517776e-02" rms="6.3407398760318756e-02" purity="9.8986399173736572e-01" nType="-99"/>
          <Node pos="r" depth="2" NCoef="0" IVar="-1" Cut="0.0000000000000000e+00" cType="1" res="-1.2041199952363968e-02" rms="1.8556658923625946e-01" purity="6.9531053304672241e-01" nType="-99"/>
        </Node>
        <Node pos="r" depth="1" NCoef="0" IVar="6" Cut="-2.2602221965789795e+00" cType="1" res="-2.5179898366332054e-02" rms="8.0750666558742523e-02" purity="1.0639000684022903e-01" nType="0">
          <Node pos="l" depth="2" NCoef="0" IVar="-1" Cut="0.0000000000000000e+00" cType="1" res="3.5685259848833084e-02" rms="1.6067819297313690e-01" purity="8.6437231302261353e-01" nType="-99"/>
          <Node pos="r" depth="2" NCoef="0" IVar="-1" Cut="0.0000000000000000e+00" cType="1" res="-4.8756662756204605e-02" rms="6.6372148692607880e-02" purity="4.5436609536409378e-02" nType="-99"/>
        </Node>
      </Node>
    </BinaryTree>
    <BinaryTree type="DecisionTree" boostWeight="1.0000000000000000e+00" itree="31">
      <Node pos="s" depth="0" NCoef="0" IVar="3" Cut="-1.4861968755722046e+00" cType="1" res="1.9003189663635567e-05" rms="8.1154748797416687e-02" purity="4.9967956542968750e-01" nType="0">
        <Node pos="l" depth="1" NCoef="0" IVar="27" Cut="-3.0908652115613222e-03" cType="1" res="2.6431761682033539e-02" rms="8.6374923586845398e-02" purity="9.2788207530975342e-01" nType="0">
          <Node pos="l" depth="2" NCoef="0" IVar="-1" Cut="0.0000000000000000e+00" cType="1" res="4.2847134172916412e-02" rms="7.2259657084941864e-02" purity="9.8952859640121460e-01" nType="-99"/>
          <Node pos="r" depth="2" NCoef="0" IVar="-1" Cut="0.0000000000000000e+00" cType="1" res="-1.4035276137292385e-02" rms="1.8412999808788300e-01" purity="1.3131372630596161e-01" nType="-99"/>
        </Node>
        <Node pos="r" depth="1" NCoef="0" IVar="23" Cut="-4.0613012388348579e-03" cType="1" res="-2.4826325476169586e-02" rms="6.7006975412368774e-02" purity="9.6888110041618347e-02" nType="0">
          <Node pos="l" depth="2" NCoef="0" IVar="-1" Cut="0.0000000000000000e+00" cType="1" res="4.6344637870788574e-02" rms="8.4165796637535095e-02" purity="9.7588139772415161e-01" nType="-99"/>
          <Node pos="r" depth="2" NCoef="0" IVar="-1" Cut="0.0000000000000000e+00" cType="1" res="-4.9389299005270004e-02" rms="6.3145950436592102e-02" purity="4.3622083961963654e-02" nType="-99"/>
        </Node>
      </Node>
    </BinaryTree>
    <BinaryTree type="DecisionTree" boostWeight="1.0000000000000000e+00" itree="32">
      <Node pos="s" depth="0" NCoef="0" IVar="3" Cut="-1.5103456974029541e+00" cType="1" res="-4.9634494644124061e-05" rms="7.9557187855243683e-02" purity="5.0074654817581177e-01" nType="0">
        <Node pos="l" depth="1" NCoef="0" IVar="26" Cut="-1.3615072239190340e-03" cType="1" res="2.4229424074292183e-02" rms="8.5559949278831482e-02" purity="9.2963558435440063e-01" nType="0">
          <Node pos="l" depth="2" NCoef="0" IVar="-1" Cut="0.0000000000000000e+00" cType="1" res="4.1648644953966141e-02" rms="7.4162587523460388e-02" purity="9.8649287223815918e-01" nType="-99"/>
          <Node pos="r" depth="2" NCoef="0" IVar="-1" Cut="0.0000000000000000e+00" cType="1" res="-1.3058604672551155e-02" rms="1.7305275797843933e-01" purity="1.5964557230472565e-01" nType="-99"/>
        </Node>
        <Node pos="r" depth="1" NCoef="0" IVar="22" Cut="-2.5225456920452416e-04" cType="1" res="-2.2454878315329552e-02" rms="6.6096223890781403e-02" purity="1.0495841503143311e-01" nType="0">
          <Node pos="l" depth="2" NCoef="0" IVar="-1" Cut="0.0000000000000000e+00" cType="1" res="3.7672616541385651e-02" rms="9.3247339129447937e-02" purity="9.2344057559967041e-01" nType="-99"/>
          <Node pos="r" depth="2" NCoef="0" IVar="-1" Cut="0.0000000000000000e+00" cType="1" res="-4.9065213650465012e-02" rms="6.1036311089992523e-02" purity="4.0523279458284378e-02" nType="-99"/>
        </Node>
      </Node>
    </BinaryTree>
    <BinaryTree type="DecisionTree" boostWeight="1.0000000000000000e+00" itree="33">
      <Node pos="s" depth="0" NCoef="0" IVar="2" Cut="-1.5218708515167236e+00" cType="1" res="-2.7894620870938525e-05" rms="7.8427262604236603e-02" purity="5.0022262334823608e-01" nType="0">
        <Node pos="l" depth="1" NCoef="0" IVar="29" Cut="-1.0713080167770386e+00" cType="1" res="2.1701101213693619e-02" rms="8.4052897989749908e-02" purity="9.3328309059143066e-01" nType="0">
          <Node pos="l" depth="2" NCoef="0" IVar="-1" Cut="0.0000000000000000e+00" cType="1" res="3.9003495126962662e-02" rms="7.7343620359897614e-02" purity="9.8150938749313354e-01" nType="-99"/>
          <Node pos="r" depth="2" NCoef="0" IVar="-1" Cut="0.0000000000000000e+00" cType="1" res="-1.8930001184344292e-02" rms="1.4300401508808136e-01" purity="2.5124981999397278e-01" nType="-99"/>
        </Node>
        <Node pos="r" depth="1" NCoef="0" IVar="25" Cut="-5.1280981861054897e-03" cType="1" res="-2.1118454635143280e-02" rms="6.6034451127052307e-02" purity="7.9886317253112793e-02" nType="0">
          <Node pos="l" depth="2" NCoef="0" IVar="-1" Cut="0.0000000000000000e+00" cType="1" res="2.8690464794635773e-02" rms="1.2096504122018814e-01" purity="9.3580824136734009e-01" nType="-99"/>
          <Node pos="r" depth="2" NCoef="0" IVar="-1" Cut="0.0000000000000000e+00" cType="1" res="-4.5665830373764038e-02" rms="6.0653656721115112e-02" purity="3.5441983491182327e-02" nType="-99"/>
        </Node>
      </Node>
    </BinaryTree>
    <BinaryTree type="DecisionTree" boostWeight="1.0000000000000000e+00" itree="34">
      <Node pos="s" depth="0" NCoef="0" IVar="28" Cut="-5.6931000947952271e-01" cType="1" res="-5.4862452088855207e-05" rms="7.6498970389366150e-02" purity="4.9924698472023010e-01" nType="0">
        <Node pos="l" depth="1" NCoef="0" IVar="29" Cut="-8.1334203481674194e-01" cType="1" res="2.2517554461956024e-02" rms="8.0930486321449280e-02" purity="9.1298508644104004e-01" nType="0">
          <Node pos="l" depth="2" NCoef="0" IVar="-1" Cut="0.0000000000000000e+00" cType="1" res="4.3032471090555191e-02" rms="7.4946440756320953e-02" purity="9.8588138818740845e-01" nType="-99"/>
          <Node pos="r" depth="2" NCoef="0" IVar="-1" Cut="0.0000000000000000e+00" cType="1" res="-3.7258412688970566e-02" rms="1.1628641188144684e-01" purity="6.9037452340126038e-02" nType="-99"/>
        </Node>
        <Node pos="r" depth="1" NCoef="0" IVar="24" Cut="-4.7209886834025383e-03" cType="1" res="-1.7847305163741112e-02" rms="6.7705146968364716e-02" purity="1.7312274873256683e-01" nType="0">
          <Node pos="l" depth="2" NCoef="0" IVar="-1" Cut="0.0000000000000000e+00" cType="1" res="4.2383141815662384e-02" rms="6.2067102640867233e-02" purity="9.8447096347808838e-01" nType="-99"/>
          <Node pos="r" depth="2" NCoef="0" IVar="-1" Cut="0.0000000000000000e+00" cType="1" res="-5.0952769815921783e-02" rms="6.6079109907150269e-02" purity="5.9489414095878601e-02" nType="-99"/>
        </Node>
      </Node>
    </BinaryTree>
    <BinaryTree type="DecisionTree" boostWeight="1.0000000000000000e+00" itree="35">
      <Node pos="s" depth="0" NCoef="0" IVar="4" Cut="-1.4427752494812012e+00" cType="1" res="-7.9364544944837689e-06" rms="7.5885817408561707e-02" purity="4.9968948960304260e-01" nType="0">
        <Node pos="l" depth="1" NCoef="0" IVar="0" Cut="-6.1658865213394165e-01" cType="1" res="1.9689591601490974e-02" rms="8.4768474102020264e-02" purity="9.2042696475982666e-01" nType="0">
          <Node pos="l" depth="2" NCoef="0" IVar="-1" Cut="0.0000000000000000e+00" cType="1" res="3.8333680480718613e-02" rms="7.7416457235813141e-02" purity="9.5941138267517090e-01" nType="-99"/>
          <Node pos="r" depth="2" NCoef="0" IVar="-1" Cut="0.0000000000000000e+00" cType="1" res="-1.7739290371537209e-02" rms="1.4009122550487518e-01" purity="4.6650326251983643e-01" nType="-99"/>
        </Node>
        <Node pos="r" depth="1" NCoef="0" IVar="23" Cut="-4.0542054921388626e-03" cType="1" res="-1.7391432076692581e-02" rms="6.2085971236228943e-02" purity="1.2837961316108704e-01" nType="0">
          <Node pos="l" depth="2" NCoef="0" IVar="-1" Cut="0.0000000000000000e+00" cType="1" res="4.4091589748859406e-02" rms="6.4786203205585480e-02" purity="9.8516166210174561e-01" nType="-99"/>
          <Node pos="r" depth="2" NCoef="0" IVar="-1" Cut="0.0000000000000000e+00" cType="1" res="-5.0600010901689529e-02" rms="5.9920400381088257e-02" purity="4.6523731201887131e-02" nType="-99"/>
        </Node>
      </Node>
    </BinaryTree>
    <BinaryTree type="DecisionTree" boostWeight="1.0000000000000000e+00" itree="36">
      <Node pos="s" depth="0" NCoef="0" IVar="1" Cut="-1.6671773195266724e+00" cType="1" res="-2.4278147611767054e-04" rms="7.4358820915222168e-02" purity="5.0007230043411255e-01" nType="0">
        <Node pos="l" depth="1" NCoef="0" IVar="4" Cut="-1.0269290208816528e+00" cType="1" res="1.8220640718936920e-02" rms="7.6012991368770599e-02" purity="9.4469016790390015e-01" nType="0">
          <Node pos="l" depth="2" NCoef="0" IVar="-1" Cut="0.0000000000000000e+00" cType="1" res="3.8813691586256027e-02" rms="7.0816464722156525e-02" purity="9.7325754165649414e-01" nType="-99"/>
          <Node pos="r" depth="2" NCoef="0" IVar="-1" Cut="0.0000000000000000e+00" cType="1" res="-1.5251448377966881e-02" rms="1.2496460229158401e-01" purity="5.4113245010375977e-01" nType="-99"/>
        </Node>
        <Node pos="r" depth="1" NCoef="0" IVar="28" Cut="-1.6112096309661865e+00" cType="1" res="-1.6162330284714699e-02" rms="6.9046378135681152e-02" purity="1.1671340465545654e-01" nType="0">
          <Node pos="l" depth="2" NCoef="0" IVar="-1" Cut="0.0000000000000000e+00" cType="1" res="3.0970079824328423e-02" rms="1.2730967998504639e-01" purity="9.0398424863815308e-01" nType="-99"/>
          <Node pos="r" depth="2" NCoef="0" IVar="-1" Cut="0.0000000000000000e+00" cType="1" res="-4.2254790663719177e-02" rms="6.3800118863582611e-02" purity="7.7611349523067474e-02" nType="-99"/>
        </Node>
      </Node>
    </BinaryTree>
    <BinaryTree type="DecisionTree" boostWeight="1.0000000000000000e+00" itree="37">
      <Node pos="s" depth="0" NCoef="0" IVar="27" Cut="-4.6453904360532761e-03" cType="1" res="5.9678499383153394e-05" rms="7.3118597269058228e-02" purity="5.0004827976226807e-01" nType="0">
        <Node pos="l" depth="1" NCoef="0" IVar="28" Cut="-8.7493896484375000e-02" cType="1" res="1.6694409772753716e-02" rms="6.9224692881107330e-02" purity="9.7841602563858032e-01" nType="0">
          <Node pos="l" depth="2" NCoef="0" IVar="-1" Cut="0.0000000000000000e+00" cType="1" res="4.5827448368072510e-02" rms="4.8737142235040665e-02" purity="9.9648660421371460e-01" nType="-99"/>
          <Node pos="r" depth="2" NCoef="0" IVar="-1" Cut="0.0000000000000000e+00" cType="1" res="-2.0037053152918816e-02" rms="1.5829174220561981e-01" purity="8.1637006998062134e-01" nType="-99"/>
        </Node>
        <Node pos="r" depth="1" NCoef="0" IVar="7" Cut="-1.9187681674957275e+00" cType="1" res="-1.5418576076626778e-02" rms="7.3246255517005920e-02" purity="5.4937567561864853e-02" nType="0">
          <Node pos="l" depth="2" NCoef="0" IVar="-1" Cut="0.0000000000000000e+00" cType="1" res="1.8773319199681282e-02" rms="1.8441618978977203e-01" purity="5.8781147003173828e-01" nType="-99"/>
          <Node pos="r" depth="2" NCoef="0" IVar="-1" Cut="0.0000000000000000e+00" cType="1" res="-4.8443756997585297e-02" rms="5.6874465197324753e-02" purity="1.7946757376194000e-02" nType="-99"/>
        </Node>
      </Node>
    </BinaryTree>
    <BinaryTree type="DecisionTree" boostWeight="1.0000000000000000e+00" itree="38">
      <Node pos="s" depth="0" NCoef="0" IVar="0" Cut="-1.4345693588256836e+00" cType="1" res="-4.3918298615608364e-06" rms="7.2747848927974701e-02" purity="4.9984917044639587e-01" nType="0">
        <Node pos="l" depth="1" NCoef="0" IVar="7" Cut="-2.4299919605255127e+00" cType="1" res="1.6931271180510521e-02" rms="7.2055608034133911e-02" purity="9.1240108013153076e-01" nType="0">
          <Node pos="l" depth="2" NCoef="0" IVar="-1" Cut="0.0000000000000000e+00" cType="1" res="5.1348406821489334e-02" rms="1.1350774019956589e-01" purity="9.7382283210754395e-01" nType="-99"/>
          <Node pos="r" depth="2" NCoef="0" IVar="-1" Cut="0.0000000000000000e+00" cType="1" res="3.1193971633911133e-02" rms="6.7186348140239716e-02" purity="9.0762269496917725e-01" nType="-99"/>
        </Node>
        <Node pos="r" depth="1" NCoef="0" IVar="26" Cut="-4.7547565773129463e-03" cType="1" res="-1.2983851134777069e-02" rms="7.0574715733528137e-02" purity="1.8367023766040802e-01" nType="0">
          <Node pos="l" depth="2" NCoef="0" IVar="-1" Cut="0.0000000000000000e+00" cType="1" res="2.0548079162836075e-02" rms="9.9520638585090637e-02" purity="9.5018982887268066e-01" nType="-99"/>
          <Node pos="r" depth="2" NCoef="0" IVar="-1" Cut="0.0000000000000000e+00" cType="1" res="-4.7681681811809540e-02" rms="6.2809340655803680e-02" purity="4.4952262192964554e-02" nType="-99"/>
        </Node>
      </Node>
    </BinaryTree>
    <BinaryTree type="DecisionTree" boostWeight="1.0000000000000000e+00" itree="39">
      <Node pos="s" depth="0" NCoef="0" IVar="28" Cut="-4.1930961608886719e-01" cType="1" res="9.0305184130556881e-05" rms="7.0614449679851532e-02" purity="4.9981570243835449e-01" nType="0">
        <Node pos="l" depth="1" NCoef="0" IVar="27" Cut="1.8110054952558130e-05" cType="1" res="1.4566445723176003e-02" rms="7.6239049434661865e-02" purity="8.9493614435195923e-01" nType="0">
          <Node pos="l" depth="2" NCoef="0" IVar="-1" Cut="0.0000000000000000e+00" cType="1" res="3.8867324590682983e-02" rms="7.1906879544258118e-02" purity="9.8351311683654785e-01" nType="-99"/>
          <Node pos="r" depth="2" NCoef="0" IVar="-1" Cut="0.0000000000000000e+00" cType="1" res="-3.9016474038362503e-02" rms="1.0055395215749741e-01" purity="2.1209934726357460e-02" nType="-99"/>
        </Node>
        <Node pos="r" depth="1" NCoef="0" IVar="24" Cut="-4.7209886834025383e-03" cType="1" res="-1.2957547791302204e-02" rms="6.2311921268701553e-02" purity="1.4367979764938354e-01" nType="0">
          <Node pos="l" depth="2" NCoef="0" IVar="-1" Cut="0.0000000000000000e+00" cType="1" res="3.5618543624877930e-02" rms="7.3988266289234161e-02" purity="9.7919744253158569e-01" nType="-99"/>
          <Node pos="r" depth="2" NCoef="0" IVar="-1" Cut="0.0000000000000000e+00" cType="1" res="-5.1802717149257660e-02" rms="5.9546899050474167e-02" purity="4.1400019079446793e-02" nType="-99"/>
        </Node>
      </Node>
    </BinaryTree>
    <BinaryTree type="DecisionTree" boostWeight="1.0000000000000000e+00" itree="40">
      <Node pos="s" depth="0" NCoef="0" IVar="25" Cut="-3.0723498202860355e-03" cType="1" res="-1.1748635733965784e-04" rms="6.9887578487396240e-02" purity="4.9985074996948242e-01" nType="0">
        <Node pos="l" depth="1" NCoef="0" IVar="28" Cut="2.2877661883831024e-01" cType="1" res="1.3702047988772392e-02" rms="6.9144204258918762e-02" purity="9.7274667024612427e-01" nType="0">
          <Node pos="l" depth="2" NCoef="0" IVar="-1" Cut="0.0000000000000000e+00" cType="1" res="4.0747024118900299e-02" rms="5.7754736393690109e-02" purity="9.9237316846847534e-01" nType="-99"/>
          <Node pos="r" depth="2" NCoef="0" IVar="-1" Cut="0.0000000000000000e+00" cType="1" res="-1.8807483837008476e-02" rms="1.5666112303733826e-01" purity="6.8914550542831421e-01" nType="-99"/>
        </Node>
        <Node pos="r" depth="1" NCoef="0" IVar="28" Cut="-1.7285780906677246e+00" cType="1" res="-1.1539532802999020e-02" rms="6.8420656025409698e-02" purity="1.0899538546800613e-01" nType="0">
          <Node pos="l" depth="2" NCoef="0" IVar="-1" Cut="0.0000000000000000e+00" cType="1" res="3.3494282513856888e-02" rms="1.5327881276607513e-01" purity="9.1258156299591064e-01" nType="-99"/>
          <Node pos="r" depth="2" NCoef="0" IVar="-1" Cut="0.0000000000000000e+00" cType="1" res="-4.4765893369913101e-02" rms="5.7227514684200287e-02" purity="5.6206431239843369e-02" nType="-99"/>
        </Node>
      </Node>
    </BinaryTree>
    <BinaryTree type="DecisionTree" boostWeight="1.0000000000000000e+00" itree="41">
      <Node pos="s" depth="0" NCoef="0" IVar="0" Cut="-1.2629635334014893e+00" cType="1" res="4.4078231439925730e-05" rms="6.8932794034481049e-02" purity="5.0070655345916748e-01" nType="0">
        <Node pos="l" depth="1" NCoef="0" IVar="27" Cut="1.5719144139438868e-03" cType="1" res="1.2462396174669266e-02" rms="7.0992790162563324e-02" purity="8.8930630683898926e-01" nType="0">
          <Node pos="l" depth="2" NCoef="0" IVar="-1" Cut="0.0000000000000000e+00" cType="1" res="3.5286720842123032e-02" rms="6.9598294794559479e-02" purity="9.6568280458450317e-01" nType="-99"/>
          <Node pos="r" depth="2" NCoef="0" IVar="-1" Cut="0.0000000000000000e+00" cType="1" res="-3.7960376590490341e-02" rms="7.9286992549896240e-02" purity="1.3137323781847954e-02" nType="-99"/>
        </Node>
        <Node pos="r" depth="1" NCoef="0" IVar="28" Cut="-1.2915815114974976e+00" cType="1" res="-1.1241017840802670e-02" rms="6.4979173243045807e-02" purity="1.4756810665130615e-01" nType="0">
          <Node pos="l" depth="2" NCoef="0" IVar="-1" Cut="0.0000000000000000e+00" cType="1" res="1.9144481047987938e-02" rms="1.0101224482059479e-01" purity="8.9428025484085083e-01" nType="-99"/>
          <Node pos="r" depth="2" NCoef="0" IVar="-1" Cut="0.0000000000000000e+00" cType="1" res="-4.5258242636919022e-02" rms="5.9739276766777039e-02" purity="7.3704861104488373e-02" nType="-99"/>
        </Node>
      </Node>
    </BinaryTree>
    <BinaryTree type="DecisionTree" boostWeight="1.0000000000000000e+00" itree="42">
      <Node pos="s" depth="0" NCoef="0" IVar="26" Cut="-4.7699785791337490e-03" cType="1" res="1.1350319255143404e-05" rms="6.8068489432334900e-02" purity="4.9939432740211487e-01" nType="0">
        <Node pos="l" depth="1" NCoef="0" IVar="0" Cut="-9.2164909839630127e-01" cType="1" res="1.3269864022731781e-02" rms="5.8419477194547653e-02" purity="9.8694944381713867e-01" nType="0">
          <Node pos="l" depth="2" NCoef="0" IVar="-1" Cut="0.0000000000000000e+00" cType="1" res="4.3700050562620163e-02" rms="4.4618342071771622e-02" purity="9.9606549739837646e-01" nType="-99"/>
          <Node pos="r" depth="2" NCoef="0" IVar="-1" Cut="0.0000000000000000e+00" cType="1" res="-2.7881714049726725e-04" rms="1.3626861572265625e-01" purity="8.8851571083068848e-01" nType="-99"/>
        </Node>
        <Node pos="r" depth="1" NCoef="0" IVar="6" Cut="-2.2602221965789795e+00" cType="1" res="-8.9252404868602753e-03" rms="7.2509370744228363e-02" purity="1.7076918482780457e-01" nType="0">
          <Node pos="l" depth="2" NCoef="0" IVar="-1" Cut="0.0000000000000000e+00" cType="1" res="2.8069619089365005e-02" rms="1.2794788181781769e-01" purity="8.9151859283447266e-01" nType="-99"/>
          <Node pos="r" depth="2" NCoef="0" IVar="-1" Cut="0.0000000000000000e+00" cType="1" res="-4.0206860750913620e-02" rms="6.3780717551708221e-02" purity="1.0141148418188095e-01" nType="-99"/>
        </Node>
      </Node>
    </BinaryTree>
    <BinaryTree type="DecisionTree" boostWeight="1.0000000000000000e+00" itree="43">
      <Node pos="s" depth="0" NCoef="0" IVar="4" Cut="-1.5365002155303955e+00" cType="1" res="-1.8104548871633597e-05" rms="6.7397020757198334e-02" purity="4.9958714842796326e-01" nType="0">
        <Node pos="l" depth="1" NCoef="0" IVar="8" Cut="-2.1796772480010986e+00" cType="1" res="1.1673216708004475e-02" rms="7.7279232442378998e-02" purity="9.2754232883453369e-01" nType="0">
          <Node pos="l" depth="2" NCoef="0" IVar="-1" Cut="0.0000000000000000e+00" cType="1" res="4.3953273445367813e-02" rms="1.0989047586917877e-01" purity="9.5860683917999268e-01" nType="-99"/>
          <Node pos="r" depth="2" NCoef="0" IVar="-1" Cut="0.0000000000000000e+00" cType="1" res="2.3644074797630310e-02" rms="7.2427362203598022e-02" purity="9.2414873838424683e-01" nType="-99"/>
        </Node>
        <Node pos="r" depth="1" NCoef="0" IVar="22" Cut="-3.6137099959887564e-04" cType="1" res="-9.4014424830675125e-03" rms="5.6543152779340744e-02" purity="1.5611459314823151e-01" nType="0">
          <Node pos="l" depth="2" NCoef="0" IVar="-1" Cut="0.0000000000000000e+00" cType="1" res="3.3178839832544327e-02" rms="6.9838747382164001e-02" purity="9.5332449674606323e-01" nType="-99"/>
          <Node pos="r" depth="2" NCoef="0" IVar="-1" Cut="0.0000000000000000e+00" cType="1" res="-5.0795216113328934e-02" rms="5.3660396486520767e-02" purity="5.0137098878622055e-02" nType="-99"/>
        </Node>
      </Node>
    </BinaryTree>
    <BinaryTree type="DecisionTree" boostWeight="1.0000000000000000e+00" itree="44">
      <Node pos="s" depth="0" NCoef="0" IVar="1" Cut="-1.6562955379486084e+00" cType="1" res="-1.1918134987354279e-04" rms="6.8123243749141693e-02" purity="4.9989217519760132e-01" nType="0">
        <Node pos="l" depth="1" NCoef="0" IVar="8" Cut="-2.2715811729431152e+00" cType="1" res="1.0343330912292004e-02" rms="7.2702452540397644e-02" purity="9.4394385814666748e-01" nType="0">
          <Node pos="l" depth="2" NCoef="0" IVar="-1" Cut="0.0000000000000000e+00" cType="1" res="4.4545426964759827e-02" rms="1.0916149616241455e-01" purity="9.6670693159103394e-01" nType="-99"/>
          <Node pos="r" depth="2" NCoef="0" IVar="-1" Cut="0.0000000000000000e+00" cType="1" res="2.5728972628712654e-02" rms="6.9161787629127502e-02" purity="9.4234186410903931e-01" nType="-99"/>
        </Node>
        <Node pos="r" depth="1" NCoef="0" IVar="28" Cut="-1.1293501853942871e+00" cType="1" res="-9.2028053477406502e-03" rms="6.2476769089698792e-02" purity="1.1436348408460617e-01" nType="0">
          <Node pos="l" depth="2" NCoef="0" IVar="-1" Cut="0.0000000000000000e+00" cType="1" res="1.4309839345514774e-02" rms="1.1807797104120255e-01" purity="8.1265336275100708e-01" nType="-99"/>
          <Node pos="r" depth="2" NCoef="0" IVar="-1" Cut="0.0000000000000000e+00" cType="1" res="-4.4120557606220245e-02" rms="5.4112695157527924e-02" purity="4.9470886588096619e-02" nType="-99"/>
        </Node>
      </Node>
    </BinaryTree>
    <BinaryTree type="DecisionTree" boostWeight="1.0000000000000000e+00" itree="45">
      <Node pos="s" depth="0" NCoef="0" IVar="24" Cut="-2.6643953751772642e-03" cType="1" res="7.8329037933144718e-05" rms="6.6126324236392975e-02" purity="4.9898806214332581e-01" nType="0">
        <Node pos="l" depth="1" NCoef="0" IVar="21" Cut="6.1723316321149468e-04" cType="1" res="1.1911343783140182e-02" rms="5.5517457425594330e-02" purity="9.8036789894104004e-01" nType="0">
          <Node pos="l" depth="2" NCoef="0" IVar="-1" Cut="0.0000000000000000e+00" cType="1" res="4.7592908143997192e-02" rms="4.2834032326936722e-02" purity="9.9302464723587036e-01" nType="-99"/>
          <Node pos="r" depth="2" NCoef="0" IVar="-1" Cut="0.0000000000000000e+00" cType="1" res="3.4141391515731812e-02" rms="5.6882537901401520e-02" purity="9.7870028018951416e-01" nType="-99"/>
        </Node>
        <Node pos="r" depth="1" NCoef="0" IVar="5" Cut="-2.2456240653991699e+00" cType="1" res="-6.8958597257733345e-03" rms="7.0725724101066589e-02" purity="2.1527050435543060e-01" nType="0">
          <Node pos="l" depth="2" NCoef="0" IVar="-1" Cut="0.0000000000000000e+00" cType="1" res="2.7616115286946297e-02" rms="1.0395262390375137e-01" purity="9.3562328815460205e-01" nType="-99"/>
          <Node pos="r" depth="2" NCoef="0" IVar="-1" Cut="0.0000000000000000e+00" cType="1" res="-4.1702799499034882e-02" rms="6.3131988048553467e-02" purity="1.0221926867961884e-01" nType="-99"/>
        </Node>
      </Node>
    </BinaryTree>
    <BinaryTree type="DecisionTree" boostWeight="1.0000000000000000e+00" itree="46">
      <Node pos="s" depth="0" NCoef="0" IVar="26" Cut="-4.7697974368929863e-03" cType="1" res="-1.6604995471425354e-04" rms="6.5995439887046814e-02" purity="5.0015425682067871e-01" nType="0">
        <Node pos="l" depth="1" NCoef="0" IVar="4" Cut="-1.0878882408142090e+00" cType="1" res="1.0514031164348125e-02" rms="5.4346799850463867e-02" purity="9.8761498928070068e-01" nType="0">
          <Node pos="l" depth="2" NCoef="0" IVar="-1" Cut="0.0000000000000000e+00" cType="1" res="4.1733965277671814e-02" rms="4.5412354171276093e-02" purity="9.9616128206253052e-01" nType="-99"/>
          <Node pos="r" depth="2" NCoef="0" IVar="-1" Cut="0.0000000000000000e+00" cType="1" res="-5.2387248724699020e-03" rms="1.2255091220140457e-01" purity="8.6986190080642700e-01" nType="-99"/>
        </Node>
        <Node pos="r" depth="1" NCoef="0" IVar="7" Cut="-2.3412218093872070e+00" cType="1" res="-7.3770880699157715e-03" rms="7.1922712028026581e-02" purity="1.7102769017219543e-01" nType="0">
          <Node pos="l" depth="2" NCoef="0" IVar="-1" Cut="0.0000000000000000e+00" cType="1" res="3.0912749469280243e-02" rms="1.3309404253959656e-01" purity="8.5819172859191895e-01" nType="-99"/>
          <Node pos="r" depth="2" NCoef="0" IVar="-1" Cut="0.0000000000000000e+00" cType="1" res="-3.5685572773218155e-02" rms="6.6116631031036377e-02" purity="1.3137272000312805e-01" nType="-99"/>
        </Node>
      </Node>
    </BinaryTree>
    <BinaryTree type="DecisionTree" boostWeight="1.0000000000000000e+00" itree="47">
      <Node pos="s" depth="0" NCoef="0" IVar="27" Cut="-4.6454579569399357e-03" cType="1" res="-5.0803890189854428e-05" rms="6.5736569464206696e-02" purity="4.9983617663383484e-01" nType="0">
        <Node pos="l" depth="1" NCoef="0" IVar="28" Cut="-8.0976029857993126e-04" cType="1" res="8.2984371110796928e-03" rms="6.3612967729568481e-02" purity="9.7826111316680908e-01" nType="0">
          <Node pos="l" depth="2" NCoef="0" IVar="-1" Cut="0.0000000000000000e+00" cType="1" res="3.9616629481315613e-02" rms="4.9640163779258728e-02" purity="9.9570846557617188e-01" nType="-99"/>
          <Node pos="r" depth="2" NCoef="0" IVar="-1" Cut="0.0000000000000000e+00" cType="1" res="-2.2687429562211037e-02" rms="1.4105768501758575e-01" purity="7.9571199417114258e-01" nType="-99"/>
        </Node>
        <Node pos="r" depth="1" NCoef="0" IVar="8" Cut="-2.0455737113952637e+00" cType="1" res="-7.8051965683698654e-03" rms="6.6719859838485718e-02" purity="5.5497016757726669e-02" nType="0">
          <Node pos="l" depth="2" NCoef="0" IVar="-1" Cut="0.0000000000000000e+00" cType="1" res="2.1543964743614197e-02" rms="1.5891124308109283e-01" purity="5.7012087106704712e-01" nType="-99"/>
          <Node pos="r" depth="2" NCoef="0" IVar="-1" Cut="0.0000000000000000e+00" cType="1" res="-4.3096866458654404e-02" rms="5.7260144501924515e-02" purity="2.7974158525466919e-02" nType="-99"/>
        </Node>
      </Node>
    </BinaryTree>
    <BinaryTree type="DecisionTree" boostWeight="1.0000000000000000e+00" itree="48">
      <Node pos="s" depth="0" NCoef="0" IVar="1" Cut="-1.9443196058273315e+00" cType="1" res="-1.4191215450409800e-04" rms="6.5283201634883881e-02" purity="5.0046741962432861e-01" nType="0">
        <Node pos="l" depth="1" NCoef="0" IVar="8" Cut="-2.0174498558044434e+00" cType="1" res="9.2938374727964401e-03" rms="6.5124981105327606e-02" purity="9.6380603313446045e-01" nType="0">
          <Node pos="l" depth="2" NCoef="0" IVar="-1" Cut="0.0000000000000000e+00" cType="1" res="4.1102871298789978e-02" rms="8.2996971905231476e-02" purity="9.7824996709823608e-01" nType="-99"/>
          <Node pos="r" depth="2" NCoef="0" IVar="-1" Cut="0.0000000000000000e+00" cType="1" res="2.8218688443303108e-02" rms="6.1870340257883072e-02" purity="9.6164923906326294e-01" nType="-99"/>
        </Node>
        <Node pos="r" depth="1" NCoef="0" IVar="28" Cut="-9.7661495208740234e-01" cType="1" res="-6.3424641266465187e-03" rms="6.4641334116458893e-02" purity="1.9599184393882751e-01" nType="0">
          <Node pos="l" depth="2" NCoef="0" IVar="-1" Cut="0.0000000000000000e+00" cType="1" res="1.3426911085844040e-02" rms="1.0016614943742752e-01" purity="8.5047399997711182e-01" nType="-99"/>
          <Node pos="r" depth="2" NCoef="0" IVar="-1" Cut="0.0000000000000000e+00" cType="1" res="-4.2059671133756638e-02" rms="5.5480591952800751e-02" purity="7.7430978417396545e-02" nType="-99"/>
        </Node>
      </Node>
    </BinaryTree>
    <BinaryTree type="DecisionTree" boostWeight="1.0000000000000000e+00" itree="49">
      <Node pos="s" depth="0" NCoef="0" IVar="0" Cut="-1.3044810295104980e+00" cType="1" res="3.9830727473599836e-05" rms="6.3916273415088654e-02" purity="5.0044864416122437e-01" nType="0">
        <Node pos="l" depth="1" NCoef="0" IVar="27" Cut="1.9205024727853015e-05" cType="1" res="7.7973245643079281e-03" rms="6.6090904176235199e-02" purity="8.9461934566497803e-01" nType="0">
          <Node pos="l" depth="2" NCoef="0" IVar="-1" Cut="0.0000000000000000e+00" cType="1" res="3.1992305070161819e-02" rms="6.3373319804668427e-02" purity="9.7488206624984741e-01" nType="-99"/>
          <Node pos="r" depth="2" NCoef="0" IVar="-1" Cut="0.0000000000000000e+00" cType="1" res="-2.9704893007874489e-02" rms="8.8145703077316284e-02" purity="2.0946275442838669e-02" nType="-99"/>
        </Node>
        <Node pos="r" depth="1" NCoef="0" IVar="23" Cut="-1.4801193028688431e-03" cType="1" res="-6.7582018673419952e-03" rms="6.1144016683101654e-02" purity="1.5502975881099701e-01" nType="0">
          <Node pos="l" depth="2" NCoef="0" IVar="-1" Cut="0.0000000000000000e+00" cType="1" res="1.7677435651421547e-02" rms="9.3277417123317719e-02" purity="9.1017127037048340e-01" nType="-99"/>
          <Node pos="r" depth="2" NCoef="0" IVar="-1" Cut="0.0000000000000000e+00" cType="1" res="-4.1939094662666321e-02" rms="5.6172259151935577e-02" purity="7.0471227169036865e-02" nType="-99"/>
        </Node>
      </Node>
    </BinaryTree>
    <BinaryTree type="DecisionTree" boostWeight="1.0000000000000000e+00" itree="50">
      <Node pos="s" depth="0" NCoef="0" IVar="3" Cut="-1.5243331193923950e+00" cType="1" res="7.0134818088263273e-05" rms="6.3530303537845612e-02" purity="4.9979528784751892e-01" nType="0">
        <Node pos="l" depth="1" NCoef="0" IVar="8" Cut="-2.2853858470916748e+00" cType="1" res="7.1451724506914616e-03" rms="7.4928864836692810e-02" purity="9.3019717931747437e-01" nType="0">
          <Node pos="l" depth="2" NCoef="0" IVar="-1" Cut="0.0000000000000000e+00" cType="1" res="3.6883383989334106e-02" rms="1.1337134987115860e-01" purity="9.6269410848617554e-01" nType="-99"/>
          <Node pos="r" depth="2" NCoef="0" IVar="-1" Cut="0.0000000000000000e+00" cType="1" res="1.9761458039283752e-02" rms="7.1217328310012817e-02" purity="9.2786473035812378e-01" nType="-99"/>
        </Node>
        <Node pos="r" depth="1" NCoef="0" IVar="23" Cut="-4.1376687586307526e-03" cType="1" res="-6.3648000359535217e-03" rms="5.0136968493461609e-02" purity="1.0833332687616348e-01" nType="0">
          <Node pos="l" depth="2" NCoef="0" IVar="-1" Cut="0.0000000000000000e+00" cType="1" res="3.6673720926046371e-02" rms="6.4451918005943298e-02" purity="9.8074656724929810e-01" nType="-99"/>
          <Node pos="r" depth="2" NCoef="0" IVar="-1" Cut="0.0000000000000000e+00" cType="1" res="-4.3457325547933578e-02" rms="4.8748452216386795e-02" purity="5.2721068263053894e-02" nType="-99"/>
        </Node>
      </Node>
    </BinaryTree>
    <BinaryTree type="DecisionTree" boostWeight="1.0000000000000000e+00" itree="51">
      <Node pos="s" depth="0" NCoef="0" IVar="25" Cut="-3.0626209918409586e-03" cType="1" res="-1.2020618305541575e-04" rms="6.3894324004650116e-02" purity="4.9967196583747864e-01" nType="0">
        <Node pos="l" depth="1" NCoef="0" IVar="5" Cut="-7.1070784330368042e-01" cType="1" res="6.9001028314232826e-03" rms="6.5389707684516907e-02" purity="9.7313648462295532e-01" nType="0">
          <Node pos="l" depth="2" NCoef="0" IVar="-1" Cut="0.0000000000000000e+00" cType="1" res="3.3211946487426758e-02" rms="5.8456916362047195e-02" purity="9.8987543582916260e-01" nType="-99"/>
          <Node pos="r" depth="2" NCoef="0" IVar="-1" Cut="0.0000000000000000e+00" cType="1" res="-2.0948894321918488e-02" rms="1.2809680402278900e-01" purity="7.2838258743286133e-01" nType="-99"/>
        </Node>
        <Node pos="r" depth="1" NCoef="0" IVar="7" Cut="-2.3130381107330322e+00" cType="1" res="-5.9366198256611824e-03" rms="6.2029395252466202e-02" purity="1.0740067809820175e-01" nType="0">
          <Node pos="l" depth="2" NCoef="0" IVar="-1" Cut="0.0000000000000000e+00" cType="1" res="2.9093269258737564e-02" rms="1.2506054341793060e-01" purity="8.3988553285598755e-01" nType="-99"/>
          <Node pos="r" depth="2" NCoef="0" IVar="-1" Cut="0.0000000000000000e+00" cType="1" res="-4.0766939520835876e-02" rms="5.5745188146829605e-02" purity="6.4999379217624664e-02" nType="-99"/>
        </Node>
      </Node>
    </BinaryTree>
    <BinaryTree type="DecisionTree" boostWeight="1.0000000000000000e+00" itree="52">
      <Node pos="s" depth="0" NCoef="0" IVar="28" Cut="-6.7312020063400269e-01" cType="1" res="1.0919315536739305e-04" rms="6.2679149210453033e-02" purity="4.9969998002052307e-01" nType="0">
        <Node pos="l" depth="1" NCoef="0" IVar="29" Cut="-1.1932818889617920e+00" cType="1" res="7.4050431139767170e-03" rms="7.1228429675102234e-02" purity="9.2359364032745361e-01" nType="0">
          <Node pos="l" depth="2" NCoef="0" IVar="-1" Cut="0.0000000000000000e+00" cType="1" res="3.4359231591224670e-02" rms="6.1752699315547943e-02" purity="9.9172812700271606e-01" nType="-99"/>
          <Node pos="r" depth="2" NCoef="0" IVar="-1" Cut="0.0000000000000000e+00" cType="1" res="-1.2513295747339725e-02" rms="1.2519340217113495e-01" purity="3.3439412713050842e-01" nType="-99"/>
        </Node>
        <Node pos="r" depth="1" NCoef="0" IVar="24" Cut="-4.7341962344944477e-03" cType="1" res="-5.0821457989513874e-03" rms="5.5220127105712891e-02" purity="1.9807974994182587e-01" nType="0">
          <Node pos="l" depth="2" NCoef="0" IVar="-1" Cut="0.0000000000000000e+00" cType="1" res="3.2968692481517792e-02" rms="5.9382975101470947e-02" purity="9.8563009500503540e-01" nType="-99"/>
          <Node pos="r" depth="2" NCoef="0" IVar="-1" Cut="0.0000000000000000e+00" cType="1" res="-4.4511582702398300e-02" rms="5.4188303649425507e-02" purity="7.5205802917480469e-02" nType="-99"/>
        </Node>
      </Node>
    </BinaryTree>
    <BinaryTree type="DecisionTree" boostWeight="1.0000000000000000e+00" itree="53">
      <Node pos="s" depth="0" NCoef="0" IVar="4" Cut="-1.7901111841201782e+00" cType="1" res="-5.9257745306240395e-06" rms="6.2616400420665741e-02" purity="5.0019270181655884e-01" nType="0">
        <Node pos="l" depth="1" NCoef="0" IVar="14" Cut="4.9030669033527374e-03" cType="1" res="7.4022607877850533e-03" rms="7.3958024382591248e-02" purity="9.4874304533004761e-01" nType="0">
          <Node pos="l" depth="2" NCoef="0" IVar="-1" Cut="0.0000000000000000e+00" cType="1" res="-1.4170023612678051e-02" rms="1.2980006635189056e-01" purity="7.9628425836563110e-01" nType="-99"/>
          <Node pos="r" depth="2" NCoef="0" IVar="-1" Cut="0.0000000000000000e+00" cType="1" res="2.9540631920099258e-02" rms="6.7539252340793610e-02" purity="9.6065199375152588e-01" nType="-99"/>
        </Node>
        <Node pos="r" depth="1" NCoef="0" IVar="23" Cut="-1.6231919871643186e-03" cType="1" res="-4.2605418711900711e-03" rms="5.4603993892669678e-02" purity="2.4258454144001007e-01" nType="0">
          <Node pos="l" depth="2" NCoef="0" IVar="-1" Cut="0.0000000000000000e+00" cType="1" res="2.6181012392044067e-02" rms="6.6082216799259186e-02" purity="9.6161860227584839e-01" nType="-99"/>
          <Node pos="r" depth="2" NCoef="0" IVar="-1" Cut="0.0000000000000000e+00" cType="1" res="-4.7987177968025208e-02" rms="5.0793651491403580e-02" purity="5.6790452450513840e-02" nType="-99"/>
        </Node>
      </Node>
    </BinaryTree>
    <BinaryTree type="DecisionTree" boostWeight="1.0000000000000000e+00" itree="54">
      <Node pos="s" depth="0" NCoef="0" IVar="0" Cut="-1.5732803344726562e+00" cType="1" res="-1.1926953220608993e-06" rms="6.1729170382022858e-02" purity="4.9983119964599609e-01" nType="0">
        <Node pos="l" depth="1" NCoef="0" IVar="8" Cut="-2.2367193698883057e+00" cType="1" res="6.5385005436837673e-03" rms="6.2613688409328461e-02" purity="9.2595744132995605e-01" nType="0">
          <Node pos="l" depth="2" NCoef="0" IVar="-1" Cut="0.0000000000000000e+00" cType="1" res="3.7893947213888168e-02" rms="9.9567882716655731e-02" purity="9.5830297470092773e-01" nType="-99"/>
          <Node pos="r" depth="2" NCoef="0" IVar="-1" Cut="0.0000000000000000e+00" cType="1" res="2.3404618725180626e-02" rms="5.8221649378538132e-02" purity="9.2319107055664062e-01" nType="-99"/>
        </Node>
        <Node pos="r" depth="1" NCoef="0" IVar="1" Cut="-2.3244416713714600e+00" cType="1" res="-4.3665017001330853e-03" rms="6.0741018503904343e-02" purity="2.1538773179054260e-01" nType="0">
          <Node pos="l" depth="2" NCoef="0" IVar="-1" Cut="0.0000000000000000e+00" cType="1" res="2.5135975331068039e-02" rms="7.3109425604343414e-02" purity="9.4682401418685913e-01" nType="-99"/>
          <Node pos="r" depth="2" NCoef="0" IVar="-1" Cut="0.0000000000000000e+00" cType="1" res="-3.3756963908672333e-02" rms="5.8628208935260773e-02" purity="1.1385338008403778e-01" nType="-99"/>
        </Node>
      </Node>
    </BinaryTree>
    <BinaryTree type="DecisionTree" boostWeight="1.0000000000000000e+00" itree="55">
      <Node pos="s" depth="0" NCoef="0" IVar="26" Cut="-4.7716051340103149e-03" cType="1" res="9.1734116722363979e-05" rms="6.0999307781457901e-02" purity="4.9953529238700867e-01" nType="0">
        <Node pos="l" depth="1" NCoef="0" IVar="28" Cut="-1.6923269256949425e-02" cType="1" res="6.3615860417485237e-03" rms="5.2341412752866745e-02" purity="9.8731476068496704e-01" nType="0">
          <Node pos="l" depth="2" NCoef="0" IVar="-1" Cut="0.0000000000000000e+00" cType="1" res="4.0448974817991257e-02" rms="4.0296938270330429e-02" purity="9.9733161926269531e-01" nType="-99"/>
          <Node pos="r" depth="2" NCoef="0" IVar="-1" Cut="0.0000000000000000e+00" cType="1" res="-5.6220465339720249e-03" rms="1.1573670059442520e-01" purity="8.9080071449279785e-01" nType="-99"/>
        </Node>
        <Node pos="r" depth="1" NCoef="0" IVar="7" Cut="-2.1668059825897217e+00" cType="1" res="-4.1276412084698677e-03" rms="6.5856128931045532e-02" purity="1.7127797007560730e-01" nType="0">
          <Node pos="l" depth="2" NCoef="0" IVar="-1" Cut="0.0000000000000000e+00" cType="1" res="2.2444652393460274e-02" rms="1.1634538322687149e-01" purity="8.4365761280059814e-01" nType="-99"/>
          <Node pos="r" depth="2" NCoef="0" IVar="-1" Cut="0.0000000000000000e+00" cType="1" res="-3.3453252166509628e-02" rms="5.9438031166791916e-02" purity="1.1491951346397400e-01" nType="-99"/>
        </Node>
      </Node>
    </BinaryTree>
    <BinaryTree type="DecisionTree" boostWeight="1.0000000000000000e+00" itree="56">
      <Node pos="s" depth="0" NCoef="0" IVar="28" Cut="-5.8802449703216553e-01" cType="1" res="1.0895158629864454e-04" rms="6.0171250253915787e-02" purity="4.9994260072708130e-01" nType="0">
        <Node pos="l" depth="1" NCoef="0" IVar="29" Cut="-8.0403500795364380e-01" cType="1" res="5.6684152223169804e-03" rms="6.8559788167476654e-02" purity="9.1525053977966309e-01" nType="0">
          <Node pos="l" depth="2" NCoef="0" IVar="-1" Cut="0.0000000000000000e+00" cType="1" res="2.9431449249386787e-02" rms="6.4831554889678955e-02" purity="9.8605376482009888e-01" nType="-99"/>
          <Node pos="r" depth="2" NCoef="0" IVar="-1" Cut="0.0000000000000000e+00" cType="1" res="-3.0770346522331238e-02" rms="1.0089056193828583e-01" purity="6.6377237439155579e-02" nType="-99"/>
        </Node>
        <Node pos="r" depth="1" NCoef="0" IVar="26" Cut="-6.4646843820810318e-03" cType="1" res="-4.1953790932893753e-03" rms="5.2364613860845566e-02" purity="1.7839664220809937e-01" nType="0">
          <Node pos="l" depth="2" NCoef="0" IVar="-1" Cut="0.0000000000000000e+00" cType="1" res="3.7942305207252502e-02" rms="4.7506313771009445e-02" purity="9.9376034736633301e-01" nType="-99"/>
          <Node pos="r" depth="2" NCoef="0" IVar="-1" Cut="0.0000000000000000e+00" cType="1" res="-4.0257148444652557e-02" rms="5.2619554102420807e-02" purity="9.6119701862335205e-02" nType="-99"/>
        </Node>
      </Node>
    </BinaryTree>
    <BinaryTree type="DecisionTree" boostWeight="1.0000000000000000e+00" itree="57">
      <Node pos="s" depth="0" NCoef="0" IVar="4" Cut="-1.5331743955612183e+00" cType="1" res="3.8809368561487645e-05" rms="6.1001665890216827e-02" purity="5.0160008668899536e-01" nType="0">
        <Node pos="l" depth="1" NCoef="0" IVar="14" Cut="9.9369268864393234e-03" cType="1" res="5.1878737285733223e-03" rms="7.2838746011257172e-02" purity="9.2852443456649780e-01" nType="0">
          <Node pos="l" depth="2" NCoef="0" IVar="-1" Cut="0.0000000000000000e+00" cType="1" res="-1.3087232597172260e-02" rms="1.1208464205265045e-01" purity="8.0508834123611450e-01" nType="-99"/>
          <Node pos="r" depth="2" NCoef="0" IVar="-1" Cut="0.0000000000000000e+00" cType="1" res="3.0421327799558640e-02" rms="6.0542337596416473e-02" purity="9.5592087507247925e-01" nType="-99"/>
        </Node>
        <Node pos="r" depth="1" NCoef="0" IVar="21" Cut="2.4489744100719690e-03" cType="1" res="-4.1251908987760544e-03" rms="4.9002368003129959e-02" purity="1.5635028481483459e-01" nType="0">
          <Node pos="l" depth="2" NCoef="0" IVar="-1" Cut="0.0000000000000000e+00" cType="1" res="3.9131686091423035e-02" rms="5.0818908959627151e-02" purity="9.3906080722808838e-01" nType="-99"/>
          <Node pos="r" depth="2" NCoef="0" IVar="-1" Cut="0.0000000000000000e+00" cType="1" res="-4.4278707355260849e-02" rms="4.8607926815748215e-02" purity="8.6812496185302734e-02" nType="-99"/>
        </Node>
      </Node>
    </BinaryTree>
    <BinaryTree type="DecisionTree" boostWeight="1.0000000000000000e+00" itree="58">
      <Node pos="s" depth="0" NCoef="0" IVar="27" Cut="-4.6453904360532761e-03" cType="1" res="5.7318029575981200e-06" rms="5.9952687472105026e-02" purity="5.0004041194915771e-01" nType="0">
        <Node pos="l" depth="1" NCoef="0" IVar="28" Cut="1.0642421990633011e-01" cType="1" res="4.5223613269627094e-03" rms="5.7993005961179733e-02" purity="9.7817414999008179e-01" nType="0">
          <Node pos="l" depth="2" NCoef="0" IVar="-1" Cut="0.0000000000000000e+00" cType="1" res="3.3747605979442596e-02" rms="4.8223022371530533e-02" purity="9.9534225463867188e-01" nType="-99"/>
          <Node pos="r" depth="2" NCoef="0" IVar="-1" Cut="0.0000000000000000e+00" cType="1" res="-2.1966977044939995e-02" rms="1.2779860198497772e-01" purity="7.5768589973449707e-01" nType="-99"/>
        </Node>
        <Node pos="r" depth="1" NCoef="0" IVar="30" Cut="-1.6109180450439453e+00" cType="1" res="-4.1927839629352093e-03" rms="6.1421416699886322e-02" purity="5.5582392960786819e-02" nType="0">
          <Node pos="l" depth="2" NCoef="0" IVar="-1" Cut="0.0000000000000000e+00" cType="1" res="-1.5521476976573467e-02" rms="2.0291994512081146e-01" purity="6.5599006414413452e-01" nType="-99"/>
          <Node pos="r" depth="2" NCoef="0" IVar="-1" Cut="0.0000000000000000e+00" cType="1" res="-3.4426640719175339e-02" rms="2.7047477662563324e-02" purity="7.0979930460453033e-03" nType="-99"/>
        </Node>
      </Node>
    </BinaryTree>
    <BinaryTree type="DecisionTree" boostWeight="1.0000000000000000e+00" itree="59">
      <Node pos="s" depth="0" NCoef="0" IVar="3" Cut="-1.8288036584854126e+00" cType="1" res="-5.2640385547420010e-05" rms="6.0863975435495377e-02" purity="4.9920555949211121e-01" nType="0">
